{"learner":{"attributes":{"best_iteration":"248","best_score":"16.01069894887027"},"feature_names":["CAI_score_30_CDS","CAI_score_50_CDS","CAI_score_60_CDS","CAI_score_70_CDS","CAI_score_global_CDS","CET_DIFF_37_HYBR","DNA_HYBR_DIFF","ENC_score_20_CDS","ENC_score_30_CDS","ENC_score_50_CDS","ENC_score_70_CDS","ENC_score_global_CDS","OHE_pos0_G","OHE_pos13_A","OHE_pos13_C","OHE_pos3_C","OHE_pos4_A","OHE_pos4_T","OHE_pos5_T","OHE_pos9_G","RBP_ACO1_aff_50","RBP_AGO1_aff_50","RBP_AKAP1_aff_50","RBP_CELF1_aff_50","RBP_CELF2_aff_50","RBP_CELF4_aff_50","RBP_CELF5_aff_50","RBP_CMTR1_aff_50","RBP_CNOT4_aff_50","RBP_CPEB1_aff_50","RBP_CPEB2_aff_50","RBP_CPEB4_aff_50","RBP_DHX58_aff_50","RBP_DHX9_aff_50","RBP_ELAVL2_aff_50","RBP_ELAVL3_aff_50","RBP_ENOX1_aff_50","RBP_ERI1_aff_50","RBP_ESRP2_aff_50","RBP_FXR1_aff_50","RBP_HNRNPA1L2_aff_50","RBP_HNRNPCL1_aff_50","RBP_HNRNPDL_aff_50","RBP_HNRNPH1_aff_50","RBP_IGF2BP1_aff_50","RBP_IGF2BP2_aff_50","RBP_IGF2BP3_aff_50","RBP_KHDRBS1_aff_50","RBP_KHDRBS2_aff_50","RBP_KHDRBS3_aff_50","RBP_KHSRP_aff_50","RBP_LIN28A_aff_50","RBP_MATR3_aff_50","RBP_MBNL1_aff_50","RBP_MSI1_aff_50","RBP_NOVA1_aff_50","RBP_NUDT21_aff_50","RBP_NXF1_aff_50","RBP_OAS1_aff_50","RBP_PABPC3_aff_50","RBP_PABPC4_aff_50","RBP_PCBP2_aff_50","RBP_PHAX_aff_50","RBP_PIWIL1_aff_50","RBP_PPRC1_aff_50","RBP_PTBP1_aff_50","RBP_PUM2_aff_50","RBP_RALY_aff_50","RBP_RBFOX1_aff_50","RBP_RBM24_aff_50","RBP_RBM28_aff_50","RBP_RBM3_aff_50","RBP_RBM41_aff_50","RBP_RBM46_aff_50","RBP_RBM4_aff_50","RBP_RBM6_aff_50","RBP_RBM8A_aff_50","RBP_RBMS1_aff_50","RBP_RBMS3_aff_50","RBP_RBMX_aff_50","RBP_RC3H1_aff_50","RBP_SAMD4A_aff_50","RBP_SART3_aff_50","RBP_SFPQ_aff_50","RBP_SNRNP70_aff_50","RBP_SNRPA_aff_50","RBP_SRP14_aff_50","RBP_SRP19_aff_50","RBP_SRP54_aff_50","RBP_SRP54_expr_aff_50","RBP_SRSF10_aff_50","RBP_SRSF11_aff_50","RBP_SRSF1_aff_50","RBP_SRSF3_aff_50","RBP_SRSF4_aff_50","RBP_SRSF5_aff_50","RBP_SRSF9_aff_50","RBP_TARDBP_aff_50","RBP_TIA1_aff_50","RBP_TIAL1_aff_50","RBP_TUT1_aff_50","RBP_U2AF2_aff_50","RBP_XPO5_aff_50","RBP_YBX2_aff_50","RBP_YTHDC1_aff_50","RBP_ZC3H10_aff_50","RBP_ZFP36_aff_50","RBP_ZNF346_aff_50","RBP_ZNF638_aff_50","RBP_ZRANB2_aff_50","RBP_diversity_global_50","RBP_diversity_global_right","RBP_interaction_delta_stab_vs_destab_50","RBP_interaction_delta_stab_vs_destab_right","RBP_interaction_destabilizer_50","RBP_interaction_destabilizer_right","RBP_interaction_ratio_stab_vs_destab_right","RBP_interaction_stabilizer_50","RBP_interaction_stabilizer_right","RBP_interaction_total_50_expression","RBP_interaction_total_right","RNaseH1_Krel_dinucleotide_score_R4a_krel_dinuc_dynamic","RNaseH1_Krel_dinucleotide_score_R4b_krel_dinuc_dynamic","RNaseH1_Krel_dinucleotide_score_R7_krel_dinuc_dynamic","RNaseH1_Krel_score_R4a_krel_dynamic","RNaseH1_Krel_score_R7_krel_dynamic","RNaseH1_score_R4a_dynamic","RNaseH1_score_R4b_dynamic","RNaseH1_score_R7_dynamic","RNaseH1_score_dinucleotide_R4a_dinuc_dynamic","SeqChem_wing_gap_gc_delta","Sequence_absolute_terminal_gc","Sequence_at_rich_region_score","Sequence_at_skew","Sequence_entropy","Sequence_flexible_dinucleotide_fraction","Sequence_gc_content_3prime_end","Sequence_hairpin_dG_energy","Sequence_hairpin_score","Sequence_hairpin_tm","Sequence_homooligo_count","Sequence_internal_fold","Sequence_nucleotide_diversity","Sequence_purine_content","Sequence_ry_transition_fraction","Sequence_self_energy","TOTAL_DNA_HYBR","TOTAL_DNA_RNA_HYBR","TOTAL_PSDNA_HYBR","access_120flank_13access_13-26-39seed_sizes","access_120flank_13access_4-6-8seed_sizes","access_120flank_20access_13seed_sizes","access_120flank_20access_4-6-8seed_sizes","cells_per_well","mfe_win35_flank120_step10","mfe_win35_flank120_step15","mfe_win35_flank120_step4","mfe_win35_flank120_step7","mfe_win45_flank120_step10","mfe_win45_flank120_step15","mfe_win45_flank120_step4","mfe_win55_flank120_step10","mfe_win55_flank120_step4","mfe_win55_flank120_step7","mfe_win65_flank120_step10","mfe_win65_flank120_step15","mfe_win65_flank120_step4","mfe_win65_flank120_step7","off_target_score_general_ARTM_n25_c1000","off_target_score_general_ARTM_n25_c800","off_target_score_general_ARTM_n50_c1200","off_target_score_general_MECH_n25_c1000","off_target_score_general_MECH_n50_c1000","off_target_score_specific_ARTM_n25_c800","off_target_single_ACTB_c0","off_target_single_RNASEH1_c0","on_target_total_hybridization_1200","sense_intron","sense_start_from_end","sense_start_x","sense_start_y","tAI_score_20_CDS","tAI_score_40_CDS"],"feature_types":[],"gradient_booster":{"model":{"cats":{"enc":[],"feature_segments":[],"sorted_idx":[]},"gbtree_model_param":{"num_parallel_tree":"1","num_trees":"279"},"iteration_indptr":[0,1,2,3,4,5,6,7,8,9,10,11,12,13,14,15,16,17,18,19,20,21,22,23,24,25,26,27,28,29,30,31,32,33,34,35,36,37,38,39,40,41,42,43,44,45,46,47,48,49,50,51,52,53,54,55,56,57,58,59,60,61,62,63,64,65,66,67,68,69,70,71,72,73,74,75,76,77,78,79,80,81,82,83,84,85,86,87,88,89,90,91,92,93,94,95,96,97,98,99,100,101,102,103,104,105,106,107,108,109,110,111,112,113,114,115,116,117,118,119,120,121,122,123,124,125,126,127,128,129,130,131,132,133,134,135,136,137,138,139,140,141,142,143,144,145,146,147,148,149,150,151,152,153,154,155,156,157,158,159,160,161,162,163,164,165,166,167,168,169,170,171,172,173,174,175,176,177,178,179,180,181,182,183,184,185,186,187,188,189,190,191,192,193,194,195,196,197,198,199,200,201,202,203,204,205,206,207,208,209,210,211,212,213,214,215,216,217,218,219,220,221,222,223,224,225,226,227,228,229,230,231,232,233,234,235,236,237,238,239,240,241,242,243,244,245,246,247,248,249,250,251,252,253,254,255,256,257,258,259,260,261,262,263,264,265,266,267,268,269,270,271,272,273,274,275,276,277,278,279],"tree_info":[0,0,0,0,0,0,0,0,0,0,0,0,0,0,0,0,0,0,0,0,0,0,0,0,0,0,0,0,0,0,0,0,0,0,0,0,0,0,0,0,0,0,0,0,0,0,0,0,0,0,0,0,0,0,0,0,0,0,0,0,0,0,0,0,0,0,0,0,0,0,0,0,0,0,0,0,0,0,0,0,0,0,0,0,0,0,0,0,0,0,0,0,0,0,0,0,0,0,0,0,0,0,0,0,0,0,0,0,0,0,0,0,0,0,0,0,0,0,0,0,0,0,0,0,0,0,0,0,0,0,0,0,0,0,0,0,0,0,0,0,0,0,0,0,0,0,0,0,0,0,0,0,0,0,0,0,0,0,0,0,0,0,0,0,0,0,0,0,0,0,0,0,0,0,0,0,0,0,0,0,0,0,0,0,0,0,0,0,0,0,0,0,0,0,0,0,0,0,0,0,0,0,0,0,0,0,0,0,0,0,0,0,0,0,0,0,0,0,0,0,0,0,0,0,0,0,0,0,0,0,0,0,0,0,0,0,0,0,0,0,0,0,0,0,0,0,0,0,0,0,0,0,0,0,0,0,0,0,0,0,0,0,0,0,0,0,0,0,0,0,0,0,0,0,0,0,0,0,0],"trees":[{"base_weights":[1.7910661E-1,4.4890656E0,-7.7068377E0,5.0226674E0,-1.788039E1,7.878124E-2,-1.3108928E1,2.6165829E0,9.308385E0,-5.0496016E0,-2.4971811E1,-1.9727959E1,2.6958191E0,-2.2468283E1,-1.0298438E1,5.016978E0,-1.4927318E0,1.0209536E1,-1.25593815E1,-5.283926E-1,1.5748326E-1,-1.3603314E0,-7.4251676E-1,-1.7839257E-1,-2.3379723E1,4.4912977E0,-1.9662287E1,-2.4086111E1,-1.0347516E1,-1.530817E1,-6.212149E0,1.8232425E0,8.215643E0,-2.4588062E1,-5.3180176E-1,1.2384957E1,1.8222286E0,-1.0149181E0,-4.3821836E0,-2.647169E1,-5.783926E-1,1.1631838E1,-5.7843834E-1,-1.4048758E0,-1.22142576E-1,-2.4860636E1,-6.471426E-1,-5.0850075E-2,-7.7090675E-1,-1.0125915E1,-2.144265E1,2.92906E0,-9.733811E0,2.4910071E-1,-1.6652457E-1,-3.4097573E-1,4.7671828E-1,-7.880172E-1,-1.4951601E0,-5.898336E-1,6.2549844E-2,-5.6001824E-1,6.529064E-1,-8.309351E-1,2.1580969E-1,2.4149926E-2,-4.2585006E-1,-1.4354079E0,-7.675168E-1,9.818825E-1,2.8008455E-1,5.382581E-1,-3.349099E-1,-8.0248016E-1,-1.3053116E0,-1.03700995E-1,-6.328228E-1,-1.2577997E0,-6.014283E-1,3.7760827E-1,-6.294032E-1,1.3325326E-1,-6.699149E-1],"categories":[],"categories_nodes":[],"categories_segments":[],"categories_sizes":[],"default_left":[0,0,0,0,0,0,0,0,0,0,0,0,1,0,0,0,0,0,0,0,0,0,0,0,0,0,0,0,0,0,0,0,0,0,0,0,0,0,0,0,0,0,0,0,0,0,0,0,0,0,0,0,0,0,0,0,0,0,0,0,0,0,0,0,0,0,0,0,0,0,0,0,0,0,0,0,0,0,0,0,0,0,0],"id":0,"left_children":[1,3,5,7,9,11,13,15,17,19,21,23,25,27,29,31,33,35,37,-1,-1,-1,-1,-1,39,41,43,45,47,49,51,53,55,57,59,61,63,-1,65,67,-1,69,71,-1,-1,73,-1,-1,-1,75,77,79,81,-1,-1,-1,-1,-1,-1,-1,-1,-1,-1,-1,-1,-1,-1,-1,-1,-1,-1,-1,-1,-1,-1,-1,-1,-1,-1,-1,-1,-1,-1],"loss_changes":[7.395871E4,1.6884307E4,3.234411E4,1.4154363E4,2.8765234E3,1.643304E4,1.1710805E4,8.707519E3,9.863078E3,6.21478E2,7.098535E1,2.1000605E3,1.132849E4,1.7901367E3,7.090301E3,5.675158E3,7.221842E3,8.64425E3,1.1767122E3,0E0,0E0,0E0,0E0,0E0,7.8943555E2,9.418897E3,2.9816108E3,4.636289E2,6.4668054E2,4.7739766E3,6.305999E3,4.574844E3,5.5769805E3,1.3868262E2,6.3208174E3,6.1318633E3,4.6248423E3,0E0,2.2539677E2,1.3138867E2,0E0,5.103828E3,1.0693383E4,0E0,0E0,5.0290625E2,0E0,0E0,0E0,1.7464316E3,2.1794082E3,4.0406187E3,6.442115E3,0E0,0E0,0E0,0E0,0E0,0E0,0E0,0E0,0E0,0E0,0E0,0E0,0E0,0E0,0E0,0E0,0E0,0E0,0E0,0E0,0E0,0E0,0E0,0E0,0E0,0E0,0E0,0E0,0E0,0E0],"parents":[2147483647,0,0,1,1,2,2,3,3,4,4,5,5,6,6,7,7,8,8,9,9,10,10,11,11,12,12,13,13,14,14,15,15,16,16,17,17,18,18,24,24,25,25,26,26,27,27,28,28,29,29,30,30,31,31,32,32,33,33,34,34,35,35,36,36,38,38,39,39,41,41,42,42,45,45,49,49,50,50,51,51,52,52],"right_children":[2,4,6,8,10,12,14,16,18,20,22,24,26,28,30,32,34,36,38,-1,-1,-1,-1,-1,40,42,44,46,48,50,52,54,56,58,60,62,64,-1,66,68,-1,70,72,-1,-1,74,-1,-1,-1,76,78,80,82,-1,-1,-1,-1,-1,-1,-1,-1,-1,-1,-1,-1,-1,-1,-1,-1,-1,-1,-1,-1,-1,-1,-1,-1,-1,-1,-1,-1,-1,-1],"split_conditions":[8.5257983E-1,-5.8807693E-2,2.176E3,1.0234919E0,1.4645543E1,-3.3599865E-1,-3.14625E-1,9.260673E0,-1.66E3,8.285782E0,9.994123E-1,5.097805E-1,5.055328E-1,6.25E-2,5.467087E0,6.666667E-2,-2.9E0,1.3981663E-2,-8.855655E-2,-5.283926E-1,1.5748326E-1,-1.3603314E0,-7.4251676E-1,-1.7839257E-1,-5.56E0,1.7288735E0,8.191626E-1,6.666667E-1,5.3671766E-3,2.9438176E0,2.802664E0,1E0,2.0027633E0,3.2933266E0,7.592846E-1,-7.879771E3,-2.2558035E-1,-1.0149181E0,4.9387717E0,1.9220302E5,-5.783926E-1,7.7304025E-3,4.1123414E0,-1.4048758E0,-1.22142576E-1,3.387518E0,-6.471426E-1,-5.0850075E-2,-7.7090675E-1,3.1048503E0,9.951491E0,1.8418894E3,7.3256984E0,2.4910071E-1,-1.6652457E-1,-3.4097573E-1,4.7671828E-1,-7.880172E-1,-1.4951601E0,-5.898336E-1,6.2549844E-2,-5.6001824E-1,6.529064E-1,-8.309351E-1,2.1580969E-1,2.4149926E-2,-4.2585006E-1,-1.4354079E0,-7.675168E-1,9.818825E-1,2.8008455E-1,5.382581E-1,-3.349099E-1,-8.0248016E-1,-1.3053116E0,-1.03700995E-1,-6.328228E-1,-1.2577997E0,-6.014283E-1,3.7760827E-1,-6.294032E-1,1.3325326E-1,-6.699149E-1],"split_indices":[4,165,178,124,93,166,165,86,147,20,125,116,181,132,75,130,141,127,156,0,0,0,0,0,5,64,9,144,126,41,107,16,62,62,84,145,156,0,149,119,0,126,110,0,0,63,0,0,0,71,150,118,45,0,0,0,0,0,0,0,0,0,0,0,0,0,0,0,0,0,0,0,0,0,0,0,0,0,0,0,0,0,0],"split_type":[0,0,0,0,0,0,0,0,0,0,0,0,0,0,0,0,0,0,0,0,0,0,0,0,0,0,0,0,0,0,0,0,0,0,0,0,0,0,0,0,0,0,0,0,0,0,0,0,0,0,0,0,0,0,0,0,0,0,0,0,0,0,0,0,0,0,0,0,0,0,0,0,0,0,0,0,0,0,0,0,0,0,0],"sum_hessian":[2.174E3,1.406E3,7.68E2,1.374E3,3.2E1,3.15E2,4.53E2,8.81E2,4.93E2,1.2E1,2E1,3.6E1,2.79E2,1.03E2,3.5E2,5.56E2,3.25E2,4.74E2,1.9E1,7E0,5E0,1.5E1,5E0,7E0,2.9E1,2.59E2,2E1,9E1,1.3E1,1.56E2,1.94E2,2.79E2,2.77E2,1.2E1,3.13E2,3.76E2,9.8E1,9E0,1E1,2.2E1,7E0,1.07E2,1.52E2,1.3E1,7E0,8.3E1,7E0,5E0,8E0,8.6E1,7E1,5.4E1,1.4E2,1.73E2,1.06E2,2.2E1,2.55E2,6E0,6E0,4.2E1,2.71E2,1E1,3.66E2,1.1E1,8.7E1,5E0,5E0,1.7E1,5E0,4.5E1,6.2E1,5.3E1,9.9E1,1.2E1,7.1E1,2.1E1,6.5E1,4.9E1,2.1E1,4.2E1,1.2E1,3.2E1,1.08E2],"tree_param":{"num_deleted":"0","num_feature":"183","num_nodes":"83","size_leaf_vector":"1"}},{"base_weights":[-4.68414E-2,-7.3402386E0,3.7992787E0,1.4370905E0,-1.3221724E1,7.475575E0,7.947298E-1,4.6617055E0,-1.4081885E1,-1.0434583E1,-1.9289474E1,-8.583742E0,8.328138E0,1.3636773E0,-1.9454296E1,1.6071954E0,1.49419775E1,-1.8880537E1,9.389146E-1,-1.676738E1,-6.3609023E0,-2.509228E1,-1.544432E1,-1.2768782E0,-1.868403E0,1.4104512E0,1.0458239E1,-1.732684E-1,9.149778E0,-1.4821444E-1,-2.4422155E1,7.8497796E0,-4.718018E0,-2.8697515E-1,1.7538546E1,-4.471261E-3,-2.1769184E1,-2.081941E1,-2.3394446E0,3.1640058E0,-1.059411E1,-6.7762476E-1,-1.3138546E0,-3.5290098E0,-1.6985973E1,1.0643741E1,-1.1565915E1,7.1032643E0,-5.355042E0,-1.392504E1,1.1151732E1,-5.4830327E0,1.1412706E0,1.3081261E1,-3.4738576E0,-1.4198812E0,-7.627017E-1,1.2280764E-1,8.008761E-1,-9.3976414E-1,-1.02643505E-1,1.4396382E-2,9.7244406E-1,-1.3792213E0,-5.312917E-1,1.1984145E-1,-1.123351E0,-6.366281E-1,3.4119436E-1,-1.2548874E-1,6.6400903E-1,-6.2115544E-1,3.243403E-2,-6.0245836E-1,2.789658E-1,-1.6774909E-1,-9.1699135E-1,9.017788E-1,7.389736E-2,-9.28617E-1,-1.9947767E-1,-8.0651516E-1,4.4703695E-1,-5.4511106E-1,1.1822621E-1,-1.0716662E0,-7.965768E-2,1.1097349E0,4.9375686E-1,-3.592268E-1,4.1995493E-1,-1.8092443E-1,1.5263115E-1,-4.693674E-1,7.49849E-1,4.977346E-1,-4.4047266E-1],"categories":[],"categories_nodes":[],"categories_segments":[],"categories_sizes":[],"default_left":[0,0,0,0,0,0,0,0,0,0,0,0,0,0,0,0,0,0,0,0,0,0,0,0,0,0,0,0,0,0,0,0,0,0,0,0,0,0,0,0,0,0,0,0,0,0,0,0,0,0,0,1,0,0,0,0,0,0,0,0,0,0,0,0,0,0,0,0,0,0,0,0,0,0,0,0,0,0,0,0,0,0,0,0,0,0,0,0,0,0,0,0,0,0,0,0,0],"id":1,"left_children":[1,3,5,7,9,11,13,15,17,19,21,23,25,27,29,31,33,35,-1,37,39,41,43,-1,45,47,49,51,53,-1,55,57,59,-1,61,-1,63,65,67,69,71,-1,-1,73,75,77,79,81,83,85,87,89,91,93,95,-1,-1,-1,-1,-1,-1,-1,-1,-1,-1,-1,-1,-1,-1,-1,-1,-1,-1,-1,-1,-1,-1,-1,-1,-1,-1,-1,-1,-1,-1,-1,-1,-1,-1,-1,-1,-1,-1,-1,-1,-1,-1],"loss_changes":[5.9552703E4,3.785919E4,1.5347461E4,1.4828249E4,7.222953E3,8.628727E3,8.851334E3,7.6692773E3,8.396456E3,7.710074E3,2.6693047E3,3.5955066E3,8.738059E3,8.92883E3,1.6479268E3,7.539314E3,3.1079111E3,2.4406934E3,0E0,6.8498633E3,7.5332085E3,3.6852344E2,1.5014453E3,0E0,3.0351846E3,5.4686094E3,7.8322734E3,4.3617104E3,6.149883E3,0E0,1.4998242E2,4.1898193E3,3.5256255E3,0E0,1.642127E3,0E0,2.2341406E3,3.5729648E3,2.6582466E3,3.3623538E3,2.6606924E3,0E0,0E0,9.2087415E2,1.3225469E3,7.186168E2,6.690697E2,3.43143E3,2.8091968E3,1.1695403E3,6.011875E3,2.9892834E3,4.568932E3,4.186876E3,2.2371743E3,0E0,0E0,0E0,0E0,0E0,0E0,0E0,0E0,0E0,0E0,0E0,0E0,0E0,0E0,0E0,0E0,0E0,0E0,0E0,0E0,0E0,0E0,0E0,0E0,0E0,0E0,0E0,0E0,0E0,0E0,0E0,0E0,0E0,0E0,0E0,0E0,0E0,0E0,0E0,0E0,0E0,0E0],"parents":[2147483647,0,0,1,1,2,2,3,3,4,4,5,5,6,6,7,7,8,8,9,9,10,10,11,11,12,12,13,13,14,14,15,15,16,16,17,17,19,19,20,20,21,21,22,22,24,24,25,25,26,26,27,27,28,28,30,30,31,31,32,32,34,34,36,36,37,37,38,38,39,39,40,40,43,43,44,44,45,45,46,46,47,47,48,48,49,49,50,50,51,51,52,52,53,53,54,54],"right_children":[2,4,6,8,10,12,14,16,18,20,22,24,26,28,30,32,34,36,-1,38,40,42,44,-1,46,48,50,52,54,-1,56,58,60,-1,62,-1,64,66,68,70,72,-1,-1,74,76,78,80,82,84,86,88,90,92,94,96,-1,-1,-1,-1,-1,-1,-1,-1,-1,-1,-1,-1,-1,-1,-1,-1,-1,-1,-1,-1,-1,-1,-1,-1,-1,-1,-1,-1,-1,-1,-1,-1,-1,-1,-1,-1,-1,-1,-1,-1,-1,-1],"split_conditions":[7.198221E-1,2.176E3,2.5940633E-3,4.3899782E-2,3.984585E5,-2.7E0,-5.403528E-2,7.8513464E2,2.580895E1,1.9815405E5,-2.9447916E-1,9.293227E0,1.829456E3,1E0,3.2497315E0,1.764706E-1,9.301397E-2,8.195925E0,9.389146E-1,5.0670266E0,3.4325259E0,1.1422183E1,8.0218226E-1,-1.2768782E0,1.4296183E1,1.1250084E1,1.978E3,-1.15505455E2,7.5132155E0,-1.4821444E-1,7.460774E1,1E0,-1.5E0,-2.8697515E-1,-1.9E0,-4.471261E-3,-2.0167857E-1,7.87414E-1,-9.839285E-2,1.1626382E5,1.7991907E1,-6.7762476E-1,-1.3138546E0,-7.977011E-2,1.3876055E1,9.5595145E-1,-2.5434828E-1,1.492682E3,1.7906168E3,1.1252147E1,-3.6235065E-3,8.488866E-1,5.266819E0,4.0142255E0,1.0106567E0,-1.4198812E0,-7.627017E-1,1.2280764E-1,8.008761E-1,-9.3976414E-1,-1.02643505E-1,1.4396382E-2,9.7244406E-1,-1.3792213E0,-5.312917E-1,1.1984145E-1,-1.123351E0,-6.366281E-1,3.4119436E-1,-1.2548874E-1,6.6400903E-1,-6.2115544E-1,3.243403E-2,-6.0245836E-1,2.789658E-1,-1.6774909E-1,-9.1699135E-1,9.017788E-1,7.389736E-2,-9.28617E-1,-1.9947767E-1,-8.0651516E-1,4.4703695E-1,-5.4511106E-1,1.1822621E-1,-1.0716662E0,-7.965768E-2,1.1097349E0,4.9375686E-1,-3.592268E-1,4.1995493E-1,-1.8092443E-1,1.5263115E-1,-4.693674E-1,7.49849E-1,4.977346E-1,-4.4047266E-1],"split_indices":[11,178,129,44,175,141,166,118,37,176,158,151,6,17,80,140,51,152,0,104,105,151,7,0,50,26,179,137,149,0,24,17,141,0,141,0,157,122,155,120,45,0,0,170,95,121,167,6,117,71,128,1,37,110,42,0,0,0,0,0,0,0,0,0,0,0,0,0,0,0,0,0,0,0,0,0,0,0,0,0,0,0,0,0,0,0,0,0,0,0,0,0,0,0,0,0,0],"split_type":[0,0,0,0,0,0,0,0,0,0,0,0,0,0,0,0,0,0,0,0,0,0,0,0,0,0,0,0,0,0,0,0,0,0,0,0,0,0,0,0,0,0,0,0,0,0,0,0,0,0,0,0,0,0,0,0,0,0,0,0,0,0,0,0,0,0,0,0,0,0,0,0,0,0,0,0,0,0,0,0,0,0,0,0,0,0,0,0,0,0,0,0,0,0,0,0,0],"sum_hessian":[2.121E3,7.32E2,1.389E3,2.94E2,4.38E2,6.24E2,7.65E2,2.44E2,5E1,3.02E2,1.36E2,3.1E1,5.93E2,7.45E2,2E1,1.89E2,5.5E1,4.4E1,6E0,1.17E2,1.85E2,5.2E1,8.4E1,8E0,2.3E1,1.4E2,4.53E2,6.23E2,1.22E2,5E0,1.5E1,9.5E1,9.4E1,6E0,4.9E1,6E0,3.8E1,9.1E1,2.6E1,5.7E1,1.28E2,6E0,4.6E1,1E1,7.4E1,1E1,1.3E1,7.6E1,6.4E1,1.2E1,4.41E2,1.23E2,5E2,9.3E1,2.9E1,9E0,6E0,5.8E1,3.7E1,1.4E1,8E1,5E0,4.4E1,2.4E1,1.4E1,6E0,8.5E1,1.2E1,1.4E1,3.7E1,2E1,1.1E2,1.8E1,5E0,5E0,7E0,6.7E1,5E0,5E0,6E0,7E0,5E0,7.1E1,3.7E1,2.7E1,7E0,5E0,4.4E1,3.97E2,1.1E2,1.3E1,1.43E2,3.57E2,7E0,8.6E1,8E0,2.1E1],"tree_param":{"num_deleted":"0","num_feature":"183","num_nodes":"97","size_leaf_vector":"1"}},{"base_weights":[1.792813E-1,3.8255036E0,-6.6466856E0,-1.3472364E1,4.3950467E0,1.4517945E0,-1.210917E1,-4.5294642E0,-2.0445507E1,-1.1739252E1,4.956098E0,-9.94891E0,4.0768485E0,-2.1535376E1,-9.874728E0,1.9955693E-1,-1.1252511E1,-6.433861E-1,-2.2161242E1,4.348465E-1,-1.5022102E1,2.3242068E0,8.837602E0,5.0054914E-1,-1.2943515E1,5.759192E0,-1.6414387E1,-2.250659E1,-4.6870586E-1,-3.8318355E0,-1.2650233E1,-6.916531E-1,-3.716555E-1,-6.264718E-1,-1.2353107E0,-5.3697996E0,-2.0598692E1,7.450213E-1,1.0349018E1,9.90168E0,-6.0685177E0,-1.6364529E1,2.2296922E-1,1.3810046E1,1.9791183E0,1.19255446E-1,-1.2637274E0,-2.304301E1,-6.1145073E-1,1.0011308E0,-1.0011128E1,-1.5845269E1,-1.0923752E0,-1.0341486E0,4.4192758E-1,-2.5643945E-1,-1.2606995E0,7.185971E-2,-5.1300544E-1,9.583971E-1,3.495502E-1,1.7528677E-1,5.815538E-1,-8.169325E-1,1.4822601E-1,-1.3405002E0,-6.1312526E-1,-1.6330601E-1,8.131208E-1,2.4501407E-1,-6.133617E-1,-1.1826369E0,-6.1461484E-1,-1.1028727E0,1.6263883E-1,1.0575316E-1,-5.994183E-1,-4.5293517E-2,-8.5877866E-1,4.9295083E-1,-4.635891E-1],"categories":[],"categories_nodes":[],"categories_segments":[],"categories_sizes":[],"default_left":[0,0,0,0,0,0,0,0,0,0,0,0,1,1,0,0,0,0,0,0,0,0,0,0,0,0,0,0,0,0,0,0,0,0,0,0,0,0,0,0,0,0,0,0,0,0,0,0,0,0,0,0,0,0,0,0,0,0,0,0,0,0,0,0,0,0,0,0,0,0,0,0,0,0,0,0,0,0,0,0,0],"id":2,"left_children":[1,3,5,7,9,11,13,15,17,19,21,23,25,27,29,-1,31,-1,33,-1,35,37,39,-1,41,43,45,47,-1,49,51,-1,-1,-1,-1,53,55,57,59,61,63,65,-1,67,69,-1,-1,71,-1,73,75,77,79,-1,-1,-1,-1,-1,-1,-1,-1,-1,-1,-1,-1,-1,-1,-1,-1,-1,-1,-1,-1,-1,-1,-1,-1,-1,-1,-1,-1],"loss_changes":[5.3611426E4,1.3891254E4,3.319594E4,2.7135981E3,1.2369135E4,9.108583E3,9.223258E3,1.2478829E3,3.987207E1,3.2167373E3,1.3413098E4,3.53658E3,8.6094375E3,7.9297266E2,6.0565664E3,0E0,1.5451294E1,0E0,1.5618652E2,0E0,2.0424668E3,9.940332E3,8.482426E3,0E0,3.049754E3,6.941785E3,3.2250474E3,1.4823047E2,0E0,3.4742832E3,9.177703E3,0E0,0E0,0E0,0E0,3.6640059E3,1.6556377E3,5.0194126E3,3.686212E3,5.445539E3,3.3881743E3,1.4708418E3,0E0,3.1101406E3,6.593812E3,0E0,0E0,1.8776562E2,0E0,3.4984526E3,1.2481504E3,3.8598594E3,5.0180845E3,0E0,0E0,0E0,0E0,0E0,0E0,0E0,0E0,0E0,0E0,0E0,0E0,0E0,0E0,0E0,0E0,0E0,0E0,0E0,0E0,0E0,0E0,0E0,0E0,0E0,0E0,0E0,0E0],"parents":[2147483647,0,0,1,1,2,2,3,3,4,4,5,5,6,6,7,7,8,8,9,9,10,10,11,11,12,12,13,13,14,14,16,16,18,18,20,20,21,21,22,22,24,24,25,25,26,26,27,27,29,29,30,30,35,35,36,36,37,37,38,38,39,39,40,40,41,41,43,43,44,44,47,47,49,49,50,50,51,51,52,52],"right_children":[2,4,6,8,10,12,14,16,18,20,22,24,26,28,30,-1,32,-1,34,-1,36,38,40,-1,42,44,46,48,-1,50,52,-1,-1,-1,-1,54,56,58,60,62,64,66,-1,68,70,-1,-1,72,-1,74,76,78,80,-1,-1,-1,-1,-1,-1,-1,-1,-1,-1,-1,-1,-1,-1,-1,-1,-1,-1,-1,-1,-1,-1,-1,-1,-1,-1,-1,-1],"split_conditions":[8.5257983E-1,9.5749445E0,2.176E3,1.0906342E1,-3.2E0,-2.975462E-1,-3.2728526E-1,-7.7564105E-2,8.861612E-3,3.9581287E0,8.9855486E-1,7.737012E-1,5.055328E-1,8.6297756E-1,9.0887725E-1,1.9955693E-1,9.164602E-1,-6.433861E-1,5.555897E0,4.348465E-1,1.875E-1,1E0,-1.64E3,5.0054914E-1,1.5805596E1,3.1420994E-1,2.8963383E1,4.3612207E2,-4.6870586E-1,3.2819994E5,1.3294853E1,-6.916531E-1,-3.716555E-1,-6.264718E-1,-1.2353107E0,4.9924583E0,-8.642548E-2,-1.7691E1,7.9785985E-1,-1E-1,7.3207164E4,-2.4E0,2.2296922E-1,-7E-1,7.421824E0,1.19255446E-1,-1.2637274E0,2.6122444E1,-6.1145073E-1,3.0945978E-4,6.104948E-1,7.8667647E-1,-1.601E0,-1.0341486E0,4.4192758E-1,-2.5643945E-1,-1.2606995E0,7.185971E-2,-5.1300544E-1,9.583971E-1,3.495502E-1,1.7528677E-1,5.815538E-1,-8.169325E-1,1.4822601E-1,-1.3405002E0,-6.1312526E-1,-1.6330601E-1,8.131208E-1,2.4501407E-1,-6.133617E-1,-1.1826369E0,-6.1461484E-1,-1.1028727E0,1.6263883E-1,1.0575316E-1,-5.994183E-1,-4.5293517E-2,-8.5877866E-1,4.9295083E-1,-4.635891E-1],"split_indices":[4,20,178,108,141,162,167,164,126,56,121,2,181,3,30,0,121,0,77,0,138,17,147,0,21,64,20,113,0,175,73,0,0,0,0,93,169,146,10,130,120,141,0,141,52,0,0,33,0,126,71,122,148,0,0,0,0,0,0,0,0,0,0,0,0,0,0,0,0,0,0,0,0,0,0,0,0,0,0,0,0],"split_type":[0,0,0,0,0,0,0,0,0,0,0,0,0,0,0,0,0,0,0,0,0,0,0,0,0,0,0,0,0,0,0,0,0,0,0,0,0,0,0,0,0,0,0,0,0,0,0,0,0,0,0,0,0,0,0,0,0,0,0,0,0,0,0,0,0,0,0,0,0,0,0,0,0,0,0,0,0,0,0,0,0],"sum_hessian":[2.152E3,1.403E3,7.49E2,4.4E1,1.359E3,3.02E2,4.47E2,2E1,2.4E1,4.5E1,1.314E3,5.6E1,2.46E2,8.4E1,3.63E2,9E0,1.1E1,6E0,1.8E1,6E0,3.9E1,7.84E2,5.3E2,7E0,4.9E1,2.28E2,1.8E1,7.7E1,7E0,1.15E2,2.48E2,5E0,6E0,5E0,1.3E1,1.5E1,2.4E1,6.56E2,1.28E2,4.95E2,3.5E1,4.1E1,8E0,7.2E1,1.56E2,6E0,1.2E1,7.2E1,5E0,6.5E1,5E1,1.94E2,5.4E1,7E0,8E0,6E0,1.8E1,6.18E2,3.8E1,3.4E1,9.4E1,1.06E2,3.89E2,1.6E1,1.9E1,1E1,3.1E1,9E0,6.3E1,1.3E2,2.6E1,6.7E1,5E0,5E0,6E1,7E0,4.3E1,1.6E1,1.78E2,2.3E1,3.1E1],"tree_param":{"num_deleted":"0","num_feature":"183","num_nodes":"81","size_leaf_vector":"1"}},{"base_weights":[-3.6618665E-2,-1.1502243E1,2.3237815E0,-1.9228966E1,-7.3482842E0,4.2456098E0,-3.1229594E0,-1.3852521E1,-2.221447E1,-1.1304194E1,9.620454E-1,8.836893E0,2.190797E0,5.458073E0,-9.962377E0,-1.5917526E1,-7.689023E-2,-4.2669997E-1,-2.3409393E1,-1.5228375E1,-4.5571337E0,1.4170591E1,-2.9513297E0,1.2085428E1,3.5193498E0,-2.145991E0,4.832046E0,-7.116663E0,8.437303E0,-1.2744325E1,-1.1492949E0,-2.086895E-1,-1.7432663E1,-2.411085E1,-6.675622E-1,-1.9339506E1,-6.805938E0,-1.2742305E0,-1.7856136E1,8.754181E-1,2.2884957E-1,5.06411E0,-1.3232406E1,1.2885854E1,-6.5498366E0,-4.352295E0,7.652188E0,-4.0824585E0,6.0724993E0,-9.108922E0,6.3867764E0,1.4481953E-1,-2.2209345E1,1.1970931E1,-4.7537045E0,-1.9218916E1,-7.6131606E0,8.486571E0,-6.526749E0,-9.853224E-1,-4.7750875E-1,-1.2390306E0,-6.585758E-1,-1.0997806E0,2.5834233E-2,-6.368832E-1,-8.601298E-2,-3.5478178E-1,3.5513702E-1,-1.1226538E0,-4.7585073E-1,-8.701359E-2,8.3565426E-1,-1.9907E-3,-8.1144565E-1,4.0666446E-1,7.8828686E-1,-6.111042E-1,1.0702482E-2,1.0156973E-1,-6.8649983E-1,-1.055007E-1,6.5044975E-1,-8.8875324E-1,-1.3025281E-1,5.8766055E-1,-1.0283983E-1,-3.0491284E-1,-1.224411E0,5.698259E-1,1.1657324E-1,2.7757484E-1,-4.357818E-1,-1.3540467E0,-6.0061663E-1,3.529379E-1,9.696188E-1,-8.5627836E-1,4.2847887E-1,-9.255251E-2,-1.0249184E0,-6.656196E-1,3.6475036E-2,-3.097562E-1,6.4544964E-1,-5.1015943E-1,4.9569827E-1],"categories":[],"categories_nodes":[],"categories_segments":[],"categories_sizes":[],"default_left":[0,0,0,0,0,0,0,0,0,0,0,0,0,0,0,0,0,0,0,0,0,0,0,0,0,0,0,1,0,0,0,0,0,0,0,0,0,0,0,0,0,0,0,0,0,0,0,0,0,0,0,0,0,0,0,0,0,0,0,0,0,0,0,0,0,0,0,0,0,0,0,0,0,0,0,0,0,0,0,0,0,0,0,0,0,0,0,0,0,0,0,0,0,0,0,0,0,0,0,0,0,0,0,0,0,0,0],"id":3,"left_children":[1,3,5,7,9,11,13,15,17,19,21,23,25,27,29,31,-1,-1,33,35,37,39,41,43,45,47,49,51,53,55,57,-1,59,61,-1,63,65,67,69,-1,-1,71,73,75,77,79,81,83,85,87,89,91,93,95,97,99,101,103,105,-1,-1,-1,-1,-1,-1,-1,-1,-1,-1,-1,-1,-1,-1,-1,-1,-1,-1,-1,-1,-1,-1,-1,-1,-1,-1,-1,-1,-1,-1,-1,-1,-1,-1,-1,-1,-1,-1,-1,-1,-1,-1,-1,-1,-1,-1,-1,-1],"loss_changes":[5.786134E4,1.1573918E4,1.8572492E4,1.7308008E3,7.8679785E3,1.234891E4,2.7227504E4,1.1961602E3,1.1079922E3,4.219826E3,4.0736416E3,6.9535293E3,1.0399635E4,7.7774297E3,6.310877E3,6.567676E2,0E0,0E0,1.9313281E2,3.4002031E3,2.6404668E3,4.9624658E2,5.093859E3,3.8283516E3,5.075801E3,5.499495E3,1.2282566E4,4.3870264E3,7.841128E3,6.3652305E3,3.3198247E3,0E0,4.5703027E2,1.644961E2,0E0,3.5976934E3,1.0339276E3,2.4886855E3,2.463274E2,0E0,0E0,2.803328E3,1.066709E3,3.1702969E3,4.2464694E2,3.2605657E3,5.3614604E3,5.5977227E3,3.0720667E3,2.489875E3,1.0293988E4,1.3897423E3,3.20479E2,4.6752305E3,6.0807754E3,1.8730918E3,5.2874004E3,1.5733318E3,2.5793296E3,0E0,0E0,0E0,0E0,0E0,0E0,0E0,0E0,0E0,0E0,0E0,0E0,0E0,0E0,0E0,0E0,0E0,0E0,0E0,0E0,0E0,0E0,0E0,0E0,0E0,0E0,0E0,0E0,0E0,0E0,0E0,0E0,0E0,0E0,0E0,0E0,0E0,0E0,0E0,0E0,0E0,0E0,0E0,0E0,0E0,0E0,0E0,0E0],"parents":[2147483647,0,0,1,1,2,2,3,3,4,4,5,5,6,6,7,7,8,8,9,9,10,10,11,11,12,12,13,13,14,14,15,15,18,18,19,19,20,20,21,21,22,22,23,23,24,24,25,25,26,26,27,27,28,28,29,29,30,30,32,32,33,33,35,35,36,36,37,37,38,38,41,41,42,42,43,43,44,44,45,45,46,46,47,47,48,48,49,49,50,50,51,51,52,52,53,53,54,54,55,55,56,56,57,57,58,58],"right_children":[2,4,6,8,10,12,14,16,18,20,22,24,26,28,30,32,-1,-1,34,36,38,40,42,44,46,48,50,52,54,56,58,-1,60,62,-1,64,66,68,70,-1,-1,72,74,76,78,80,82,84,86,88,90,92,94,96,98,100,102,104,106,-1,-1,-1,-1,-1,-1,-1,-1,-1,-1,-1,-1,-1,-1,-1,-1,-1,-1,-1,-1,-1,-1,-1,-1,-1,-1,-1,-1,-1,-1,-1,-1,-1,-1,-1,-1,-1,-1,-1,-1,-1,-1,-1,-1,-1,-1,-1,-1],"split_conditions":[-2.8830528E-1,4.979E3,8.5257983E-1,3.813241E5,8.306394E0,8.622531E-1,2.554E3,1.7043992E7,6.050696E0,6.6430182E0,7.722475E-1,1.1037973E1,6.25E-1,2.4896111E0,5.0670266E0,5.6082373E0,-7.689023E-2,-4.2669997E-1,8.263983E7,-2.808323E-1,-2.9070193E-1,1.016302E0,1.073435E1,6.5356695E6,6.3984575E5,1.1621973E1,-1.7854168E-1,5.0212526E-1,8.103197E0,1.9815405E5,1.3500536E5,-2.086895E-1,3.8895103E1,1.4082062E1,-6.675622E-1,-9.0803915E-1,-3.0725E-1,2.4277522E-1,1.5688349E1,8.754181E-1,2.2884957E-1,2.9729471E1,5.2005424E0,9.14601E0,8.425073E-1,3.1511393E1,-2.4754487E-1,8.064363E1,1.0534487E5,-1.509E0,2.4582802E-3,2.998744E-1,2.306555E3,1E0,1.0291E0,3.266061E-3,-1.4211309E-1,-1.1357143E-1,1.1064343E1,-9.853224E-1,-4.7750875E-1,-1.2390306E0,-6.585758E-1,-1.0997806E0,2.5834233E-2,-6.368832E-1,-8.601298E-2,-3.5478178E-1,3.5513702E-1,-1.1226538E0,-4.7585073E-1,-8.701359E-2,8.3565426E-1,-1.9907E-3,-8.1144565E-1,4.0666446E-1,7.8828686E-1,-6.111042E-1,1.0702482E-2,1.0156973E-1,-6.8649983E-1,-1.055007E-1,6.5044975E-1,-8.8875324E-1,-1.3025281E-1,5.8766055E-1,-1.0283983E-1,-3.0491284E-1,-1.224411E0,5.698259E-1,1.1657324E-1,2.7757484E-1,-4.357818E-1,-1.3540467E0,-6.0061663E-1,3.529379E-1,9.696188E-1,-8.5627836E-1,4.2847887E-1,-9.255251E-2,-1.0249184E0,-6.656196E-1,3.6475036E-2,-3.097562E-1,6.4544964E-1,-5.1015943E-1,4.9569827E-1],"split_indices":[166,179,4,175,56,9,178,176,150,73,10,90,142,111,104,87,0,0,116,160,165,124,88,174,176,103,156,181,58,176,175,0,96,58,0,173,165,115,152,0,0,96,150,152,121,139,167,118,120,148,129,77,6,17,124,126,154,154,86,0,0,0,0,0,0,0,0,0,0,0,0,0,0,0,0,0,0,0,0,0,0,0,0,0,0,0,0,0,0,0,0,0,0,0,0,0,0,0,0,0,0,0,0,0,0,0,0],"split_type":[0,0,0,0,0,0,0,0,0,0,0,0,0,0,0,0,0,0,0,0,0,0,0,0,0,0,0,0,0,0,0,0,0,0,0,0,0,0,0,0,0,0,0,0,0,0,0,0,0,0,0,0,0,0,0,0,0,0,0,0,0,0,0,0,0,0,0,0,0,0,0,0,0,0,0,0,0,0,0,0,0,0,0,0,0,0,0,0,0,0,0,0,0,0,0,0,0,0,0,0,0,0,0,0,0,0,0],"sum_hessian":[2.136E3,3.64E2,1.772E3,1.26E2,2.38E2,1.31E3,4.62E2,4.7E1,7.9E1,1.61E2,7.7E1,4.04E2,9.06E2,2.05E2,2.57E2,4E1,7E0,7E0,7.2E1,1.01E2,6E1,1.7E1,6E1,2.5E2,1.54E2,3.43E2,5.63E2,3.9E1,1.66E2,1.95E2,6.2E1,5E0,3.5E1,6.6E1,6E0,6.7E1,3.4E1,4.9E1,1.1E1,1.2E1,5E0,3.4E1,2.6E1,2.4E2,1E1,5.3E1,1.01E2,2.78E2,6.5E1,5.6E1,5.07E2,2.7E1,1.2E1,1.31E2,3.5E1,8.5E1,1.1E2,2.2E1,4E1,2.6E1,9E0,6.1E1,5E0,5.9E1,8E0,1.5E1,1.9E1,2.9E1,2E1,6E0,5E0,2.2E1,1.2E1,5E0,2.1E1,9.2E1,1.48E2,5E0,5E0,3.2E1,2.1E1,3.6E1,6.5E1,2.6E1,2.52E2,3.8E1,2.7E1,4.8E1,8E0,2.26E2,2.81E2,1.7E1,1E1,7E0,5E0,8E1,5.1E1,1.8E1,1.7E1,6E0,7.9E1,6.5E1,4.5E1,5E0,1.7E1,3.3E1,7E0],"tree_param":{"num_deleted":"0","num_feature":"183","num_nodes":"107","size_leaf_vector":"1"}},{"base_weights":[1.3940613E-1,-9.037786E0,2.3642604E0,-1.69728E1,-5.303067E0,3.2409358E0,-8.206961E0,-2.043245E1,-1.2287265E1,-1.0632311E1,6.9707215E-1,6.325832E-1,6.412276E0,1.1389249E1,-1.1602689E1,-4.0097362E-1,-2.1395615E1,-1.4068103E1,1.4757715E-1,-1.3281083E1,3.2487447E0,-1.7601978E0,1.7856956E1,-6.0214214E0,2.802505E0,-1.5998764E1,6.8164334E0,1.731783E1,1.1095017E-1,-8.005455E0,-2.5330755E1,-1.3293467E1,-2.2703032E1,-1.5786892E1,-2.5896592E-2,-3.6014652E0,-1.5858565E1,1.329442E1,-1.0745244E1,-4.2919264E0,5.8936615E0,3.1607255E-1,2.2136631E1,-4.2285085E0,-2.4294184E1,1.3939627E1,9.9367094E-1,-1.257923E0,-2.2767654E-1,3.8219907E0,9.912338E0,1.0610331E0,4.93911E-1,-1.62333E1,-3.8951204E0,-7.293627E-1,-1.4132253E0,-9.772219E-1,-1.892545E-1,-6.5075225E-1,-1.1685714E0,-1.7184784E-1,-8.5876447E-1,2.248197E-1,-4.5528752E-1,-3.0822378E-1,-9.771436E-1,9.2326146E-1,3.897761E-1,-8.003373E-1,-1.846434E-1,-4.4990754E-1,4.1636016E-2,6.1099E-1,-2.027235E-2,7.3355556E-1,1.3578483E0,-2.6982474E-1,7.113828E-1,-1.391489E0,-5.9977114E-1,7.79283E-2,9.807054E-1,-2.129668E-1,1.9411322E-1,2.684244E-1,-2.5204542E-1,2.6261708E-1,6.7259324E-1,-1.136721E0,-4.5619583E-1,1.8347333E-1,-4.7301817E-1],"categories":[],"categories_nodes":[],"categories_segments":[],"categories_sizes":[],"default_left":[0,0,0,0,0,0,0,0,0,0,0,0,0,0,0,0,0,0,0,0,0,0,0,0,0,1,0,0,0,0,0,0,0,0,0,0,0,0,0,0,0,0,0,0,0,0,0,0,0,0,0,0,0,0,0,0,0,0,0,0,0,0,0,0,0,0,0,0,0,0,0,0,0,0,0,0,0,0,0,0,0,0,0,0,0,0,0,0,0,0,0,0,0],"id":4,"left_children":[1,3,5,7,9,11,13,15,17,19,21,23,25,27,29,-1,31,33,-1,35,37,39,41,43,45,47,49,51,-1,53,55,57,59,61,-1,63,65,67,69,71,73,-1,75,77,79,81,83,-1,-1,85,87,-1,-1,89,91,-1,-1,-1,-1,-1,-1,-1,-1,-1,-1,-1,-1,-1,-1,-1,-1,-1,-1,-1,-1,-1,-1,-1,-1,-1,-1,-1,-1,-1,-1,-1,-1,-1,-1,-1,-1,-1,-1],"loss_changes":[4.3634035E4,1.2267805E4,1.5966747E4,1.9049102E3,9.12063E3,1.3140109E4,8.915874E3,7.2510156E2,1.6426562E3,5.59508E3,5.7239053E3,1.2621834E4,6.6033516E3,1.0489023E3,5.377501E3,0E0,4.2910742E2,1.2261875E3,0E0,3.111416E3,3.6573284E3,2.3312173E3,6.993242E2,6.9409893E3,1.3261838E4,1.2482935E3,6.4978223E3,1.3880444E2,0E0,3.014316E3,3.126289E2,6.392617E2,7.139258E1,7.4686035E2,0E0,1.2889851E3,3.451127E3,2.8256006E2,3.4905615E2,2.1780889E3,1.2004255E3,0E0,5.133008E1,4.3234194E3,4.9235645E2,6.4329883E3,8.635255E3,0E0,0E0,4.9613833E3,5.636332E3,0E0,0E0,1.1791421E3,2.644838E3,0E0,0E0,0E0,0E0,0E0,0E0,0E0,0E0,0E0,0E0,0E0,0E0,0E0,0E0,0E0,0E0,0E0,0E0,0E0,0E0,0E0,0E0,0E0,0E0,0E0,0E0,0E0,0E0,0E0,0E0,0E0,0E0,0E0,0E0,0E0,0E0,0E0,0E0],"parents":[2147483647,0,0,1,1,2,2,3,3,4,4,5,5,6,6,7,7,8,8,9,9,10,10,11,11,12,12,13,13,14,14,16,16,17,17,19,19,20,20,21,21,22,22,23,23,24,24,25,25,26,26,27,27,29,29,30,30,31,31,32,32,33,33,35,35,36,36,37,37,38,38,39,39,40,40,42,42,43,43,44,44,45,45,46,46,49,49,50,50,53,53,54,54],"right_children":[2,4,6,8,10,12,14,16,18,20,22,24,26,28,30,-1,32,34,-1,36,38,40,42,44,46,48,50,52,-1,54,56,58,60,62,-1,64,66,68,70,72,74,-1,76,78,80,82,84,-1,-1,86,88,-1,-1,90,92,-1,-1,-1,-1,-1,-1,-1,-1,-1,-1,-1,-1,-1,-1,-1,-1,-1,-1,-1,-1,-1,-1,-1,-1,-1,-1,-1,-1,-1,-1,-1,-1,-1,-1,-1,-1,-1,-1],"split_conditions":[-2.8102884E-1,6.56E3,-1.7653E1,-2.70625E-1,8.9189225E-1,1.2728E4,3.5345182E0,1.5575244E0,1.1659647E1,1.714431E1,1.1345658E1,1.0339E4,-4.3E0,4.1160817E0,8.5257983E-1,-4.0097362E-1,1.1780929E1,5.157584E0,1.4757715E-1,1.1991747E7,-3.1567937E3,5.9871883E0,-1.3333334E-1,7.2824078E0,3.1136232E-3,8.109875E-1,8.87862E-1,3.4059895E1,1.1095017E-1,1.621558E3,-1.5415585E-1,8.847519E-1,3.0997841E0,7.2897685E-1,-2.5896592E-2,2.7293706E0,2.224561E1,-2.8927085E-1,9.758685E0,-2.778704E-1,8.3495945E-1,3.1607255E-1,1.3333334E-1,2.5530203E5,1.3703657E1,6.388526E0,6.4409084E0,-1.257923E0,-2.2767654E-1,1.3243569E1,4.6805722E2,1.0610331E0,4.93911E-1,2.061467E3,4.0941925E0,-7.293627E-1,-1.4132253E0,-9.772219E-1,-1.892545E-1,-6.5075225E-1,-1.1685714E0,-1.7184784E-1,-8.5876447E-1,2.248197E-1,-4.5528752E-1,-3.0822378E-1,-9.771436E-1,9.2326146E-1,3.897761E-1,-8.003373E-1,-1.846434E-1,-4.4990754E-1,4.1636016E-2,6.1099E-1,-2.027235E-2,7.3355556E-1,1.3578483E0,-2.6982474E-1,7.113828E-1,-1.391489E0,-5.9977114E-1,7.79283E-2,9.807054E-1,-2.129668E-1,1.9411322E-1,2.684244E-1,-2.5204542E-1,2.6261708E-1,6.7259324E-1,-1.136721E0,-4.5619583E-1,1.8347333E-1,-4.7301817E-1],"split_indices":[165,179,146,158,23,178,108,38,70,108,40,179,141,56,4,0,152,62,0,171,145,28,130,23,126,3,121,20,0,6,163,122,36,8,0,111,118,158,55,159,3,0,130,120,23,63,88,0,0,63,118,0,0,117,39,0,0,0,0,0,0,0,0,0,0,0,0,0,0,0,0,0,0,0,0,0,0,0,0,0,0,0,0,0,0,0,0,0,0,0,0,0,0],"split_type":[0,0,0,0,0,0,0,0,0,0,0,0,0,0,0,0,0,0,0,0,0,0,0,0,0,0,0,0,0,0,0,0,0,0,0,0,0,0,0,0,0,0,0,0,0,0,0,0,0,0,0,0,0,0,0,0,0,0,0,0,0,0,0,0,0,0,0,0,0,0,0,0,0,0,0,0,0,0,0,0,0,0,0,0,0,0,0,0,0,0,0,0,0],"sum_hessian":[2.135E3,4.16E2,1.719E3,1.32E2,2.84E2,1.588E3,1.31E2,7.4E1,5.8E1,1.5E2,1.34E2,8.72E2,7.16E2,1.9E1,1.12E2,6E0,6.8E1,5.2E1,6E0,1.26E2,2.4E1,1.18E2,1.6E1,2.14E2,6.58E2,1.2E1,7.04E2,1.1E1,8E0,9E1,2.2E1,1.1E1,5.7E1,4.6E1,6E0,2.7E1,9.9E1,1.4E1,1E1,8.9E1,2.9E1,5E0,1.1E1,1.96E2,1.8E1,9.1E1,5.67E2,6E0,6E0,3.59E2,3.45E2,6E0,5E0,2.9E1,6.1E1,6E0,1.6E1,6E0,5E0,5E0,5.2E1,5E0,4.1E1,1.1E1,1.6E1,2.8E1,7.1E1,6E0,8E0,5E0,5E0,4.6E1,4.3E1,1.4E1,1.5E1,6E0,5E0,1.85E2,1.1E1,1.3E1,5E0,2.9E1,6.2E1,2.01E2,3.66E2,3.06E2,5.3E1,1.5E2,1.95E2,1.4E1,1.5E1,2.6E1,3.5E1],"tree_param":{"num_deleted":"0","num_feature":"183","num_nodes":"93","size_leaf_vector":"1"}},{"base_weights":[-2.2987796E-2,-1.0067293E1,2.0967278E0,-1.6179092E1,-6.0744166E0,-6.263486E-1,5.1282125E0,-1.840149E1,-6.972444E0,-9.526031E0,1.1441156E0,-7.246457E0,1.8156182E0,3.9079628E0,1.2197634E1,-5.860934E0,-1.9778877E1,-1.4730253E1,1.7673811E0,5.81463E0,-1.0992054E1,-4.273247E0,1.0196684E1,1.2798367E-1,-1.0591424E1,1.1117921E1,-1.0424463E-1,3.3697395E0,1.91742E1,-8.1057256E-1,1.4333459E1,-5.381746E-1,8.2631655E-2,-3.0221954E-1,-2.0550217E1,-1.0895952E0,-4.157036E-1,3.7097666E-1,-3.9737177E-1,5.5707234E-1,-5.5191126E-2,-1.2089611E1,3.1634E-1,2.7463992E0,-1.056039E1,2.276399E0,1.5187668E1,-9.488943E0,3.3314931E0,7.304324E0,-1.2223353E1,-6.515238E0,1.3801214E1,2.2460382E0,-8.02881E0,1.2357897E0,7.4515595E0,1.0508164E1,1.3482277E0,-5.817703E-1,1.5883909E1,-1.1167254E0,-7.614049E-1,-6.650087E-1,2.966275E-1,3.6041725E-1,-5.5485857E-1,4.8533004E-2,-7.1264315E-1,-2.0176308E-1,4.6303016E-1,3.41182E-1,9.564767E-1,6.2938645E-2,-9.1984814E-1,2.935684E-1,-3.6586437E-1,8.2289495E-2,7.7589136E-1,2.799221E-1,-6.7975205E-1,-7.0564336E-1,4.2498112E-1,2.04471E-2,8.350318E-1,-5.8611203E-2,2.9570222E-1,-4.8647174E-1,7.863628E-1,-1.2827787E-2,5.0739455E-1,2.213023E-1,6.593241E-1,8.416778E-1,1.3408038E-1,-2.2355893E-1,9.119156E-1],"categories":[],"categories_nodes":[],"categories_segments":[],"categories_sizes":[],"default_left":[0,0,0,0,0,0,0,0,0,0,0,0,0,0,0,0,0,0,0,0,0,0,0,0,0,0,0,0,0,0,0,0,0,0,0,0,0,0,0,0,0,0,0,0,0,1,0,0,0,0,0,0,0,0,0,0,0,0,0,0,0,0,0,0,0,0,0,0,0,0,0,0,0,0,0,0,0,0,0,0,0,0,0,0,0,0,0,0,0,0,0,0,0,0,0,0,0],"id":5,"left_children":[1,3,5,7,9,11,13,15,17,19,21,23,25,27,29,31,33,35,37,39,41,43,45,47,49,51,53,55,57,-1,59,-1,-1,-1,61,-1,-1,-1,-1,-1,-1,63,-1,65,67,69,71,73,75,77,79,81,83,85,87,89,91,93,-1,-1,95,-1,-1,-1,-1,-1,-1,-1,-1,-1,-1,-1,-1,-1,-1,-1,-1,-1,-1,-1,-1,-1,-1,-1,-1,-1,-1,-1,-1,-1,-1,-1,-1,-1,-1,-1,-1],"loss_changes":[4.5328508E4,8.95548E3,1.4515441E4,2.8589805E3,5.6418213E3,1.4999117E4,7.129547E3,1.9050469E3,2.0600908E3,3.5048477E3,3.67261E3,6.168172E3,1.2109659E4,5.777422E3,7.6349414E3,4.9665216E2,9.8814844E2,5.4376196E2,8.8261053E2,5.282449E2,2.73767E3,2.1032788E3,1.0722671E3,2.465438E3,5.1124746E3,5.578451E3,1.050389E4,5.983546E3,1.3369287E3,0E0,4.7748477E3,0E0,0E0,0E0,6.000156E2,0E0,0E0,0E0,0E0,0E0,0E0,2.9587422E3,0E0,1.500685E3,1.0782869E3,5.6635205E2,4.2995532E2,1.9379751E3,1.6657568E3,6.716069E2,3.9385703E3,1.9451918E3,3.9149863E3,5.4610527E3,5.3646406E3,6.0274736E3,4.0364932E3,5.984375E2,0E0,0E0,5.2573496E3,0E0,0E0,0E0,0E0,0E0,0E0,0E0,0E0,0E0,0E0,0E0,0E0,0E0,0E0,0E0,0E0,0E0,0E0,0E0,0E0,0E0,0E0,0E0,0E0,0E0,0E0,0E0,0E0,0E0,0E0,0E0,0E0,0E0,0E0,0E0,0E0],"parents":[2147483647,0,0,1,1,2,2,3,3,4,4,5,5,6,6,7,7,8,8,9,9,10,10,11,11,12,12,13,13,14,14,15,15,16,16,17,17,18,18,19,19,20,20,21,21,22,22,23,23,24,24,25,25,26,26,27,27,28,28,30,30,34,34,41,41,43,43,44,44,45,45,46,46,47,47,48,48,49,49,50,50,51,51,52,52,53,53,54,54,55,55,56,56,57,57,60,60],"right_children":[2,4,6,8,10,12,14,16,18,20,22,24,26,28,30,32,34,36,38,40,42,44,46,48,50,52,54,56,58,-1,60,-1,-1,-1,62,-1,-1,-1,-1,-1,-1,64,-1,66,68,70,72,74,76,78,80,82,84,86,88,90,92,94,-1,-1,96,-1,-1,-1,-1,-1,-1,-1,-1,-1,-1,-1,-1,-1,-1,-1,-1,-1,-1,-1,-1,-1,-1,-1,-1,-1,-1,-1,-1,-1,-1,-1,-1,-1,-1,-1,-1],"split_conditions":[-2.8830528E-1,-3.2728526E-1,1.1926E4,9.237598E0,6.678357E4,9.829E3,1.0383561E0,6.778719E-1,1.6575636E0,7.9662466E-1,6.965079E-1,2.579777E0,4.0012896E-3,9.995246E-1,1.978E3,1.8681133E0,1.5575244E0,1.1119818E1,1.6292654E-2,-2.577232E-1,5.8978695E1,2.276735E2,6.29247E0,4E-1,-2.7485348E-3,2.4557147E0,3.3838515E0,1.3574645E1,1.8129159E0,-8.1057256E-1,-2.2782737E-1,-5.381746E-1,8.2631655E-2,-3.0221954E-1,1.0311224E1,-1.0895952E0,-4.157036E-1,3.7097666E-1,-3.9737177E-1,5.5707234E-1,-5.5191126E-2,2.3957336E1,3.1634E-1,1E0,1.8138092E-2,8.087527E-1,-3.994762E-2,8.868662E-1,1.5918735E1,-3.9612977E-3,7.87414E-1,9.520395E0,5.353623E0,6.666667E-2,3.510187E0,4.203431E0,5.555897E0,2.9196157E0,1.3482277E0,-5.817703E-1,2.581732E-1,-1.1167254E0,-7.614049E-1,-6.650087E-1,2.966275E-1,3.6041725E-1,-5.5485857E-1,4.8533004E-2,-7.1264315E-1,-2.0176308E-1,4.6303016E-1,3.41182E-1,9.564767E-1,6.2938645E-2,-9.1984814E-1,2.935684E-1,-3.6586437E-1,8.2289495E-2,7.7589136E-1,2.799221E-1,-6.7975205E-1,-7.0564336E-1,4.2498112E-1,2.04471E-2,8.350318E-1,-5.8611203E-2,2.9570222E-1,-4.8647174E-1,7.863628E-1,-1.2827787E-2,5.0739455E-1,2.213023E-1,6.593241E-1,8.416778E-1,1.3408038E-1,-2.2355893E-1,9.119156E-1],"split_indices":[166,167,178,21,120,179,124,76,93,2,74,30,126,121,179,28,38,150,126,154,24,118,21,144,126,111,80,59,78,0,154,0,0,0,33,0,0,0,0,0,0,105,0,13,93,3,168,121,53,126,122,25,85,130,32,80,77,31,0,0,83,0,0,0,0,0,0,0,0,0,0,0,0,0,0,0,0,0,0,0,0,0,0,0,0,0,0,0,0,0,0,0,0,0,0,0,0],"split_type":[0,0,0,0,0,0,0,0,0,0,0,0,0,0,0,0,0,0,0,0,0,0,0,0,0,0,0,0,0,0,0,0,0,0,0,0,0,0,0,0,0,0,0,0,0,0,0,0,0,0,0,0,0,0,0,0,0,0,0,0,0,0,0,0,0,0,0,0,0,0,0,0,0,0,0,0,0,0,0,0,0,0,0,0,0,0,0,0,0,0,0,0,0,0,0,0,0],"sum_hessian":[2.127E3,3.7E2,1.757E3,1.45E2,2.25E2,9.26E2,8.31E2,1.16E2,2.9E1,1.52E2,7.3E1,2.49E2,6.77E2,7.1E2,1.21E2,1.2E1,1.04E2,1.5E1,1.4E1,1.3E1,1.39E2,4.6E1,2.7E1,7.8E1,1.71E2,1.15E2,5.62E2,6.87E2,2.3E1,8E0,1.13E2,7E0,5E0,6E0,9.8E1,6E0,9E0,9E0,5E0,7E0,6E0,1.31E2,8E0,2.2E1,2.4E1,1.1E1,1.6E1,1.9E1,5.9E1,1.4E1,1.57E2,1.5E1,1E2,4.34E2,1.28E2,4.52E2,2.35E2,1.2E1,1.1E1,6E0,1.07E2,7.1E1,2.7E1,1.23E2,8E0,1.7E1,5E0,6E0,1.8E1,6E0,5E0,6E0,1E1,9E0,1E1,4.8E1,1.1E1,9E0,5E0,1.1E1,1.46E2,1E1,5E0,1.8E1,8.2E1,2.25E2,2.09E2,1.2E2,8E0,3.88E2,6.4E1,1.55E2,8E1,6E0,6E0,1.1E1,9.6E1],"tree_param":{"num_deleted":"0","num_feature":"183","num_nodes":"97","size_leaf_vector":"1"}},{"base_weights":[-1.9275501E-1,-6.725812E0,3.4070385E0,-5.8270514E-1,-1.0972098E1,7.791845E-1,7.219806E0,-1.9112597E1,5.654761E-1,-1.6573523E1,-8.497375E0,-7.0116913E-1,7.8475947E0,-1.380165E1,7.908427E0,-1.1772505E0,-5.3144765E-1,-2.2376423E0,7.8604455E0,2.0872898E-1,-1.7570911E1,-1.5105758E1,-6.5426683E0,3.8953295E-1,-7.460674E0,-6.571918E0,1.0166129E1,-1.9960579E1,-6.3591115E-2,4.2516365E0,1.1816092E1,-7.3424783E0,3.50215E0,-7.3924537E0,1.0885153E1,-2.1371288E1,-1.4549688E1,-9.848233E0,-1.9032297E1,-4.1399627E0,-1.1805456E1,-1.377391E0,5.615023E0,-1.2274909E1,1.6644481E0,-1.4265989E1,3.3762187E-1,7.0405493E0,1.8287657E1,-1.2623409E0,-5.233268E-1,-2.5397682E0,7.697507E0,7.130103E0,1.5781723E1,1.5599959E-1,-5.351278E-1,-9.684457E-1,2.7159482E-1,2.451996E-1,-8.6138934E-1,6.454892E-1,-6.0938317E-1,-5.237311E-1,-1.1501589E0,-7.7987117E-1,-1.0717501E-1,-6.601507E-1,2.0096365E-1,-3.2960817E-1,-1.0547189E0,1.9435953E-1,-4.0051737E-1,-7.8918904E-1,2.5800443E-1,-1.0614971E-1,6.3072205E-1,-2.8239557E-1,3.522338E-1,-9.41246E-1,-2.1990891E-1,-1.5149684E-1,4.5598254E-1,-9.016679E-1,-3.4325835E-1,1.1248964E0,2.7233264E-1,1.1959419E0,5.404801E-1,-4.181951E-1,3.2082677E-1,-4.4341475E-1,4.6544036E-1,5.127879E-1,-9.418082E-2,9.543177E-1,9.407738E-2],"categories":[],"categories_nodes":[],"categories_segments":[],"categories_sizes":[],"default_left":[0,0,0,0,0,0,0,0,0,0,0,0,0,0,0,0,0,0,0,0,0,0,0,0,0,0,0,0,0,0,0,0,0,0,0,0,0,0,0,0,0,0,0,0,0,0,0,0,0,0,0,0,0,0,0,0,0,0,0,0,0,0,0,0,0,0,0,0,0,0,0,0,0,0,0,0,0,0,0,0,0,0,0,0,0,0,0,0,0,0,0,0,0,0,0,0,0],"id":6,"left_children":[1,3,5,7,9,11,13,15,17,19,21,23,25,27,29,-1,-1,31,33,-1,35,37,39,41,43,45,47,49,-1,51,53,55,57,59,61,63,65,67,69,71,73,75,77,79,81,83,-1,85,87,-1,-1,89,91,93,95,-1,-1,-1,-1,-1,-1,-1,-1,-1,-1,-1,-1,-1,-1,-1,-1,-1,-1,-1,-1,-1,-1,-1,-1,-1,-1,-1,-1,-1,-1,-1,-1,-1,-1,-1,-1,-1,-1,-1,-1,-1,-1],"loss_changes":[4.971572E4,1.9583738E4,1.3650812E4,6.5637153E3,6.0138867E3,8.46021E3,8.1576914E3,4.265957E2,5.96815E3,2.8670312E3,3.9055781E3,4.9351797E3,4.7473096E3,1.3636797E3,7.6518047E3,0E0,0E0,6.208162E3,3.8174492E3,0E0,1.1702031E3,1.2576377E3,2.9985527E3,5.3351997E3,4.105966E3,2.146701E3,2.9427676E3,3.3800684E2,0E0,6.572194E3,4.7190273E3,3.9707212E3,4.518744E3,1.7776399E3,3.3338872E3,7.3706836E2,9.414453E2,1.5417852E3,8.613906E2,5.219522E3,5.1435283E3,4.5335576E3,2.390692E3,3.0643574E3,1.1825525E3,2.3865918E2,0E0,2.0701963E3,1.1310869E3,0E0,0E0,5.009125E3,5.0473564E3,3.4283442E3,6.3949805E3,0E0,0E0,0E0,0E0,0E0,0E0,0E0,0E0,0E0,0E0,0E0,0E0,0E0,0E0,0E0,0E0,0E0,0E0,0E0,0E0,0E0,0E0,0E0,0E0,0E0,0E0,0E0,0E0,0E0,0E0,0E0,0E0,0E0,0E0,0E0,0E0,0E0,0E0,0E0,0E0,0E0,0E0],"parents":[2147483647,0,0,1,1,2,2,3,3,4,4,5,5,6,6,7,7,8,8,9,9,10,10,11,11,12,12,13,13,14,14,17,17,18,18,20,20,21,21,22,22,23,23,24,24,25,25,26,26,27,27,29,29,30,30,31,31,32,32,33,33,34,34,35,35,36,36,37,37,38,38,39,39,40,40,41,41,42,42,43,43,44,44,45,45,47,47,48,48,51,51,52,52,53,53,54,54],"right_children":[2,4,6,8,10,12,14,16,18,20,22,24,26,28,30,-1,-1,32,34,-1,36,38,40,42,44,46,48,50,-1,52,54,56,58,60,62,64,66,68,70,72,74,76,78,80,82,84,-1,86,88,-1,-1,90,92,94,96,-1,-1,-1,-1,-1,-1,-1,-1,-1,-1,-1,-1,-1,-1,-1,-1,-1,-1,-1,-1,-1,-1,-1,-1,-1,-1,-1,-1,-1,-1,-1,-1,-1,-1,-1,-1,-1,-1,-1,-1,-1,-1],"split_conditions":[1E5,2.176E3,8.9855486E-1,-3.492576E-1,-4.8494287E3,1E0,1.542187E3,1.936434E5,1E0,3.583928E-1,4E-1,1.291696E1,1.6350838E1,2.3172164E7,1.3783333E1,-1.1772505E0,-5.3144765E-1,6.448602E0,1.0029641E0,2.0872898E-1,1.350421E0,2.3266058E0,2E-1,9.130974E0,9.176852E0,7.143393E0,1.0368357E0,5.6750784E0,-6.3591115E-2,1.9218E3,6.666667E-2,7.662917E0,-2.8E0,1.764706E-1,3.5506435E1,1.5500051E1,1.3129834E2,1.9398837E2,2.1778256E-2,8.816355E0,3.400331E1,1.993174E1,4E-1,4.1179147E0,7.3184276E0,1.3567608E1,3.3762187E-1,4.4409647E0,8.327809E-1,-1.2623409E0,-5.233268E-1,1.0565108E1,-3.2E0,8.232719E0,2.5546E4,1.5599959E-1,-5.351278E-1,-9.684457E-1,2.7159482E-1,2.451996E-1,-8.6138934E-1,6.454892E-1,-6.0938317E-1,-5.237311E-1,-1.1501589E0,-7.7987117E-1,-1.0717501E-1,-6.601507E-1,2.0096365E-1,-3.2960817E-1,-1.0547189E0,1.9435953E-1,-4.0051737E-1,-7.8918904E-1,2.5800443E-1,-1.0614971E-1,6.3072205E-1,-2.8239557E-1,3.522338E-1,-9.41246E-1,-2.1990891E-1,-1.5149684E-1,4.5598254E-1,-9.016679E-1,-3.4325835E-1,1.1248964E0,2.7233264E-1,1.1959419E0,5.404801E-1,-4.181951E-1,3.2082677E-1,-4.4341475E-1,4.6544036E-1,5.127879E-1,-9.418082E-2,9.543177E-1,9.407738E-2],"split_indices":[153,178,121,161,145,17,6,119,17,182,144,28,20,116,45,0,0,54,124,0,28,35,135,84,150,47,124,39,0,6,130,151,141,140,96,96,115,114,97,152,20,97,136,40,97,72,0,150,9,0,0,63,141,40,178,0,0,0,0,0,0,0,0,0,0,0,0,0,0,0,0,0,0,0,0,0,0,0,0,0,0,0,0,0,0,0,0,0,0,0,0,0,0,0,0,0,0],"split_type":[0,0,0,0,0,0,0,0,0,0,0,0,0,0,0,0,0,0,0,0,0,0,0,0,0,0,0,0,0,0,0,0,0,0,0,0,0,0,0,0,0,0,0,0,0,0,0,0,0,0,0,0,0,0,0,0,0,0,0,0,0,0,0,0,0,0,0,0,0,0,0,0,0,0,0,0,0,0,0,0,0,0,0,0,0,0,0,0,0,0,0,0,0,0,0,0,0],"sum_hessian":[2.112E3,7.5E2,1.362E3,3.07E2,4.43E2,8.07E2,5.55E2,1.7E1,2.9E2,1.34E2,3.09E2,6.68E2,1.39E2,1.7E1,5.38E2,1E1,7E0,2.1E2,8E1,6E0,1.28E2,6.9E1,2.4E2,5.76E2,9.2E1,1.9E1,1.2E2,1.1E1,6E0,2.79E2,2.59E2,1.11E2,9.9E1,1.3E1,6.7E1,5.4E1,7.4E1,3.1E1,3.8E1,1.66E2,7.4E1,4.31E2,1.45E2,6E1,3.2E1,1.2E1,7E0,8.8E1,3.2E1,6E0,5E0,9.4E1,1.85E2,1.2E2,1.39E2,2.7E1,8.4E1,7E0,9.2E1,6E0,7E0,6.2E1,5E0,8E0,4.6E1,6.8E1,6E0,2.5E1,6E0,6E0,3.2E1,5.4E1,1.12E2,6E1,1.4E1,4.1E2,2.1E1,1.6E1,1.29E2,3.2E1,2.8E1,2E1,1.2E1,7E0,5E0,7E0,8.1E1,1.7E1,1.5E1,5.7E1,3.7E1,1.6E1,1.69E2,8.9E1,3.1E1,1.12E2,2.7E1],"tree_param":{"num_deleted":"0","num_feature":"183","num_nodes":"97","size_leaf_vector":"1"}},{"base_weights":[-8.961948E-2,-6.1250906E0,3.209255E0,-4.692632E-2,-1.0248974E1,-1.2519328E1,3.722555E0,3.3158875E0,-8.191887E0,-1.672313E1,-8.284718E0,-1.5047768E1,3.0010444E-1,-9.378365E0,4.321645E0,-4.8269897E0,7.7080398E0,-1.5794981E1,-1.2101177E0,-3.6101598E-1,-1.743982E1,-1.3867082E1,-5.5058427E0,-1.6989162E1,-1.8728979E-1,-1.2420435E0,-4.015788E0,1.0304208E0,6.786417E0,4.6375065E0,-1.4167717E1,3.6895773E0,1.4805893E1,-2.3601587E1,-1.1462333E0,-5.6463833E0,8.926092E0,-1.9712282E1,-1.4306172E1,-9.684417E0,-2.0158241E1,-8.842793E0,3.3062716E0,-1.2300432E1,-1.9796627E1,1.3358573E1,-9.361565E0,-3.3396713E-2,8.848373E0,7.9397054E0,-3.0148237E0,-6.1529666E-2,5.439611E-1,-1.1006572E-1,-8.842131E-1,-3.4096457E-2,6.156786E-1,1.436765E-1,8.4795207E-1,-1.4134499E0,-8.0207884E-1,3.505559E-1,-2.7457473E-1,-7.768492E-1,-7.32144E-2,8.422499E-2,7.525962E-1,-4.2803708E-1,-1.0347776E0,-9.045839E-3,-8.056232E-1,-6.9882673E-1,-6.139297E-2,5.463769E-2,-1.1420968E0,-2.3278736E-1,-7.685011E-1,-1.0055884E-1,7.6855445E-1,-2.8439662E-1,-8.038387E-1,-6.299698E-1,-1.147253E0,1.7186026E-1,1.0526756E0,1.0583266E-1,-8.120179E-1,-9.288006E-2,2.0326029E-1,5.513399E-1,-5.5439466E-1,2.8056288E-1,5.681438E-1,-9.8598224E-1,1.6059944E-2],"categories":[],"categories_nodes":[],"categories_segments":[],"categories_sizes":[],"default_left":[0,0,0,0,0,0,0,0,0,0,0,0,0,0,0,0,0,0,0,0,0,0,0,0,0,0,0,0,0,0,0,0,0,0,0,0,0,0,0,0,0,0,0,0,0,0,0,0,0,0,0,0,0,0,0,0,0,0,0,0,0,0,0,0,0,0,0,0,0,0,0,0,0,0,0,0,0,0,0,0,0,0,0,0,0,0,0,0,0,0,0,0,0,0,0],"id":7,"left_children":[1,3,5,7,9,11,13,15,17,19,21,23,-1,25,27,29,31,33,35,-1,37,39,41,43,-1,-1,45,47,49,51,53,55,57,59,61,63,65,67,69,71,73,75,77,79,81,83,85,87,89,91,93,-1,-1,-1,-1,-1,-1,-1,-1,-1,-1,-1,-1,-1,-1,-1,-1,-1,-1,-1,-1,-1,-1,-1,-1,-1,-1,-1,-1,-1,-1,-1,-1,-1,-1,-1,-1,-1,-1,-1,-1,-1,-1,-1,-1],"loss_changes":[4.2647527E4,1.8974209E4,1.1228373E4,8.435889E3,5.5967734E3,2.150851E3,1.0573395E4,7.833924E3,4.75836E3,5.823789E2,5.3220645E3,7.92084E2,0E0,4.792459E3,1.0408969E4,6.872909E3,3.9955615E3,4.890299E3,2.2088125E3,0E0,4.0161914E2,2.8308691E3,6.910144E3,1.9088672E2,0E0,0E0,4.3046323E3,4.582893E3,8.32082E3,1.4418411E3,1.6022065E3,3.4767825E3,1.2615674E3,5.3451953E2,6.056347E2,1.3836063E3,6.4005664E2,4.0397266E2,1.1197148E3,2.559892E3,2.5913613E3,4.574508E3,4.2009272E3,2.8312207E2,1.4144678E2,7.674221E2,2.797846E3,3.6412222E3,2.988622E3,5.1729727E3,4.3530913E3,0E0,0E0,0E0,0E0,0E0,0E0,0E0,0E0,0E0,0E0,0E0,0E0,0E0,0E0,0E0,0E0,0E0,0E0,0E0,0E0,0E0,0E0,0E0,0E0,0E0,0E0,0E0,0E0,0E0,0E0,0E0,0E0,0E0,0E0,0E0,0E0,0E0,0E0,0E0,0E0,0E0,0E0,0E0,0E0],"parents":[2147483647,0,0,1,1,2,2,3,3,4,4,5,5,6,6,7,7,8,8,9,9,10,10,11,11,13,13,14,14,15,15,16,16,17,17,18,18,20,20,21,21,22,22,23,23,26,26,27,27,28,28,29,29,30,30,31,31,32,32,33,33,34,34,35,35,36,36,37,37,38,38,39,39,40,40,41,41,42,42,43,43,44,44,45,45,46,46,47,47,48,48,49,49,50,50],"right_children":[2,4,6,8,10,12,14,16,18,20,22,24,-1,26,28,30,32,34,36,-1,38,40,42,44,-1,-1,46,48,50,52,54,56,58,60,62,64,66,68,70,72,74,76,78,80,82,84,86,88,90,92,94,-1,-1,-1,-1,-1,-1,-1,-1,-1,-1,-1,-1,-1,-1,-1,-1,-1,-1,-1,-1,-1,-1,-1,-1,-1,-1,-1,-1,-1,-1,-1,-1,-1,-1,-1,-1,-1,-1,-1,-1,-1,-1,-1,-1],"split_conditions":[1E5,2.176E3,8.285782E0,5.030871E0,-3.196827E-1,6.6673654E-1,-2.9E0,3.860416E0,1.054835E1,7.379672E-1,1.9815405E5,3.8553936E1,3.0010444E-1,9.293227E0,8.6808145E-1,8.399692E-1,1E0,-2.0379464E-1,9.668865E-1,-3.6101598E-1,1.2771181E1,1.3076538E1,-1.7199074E-1,9.068191E-3,-1.8728979E-1,-1.2420435E0,8.543255E-1,1E0,-1.7761E1,1.0217749E0,5.7959275E0,1E0,2.4597366E0,1.2669013E-2,4.3024853E-1,3.3333334E-1,2.7748257E1,3.266061E-3,7.7554736E0,1.2932529E5,2.6882248E0,3.274361E0,4.3812985E0,-1.9425E1,7.984388E-1,-2.0545427E-2,1.4023719E1,3E0,9.2947614E-1,1.0234919E0,8.0980253E-1,-6.1529666E-2,5.439611E-1,-1.1006572E-1,-8.842131E-1,-3.4096457E-2,6.156786E-1,1.436765E-1,8.4795207E-1,-1.4134499E0,-8.0207884E-1,3.505559E-1,-2.7457473E-1,-7.768492E-1,-7.32144E-2,8.422499E-2,7.525962E-1,-4.2803708E-1,-1.0347776E0,-9.045839E-3,-8.056232E-1,-6.9882673E-1,-6.139297E-2,5.463769E-2,-1.1420968E0,-2.3278736E-1,-7.685011E-1,-1.0055884E-1,7.6855445E-1,-2.8439662E-1,-8.038387E-1,-6.299698E-1,-1.147253E0,1.7186026E-1,1.0526756E0,1.0583266E-1,-8.120179E-1,-9.288006E-2,2.0326029E-1,5.513399E-1,-5.5439466E-1,2.8056288E-1,5.681438E-1,-9.8598224E-1,1.6059944E-2],"split_indices":[153,178,20,68,165,134,141,73,85,8,176,35,0,151,121,9,17,163,123,0,105,93,159,126,0,0,123,17,146,125,150,18,111,126,181,144,96,126,150,120,151,29,110,146,122,168,87,131,122,124,123,0,0,0,0,0,0,0,0,0,0,0,0,0,0,0,0,0,0,0,0,0,0,0,0,0,0,0,0,0,0,0,0,0,0,0,0,0,0,0,0,0,0,0,0],"split_type":[0,0,0,0,0,0,0,0,0,0,0,0,0,0,0,0,0,0,0,0,0,0,0,0,0,0,0,0,0,0,0,0,0,0,0,0,0,0,0,0,0,0,0,0,0,0,0,0,0,0,0,0,0,0,0,0,0,0,0,0,0,0,0,0,0,0,0,0,0,0,0,0,0,0,0,0,0,0,0,0,0,0,0,0,0,0,0,0,0,0,0,0,0,0,0],"sum_hessian":[2.14E3,7.56E2,1.384E3,3.06E2,4.5E2,4.3E1,1.341E3,2.17E2,8.9E1,1.03E2,3.47E2,3.8E1,5E0,5.8E1,1.283E3,7.6E1,1.41E2,4.2E1,4.7E1,8E0,9.5E1,1.14E2,2.33E2,3.2E1,6E0,1.4E1,4.4E1,5.5E2,7.33E2,3.8E1,3.8E1,9.1E1,5E1,2.7E1,1.5E1,3.3E1,1.4E1,5.2E1,4.3E1,7E1,4.4E1,1.69E2,6.4E1,1.4E1,1.8E1,1E1,3.4E1,4.85E2,6.5E1,6.56E2,7.7E1,2E1,1.8E1,9E0,2.9E1,6.1E1,3E1,8E0,4.2E1,1.5E1,1.2E1,5E0,1E1,9E0,2.4E1,7E0,7E0,5E0,4.7E1,5E0,3.8E1,4.6E1,2.4E1,5E0,3.9E1,1.04E2,6.5E1,4.5E1,1.9E1,6E0,8E0,7E0,1.1E1,5E0,5E0,1.3E1,2.1E1,3.36E2,1.49E2,5.9E1,6E0,3.92E2,2.64E2,1.2E1,6.5E1],"tree_param":{"num_deleted":"0","num_feature":"183","num_nodes":"95","size_leaf_vector":"1"}},{"base_weights":[1.7562732E-1,-5.397862E0,3.1493828E0,8.1930286E-1,-9.654353E0,4.383363E0,-2.7985692E0,-4.1623316E0,6.7839136E0,4.91057E0,-1.0518911E1,3.7813085E-1,5.9350505E0,-1.4651159E0,-1.7950897E1,-7.57705E-1,-1.8076344E1,1.4151558E0,1.2291812E1,-6.0922647E0,1.5535668E1,-1.1446998E1,-1.39668E0,1.4145613E0,-1.1316187E1,8.135165E0,2.3777473E0,-2.4760134E0,9.9045765E-1,-1.1645923E0,-4.714264E-1,6.771723E0,-4.59937E0,-8.1685505E0,-2.2208588E1,-1.675316E1,4.722428E0,1.4135922E1,-2.7671358E-1,1.0447069E-1,-6.70181E-1,4.1177207E-1,1.0308257E0,-1.2555409E1,-2.4391084E0,-1.1570993E1,9.922123E0,-2.5901885E0,3.9795427E0,3.8295694E-2,-1.4979113E1,1.0029673E1,-1.4670408E-1,-4.2790337E0,5.2414584E0,-1.3175243E1,-6.0924166E-1,-1.440455E-1,7.3045325E-1,-6.981224E-1,-9.961292E-2,9.437676E-2,-8.4316057E-1,-1.2172494E0,-7.0763654E-1,-4.475093E-1,-1.0881971E0,3.81816E-1,-3.1999102E-1,1.8613097E-1,8.176198E-1,-6.934427E-1,-2.5362033E-1,-3.3175537E-1,5.825799E-1,-2.7357077E-2,-8.5219187E-1,-3.171986E-2,9.7432154E-1,3.6819217E-1,-3.0162033E-1,3.8907352E-1,-3.5819408E-2,-2.513263E-1,-9.442735E-1,-3.8294765E-1,5.4061633E-1,3.7215945E-1,-5.6179315E-1,1.8335533E-1,-4.0014502E-1,-2.9492522E-2,4.3553567E-1,-8.501827E-2,-9.7007036E-1,1.02264896E-1,-3.74943E-1],"categories":[],"categories_nodes":[],"categories_segments":[],"categories_sizes":[],"default_left":[0,0,0,0,0,0,0,0,0,0,0,0,0,0,0,0,0,0,0,0,0,1,0,0,0,0,0,0,0,0,0,0,0,0,0,0,0,0,0,0,0,0,0,0,0,0,0,0,0,0,0,0,0,0,0,0,0,0,0,0,0,0,0,0,0,0,0,0,0,0,0,0,0,0,0,0,0,0,0,0,0,0,0,0,0,0,0,0,0,0,0,0,0,0,0,0,0],"id":8,"left_children":[1,3,5,7,9,11,13,15,17,19,21,23,25,27,29,31,33,35,37,39,41,43,45,47,49,51,53,55,-1,-1,-1,57,59,61,63,65,67,69,-1,-1,-1,-1,-1,71,73,75,77,79,81,-1,83,85,87,89,91,93,95,-1,-1,-1,-1,-1,-1,-1,-1,-1,-1,-1,-1,-1,-1,-1,-1,-1,-1,-1,-1,-1,-1,-1,-1,-1,-1,-1,-1,-1,-1,-1,-1,-1,-1,-1,-1,-1,-1,-1,-1],"loss_changes":[3.4822812E4,1.9352592E4,1.0067595E4,8.882863E3,5.5166797E3,7.051633E3,4.7420615E3,7.7079404E3,4.0042026E3,3.0173025E3,3.455164E3,3.8702776E3,6.382715E3,4.7373784E3,6.452251E2,3.8493171E3,1.1287148E3,4.285246E3,2.2807422E3,8.056548E2,3.1240137E2,3.683586E3,4.60609E3,3.0200356E3,1.1621245E3,7.924953E3,6.008241E3,4.166334E3,0E0,0E0,0E0,3.4463813E3,2.120315E3,9.936066E2,3.4083984E1,2.3529785E2,1.9934126E3,1.3470557E3,0E0,0E0,0E0,0E0,0E0,3.1828867E3,2.5605422E3,1.2576431E3,1.9307124E3,3.984776E3,3.2013674E3,0E0,6.8263916E2,5.7727188E3,8.079355E3,2.8404321E3,4.4558037E3,2.1817896E3,3.289026E3,0E0,0E0,0E0,0E0,0E0,0E0,0E0,0E0,0E0,0E0,0E0,0E0,0E0,0E0,0E0,0E0,0E0,0E0,0E0,0E0,0E0,0E0,0E0,0E0,0E0,0E0,0E0,0E0,0E0,0E0,0E0,0E0,0E0,0E0,0E0,0E0,0E0,0E0,0E0,0E0],"parents":[2147483647,0,0,1,1,2,2,3,3,4,4,5,5,6,6,7,7,8,8,9,9,10,10,11,11,12,12,13,13,14,14,15,15,16,16,17,17,18,18,19,19,20,20,21,21,22,22,23,23,24,24,25,25,26,26,27,27,31,31,32,32,33,33,34,34,35,35,36,36,37,37,43,43,44,44,45,45,46,46,47,47,48,48,50,50,51,51,52,52,53,53,54,54,55,55,56,56],"right_children":[2,4,6,8,10,12,14,16,18,20,22,24,26,28,30,32,34,36,38,40,42,44,46,48,50,52,54,56,-1,-1,-1,58,60,62,64,66,68,70,-1,-1,-1,-1,-1,72,74,76,78,80,82,-1,84,86,88,90,92,94,96,-1,-1,-1,-1,-1,-1,-1,-1,-1,-1,-1,-1,-1,-1,-1,-1,-1,-1,-1,-1,-1,-1,-1,-1,-1,-1,-1,-1,-1,-1,-1,-1,-1,-1,-1,-1,-1,-1,-1,-1],"split_conditions":[7.198221E-1,2.176E3,1.1918201E1,2.0194192E0,7.87414E-1,2E0,-5.4250002E-2,1.19316435E1,7.236513E0,4.0540618E-1,1.6277975E1,1.5156483E1,9.902382E0,1.9620066E1,1.5273848E-2,4.1123414E0,6.25E-2,6.178864E0,1.5278455E-2,6.6055374E0,8.999882E-1,8.6852443E-1,2.9834096E0,7.2912226E0,3.8173844E4,7.064054E2,3.2938778E0,7.9758626E-1,9.9045765E-1,-1.1645923E0,-4.714264E-1,1.0229876E0,1.615698E8,2.6887674E0,2.637434E3,9.9835753E-1,1.7169806E1,3.4855478E0,-2.7671358E-1,1.0447069E-1,-6.70181E-1,4.1177207E-1,1.0308257E0,9.670973E0,8.2457525E-1,-1.597E0,3.3333335E-2,1.2137505E-1,1.2788169E1,3.8295694E-2,6.25E-2,1.814E3,1.6574E4,2.3287786E-3,4.3196917E0,5.437018E0,6.1913294E5,-1.440455E-1,7.3045325E-1,-6.981224E-1,-9.961292E-2,9.437676E-2,-8.4316057E-1,-1.2172494E0,-7.0763654E-1,-4.475093E-1,-1.0881971E0,3.81816E-1,-3.1999102E-1,1.8613097E-1,8.176198E-1,-6.934427E-1,-2.5362033E-1,-3.3175537E-1,5.825799E-1,-2.7357077E-2,-8.5219187E-1,-3.171986E-2,9.7432154E-1,3.6819217E-1,-3.0162033E-1,3.8907352E-1,-3.5819408E-2,-2.513263E-1,-9.442735E-1,-3.8294765E-1,5.4061633E-1,3.7215945E-1,-5.6179315E-1,1.8335533E-1,-4.0014502E-1,-2.9492522E-2,4.3553567E-1,-8.501827E-2,-9.7007036E-1,1.02264896E-1,-3.74943E-1],"split_indices":[11,178,65,78,122,131,165,150,73,47,73,63,151,100,128,110,138,85,126,100,121,2,111,85,120,89,21,122,0,0,0,124,172,62,6,124,151,38,0,0,0,0,0,57,7,148,130,69,50,0,138,178,178,128,39,35,174,0,0,0,0,0,0,0,0,0,0,0,0,0,0,0,0,0,0,0,0,0,0,0,0,0,0,0,0,0,0,0,0,0,0,0,0,0,0,0,0],"split_type":[0,0,0,0,0,0,0,0,0,0,0,0,0,0,0,0,0,0,0,0,0,0,0,0,0,0,0,0,0,0,0,0,0,0,0,0,0,0,0,0,0,0,0,0,0,0,0,0,0,0,0,0,0,0,0,0,0,0,0,0,0,0,0,0,0,0,0,0,0,0,0,0,0,0,0,0,0,0,0,0,0,0,0,0,0,0,0,0,0,0,0,0,0,0,0,0,0],"sum_hessian":[2.099E3,7.3E2,1.369E3,2.97E2,4.33E2,1.134E3,2.35E2,1.62E2,1.35E2,2.4E1,4.09E2,3.17E2,8.17E2,2.17E2,1.8E1,1.31E2,3.1E1,6.9E1,6.6E1,1.2E1,1.2E1,3.71E2,3.8E1,2.92E2,2.5E1,5.04E2,3.13E2,2.08E2,9E0,1E1,8E0,4.4E1,8.7E1,1E1,2.1E1,1E1,5.9E1,6E1,6E0,6E0,6E0,6E0,6E0,3.3E2,4.1E1,2E1,1.8E1,1.14E2,1.78E2,6E0,1.9E1,4.1E2,9.4E1,9.4E1,2.19E2,3E1,1.78E2,2E1,2.4E1,1.8E1,6.9E1,5E0,5E0,1.5E1,6E0,5E0,5E0,4.7E1,1.2E1,1.1E1,4.9E1,2.8E2,5E1,3.2E1,9E0,7E0,1.3E1,9E0,9E0,2.9E1,8.5E1,9.8E1,8E1,6E0,1.3E1,1.7E1,3.93E2,5.6E1,3.8E1,3E1,6.4E1,8.2E1,1.37E2,1.1E1,1.9E1,1.29E2,4.9E1],"tree_param":{"num_deleted":"0","num_feature":"183","num_nodes":"97","size_leaf_vector":"1"}},{"base_weights":[-2.6653597E-1,-1.4177354E1,7.7056175E-1,-1.5312024E1,-3.9302418E0,-1.5654033E0,4.4978714E0,-1.619435E1,-6.718541E0,-5.421168E-1,2.1685727E-1,-6.8668866E0,7.1564114E-1,5.868067E0,-4.299085E0,-1.3653259E1,-2.1251585E1,-5.0394034E-1,-2.7919292E-2,-1.3716145E1,-4.988036E0,-1.4889991E0,5.944448E0,7.2585064E-1,7.672159E0,4.3433672E-1,-1.1765083E1,-1.46621685E1,-3.744631E-2,-6.9909626E-1,-1.1512775E0,-6.347641E0,-1.6319494E1,-3.9646246E0,-1.850352E1,6.120885E-2,-8.143088E0,7.296506E0,-1.1020078E1,-1.3319501E0,1.1356396E1,6.771062E0,1.9115732E1,-3.0456254E0,1.1064574E1,-1.49918E1,1.5078805E-1,-3.7820524E-1,-8.3673E-1,1.967815E-1,-5.704438E-1,-9.281026E-1,-3.650726E-1,5.6452412E-2,-3.9169368E-1,-1.2144207E0,-4.3671885E-1,4.189333E-1,-5.8739204E-2,-5.422112E-1,3.357679E-1,-4.7715494E-1,4.1651258E-1,-8.8177294E-1,1.402502E-2,-2.5159988E-1,2.3191698E-1,8.211285E-1,-5.8179475E-2,2.372912E-1,5.804066E-1,5.9430075E-1,1.2641733E0,-6.307364E-1,-1.3427739E-2,2.23556E-1,9.451572E-1,-8.932458E-1,-8.840474E-2],"categories":[],"categories_nodes":[],"categories_segments":[],"categories_sizes":[],"default_left":[0,0,0,0,0,0,0,0,0,0,0,0,0,0,0,0,0,0,0,0,0,0,0,0,0,0,0,0,0,0,0,0,0,0,0,0,0,0,0,0,0,0,0,0,0,0,0,0,0,0,0,0,0,0,0,0,0,0,0,0,0,0,0,0,0,0,0,0,0,0,0,0,0,0,0,0,0,0,0],"id":9,"left_children":[1,3,5,7,9,11,13,15,17,-1,-1,19,21,23,25,27,29,-1,-1,31,33,35,37,39,41,43,45,47,-1,-1,-1,49,51,53,55,57,59,61,63,65,67,69,71,73,75,77,-1,-1,-1,-1,-1,-1,-1,-1,-1,-1,-1,-1,-1,-1,-1,-1,-1,-1,-1,-1,-1,-1,-1,-1,-1,-1,-1,-1,-1,-1,-1,-1,-1],"loss_changes":[3.0567053E4,1.649002E3,1.717698E4,8.9205664E2,9.6134436E2,1.4673627E4,9.185926E3,1.2391016E3,2.841687E2,0E0,0E0,4.62867E3,9.795816E3,6.0987207E3,3.6451016E3,1.0566006E3,1.6811133E2,0E0,0E0,1.392669E3,3.9102275E3,6.1690015E3,5.860538E3,3.7777195E3,4.8923984E3,2.4012393E3,1.9529551E3,9.9139844E2,0E0,0E0,0E0,1.1899146E3,1.017209E3,5.310482E3,9.18125E2,5.006078E3,4.608041E3,4.1529424E3,1.4253413E3,3.2264417E3,1.7951047E3,4.3825977E3,1.2601641E3,1.298742E3,7.424138E2,1.2221895E3,0E0,0E0,0E0,0E0,0E0,0E0,0E0,0E0,0E0,0E0,0E0,0E0,0E0,0E0,0E0,0E0,0E0,0E0,0E0,0E0,0E0,0E0,0E0,0E0,0E0,0E0,0E0,0E0,0E0,0E0,0E0,0E0,0E0],"parents":[2147483647,0,0,1,1,2,2,3,3,4,4,5,5,6,6,7,7,8,8,11,11,12,12,13,13,14,14,15,15,16,16,19,19,20,20,21,21,22,22,23,23,24,24,25,25,26,26,27,27,31,31,32,32,33,33,34,34,35,35,36,36,37,37,38,38,39,39,40,40,41,41,42,42,43,43,44,44,45,45],"right_children":[2,4,6,8,10,12,14,16,18,-1,-1,20,22,24,26,28,30,-1,-1,32,34,36,38,40,42,44,46,48,-1,-1,-1,50,52,54,56,58,60,62,64,66,68,70,72,74,76,78,-1,-1,-1,-1,-1,-1,-1,-1,-1,-1,-1,-1,-1,-1,-1,-1,-1,-1,-1,-1,-1,-1,-1,-1,-1,-1,-1,-1,-1,-1,-1,-1,-1],"split_conditions":[-3.2728526E-1,2.4040234E1,1.3028E4,6.666667E-1,8.2339257E-1,1.041E4,1.49285145E1,4.2605892E1,8.831732E-1,-5.421168E-1,2.1685727E-1,4E-1,1E0,2E0,2.5271E4,6.5401053E0,2.9188812E-1,-5.0394034E-1,-2.7919292E-2,5.401736E0,-1.7653E1,5.1133867E-2,1.3372552E1,1.3729453E1,3.5607924E0,8.523636E0,9.792341E0,4.4016037E-2,-3.744631E-2,-6.9909626E-1,-1.1512775E0,-2.4087963E-1,8.436575E-1,5.677639E0,1.01487E0,8.057877E-1,1.6422087E3,8.184107E-1,9.637016E4,2.098809E3,1.6666667E-1,1E0,3.846647E0,2.1544044E5,7.286179E2,2.149592E3,1.5078805E-1,-3.7820524E-1,-8.3673E-1,1.967815E-1,-5.704438E-1,-9.281026E-1,-3.650726E-1,5.6452412E-2,-3.9169368E-1,-1.2144207E0,-4.3671885E-1,4.189333E-1,-5.8739204E-2,-5.422112E-1,3.357679E-1,-4.7715494E-1,4.1651258E-1,-8.8177294E-1,1.402502E-2,-2.5159988E-1,2.3191698E-1,8.211285E-1,-5.8179475E-2,2.372912E-1,5.804066E-1,5.9430075E-1,1.2641733E0,-6.307364E-1,-1.3427739E-2,2.23556E-1,9.451572E-1,-8.932458E-1,-8.840474E-2],"split_indices":[167,87,178,144,122,179,88,139,121,0,0,144,18,131,178,31,118,0,0,86,146,92,99,103,22,37,81,39,0,0,0,159,44,107,125,2,115,123,120,6,133,14,39,174,112,6,0,0,0,0,0,0,0,0,0,0,0,0,0,0,0,0,0,0,0,0,0,0,0,0,0,0,0,0,0,0,0,0,0],"split_type":[0,0,0,0,0,0,0,0,0,0,0,0,0,0,0,0,0,0,0,0,0,0,0,0,0,0,0,0,0,0,0,0,0,0,0,0,0,0,0,0,0,0,0,0,0,0,0,0,0,0,0,0,0,0,0,0,0,0,0,0,0,0,0,0,0,0,0,0,0,0,0,0,0,0,0,0,0,0,0],"sum_hessian":[2.117E3,1.46E2,1.971E3,1.31E2,1.5E1,1.212E3,7.59E2,1.18E2,1.3E1,8E0,7E0,3.64E2,8.48E2,6.57E2,1.02E2,8.1E1,3.7E1,8E0,5E0,7.7E1,2.87E2,5.97E2,2.51E2,1.71E2,4.86E2,6.3E1,3.9E1,7.5E1,6E0,9E0,2.8E1,2.1E1,5.6E1,2.68E2,1.9E1,4.85E2,1.12E2,2.33E2,1.8E1,1.44E2,2.7E1,4.52E2,3.4E1,4.8E1,1.5E1,3.2E1,7E0,1.8E1,5.7E1,7E0,1.4E1,4.4E1,1.2E1,1.16E2,1.52E2,1.1E1,8E0,6.2E1,4.23E2,9.5E1,1.7E1,1.3E1,2.2E2,1.1E1,7E0,8.9E1,5.5E1,1.9E1,8E0,3.2E2,1.32E2,1.7E1,1.7E1,1E1,3.8E1,9E0,6E0,2.6E1,6E0],"tree_param":{"num_deleted":"0","num_feature":"183","num_nodes":"79","size_leaf_vector":"1"}},{"base_weights":[9.3220614E-2,-9.515484E0,1.4078839E0,-1.6097282E1,-7.097082E0,-2.2741541E-1,5.916907E0,-1.736952E1,-1.264636E-1,-1.0081612E1,-2.7206156E0,1.3935907E0,-4.4712934E0,2.3792174E0,9.83426E0,-1.8925964E1,-9.307175E0,-1.355644E1,-3.7335813E0,-6.3755865E0,4.8345413E0,-7.5288403E-1,5.5681076E0,-1.6259817E0,-1.3111008E1,8.359153E0,-1.8413774E0,1.0698115E1,-6.5713817E-1,-4.552412E-1,-2.0541414E1,-1.0232464E-2,-7.8898716E-1,-4.699289E0,-1.4909218E1,4.336235E0,-1.0237622E1,2.2681367E-1,-9.777587E0,-2.747371E-1,8.929263E0,-3.350999E-1,-1.7495527E1,-1.1457136E1,6.28437E0,-4.1224165E0,7.887571E0,-1.6354761E1,-2.968612E0,2.4228237E0,1.2655158E1,-1.5725124E1,9.495365E-1,-9.976352E-1,1.2078977E1,-7.178785E-1,-1.0990114E0,1.7075807E-1,-6.015262E-1,-7.973367E-1,-2.956322E-1,6.3889605E-1,-2.714221E-2,1.0725061E-1,-6.8982047E-1,-2.8702626E-1,2.0930694E-1,1.4019197E-1,-5.983977E-1,8.348362E-1,2.0299593E-1,-1.0745852E0,-1.7357403E-3,-4.509215E-1,-1.0264448E0,5.519101E-2,-9.279046E-1,4.2048484E-1,-2.2009341E-2,-7.0906204E-1,-7.1605355E-2,-3.7843904E-1,5.5651087E-1,-8.9115334E-1,-2.1297131E-1,-5.8027434E-1,3.3176935E-1,-1.3416122E-1,4.1735578E-1,1.698315E-1,8.0014735E-1,-1.0368922E0,4.2168617E-2,5.4039544E-1,-6.922545E-2,3.2853377E-1,-4.872097E-1,6.915099E-1,1.1169825E-1],"categories":[],"categories_nodes":[],"categories_segments":[],"categories_sizes":[],"default_left":[0,0,0,0,0,0,0,0,0,0,0,0,0,0,0,0,0,0,0,0,0,0,0,0,0,0,0,0,0,0,0,0,0,0,0,0,0,0,0,0,0,0,0,0,0,0,0,0,0,0,0,0,0,0,0,0,0,0,0,0,0,0,0,0,0,0,0,0,0,0,0,0,0,0,0,0,0,0,0,0,0,0,0,0,0,0,0,0,0,0,0,0,0,0,0,0,0,0,0],"id":10,"left_children":[1,3,5,7,9,11,13,15,-1,17,19,21,23,25,27,29,31,33,35,37,39,41,43,45,47,49,51,53,-1,-1,55,-1,-1,57,59,61,63,65,67,-1,69,71,73,75,77,79,81,83,85,87,89,91,93,95,97,-1,-1,-1,-1,-1,-1,-1,-1,-1,-1,-1,-1,-1,-1,-1,-1,-1,-1,-1,-1,-1,-1,-1,-1,-1,-1,-1,-1,-1,-1,-1,-1,-1,-1,-1,-1,-1,-1,-1,-1,-1,-1,-1,-1],"loss_changes":[2.6869477E4,3.9606191E3,1.3797357E4,1.1298652E3,2.4412334E3,9.458461E3,6.878076E3,6.0186523E2,0E0,2.419917E3,2.1847058E3,8.919884E3,9.3201E3,6.653218E3,4.824922E3,6.221172E2,7.0377136E2,7.9262305E2,2.1963357E3,1.1926704E3,1.148748E3,4.5967227E3,4.193757E3,6.848756E3,3.043995E3,2.7491118E3,6.020925E3,3.6942988E3,0E0,0E0,6.700586E1,0E0,0E0,6.954646E2,4.8442578E2,7.8950183E2,1.0431384E3,4.7293665E2,9.9808374E2,0E0,6.508391E2,4.0856016E3,2.2628809E2,1.2692119E3,4.6485635E3,6.149679E3,3.0914106E3,1.1850215E3,2.067772E3,1.444134E3,1.8983682E3,2.1768726E3,3.0062488E3,1.7189427E3,3.4862285E3,0E0,0E0,0E0,0E0,0E0,0E0,0E0,0E0,0E0,0E0,0E0,0E0,0E0,0E0,0E0,0E0,0E0,0E0,0E0,0E0,0E0,0E0,0E0,0E0,0E0,0E0,0E0,0E0,0E0,0E0,0E0,0E0,0E0,0E0,0E0,0E0,0E0,0E0,0E0,0E0,0E0,0E0,0E0,0E0],"parents":[2147483647,0,0,1,1,2,2,3,3,4,4,5,5,6,6,7,7,9,9,10,10,11,11,12,12,13,13,14,14,15,15,16,16,17,17,18,18,19,19,20,20,21,21,22,22,23,23,24,24,25,25,26,26,27,27,30,30,33,33,34,34,35,35,36,36,37,37,38,38,40,40,41,41,42,42,43,43,44,44,45,45,46,46,47,47,48,48,49,49,50,50,51,51,52,52,53,53,54,54],"right_children":[2,4,6,8,10,12,14,16,-1,18,20,22,24,26,28,30,32,34,36,38,40,42,44,46,48,50,52,54,-1,-1,56,-1,-1,58,60,62,64,66,68,-1,70,72,74,76,78,80,82,84,86,88,90,92,94,96,98,-1,-1,-1,-1,-1,-1,-1,-1,-1,-1,-1,-1,-1,-1,-1,-1,-1,-1,-1,-1,-1,-1,-1,-1,-1,-1,-1,-1,-1,-1,-1,-1,-1,-1,-1,-1,-1,-1,-1,-1,-1,-1,-1,-1],"split_conditions":[-3.0366528E-1,-3.642364E-1,1E0,1.3865323E-2,1.1054E4,8.5257983E-1,1.35001745E1,-3.2319444E-1,-1.264636E-1,1.7437252E1,-9.9411345E-1,8.9855486E-1,1.537531E0,8.5604686E-1,-1.189E0,-4.5454547E-1,-2.6285714E-1,5.89092E0,-3.15E-1,8.7208384E-1,3.0181047E4,-5.312958E-2,-3.2E0,1.1398E4,3.5893867E1,7.5716786E0,4E-1,4.746066E-1,-6.5713817E-1,-4.552412E-1,-2.5336756E-3,-1.0232464E-2,-7.8898716E-1,3.622599E0,1.4748423E1,7.289818E-3,3.3242742E4,3.3882113E0,-8.0644688E3,-2.747371E-1,-6.508E0,-4.3E0,1.4237821E0,4.7993307E0,-1.8884E1,5.5458317E0,-1.9E0,2.351289E1,-1.3035715E-1,-6.175E0,5.2908156E5,7.437275E4,6.468298E-1,4.4032917E0,1.5294913E1,-7.178785E-1,-1.0990114E0,1.7075807E-1,-6.015262E-1,-7.973367E-1,-2.956322E-1,6.3889605E-1,-2.714221E-2,1.0725061E-1,-6.8982047E-1,-2.8702626E-1,2.0930694E-1,1.4019197E-1,-5.983977E-1,8.348362E-1,2.0299593E-1,-1.0745852E0,-1.7357403E-3,-4.509215E-1,-1.0264448E0,5.519101E-2,-9.279046E-1,4.2048484E-1,-2.2009341E-2,-7.0906204E-1,-7.1605355E-2,-3.7843904E-1,5.5651087E-1,-8.9115334E-1,-2.1297131E-1,-5.8027434E-1,3.3176935E-1,-1.3416122E-1,4.1735578E-1,1.698315E-1,8.0014735E-1,-1.0368922E0,4.2168617E-2,5.4039544E-1,-6.922545E-2,3.2853377E-1,-4.872097E-1,6.915099E-1,1.1169825E-1],"split_indices":[164,166,17,128,179,4,45,159,0,53,173,121,74,9,148,133,155,149,164,0,120,164,141,179,139,26,144,102,0,0,127,0,0,60,45,126,120,84,145,0,5,141,151,57,146,53,141,108,154,5,176,120,41,116,152,0,0,0,0,0,0,0,0,0,0,0,0,0,0,0,0,0,0,0,0,0,0,0,0,0,0,0,0,0,0,0,0,0,0,0,0,0,0,0,0,0,0,0,0],"split_type":[0,0,0,0,0,0,0,0,0,0,0,0,0,0,0,0,0,0,0,0,0,0,0,0,0,0,0,0,0,0,0,0,0,0,0,0,0,0,0,0,0,0,0,0,0,0,0,0,0,0,0,0,0,0,0,0,0,0,0,0,0,0,0,0,0,0,0,0,0,0,0,0,0,0,0,0,0,0,0,0,0,0,0,0,0,0,0,0,0,0,0,0,0,0,0,0,0,0,0],"sum_hessian":[2.125E3,2.55E2,1.87E3,6.7E1,1.88E2,1.373E3,4.97E2,6.1E1,6E0,1.11E2,7.7E1,9.94E2,3.79E2,2.62E2,2.35E2,5E1,1.1E1,7.1E1,4E1,5.2E1,2.5E1,6.57E2,3.37E2,2.86E2,9.3E1,1.08E2,1.54E2,2.27E2,8E0,8E0,4.2E1,5E0,6E0,1E1,6.1E1,1.8E1,2.2E1,1.8E1,3.4E1,7E0,1.8E1,6.42E2,1.5E1,1.3E1,3.24E2,2.27E2,5.9E1,7E1,2.3E1,4.6E1,6.2E1,2.5E1,1.29E2,2.4E1,2.03E2,1E1,3.2E1,5E0,5E0,5.4E1,7E0,6E0,1.2E1,5E0,1.7E1,7E0,1.1E1,5E0,2.9E1,6E0,1.2E1,8E0,6.34E2,5E0,1E1,5E0,8E0,2.46E2,7.8E1,4.7E1,1.8E2,1E1,4.9E1,6.2E1,8E0,1.2E1,1.1E1,2.5E1,2.1E1,1.7E1,4.5E1,1.9E1,6E0,2.4E1,1.05E2,1.3E1,1.1E1,1.72E2,3.1E1],"tree_param":{"num_deleted":"0","num_feature":"183","num_nodes":"99","size_leaf_vector":"1"}},{"base_weights":[-1.4096358E-1,-7.3702126E0,1.5493942E0,-1.3751919E1,-4.8185124E0,-1.1222732E1,2.0581393E0,-1.5637635E1,-6.9568653E0,-9.611585E0,-2.2852542E0,-4.388514E0,-2.0026585E1,3.3495343E0,-2.5515566E0,-5.080568E0,-1.689376E1,-9.366909E-1,-1.8982407E0,4.796479E0,-1.1608138E1,-5.686903E0,2.590661E0,5.401843E-1,-8.049423E0,-1.1195476E0,-5.510627E-1,-2.2887863E-1,4.7819076E0,1.1283271E1,-3.9027402E0,6.933575E-2,-5.3505445E-1,-1.7527895E1,-4.4977847E-1,-6.2866716E0,3.574899E-1,5.113996E-1,-6.601225E-2,1.171263E-1,-1.3014902E1,1.0344389E-2,-8.766636E0,-6.673577E0,8.587905E0,3.0406126E-1,-1.1544235E1,5.863749E-1,-9.320777E0,2.5512068E0,7.9455614E0,1.866886E1,-7.351984E-2,6.509988E-1,-7.6680627E0,-7.2642475E-1,-9.757269E-1,-5.826105E-1,-1.0055639E-1,-4.6681595E-1,-7.80543E-1,-6.236078E-1,1.4735496E-1,-5.8892566E-1,-1.1961088E-1,-4.770921E-1,3.6729392E-1,8.2049894E-1,5.1861268E-2,-2.5672254E-1,-8.335795E-1,-4.9507353E-2,3.9841622E-1,-6.978076E-1,1.7804122E-1,2.1661699E-1,-1.5396068E-1,-5.872001E-1,4.3034726E-1,6.0331786E-1,1.2032365E0,5.9276456E-1,-5.25102E-1,-1.4153564E-1,3.9399695E-1,-4.4491252E-1,5.3530794E-1],"categories":[],"categories_nodes":[],"categories_segments":[],"categories_sizes":[],"default_left":[0,0,0,0,0,0,0,0,0,0,0,0,0,0,0,0,0,0,0,0,0,0,0,0,0,0,0,0,0,0,0,0,0,0,0,0,0,0,0,0,0,0,0,0,0,0,0,0,0,0,0,0,0,0,0,0,0,0,0,0,0,0,0,0,0,0,0,0,0,0,0,0,0,0,0,0,0,0,0,0,0,0,0,0,0,0,0],"id":11,"left_children":[1,3,5,7,9,11,13,15,17,19,21,23,25,27,29,31,33,-1,35,37,39,41,43,-1,45,-1,-1,47,49,51,53,-1,-1,55,-1,57,-1,-1,-1,-1,59,61,63,65,67,-1,69,71,73,75,77,79,81,83,85,-1,-1,-1,-1,-1,-1,-1,-1,-1,-1,-1,-1,-1,-1,-1,-1,-1,-1,-1,-1,-1,-1,-1,-1,-1,-1,-1,-1,-1,-1,-1,-1],"loss_changes":[2.6308898E4,6.5776914E3,1.1361684E4,1.377584E3,3.5356675E3,3.943332E3,1.0003528E4,1.1076621E3,1.5729686E3,2.9610928E3,3.21586E3,2.2560366E3,3.7068945E2,6.725911E3,6.923204E3,4.146838E2,2.4300781E2,0E0,8.390824E2,4.4540338E2,1.7771387E3,2.0003345E3,4.5021035E3,0E0,1.65049E3,0E0,0E0,2.7924531E3,6.592293E3,2.7693003E3,5.7661475E3,0E0,0E0,1.514707E2,0E0,2.977343E2,0E0,0E0,0E0,0E0,6.2775684E2,1.5397366E3,1.3925459E3,1.3568616E3,2.877016E3,0E0,7.688967E2,4.0345706E3,1.9007383E3,5.5390586E3,5.1407285E3,4.2215088E2,1.8661027E3,3.8731758E3,4.2543564E3,0E0,0E0,0E0,0E0,0E0,0E0,0E0,0E0,0E0,0E0,0E0,0E0,0E0,0E0,0E0,0E0,0E0,0E0,0E0,0E0,0E0,0E0,0E0,0E0,0E0,0E0,0E0,0E0,0E0,0E0,0E0,0E0],"parents":[2147483647,0,0,1,1,2,2,3,3,4,4,5,5,6,6,7,7,8,8,9,9,10,10,11,11,12,12,13,13,14,14,15,15,16,16,18,18,19,19,20,20,21,21,22,22,24,24,27,27,28,28,29,29,30,30,33,33,35,35,40,40,41,41,42,42,43,43,44,44,46,46,47,47,48,48,49,49,50,50,51,51,52,52,53,53,54,54],"right_children":[2,4,6,8,10,12,14,16,18,20,22,24,26,28,30,32,34,-1,36,38,40,42,44,-1,46,-1,-1,48,50,52,54,-1,-1,56,-1,58,-1,-1,-1,-1,60,62,64,66,68,-1,70,72,74,76,78,80,82,84,86,-1,-1,-1,-1,-1,-1,-1,-1,-1,-1,-1,-1,-1,-1,-1,-1,-1,-1,-1,-1,-1,-1,-1,-1,-1,-1,-1,-1,-1,-1,-1,-1],"split_conditions":[-2.822596E-1,-3.3972755E-1,1.602347E3,-1.6862631E-3,9.203E3,7.608272E0,1E0,7.712929E-1,6E-1,8.483517E-1,6.253905E0,9.860476E-1,6.8945894E0,8.425073E-1,2.0622828E-3,-2.298E0,1.0355046E0,-9.366909E-1,-1.87E0,1.1229362E-2,1.4472014E-1,6.645614E-1,-2.07E0,5.401843E-1,1.2669982E0,-1.1195476E0,-5.510627E-1,5.7985956E5,1.0234919E0,1.01460285E1,4.7832136E0,6.933575E-2,-5.3505445E-1,1.698977E0,-4.4977847E-1,8.5909635E-1,3.574899E-1,5.113996E-1,-6.601225E-2,1.171263E-1,4.733957E0,5E-1,-2.6170138E-1,9.72638E0,-6.175E0,3.0406126E-1,1.3188912E-1,3.175442E0,1.3097604E1,8.5257983E-1,1.978E3,-1.1111111E-1,-6.215E0,3.3333335E-2,1.03569765E1,-7.2642475E-1,-9.757269E-1,-5.826105E-1,-1.0055639E-1,-4.6681595E-1,-7.80543E-1,-6.236078E-1,1.4735496E-1,-5.8892566E-1,-1.1961088E-1,-4.770921E-1,3.6729392E-1,8.2049894E-1,5.1861268E-2,-2.5672254E-1,-8.335795E-1,-4.9507353E-2,3.9841622E-1,-6.978076E-1,1.7804122E-1,2.1661699E-1,-1.5396068E-1,-5.872001E-1,4.3034726E-1,6.0331786E-1,1.2032365E0,5.9276456E-1,-5.25102E-1,-1.4153564E-1,3.9399695E-1,-4.4491252E-1,5.3530794E-1],"split_indices":[165,167,6,170,179,41,13,121,136,2,70,124,74,121,126,148,124,0,148,126,116,51,148,0,90,0,0,175,124,99,101,0,0,97,0,123,0,0,0,0,75,143,158,97,5,0,74,111,54,4,179,133,5,130,68,0,0,0,0,0,0,0,0,0,0,0,0,0,0,0,0,0,0,0,0,0,0,0,0,0,0,0,0,0,0,0,0],"split_type":[0,0,0,0,0,0,0,0,0,0,0,0,0,0,0,0,0,0,0,0,0,0,0,0,0,0,0,0,0,0,0,0,0,0,0,0,0,0,0,0,0,0,0,0,0,0,0,0,0,0,0,0,0,0,0,0,0,0,0,0,0,0,0,0,0,0,0,0,0,0,0,0,0,0,0,0,0,0,0,0,0,0,0,0,0,0,0],"sum_hessian":[2.151E3,4.07E2,1.744E3,1.15E2,2.92E2,6.6E1,1.678E3,8.9E1,2.6E1,1E2,1.92E2,3.8E1,2.8E1,1.311E3,3.67E2,1E1,7.9E1,7E0,1.9E1,1.2E1,8.8E1,1.13E2,7.9E1,7E0,3.1E1,2.1E1,7E0,3.75E2,9.36E2,3.2E1,3.35E2,5E0,5E0,7.2E1,7E0,1.3E1,6E0,6E0,6E0,8E0,8E1,4E1,7.3E1,3.1E1,4.8E1,6E0,2.5E1,3.45E2,3E1,5.5E2,3.86E2,1.9E1,1.3E1,1.52E2,1.83E2,3.2E1,4E1,5E0,8E0,3.5E1,4.5E1,7E0,3.3E1,4.9E1,2.4E1,2.6E1,5E0,2.3E1,2.5E1,1.2E1,1.3E1,2.85E2,6E1,2.2E1,8E0,4.18E2,1.32E2,1.2E1,3.74E2,1E1,9E0,6E0,7E0,1.03E2,4.9E1,1.72E2,1.1E1],"tree_param":{"num_deleted":"0","num_feature":"183","num_nodes":"87","size_leaf_vector":"1"}},{"base_weights":[-1.9274947E-1,2.2788723E0,-4.758988E0,-1.0034983E0,4.159831E0,-8.932777E0,-5.28591E-1,-2.269507E-1,-1.3955984E1,2.4335852E0,9.191613E0,-7.175079E0,-1.6555693E1,-4.110811E0,5.0903535E0,1.9470936E0,-5.9954524E0,2.2100514E-2,-1.6973984E1,-9.95372E0,3.0530195E0,1.082331E1,-2.378423E0,9.061753E0,-7.9656386E0,-1.2576642E1,-2.0074863E1,1.0602156E0,-7.8341436E0,-7.047377E0,8.235941E0,8.031003E0,-6.96329E-1,-8.33151E0,1.1607684E1,-3.9601347E-1,-1.9551872E1,-1.0838165E0,-1.4548249E1,4.2865863E0,-2.756585E0,1.6344907E0,1.2372089E1,-7.403728E-1,4.942513E0,-2.8456721E-2,1.0074894E0,-1.6076923E1,-6.7587895E0,-1.41044035E1,-2.1162152E-1,-3.8148895E-1,-1.0918007E0,-3.6087017E0,8.527156E0,-9.182958E0,6.7564425E0,-1.7470165E1,-1.2522322E0,-4.344615E-1,9.713149E0,4.978567E-1,-2.7376172E-1,2.0970415E-2,-7.053625E-1,-4.8453218E-1,3.6581036E-1,9.790416E-1,3.1017253E-1,-1.1036512E0,-6.218388E-1,-2.8039703E-1,1.4744173E-1,-9.980489E-1,-3.2990754E-1,7.670279E-3,3.0902675E-1,-1.0844419E0,-4.458696E-2,2.74617E-1,-7.356148E-1,-1.8114646E-1,6.801023E-1,5.3300774E-1,-2.1258819E-1,-3.2650098E-1,-8.662772E-1,-6.047735E-1,-1.9951323E-1,-7.9182726E-1,-2.2682059E-1,-5.308971E-1,-5.4612752E-2,-3.918484E-1,6.5760773E-1,3.2296452E-1,-5.0870126E-1,7.261513E-1,-4.3291718E-2,-4.8375365E-1,-1.1176783E0,3.6408454E-1,-4.129741E-1,5.6198967E-1,-3.262301E-1],"categories":[],"categories_nodes":[],"categories_segments":[],"categories_sizes":[],"default_left":[0,0,0,0,0,0,0,0,0,0,0,0,0,0,0,0,0,0,0,0,0,0,0,0,0,0,0,0,0,0,0,0,0,0,0,0,0,0,0,0,0,0,0,0,0,0,0,0,0,0,0,0,0,0,0,0,0,0,0,0,0,0,0,0,0,0,0,0,0,0,0,0,0,0,0,0,0,0,0,0,0,0,0,0,0,0,0,0,0,0,0,0,0,0,0,0,0,0,0,0,0,0,0,0,0],"id":12,"left_children":[1,3,5,7,9,11,13,15,17,19,21,23,25,27,29,31,33,-1,35,37,39,41,43,45,47,49,51,53,55,57,59,61,63,65,67,-1,69,71,73,75,77,79,81,-1,83,-1,-1,85,87,89,-1,-1,-1,91,93,95,97,99,101,-1,103,-1,-1,-1,-1,-1,-1,-1,-1,-1,-1,-1,-1,-1,-1,-1,-1,-1,-1,-1,-1,-1,-1,-1,-1,-1,-1,-1,-1,-1,-1,-1,-1,-1,-1,-1,-1,-1,-1,-1,-1,-1,-1,-1,-1],"loss_changes":[2.4456352E4,8.684824E3,1.3432094E4,5.1567E3,7.742998E3,5.012949E3,7.64955E3,6.094048E3,1.2676436E3,5.14836E3,4.3301055E3,4.0899092E3,7.417363E2,4.4751064E3,5.708724E3,5.682659E3,5.5659263E3,0E0,4.052915E2,1.2883291E3,4.5697334E3,2.8260684E3,2.7119583E3,1.6132821E3,2.8182793E3,3.9923047E2,6.2243164E2,3.4472996E3,2.7188408E3,1.8505718E3,3.0346367E3,2.8380986E3,3.7017937E3,2.5804453E3,5.679514E2,0E0,4.8371094E1,2.3546742E2,7.7196045E2,4.1087686E3,3.934901E3,1.9727081E3,3.4133926E3,0E0,1.0441465E3,0E0,0E0,3.3984082E2,3.8227168E3,4.2535205E2,0E0,0E0,0E0,1.0643436E3,2.9790674E3,1.9880322E3,7.2296313E2,2.0245996E2,1.3159288E3,0E0,2.7753643E3,0E0,0E0,0E0,0E0,0E0,0E0,0E0,0E0,0E0,0E0,0E0,0E0,0E0,0E0,0E0,0E0,0E0,0E0,0E0,0E0,0E0,0E0,0E0,0E0,0E0,0E0,0E0,0E0,0E0,0E0,0E0,0E0,0E0,0E0,0E0,0E0,0E0,0E0,0E0,0E0,0E0,0E0,0E0,0E0],"parents":[2147483647,0,0,1,1,2,2,3,3,4,4,5,5,6,6,7,7,8,8,9,9,10,10,11,11,12,12,13,13,14,14,15,15,16,16,18,18,19,19,20,20,21,21,22,22,23,23,24,24,25,25,26,26,27,27,28,28,29,29,30,30,31,31,32,32,33,33,34,34,36,36,37,37,38,38,39,39,40,40,41,41,42,42,44,44,47,47,48,48,49,49,53,53,54,54,55,55,56,56,57,57,58,58,60,60],"right_children":[2,4,6,8,10,12,14,16,18,20,22,24,26,28,30,32,34,-1,36,38,40,42,44,46,48,50,52,54,56,58,60,62,64,66,68,-1,70,72,74,76,78,80,82,-1,84,-1,-1,86,88,90,-1,-1,-1,92,94,96,98,100,102,-1,104,-1,-1,-1,-1,-1,-1,-1,-1,-1,-1,-1,-1,-1,-1,-1,-1,-1,-1,-1,-1,-1,-1,-1,-1,-1,-1,-1,-1,-1,-1,-1,-1,-1,-1,-1,-1,-1,-1,-1,-1,-1,-1,-1,-1],"split_conditions":[8.5257983E-1,1.011429E0,9.569E3,1.4318584E6,1E0,1.875E-1,2.0364928E0,-1.8446E1,5.4786053E0,-2.7040178E-1,-4.705E0,7.7631445E0,4.696821E-2,6.25E-2,1.2481508E0,3.0041228E5,2.3753614E1,2.2100514E-2,-2.4541351E-1,5.082104E2,1.36896925E1,-4.585266E3,2.1819668E-1,1.0178208E0,-2.9278272E-1,5.5792446E0,2.9693274E-3,1.0214754E0,2.3982613E1,-2.2672619E-1,-3.2728526E-1,1.6073292E1,-9.826389E-2,3.4078086E3,2.0767159E1,-3.9601347E-1,1.0896964E1,-1.32543E2,8.709364E-1,6.4128103E0,-1.2264547E2,1.0706255E1,6.0615695E-1,-7.403728E-1,5.3665624E0,-2.8456721E-2,1.0074894E0,-8E-1,2.150132E5,2.550015E0,-2.1162152E-1,-3.8148895E-1,-1.0918007E0,6E-1,-2.767014E-1,4.557191E0,9.090909E-2,6.9835944E0,-2.2901922E-1,-4.344615E-1,3.5506435E1,4.978567E-1,-2.7376172E-1,2.0970415E-2,-7.053625E-1,-4.8453218E-1,3.6581036E-1,9.790416E-1,3.1017253E-1,-1.1036512E0,-6.218388E-1,-2.8039703E-1,1.4744173E-1,-9.980489E-1,-3.2990754E-1,7.670279E-3,3.0902675E-1,-1.0844419E0,-4.458696E-2,2.74617E-1,-7.356148E-1,-1.8114646E-1,6.801023E-1,5.3300774E-1,-2.1258819E-1,-3.2650098E-1,-8.662772E-1,-6.047735E-1,-1.9951323E-1,-7.9182726E-1,-2.2682059E-1,-5.308971E-1,-5.4612752E-2,-3.918484E-1,6.5760773E-1,3.2296452E-1,-5.0870126E-1,7.261513E-1,-4.3291718E-2,-4.8375365E-1,-1.1176783E0,3.6408454E-1,-4.129741E-1,5.6198967E-1,-3.262301E-1],"split_indices":[4,125,179,174,17,138,78,146,27,154,5,95,41,138,51,174,87,0,160,117,63,145,51,124,154,84,105,124,105,155,167,21,167,117,20,0,63,137,122,37,113,63,134,0,62,0,0,133,176,59,0,0,0,136,158,151,133,36,165,0,96,0,0,0,0,0,0,0,0,0,0,0,0,0,0,0,0,0,0,0,0,0,0,0,0,0,0,0,0,0,0,0,0,0,0,0,0,0,0,0,0,0,0,0,0],"split_type":[0,0,0,0,0,0,0,0,0,0,0,0,0,0,0,0,0,0,0,0,0,0,0,0,0,0,0,0,0,0,0,0,0,0,0,0,0,0,0,0,0,0,0,0,0,0,0,0,0,0,0,0,0,0,0,0,0,0,0,0,0,0,0,0,0,0,0,0,0,0,0,0,0,0,0,0,0,0,0,0,0,0,0,0,0,0,0,0,0,0,0,0,0,0,0,0,0,0,0,0,0,0,0,0,0],"sum_hessian":[2.165E3,1.405E3,7.6E2,5.12E2,8.93E2,3.82E2,3.78E2,4.84E2,2.8E1,6.66E2,2.27E2,3.12E2,7E1,2.31E2,1.47E2,3.52E2,1.32E2,5E0,2.3E1,3.1E1,6.35E2,1.99E2,2.8E1,1.4E1,2.98E2,3.5E1,3.5E1,9.7E1,1.34E2,3E1,1.17E2,1.06E2,2.46E2,1.17E2,1.5E1,6E0,1.7E1,1.1E1,2E1,5.24E2,1.11E2,2.9E1,1.7E2,1E1,1.8E1,8E0,6E0,3.7E1,2.61E2,2.9E1,6E0,5E0,3E1,6E1,3.7E1,1.23E2,1.1E1,1E1,2E1,9E0,1.08E2,9.3E1,1.3E1,2.28E2,1.8E1,1.08E2,9E0,5E0,1E1,1.1E1,6E0,5E0,6E0,1.1E1,9E0,1.65E2,3.59E2,9E0,1.02E2,2.4E1,5E0,1.2E1,1.58E2,1.1E1,7E0,5E0,3.2E1,8.8E1,1.73E2,2.4E1,5E0,1.5E1,4.5E1,8E0,2.9E1,7E0,1.16E2,5E0,6E0,5E0,5E0,9E0,1.1E1,9.9E1,9E0],"tree_param":{"num_deleted":"0","num_feature":"183","num_nodes":"105","size_leaf_vector":"1"}},{"base_weights":[7.866209E-2,-6.713114E0,1.6358904E0,-1.27310705E1,-4.7250504E0,2.2188365E0,-7.409898E0,-1.3594713E1,1.3166505E-1,-1.0623414E1,-2.7553897E0,-1.1238083E-1,4.5071807E0,-7.027273E-1,-1.1763727E1,-1.9197413E-1,-1.4352915E1,-1.1682539E1,1.6635434E-1,-3.4736814E0,8.5363483E-1,-3.8619835E0,1.9628603E0,5.6602693E0,-1.3779509E0,4.9550276E0,-9.314427E0,-1.4168773E1,2.1204273E-1,-2.783229E-1,-1.5070078E1,-1.2654028E1,3.1354938E-2,-4.9419756E0,5.1693296E0,-4.4468136E0,9.99969E-1,-4.8006215E0,3.1810577E0,2.9426837E0,8.952507E0,-7.073102E0,4.596949E0,-2.861195E-1,7.769765E0,-1.4167392E-1,-8.125655E-1,-1.5244616E1,-1.4209758E-1,-9.069194E-1,-5.850862E-1,-7.418741E-1,-3.5542774E-1,8.765178E-2,-3.423569E-1,6.632981E-1,9.588519E-2,2.1210746E-1,-2.980738E-1,4.5338934E-3,-4.9098322E-1,-4.0913805E-1,1.9895138E-1,-2.4228044E-2,3.114458E-1,5.828434E-1,1.7415611E-1,-5.143355E-1,4.5243797E-1,-4.6140662E-1,4.0810615E-1,-8.013385E-2,5.8127934E-1,-5.518345E-1,-9.852249E-1],"categories":[],"categories_nodes":[],"categories_segments":[],"categories_sizes":[],"default_left":[0,0,0,0,0,0,0,0,0,0,0,0,0,0,0,0,0,0,0,0,0,0,0,0,0,0,0,0,0,0,0,0,0,0,0,0,0,0,0,1,0,0,0,0,0,0,0,0,0,0,0,0,0,0,0,0,0,0,0,0,0,0,0,0,0,0,0,0,0,0,0,0,0,0,0],"id":13,"left_children":[1,3,5,7,9,11,13,15,-1,17,19,21,23,25,27,-1,29,31,-1,33,-1,35,37,39,41,43,45,47,-1,-1,49,51,-1,53,55,57,-1,59,61,63,65,67,69,-1,71,-1,-1,73,-1,-1,-1,-1,-1,-1,-1,-1,-1,-1,-1,-1,-1,-1,-1,-1,-1,-1,-1,-1,-1,-1,-1,-1,-1,-1,-1],"loss_changes":[2.2284766E4,4.6417285E3,9.054718E3,1.3229248E3,3.4212075E3,8.594592E3,3.028729E3,6.253633E2,0E0,1.1322422E3,3.2495916E3,6.224864E3,5.524883E3,2.0925146E3,2.4850674E3,0E0,4.517246E2,8.33083E2,0E0,2.7793809E3,0E0,4.066063E3,4.258488E3,6.057576E3,4.592261E3,8.2586884E2,7.182312E2,6.268994E2,0E0,0E0,5.938926E2,6.6945703E2,0E0,2.3844487E3,8.1703076E2,3.697166E3,0E0,1.9403119E3,3.9952686E3,4.2152754E3,4.500295E3,3.6679258E3,3.3283828E3,0E0,7.775399E2,0E0,0E0,7.2086914E2,0E0,0E0,0E0,0E0,0E0,0E0,0E0,0E0,0E0,0E0,0E0,0E0,0E0,0E0,0E0,0E0,0E0,0E0,0E0,0E0,0E0,0E0,0E0,0E0,0E0,0E0,0E0],"parents":[2147483647,0,0,1,1,2,2,3,3,4,4,5,5,6,6,7,7,9,9,10,10,11,11,12,12,13,13,14,14,16,16,17,17,19,19,21,21,22,22,23,23,24,24,25,25,26,26,27,27,30,30,31,31,33,33,34,34,35,35,37,37,38,38,39,39,40,40,41,41,42,42,44,44,47,47],"right_children":[2,4,6,8,10,12,14,16,-1,18,20,22,24,26,28,-1,30,32,-1,34,-1,36,38,40,42,44,46,48,-1,-1,50,52,-1,54,56,58,-1,60,62,64,66,68,70,-1,72,-1,-1,74,-1,-1,-1,-1,-1,-1,-1,-1,-1,-1,-1,-1,-1,-1,-1,-1,-1,-1,-1,-1,-1,-1,-1,-1,-1,-1,-1],"split_conditions":[-2.8102884E-1,-3.3632866E-1,-1.65E3,1.9920118E1,6.56E3,6.666667E-2,1.764706E-1,3.602138E-1,1.3166505E-1,1.0280179E1,1.973586E5,1.0124851E0,1.2641269E1,1.2507364E1,6.269611E0,-1.9197413E-1,2.9835258E0,-1.6484375E-1,1.6635434E-1,1.5691E4,8.5363483E-1,2.5991165E1,1.5368412E-1,1.1412E4,1.1355194E1,-6.215E0,2.5710642E1,4.0013967E0,2.1204273E-1,-2.783229E-1,1.350421E0,1.2541461E1,3.1354938E-2,1.8968517E0,7.2359125E4,5.32173E-1,9.99969E-1,4.151364E0,-2.1671875E-1,7.304994E-1,1.6048636E-2,9.384489E0,6.1925566E-1,-2.861195E-1,2.7670405E0,-1.4167392E-1,-8.125655E-1,1.8316824E0,-1.4209758E-1,-9.069194E-1,-5.850862E-1,-7.418741E-1,-3.5542774E-1,8.765178E-2,-3.423569E-1,6.632981E-1,9.588519E-2,2.1210746E-1,-2.980738E-1,4.5338934E-3,-4.9098322E-1,-4.0913805E-1,1.9895138E-1,-2.4228044E-2,3.114458E-1,5.828434E-1,1.7415611E-1,-5.143355E-1,4.5243797E-1,-4.6140662E-1,4.0810615E-1,-8.013385E-2,5.8127934E-1,-5.518345E-1,-9.852249E-1],"split_indices":[165,162,147,63,179,130,140,181,0,33,120,125,65,108,42,0,63,156,0,178,0,97,83,179,34,5,67,61,0,0,28,107,0,76,120,70,0,62,156,9,129,84,97,0,111,0,0,105,0,0,0,0,0,0,0,0,0,0,0,0,0,0,0,0,0,0,0,0,0,0,0,0,0,0,0],"split_type":[0,0,0,0,0,0,0,0,0,0,0,0,0,0,0,0,0,0,0,0,0,0,0,0,0,0,0,0,0,0,0,0,0,0,0,0,0,0,0,0,0,0,0,0,0,0,0,0,0,0,0,0,0,0,0,0,0,0,0,0,0,0,0,0,0,0,0,0,0,0,0,0,0,0,0],"sum_hessian":[2.105E3,3.92E2,1.713E3,9.6E1,2.96E2,1.61E3,1.03E2,9.1E1,5E0,7.3E1,2.23E2,7.98E2,8.12E2,4.1E1,6.2E1,7E0,8.4E1,6.8E1,5E0,2.16E2,7E0,2.84E2,5.14E2,6.79E2,1.33E2,2.5E1,1.6E1,5.4E1,8E0,7E0,7.7E1,6.3E1,5E0,1.85E2,3.1E1,2.78E2,6E0,7.8E1,4.36E2,3.73E2,3.06E2,6.8E1,6.5E1,5E0,2E1,9E0,7E0,4.9E1,5E0,3.8E1,3.9E1,4.4E1,1.9E1,4.1E1,1.44E2,8E0,2.3E1,4.1E1,2.37E2,4E1,3.8E1,2.8E1,4.08E2,1.83E2,1.9E2,2.04E2,1.02E2,5.7E1,1.1E1,1.3E1,5.2E1,6E0,1.4E1,2.7E1,2.2E1],"tree_param":{"num_deleted":"0","num_feature":"183","num_nodes":"75","size_leaf_vector":"1"}},{"base_weights":[-4.0525254E-2,-1.1183254E1,7.8759485E-1,-1.1732044E1,1.8343306E-1,-1.0452176E0,3.5802267E0,-1.2529057E1,-2.0536587E0,-5.4989514E0,9.1997725E-1,6.2739625E0,7.144802E-1,1.5761757E-2,-1.3041252E1,-4.7840577E-1,2.3403421E-1,-4.6253653E0,-1.5491129E1,7.196143E0,-6.95557E-1,3.4617074E0,1.0326491E1,-3.5691488E0,5.8853703E0,-1.8239318E-1,-1.356315E1,-9.20938E0,-2.3432724E0,-1.0419325E0,-8.2731695E0,-1.0189737E0,1.1029205E1,-3.7977262E0,1.9087504E0,2.5347102E0,1.628125E1,1.1844375E1,-3.5847545E0,1.8678826E0,-6.955431E0,7.583114E0,-8.2744E0,-7.0619565E-1,-2.0085417E-1,-5.307047E-1,6.6888E-1,-1.9307582E-1,5.329718E-1,-6.5470986E-2,-5.998214E-1,1.8323343E-1,-9.053707E-1,5.0953995E-2,7.1013325E-1,-8.382393E-1,-1.1262734E-1,-2.9718813E-1,1.7812201E-1,-8.487327E-2,2.9977873E-1,9.982217E-1,3.4076017E-1,-1.15596466E-1,6.607275E-1,-5.2929425E-1,5.507483E-1,-5.878034E-1,2.445071E-1,-5.193853E-1,7.6866075E-2,4.8005816E-1,-2.3689974E-2,-8.17715E-1,-4.556772E-2],"categories":[],"categories_nodes":[],"categories_segments":[],"categories_sizes":[],"default_left":[0,0,0,0,0,0,0,0,0,0,0,0,1,0,0,0,0,0,0,0,0,1,0,0,0,0,0,0,0,0,0,0,0,0,0,0,0,0,0,0,0,0,0,0,0,0,0,0,0,0,0,0,0,0,0,0,0,0,0,0,0,0,0,0,0,0,0,0,0,0,0,0,0,0,0],"id":14,"left_children":[1,3,5,7,-1,9,11,13,15,17,19,21,23,-1,25,-1,-1,27,29,31,33,35,37,39,41,-1,43,45,47,-1,49,51,53,55,57,59,61,63,65,67,69,71,73,-1,-1,-1,-1,-1,-1,-1,-1,-1,-1,-1,-1,-1,-1,-1,-1,-1,-1,-1,-1,-1,-1,-1,-1,-1,-1,-1,-1,-1,-1,-1,-1],"loss_changes":[1.9608057E4,1.2411758E3,1.0127879E4,1.069627E3,0E0,1.0464242E4,6.0476543E3,8.659336E2,6.520445E2,3.1231719E3,8.420676E3,4.56854E3,8.460223E3,0E0,5.682246E2,0E0,0E0,3.5142886E3,9.469453E2,5.364379E3,5.347469E3,2.8108147E3,3.526541E3,3.8609585E3,4.221606E3,0E0,5.802793E2,3.6955508E3,4.5224326E3,0E0,3.4728143E2,4.4683457E3,3.6704678E3,6.013239E3,4.6959976E3,3.3057483E3,4.2178125E2,2.9206484E3,1.8542504E3,3.3926729E3,3.776248E3,2.5247324E3,1.1154559E3,0E0,0E0,0E0,0E0,0E0,0E0,0E0,0E0,0E0,0E0,0E0,0E0,0E0,0E0,0E0,0E0,0E0,0E0,0E0,0E0,0E0,0E0,0E0,0E0,0E0,0E0,0E0,0E0,0E0,0E0,0E0,0E0],"parents":[2147483647,0,0,1,1,2,2,3,3,5,5,6,6,7,7,8,8,9,9,10,10,11,11,12,12,14,14,17,17,18,18,19,19,20,20,21,21,22,22,23,23,24,24,26,26,27,27,28,28,30,30,31,31,32,32,33,33,34,34,35,35,36,36,37,37,38,38,39,39,40,40,41,41,42,42],"right_children":[2,4,6,8,-1,10,12,14,16,18,20,22,24,-1,26,-1,-1,28,30,32,34,36,38,40,42,-1,44,46,48,-1,50,52,54,56,58,60,62,64,66,68,70,72,74,-1,-1,-1,-1,-1,-1,-1,-1,-1,-1,-1,-1,-1,-1,-1,-1,-1,-1,-1,-1,-1,-1,-1,-1,-1,-1,-1,-1,-1,-1,-1,-1],"split_conditions":[-3.2728526E-1,3.948698E0,1.3028E4,2.9454216E-1,1.8343306E-1,1.041E4,8.753527E0,6.5339416E-1,1.3236105E0,7.487048E0,5.20923E-3,1.0239656E0,8.0046195E-1,1.5761757E-2,5.9987874E0,-4.7840577E-1,2.3403421E-1,2.150132E5,1.1042981E1,3.1628162E2,4.0894103E0,8.423532E-1,1.8385932E-2,2.1185E4,8.345643E-1,-1.8239318E-1,2.1632288E1,-6.0624998E-2,1.7132555E1,-1.0419325E0,2.6211936E-3,4.3899782E-2,5.7621255E0,-1.8121429E-1,8.180982E-1,-1.7635576E-1,-6.313E0,7.350941E-1,1E0,-1.9717857E-1,1.0247483E1,9.430186E0,5.106902E-1,-7.0619565E-1,-2.0085417E-1,-5.307047E-1,6.6888E-1,-1.9307582E-1,5.329718E-1,-6.5470986E-2,-5.998214E-1,1.8323343E-1,-9.053707E-1,5.0953995E-2,7.1013325E-1,-8.382393E-1,-1.1262734E-1,-2.9718813E-1,1.7812201E-1,-8.487327E-2,2.9977873E-1,9.982217E-1,3.4076017E-1,-1.15596466E-1,6.607275E-1,-5.2929425E-1,5.507483E-1,-5.878034E-1,2.445071E-1,-5.193853E-1,7.6866075E-2,4.8005816E-1,-2.3689974E-2,-8.17715E-1,-4.556772E-2],"split_indices":[167,72,178,137,0,179,88,7,48,23,126,124,3,0,150,0,0,176,56,118,81,8,127,178,9,0,33,165,79,0,128,44,85,157,42,165,5,83,14,157,58,150,181,0,0,0,0,0,0,0,0,0,0,0,0,0,0,0,0,0,0,0,0,0,0,0,0,0,0,0,0,0,0,0,0],"split_type":[0,0,0,0,0,0,0,0,0,0,0,0,0,0,0,0,0,0,0,0,0,0,0,0,0,0,0,0,0,0,0,0,0,0,0,0,0,0,0,0,0,0,0,0,0,0,0,0,0,0,0,0,0,0,0,0,0,0,0,0,0,0,0,0,0,0,0,0,0,0,0,0,0,0,0],"sum_hessian":[2.123E3,1.46E2,1.977E3,1.41E2,5E0,1.194E3,7.83E2,1.3E2,1.1E1,3.65E2,8.29E2,4.03E2,3.8E2,5E0,1.25E2,5E0,6E0,3.37E2,2.8E1,1.69E2,6.6E2,2.39E2,1.64E2,2.08E2,1.72E2,7E0,1.18E2,1.11E2,2.26E2,1.5E1,1.3E1,5.4E1,1.15E2,3.01E2,3.59E2,2.24E2,1.5E1,1.48E2,1.6E1,8E1,1.28E2,1.54E2,1.8E1,1.11E2,7E0,1.05E2,6E0,2.03E2,2.3E1,5E0,8E0,4.3E1,1.1E1,2.8E1,8.7E1,3.1E1,2.7E2,6.2E1,2.97E2,1.01E2,1.23E2,1E1,5E0,1.3E1,1.35E2,1.1E1,5E0,1.4E1,6.6E1,9.1E1,3.7E1,1.23E2,3.1E1,8E0,1E1],"tree_param":{"num_deleted":"0","num_feature":"183","num_nodes":"75","size_leaf_vector":"1"}},{"base_weights":[-1.13681845E-1,2.0570624E0,-4.116568E0,1.8836756E-1,4.8075767E0,2.338853E-1,-6.9593844E0,-1.0331799E0,6.162928E0,-7.489107E0,5.624422E0,1.4327621E0,-1.3363131E1,-7.594919E0,8.71539E0,4.8254322E-2,-7.612407E0,7.5632634E0,-6.328862E-1,4.811661E0,-1.3327445E1,6.491658E0,-5.569442E0,-1.2368696E0,7.422377E0,-1.8200562E1,2.091295E-1,-5.2418585E0,-1.0439979E1,2.7579261E-2,1.38603945E1,-7.694108E-1,7.635914E0,-1.0479302E1,5.3929863E0,1.03048525E1,-1.9188635E0,-2.537801E-1,6.2995386E-1,-1.903393E1,-8.50879E-2,8.293151E0,8.96381E-1,-1.3745609E1,1.0016621E0,-6.3273034E0,2.2427788E0,-1.3472375E0,1.1376812E1,-1.0755304E0,-4.7266266E-1,-1.0247313E1,-1.5670904E0,4.405928E0,-1.1791601E1,3.7693605E-1,8.936001E-1,1.3462016E-2,-3.530151E-1,-2.8645748E-2,7.7907175E-1,-7.492765E-1,-2.3402992E-1,-7.6291054E-2,4.0857187E-1,-5.5178475E-1,5.884421E-1,-6.670232E-1,2.6978856E-1,-1.1903704E0,-6.3379776E-1,-3.1654787E-1,4.6008325E-1,-6.646969E-1,1.3810588E-1,-6.7358464E-2,-9.399681E-1,-2.3695254E-1,4.910182E-1,-4.4116732E-1,3.9641032E-1,-6.3548213E-1,1.8294732E-1,1.2420487E-1,-6.32439E-1,6.6300625E-1,-1.0257032E-1,-2.2161113E-1,-6.050927E-1,-5.3383267E-1,3.1169936E-2,6.664481E-1,-8.364527E-2,-6.265963E-1,5.8215296E-1],"categories":[],"categories_nodes":[],"categories_segments":[],"categories_sizes":[],"default_left":[0,0,0,0,0,1,0,0,0,0,0,0,0,0,0,0,0,0,0,0,0,0,0,0,0,0,0,0,0,0,0,0,0,0,0,0,0,0,0,0,0,0,0,0,0,0,0,0,0,0,0,0,0,0,0,0,0,0,0,0,0,0,0,0,0,0,0,0,0,0,0,0,0,0,0,0,0,0,0,0,0,0,0,0,0,0,0,0,0,0,0,0,0,0,0],"id":15,"left_children":[1,3,5,7,9,11,13,15,17,19,21,23,25,27,29,31,33,35,-1,37,39,41,43,45,47,49,-1,51,53,-1,55,57,59,61,63,65,67,-1,-1,69,-1,71,73,75,77,79,81,83,85,-1,-1,87,89,91,93,-1,-1,-1,-1,-1,-1,-1,-1,-1,-1,-1,-1,-1,-1,-1,-1,-1,-1,-1,-1,-1,-1,-1,-1,-1,-1,-1,-1,-1,-1,-1,-1,-1,-1,-1,-1,-1,-1,-1,-1],"loss_changes":[1.8386217E4,7.0509976E3,9.203078E3,5.9763027E3,5.6168135E3,4.8279854E3,4.5490312E3,4.8385684E3,3.7591099E3,2.577689E3,5.093881E3,4.3584785E3,2.1131548E3,2.844037E3,7.4840576E2,3.6353115E3,3.6358843E3,3.3992666E3,0E0,9.8790283E2,1.5598125E3,4.871215E3,2.0553735E3,3.3619324E3,2.928352E3,3.4678076E2,0E0,4.3800806E3,3.964836E3,0E0,1.44229E2,3.4584082E3,3.7266616E3,1.9941514E3,3.5849237E2,3.2853535E3,2.5783271E3,0E0,0E0,1.8381299E2,0E0,4.921008E3,3.1872913E3,1.0398711E3,1.1603032E3,2.8097947E3,2.439294E3,1.2005206E3,1.4939951E3,0E0,0E0,1.0355781E3,2.7803171E3,9.444061E2,3.2514238E3,0E0,0E0,0E0,0E0,0E0,0E0,0E0,0E0,0E0,0E0,0E0,0E0,0E0,0E0,0E0,0E0,0E0,0E0,0E0,0E0,0E0,0E0,0E0,0E0,0E0,0E0,0E0,0E0,0E0,0E0,0E0,0E0,0E0,0E0,0E0,0E0,0E0,0E0,0E0,0E0],"parents":[2147483647,0,0,1,1,2,2,3,3,4,4,5,5,6,6,7,7,8,8,9,9,10,10,11,11,12,12,13,13,14,14,15,15,16,16,17,17,19,19,20,20,21,21,22,22,23,23,24,24,25,25,27,27,28,28,30,30,31,31,32,32,33,33,34,34,35,35,36,36,39,39,41,41,42,42,43,43,44,44,45,45,46,46,47,47,48,48,51,51,52,52,53,53,54,54],"right_children":[2,4,6,8,10,12,14,16,18,20,22,24,26,28,30,32,34,36,-1,38,40,42,44,46,48,50,-1,52,54,-1,56,58,60,62,64,66,68,-1,-1,70,-1,72,74,76,78,80,82,84,86,-1,-1,88,90,92,94,-1,-1,-1,-1,-1,-1,-1,-1,-1,-1,-1,-1,-1,-1,-1,-1,-1,-1,-1,-1,-1,-1,-1,-1,-1,-1,-1,-1,-1,-1,-1,-1,-1,-1,-1,-1,-1,-1,-1,-1],"split_conditions":[8.5257983E-1,8.9855486E-1,2.176E3,1E0,-7.429992E2,5.055328E-1,2.670809E1,1.3025477E1,-7.616134E-2,1.4575576E0,-1.64E3,1E0,8.197974E-1,1.7016826E0,1.15546E1,5.8256714E3,1.0718644E1,7.5132155E0,-6.328862E-1,9.051969E0,8.4890586E-1,2.5271E4,6.635188E4,1.5081543E0,-3.8176062E3,1.2209924E1,2.091295E-1,-2.993077E-1,-2.7485348E-3,2.7579261E-2,-3.3333335E-2,-1.8481E1,7.6026025E0,5.829462E0,8.012394E4,4.0167837E0,3.4368956E0,-2.537801E-1,6.2995386E-1,-1.6220237E-1,-8.50879E-2,4.206685E-2,3.857682E4,4.548979E4,2.3430085E0,1.302715E1,2.6666668E-1,8.5513824E-1,1.9640913E1,-1.0755304E0,-4.7266266E-1,8.396725E-3,5.5458317E0,6.171225E-1,-3.2546297E-2,3.7693605E-1,8.936001E-1,1.3462016E-2,-3.530151E-1,-2.8645748E-2,7.7907175E-1,-7.492765E-1,-2.3402992E-1,-7.6291054E-2,4.0857187E-1,-5.5178475E-1,5.884421E-1,-6.670232E-1,2.6978856E-1,-1.1903704E0,-6.3379776E-1,-3.1654787E-1,4.6008325E-1,-6.646969E-1,1.3810588E-1,-6.7358464E-2,-9.399681E-1,-2.3695254E-1,4.910182E-1,-4.4116732E-1,3.9641032E-1,-6.3548213E-1,1.8294732E-1,1.2420487E-1,-6.32439E-1,6.6300625E-1,-1.0257032E-1,-2.2161113E-1,-6.050927E-1,-5.3383267E-1,3.1169936E-2,6.664481E-1,-8.364527E-2,-6.265963E-1,5.8215296E-1],"split_indices":[4,121,178,17,137,181,73,28,162,60,147,17,9,41,152,114,150,149,0,46,74,178,120,51,145,42,0,165,126,0,130,146,75,21,120,110,39,0,0,154,0,38,120,120,66,75,144,122,35,0,0,126,53,134,159,0,0,0,0,0,0,0,0,0,0,0,0,0,0,0,0,0,0,0,0,0,0,0,0,0,0,0,0,0,0,0,0,0,0,0,0,0,0,0,0],"split_type":[0,0,0,0,0,0,0,0,0,0,0,0,0,0,0,0,0,0,0,0,0,0,0,0,0,0,0,0,0,0,0,0,0,0,0,0,0,0,0,0,0,0,0,0,0,0,0,0,0,0,0,0,0,0,0,0,0,0,0,0,0,0,0,0,0,0,0,0,0,0,0,0,0,0,0,0,0,0,0,0,0,0,0,0,0,0,0,0,0,0,0,0,0,0,0],"sum_hessian":[2.114E3,1.371E3,7.43E2,8.17E2,5.54E2,2.94E2,4.49E2,6.79E2,1.38E2,3.4E1,5.2E2,2.71E2,2.3E1,4.32E2,1.7E1,5.84E2,9.5E1,1.29E2,9E0,1.1E1,2.3E1,4.83E2,3.7E1,1.88E2,8.3E1,1.8E1,5E0,2.38E2,1.94E2,7E0,1E1,5.28E2,5.6E1,7.8E1,1.7E1,1E2,2.9E1,5E0,6E0,1.5E1,8E0,3.65E2,1.18E2,1.6E1,2.1E1,7.6E1,1.12E2,2.6E1,5.7E1,1.2E1,6E0,1E2,1.38E2,1.6E1,1.78E2,5E0,5E0,4.54E2,7.4E1,2.8E1,2.8E1,4.3E1,3.5E1,5E0,1.2E1,6E0,9.4E1,1.1E1,1.8E1,7E0,8E0,2.1E1,3.44E2,1.3E1,1.05E2,5E0,1.1E1,1.3E1,8E0,6.5E1,1.1E1,9E0,1.03E2,2E1,6E0,5E1,7E0,2.5E1,7.5E1,2.6E1,1.12E2,6E0,1E1,1.73E2,5E0],"tree_param":{"num_deleted":"0","num_feature":"183","num_nodes":"95","size_leaf_vector":"1"}},{"base_weights":[-1.0353853E-1,1.8680794E0,-3.8523626E0,-1.098507E1,2.3134692E0,2.4625319E-1,-6.7025204E0,-1.3629623E1,9.9453E-2,3.5489237E0,-2.2271295E0,-5.651824E0,3.4889643E0,-7.345826E0,8.894744E0,-1.726784E1,-9.1280155E0,5.801729E0,4.2377222E-1,-1.2676233E1,-1.0881326E0,-1.34372835E1,-1.1860465E0,-5.471451E-1,8.046143E0,5.9763713E0,-7.8802934E0,-2.7403674E-1,1.4845369E1,-4.702606E-1,-9.8929375E-1,-6.111573E-1,-2.4052854E-1,-7.21352E0,6.283747E0,-1.2540929E0,7.1674523E0,-2.8649375E0,-2.1642447E1,-4.7709337E-1,-1.0443636E0,-1.6376297E1,-7.4721135E-2,2.3986356E0,-1.1874202E1,3.3567014E0,-1.0226147E1,4.392186E0,1.4988426E1,1.0346354E1,-1.8798272E-1,-4.270468E0,-9.81843E0,3.612303E-1,9.352636E-1,2.2617161E-1,-9.174673E-1,3.3039275E-1,-6.8955463E-1,3.646745E-1,-1.4436914E-1,-2.9459885E-1,5.3477615E-1,2.8500065E-1,-4.6041194E-1,-7.0027626E-1,-1.2588779E0,-1.4237255E-1,2.2757435E-1,-9.092577E-1,-2.7535316E-1,5.1861495E-1,-1.11313775E-1,-8.722769E-1,-2.8362897E-1,2.2357313E-1,-4.2148453E-1,1.7665075E-1,-6.834833E-1,-5.8108367E-2,5.472131E-1,4.2783758E-1,1.0080048E0,6.687758E-1,2.543969E-1,-7.766359E-2,-5.8079207E-1,-5.18552E-1,2.6827428E-1],"categories":[],"categories_nodes":[],"categories_segments":[],"categories_sizes":[],"default_left":[0,0,0,0,0,0,0,0,0,0,0,0,0,0,0,0,0,0,0,0,1,0,0,0,0,0,0,0,0,0,0,0,0,0,0,0,0,0,0,1,0,0,0,0,0,0,0,0,0,0,0,0,0,0,0,0,0,0,0,0,0,0,0,0,0,0,0,0,0,0,0,0,0,0,0,0,0,0,0,0,0,0,0,0,0,0,0,0,0],"id":16,"left_children":[1,3,5,7,9,11,13,15,-1,17,19,21,23,25,27,29,31,33,35,37,39,41,43,45,47,49,51,-1,53,-1,-1,-1,-1,55,57,59,61,63,65,67,-1,69,-1,71,73,75,77,79,81,83,-1,85,87,-1,-1,-1,-1,-1,-1,-1,-1,-1,-1,-1,-1,-1,-1,-1,-1,-1,-1,-1,-1,-1,-1,-1,-1,-1,-1,-1,-1,-1,-1,-1,-1,-1,-1,-1,-1],"loss_changes":[1.6105337E4,8.200229E3,8.774608E3,1.6740273E3,7.7549033E3,5.9295786E3,4.5103145E3,4.974922E2,0E0,7.643371E3,3.5090496E3,3.808557E3,3.683056E3,3.080334E3,1.6211393E3,2.2967627E2,2.0846082E2,4.003961E3,5.168622E3,2.4891313E3,3.2323123E3,1.3795366E3,2.7487502E3,4.0773572E3,2.318648E3,7.621851E2,2.8265684E3,0E0,2.4726196E2,0E0,0E0,0E0,0E0,3.089117E3,4.0535312E3,5.130668E3,4.2558057E3,8.674379E2,5.233545E1,3.1239587E3,0E0,5.29001E2,0E0,2.0144756E3,5.2296216E2,1.049397E3,1.5170735E3,2.3054492E3,8.91895E2,1.23089355E2,0E0,2.875986E3,2.2875938E3,0E0,0E0,0E0,0E0,0E0,0E0,0E0,0E0,0E0,0E0,0E0,0E0,0E0,0E0,0E0,0E0,0E0,0E0,0E0,0E0,0E0,0E0,0E0,0E0,0E0,0E0,0E0,0E0,0E0,0E0,0E0,0E0,0E0,0E0,0E0,0E0],"parents":[2147483647,0,0,1,1,2,2,3,3,4,4,5,5,6,6,7,7,9,9,10,10,11,11,12,12,13,13,14,14,15,15,16,16,17,17,18,18,19,19,20,20,21,21,22,22,23,23,24,24,25,25,26,26,28,28,33,33,34,34,35,35,36,36,37,37,38,38,39,39,41,41,43,43,44,44,45,45,46,46,47,47,48,48,49,49,51,51,52,52],"right_children":[2,4,6,8,10,12,14,16,-1,18,20,22,24,26,28,30,32,34,36,38,40,42,44,46,48,50,52,-1,54,-1,-1,-1,-1,56,58,60,62,64,66,68,-1,70,-1,72,74,76,78,80,82,84,-1,86,88,-1,-1,-1,-1,-1,-1,-1,-1,-1,-1,-1,-1,-1,-1,-1,-1,-1,-1,-1,-1,-1,-1,-1,-1,-1,-1,-1,-1,-1,-1,-1,-1,-1,-1,-1,-1],"split_conditions":[8.5257983E-1,8.285782E0,2.176E3,1.01103586E5,7.2253375E0,5.350417E0,2.670809E1,1.842074E3,9.9453E-2,1E0,6.302537E-1,1.0713001E1,5.4532876E0,2.0173333E0,5.215138E0,7.990703E-1,2E-1,-2.6E0,1.4544506E1,1.046027E-2,8.631318E-1,1.2285467E1,1E0,8.399692E-1,1E0,1E0,-3.483175E-4,-2.7403674E-1,-3.3333335E-2,-4.702606E-1,-9.8929375E-1,-6.111573E-1,-2.4052854E-1,8.067088E0,-1.52E3,3.647435E0,-1E-1,2.8973138E0,6.5251703E0,7.9662883E-1,-1.0443636E0,9.3834656E-1,-7.4721135E-2,5.526872E0,1.0788749E1,4.4391203E0,7.1522303E0,1.3333334E-1,5.627195E5,-6.463E0,-1.8798272E-1,4.3278728E5,7.2975204E1,3.612303E-1,9.352636E-1,2.2617161E-1,-9.174673E-1,3.3039275E-1,-6.8955463E-1,3.646745E-1,-1.4436914E-1,-2.9459885E-1,5.3477615E-1,2.8500065E-1,-4.6041194E-1,-7.0027626E-1,-1.2588779E0,-1.4237255E-1,2.2757435E-1,-9.092577E-1,-2.7535316E-1,5.1861495E-1,-1.11313775E-1,-8.722769E-1,-2.8362897E-1,2.2357313E-1,-4.2148453E-1,1.7665075E-1,-6.834833E-1,-5.8108367E-2,5.472131E-1,4.2783758E-1,1.0080048E0,6.687758E-1,2.543969E-1,-7.766359E-2,-5.8079207E-1,-5.18552E-1,2.6827428E-1],"split_indices":[4,20,178,120,149,53,73,6,0,16,39,85,73,88,28,122,135,141,31,128,8,25,16,9,18,15,127,0,130,0,0,0,0,54,147,25,130,111,46,0,0,121,0,42,87,73,152,135,174,5,0,175,46,0,0,0,0,0,0,0,0,0,0,0,0,0,0,0,0,0,0,0,0,0,0,0,0,0,0,0,0,0,0,0,0,0,0,0,0],"split_type":[0,0,0,0,0,0,0,0,0,0,0,0,0,0,0,0,0,0,0,0,0,0,0,0,0,0,0,0,0,0,0,0,0,0,0,0,0,0,0,0,0,0,0,0,0,0,0,0,0,0,0,0,0,0,0,0,0,0,0,0,0,0,0,0,0,0,0,0,0,0,0,0,0,0,0,0,0,0,0,0,0,0,0,0,0,0,0,0,0],"sum_hessian":[2.177E3,1.427E3,7.5E2,4.7E1,1.38E3,3.08E2,4.42E2,3.9E1,8E0,1.085E3,2.95E2,1.09E2,1.99E2,4.25E2,1.7E1,2E1,1.9E1,6.3E2,4.55E2,2.8E1,2.67E2,3.9E1,7E1,1.06E2,9.3E1,1.6E1,4.09E2,5E0,1.2E1,6E0,1.4E1,1E1,9E0,2.2E1,6.08E2,3.65E2,9E1,1.4E1,1.4E1,2.6E2,7E0,3.1E1,8E0,5.3E1,1.7E1,7.6E1,3E1,6.2E1,3.1E1,1.1E1,5E0,1.44E2,2.65E2,5E0,7E0,1.1E1,1.1E1,5.99E2,9E0,5.8E1,3.07E2,1.9E1,7.1E1,6E0,8E0,6E0,8E0,1.77E2,8.3E1,2.6E1,5E0,1.9E1,3.4E1,8E0,9E0,7E1,6E0,6E0,2.4E1,3.4E1,2.8E1,1.5E1,1.6E1,6E0,5E0,1.06E2,3.8E1,2.56E2,9E0],"tree_param":{"num_deleted":"0","num_feature":"183","num_nodes":"89","size_leaf_vector":"1"}},{"base_weights":[-6.0943015E-2,-8.309756E0,8.839059E-1,-1.0728772E1,-5.03937E0,2.0473711E0,-3.3050153E0,2.434225E-1,-1.1556098E1,-1.1236195E1,-1.0678132E0,-1.2129283E0,3.3453174E0,-9.962558E0,-1.7634423E0,-1.3165531E1,-4.9780073E0,-1.3404263E1,-1.4788355E-3,2.3094716E0,-6.089248E0,-3.2689698E0,2.8504653E0,-3.8001806E-1,4.975974E0,4.1522247E-1,-1.1327482E1,1.147857E0,-5.96062E0,-1.5710899E1,-9.722041E0,1.3860539E-1,-9.510704E0,-7.7712315E-1,-2.657064E-1,8.492879E0,-5.100976E0,1.5235795E-1,-1.0847899E1,-4.4133515E0,5.5690064E0,3.9514856E0,-9.6312857E-1,-1.0137419E1,9.76496E-1,2.984876E0,8.161041E0,-1.9810919E0,-1.4350281E1,-8.499171E-1,1.9881053E0,-1.2547025E1,-2.0009193E0,-5.3138E-1,-8.394601E-1,-7.0437473E-1,-3.1629398E-1,-7.564582E-1,-1.7298855E-1,1.1004495E-2,7.6207584E-1,-3.6539134E-1,-4.52178E-2,-1.2604585E-1,-7.201859E-1,-3.0631813E-1,7.1100034E-2,-1.0133397E-1,6.418552E-1,4.1564566E-1,-4.661945E-2,3.564991E-2,-7.1388406E-1,-9.470228E-2,2.687232E-1,1.7942797E-1,-6.019138E-1,4.5997736E-1,-1.2889192E-1,-6.0149354E-1,1.7910902E-1,-3.859783E-2,-7.998589E-1,2.8788573E-1,-8.624298E-2,-3.0990204E-1,-9.8479605E-1,-3.1791434E-1,2.2348373E-1],"categories":[],"categories_nodes":[],"categories_segments":[],"categories_sizes":[],"default_left":[0,0,0,0,0,0,0,0,0,0,0,0,0,0,0,0,0,0,0,0,0,0,1,0,0,0,0,0,0,0,0,0,0,0,0,0,0,0,0,0,0,0,0,0,0,0,0,0,0,0,0,0,0,0,0,0,0,0,0,0,0,0,0,0,0,0,0,0,0,0,0,0,0,0,0,0,0,0,0,0,0,0,0,0,0,0,0,0,0],"id":17,"left_children":[1,3,5,7,9,11,13,-1,15,17,19,21,23,25,27,29,31,33,-1,35,37,39,41,43,45,-1,47,49,51,53,55,-1,57,-1,-1,59,61,-1,63,65,67,69,-1,71,73,75,77,79,81,-1,83,85,87,-1,-1,-1,-1,-1,-1,-1,-1,-1,-1,-1,-1,-1,-1,-1,-1,-1,-1,-1,-1,-1,-1,-1,-1,-1,-1,-1,-1,-1,-1,-1,-1,-1,-1,-1,-1],"loss_changes":[1.6608316E4,1.6784678E3,9.325213E3,1.6692598E3,2.3260508E3,6.338903E3,4.2518755E3,0E0,1.1943145E3,8.9858203E2,1.0146331E3,3.5766924E3,6.5079404E3,2.0388486E3,4.149164E3,6.799297E2,9.0458765E2,4.5365332E2,0E0,1.6929073E3,1.0765027E3,2.8969602E3,3.5820698E3,4.338088E3,4.7002656E3,0E0,2.0339854E3,3.0985046E3,3.6000405E3,1.1208203E2,5.483928E2,0E0,4.9160742E2,0E0,0E0,1.1132465E3,1.5083356E2,0E0,4.3743713E2,2.5277095E3,1.8478209E3,2.9472424E3,0E0,1.807123E3,3.646049E3,4.2150464E3,3.2132969E3,1.1052709E3,1.2175674E3,0E0,2.7112412E3,2.2381123E3,2.5095579E3,0E0,0E0,0E0,0E0,0E0,0E0,0E0,0E0,0E0,0E0,0E0,0E0,0E0,0E0,0E0,0E0,0E0,0E0,0E0,0E0,0E0,0E0,0E0,0E0,0E0,0E0,0E0,0E0,0E0,0E0,0E0,0E0,0E0,0E0,0E0,0E0],"parents":[2147483647,0,0,1,1,2,2,3,3,4,4,5,5,6,6,8,8,9,9,10,10,11,11,12,12,13,13,14,14,15,15,16,16,17,17,19,19,20,20,21,21,22,22,23,23,24,24,26,26,27,27,28,28,29,29,30,30,32,32,35,35,36,36,38,38,39,39,40,40,41,41,43,43,44,44,45,45,46,46,47,47,48,48,50,50,51,51,52,52],"right_children":[2,4,6,8,10,12,14,-1,16,18,20,22,24,26,28,30,32,34,-1,36,38,40,42,44,46,-1,48,50,52,54,56,-1,58,-1,-1,60,62,-1,64,66,68,70,-1,72,74,76,78,80,82,-1,84,86,88,-1,-1,-1,-1,-1,-1,-1,-1,-1,-1,-1,-1,-1,-1,-1,-1,-1,-1,-1,-1,-1,-1,-1,-1,-1,-1,-1,-1,-1,-1,-1,-1,-1,-1,-1,-1],"split_conditions":[-3.0901787E-1,4.1215124E0,1E0,5.125729E0,-2.148E0,8.425073E-1,4E-1,2.434225E-1,-5.484E0,-2E-1,1.0422267E-2,1.6574E4,2E0,-4.5454547E-1,9.461938E0,5.2862496E0,4.4185514E0,1.2256063E0,-1.4788355E-3,9.286661E-1,1.3781817E5,1.5828578E1,8.98074E-1,-1.9830357E-1,9.807976E0,4.1522247E-1,3.905837E1,-2.6E0,5.3333336E-1,3.7408166E0,-1.15505455E2,1.3860539E-1,8.116574E-1,-7.7712315E-1,-2.657064E-1,5.2954805E4,4.7993307E0,1.5235795E-1,1.0029641E0,1.2064695E1,7.158628E0,1.2098801E1,-9.6312857E-1,9.616666E1,3.8491724E0,-8.378846E-2,2.8059E4,-2.2233711E-1,-2.6087964E-1,-8.499171E-1,9.396335E0,-5.95E0,1.2147668E1,-5.3138E-1,-8.394601E-1,-7.0437473E-1,-3.1629398E-1,-7.564582E-1,-1.7298855E-1,1.1004495E-2,7.6207584E-1,-3.6539134E-1,-4.52178E-2,-1.2604585E-1,-7.201859E-1,-3.0631813E-1,7.1100034E-2,-1.0133397E-1,6.418552E-1,4.1564566E-1,-4.661945E-2,3.564991E-2,-7.1388406E-1,-9.470228E-2,