{"learner":{"attributes":{"best_iteration":"89","best_score":"20.34374192103641"},"feature_names":["ASO_volume(nM)","CAI_score_20_CDS","ENC_score_40_CDS","ENC_score_70_CDS","PSDNA_RNA_MD_37_GB_TOTAL_HYBR","RBP_ADAR_aff_50","RBP_DHX9_aff_50","RBP_ESRP2_aff_50","RBP_GRSF1_aff_50","RBP_HNRNPA1L2_aff_50","RBP_HNRNPDL_aff_50","RBP_IGF2BP2_aff_50","RBP_IGF2BP3_aff_50","RBP_KHSRP_aff_50","RBP_LIN28A_aff_50","RBP_MATR3_aff_50","RBP_MSI1_aff_50","RBP_OAS1_aff_50","RBP_PHAX_aff_50","RBP_PIWIL1_aff_50","RBP_RBM3_aff_50","RBP_RBM42_aff_50","RBP_RBM6_aff_50","RBP_RBMS1_aff_50","RBP_RBMY1A1_aff_50","RBP_RC3H1_aff_50","RBP_SFPQ_aff_50","RBP_SFPQ_expr_aff_50","RBP_SRSF3_aff_50","RBP_SRSF5_aff_50","RBP_TARDBP_aff_50","RBP_TIA1_aff_50","RBP_TIAL1_aff_50","RBP_XPO5_aff_50","RBP_YBX2_aff_50","RBP_diversity_global_50_expression","RBP_interaction_delta_stab_vs_destab_right","RBP_interaction_destabilizer_right","RBP_interaction_ratio_stab_vs_destab_core","RBP_interaction_ratio_stab_vs_destab_right","RBP_interaction_stabilizer_50","RBP_interaction_stabilizer_core","RBP_interaction_total_50_generic","RBP_interaction_total_right","Sequence_6_palindromic","Sequence_dinucleotide_entropy","Sequence_hairpin_dG_energy","access_120flank_13access_13-26-39seed_sizes","access_120flank_13access_4-6-8seed_sizes","access_120flank_20access_13seed_sizes","mfe_win65_flank120_step15","off_target_score_general_MECH_n200_c800","off_target_score_specific_ARTM_n200_c800","off_target_single_ACTB_c0","ribo_f125_mean","sense_intron","sense_start","sense_start_from_end","sense_utr","tAI_score_40_CDS","tAI_score_50_CDS","tAI_score_60_CDS"],"feature_types":[],"gradient_booster":{"model":{"cats":{"enc":[],"feature_segments":[],"sorted_idx":[]},"gbtree_model_param":{"num_parallel_tree":"1","num_trees":"120"},"iteration_indptr":[0,1,2,3,4,5,6,7,8,9,10,11,12,13,14,15,16,17,18,19,20,21,22,23,24,25,26,27,28,29,30,31,32,33,34,35,36,37,38,39,40,41,42,43,44,45,46,47,48,49,50,51,52,53,54,55,56,57,58,59,60,61,62,63,64,65,66,67,68,69,70,71,72,73,74,75,76,77,78,79,80,81,82,83,84,85,86,87,88,89,90,91,92,93,94,95,96,97,98,99,100,101,102,103,104,105,106,107,108,109,110,111,112,113,114,115,116,117,118,119,120],"tree_info":[0,0,0,0,0,0,0,0,0,0,0,0,0,0,0,0,0,0,0,0,0,0,0,0,0,0,0,0,0,0,0,0,0,0,0,0,0,0,0,0,0,0,0,0,0,0,0,0,0,0,0,0,0,0,0,0,0,0,0,0,0,0,0,0,0,0,0,0,0,0,0,0,0,0,0,0,0,0,0,0,0,0,0,0,0,0,0,0,0,0,0,0,0,0,0,0,0,0,0,0,0,0,0,0,0,0,0,0,0,0,0,0,0,0,0,0,0,0,0,0],"trees":[{"base_weights":[-2.2213061E-1,8.464865E0,-9.560044E0,1.4181112E1,-8.442994E0,-1.7901152E1,-8.555315E0,2.5129707E1,9.9158125E0,-1.9312534E1,6.786078E0,-9.569518E0,-2.1471407E1,-1.2506358E1,-7.290152E0,2.6909729E1,1.7582021E0,-2.2061872E0,1.3563401E1,-1.726459E1,-3.1836037E1,1.2407415E1,-5.9123254E0,-1.3656773E1,3.8303092E0,-1.4716787E1,-2.7590015E1,-9.909371E0,-2.130585E1,-8.337694E0,-2.6937926E0,3.1094584E1,1.891783E1,-1.2027388E0,1.1698904E1,7.434514E0,-7.0095673E0,2.3593946E1,1.0641634E1,-2.1013464E1,-1.2765727E1,-1.7130674E0,-9.313102E-1,1.6860382E1,4.0677347E0,-1.4594043E1,-3.0149138E-1,-7.3337274E0,-2.1497412E1,-1.5988165E-1,5.695595E-1,2.805375E-1,-1.7932081E1,-1.6573979E0,-2.1464E1,-4.7446766E0,-1.288266E1,-2.2611639E1,-1.8044049E-1,-9.259856E0,-3.9123662E0,-6.2917435E-1,-2.0481594E1,1.1093663E0,1.7037233E0,-4.221072E-1,1.0177935E0,-3.2469857E-2,1.0821242E0,1.5650539E-1,8.1521094E-1,1.9339068E-1,-6.1224985E-1,1.3228096E0,6.7778105E-1,-1.5282051E-1,6.12099E-1,4.7261212E-2,-1.116365E0,-3.0398837E-1,-8.537335E-1,6.595901E-1,1.3052979E0,9.617875E-1,1.8957548E-2,-1.0337187E0,-1.4446251E-1,3.6539397E-1,-5.30348E-1,-9.478757E-1,1.0858899E-1,-1.4178758E0,-4.3131024E-1,-1.0234426E0,1.1955952E-1,-1.4778757E0,-8.172022E-1,-6.6691345E-1,3.5552282E-2,-3.4481493E-1,-8.733131E-1,-8.6636114E-1,-1.4703609E0,-5.115083E-1,-1.5895763E-1,-9.4358104E-1,-1.427383E-1,1.9082536E-1,-1.5054221E-1,-6.196337E-1,-1.7971071E0],"categories":[],"categories_nodes":[],"categories_segments":[],"categories_sizes":[],"default_left":[0,0,0,0,0,0,0,0,1,0,0,0,0,0,0,0,0,0,0,0,0,0,0,0,0,0,0,0,0,0,0,0,0,0,0,1,0,0,0,0,0,0,0,0,0,0,0,0,0,0,0,0,0,0,0,0,0,0,0,0,0,0,0,0,0,0,0,0,0,0,0,0,0,0,0,0,0,0,0,0,0,0,0,0,0,0,0,0,0,0,0,0,0,0,0,0,0,0,0,0,0,0,0,0,0,0,0,0,0,0,0],"id":0,"left_children":[1,3,5,7,9,11,13,15,17,19,21,23,25,27,29,31,33,35,37,39,41,43,45,47,49,51,53,55,57,59,61,63,65,-1,67,69,71,73,75,77,79,-1,-1,81,83,85,87,89,91,-1,-1,-1,93,-1,95,97,99,101,-1,103,105,107,109,-1,-1,-1,-1,-1,-1,-1,-1,-1,-1,-1,-1,-1,-1,-1,-1,-1,-1,-1,-1,-1,-1,-1,-1,-1,-1,-1,-1,-1,-1,-1,-1,-1,-1,-1,-1,-1,-1,-1,-1,-1,-1,-1,-1,-1,-1,-1,-1],"loss_changes":[2.4254384E5,1.4982983E5,1.1923219E4,5.3828312E4,6.502E4,4.375426E3,6.347164E3,1.3431656E4,3.695035E4,5.323633E3,1.1780006E4,2.6811973E3,4.0161523E3,6.8958906E3,4.686492E3,9.4786875E3,6.439794E3,9.035855E3,1.8563969E4,3.0880156E3,3.5501758E2,4.164955E3,2.4798958E3,1.6766821E3,6.7407404E2,3.5646387E3,1.1611562E3,3.6550586E3,1.5360059E3,3.2121445E3,6.7077925E3,4.446328E3,4.3423867E3,0E0,2.224209E3,2.4305886E3,7.450571E3,3.7787969E3,1.0976301E4,3.1080664E3,2.5754658E3,0E0,0E0,2.1655586E3,2.2865952E3,1.3636475E3,2.5868945E3,2.4719514E3,1.1681465E3,0E0,0E0,0E0,2.4204941E3,0E0,7.18626E2,4.2290674E3,4.0777305E3,1.8246523E3,0E0,3.8497812E3,2.145233E3,1.7585349E3,1.9307046E3,0E0,0E0,0E0,0E0,0E0,0E0,0E0,0E0,0E0,0E0,0E0,0E0,0E0,0E0,0E0,0E0,0E0,0E0,0E0,0E0,0E0,0E0,0E0,0E0,0E0,0E0,0E0,0E0,0E0,0E0,0E0,0E0,0E0,0E0,0E0,0E0,0E0,0E0,0E0,0E0,0E0,0E0,0E0,0E0,0E0,0E0,0E0,0E0],"parents":[2147483647,0,0,1,1,2,2,3,3,4,4,5,5,6,6,7,7,8,8,9,9,10,10,11,11,12,12,13,13,14,14,15,15,16,16,17,17,18,18,19,19,20,20,21,21,22,22,23,23,24,24,25,25,26,26,27,27,28,28,29,29,30,30,31,31,32,32,34,34,35,35,36,36,37,37,38,38,39,39,40,40,43,43,44,44,45,45,46,46,47,47,48,48,52,52,54,54,55,55,56,56,57,57,59,59,60,60,61,61,62,62],"right_children":[2,4,6,8,10,12,14,16,18,20,22,24,26,28,30,32,34,36,38,40,42,44,46,48,50,52,54,56,58,60,62,64,66,-1,68,70,72,74,76,78,80,-1,-1,82,84,86,88,90,92,-1,-1,-1,94,-1,96,98,100,102,-1,104,106,108,110,-1,-1,-1,-1,-1,-1,-1,-1,-1,-1,-1,-1,-1,-1,-1,-1,-1,-1,-1,-1,-1,-1,-1,-1,-1,-1,-1,-1,-1,-1,-1,-1,-1,-1,-1,-1,-1,-1,-1,-1,-1,-1,-1,-1,-1,-1,-1,-1],"split_conditions":[1E0,1.7429117E1,5.42E2,5.19E2,-2.8153846E-1,8.324751E2,3.262019E0,6.34889E2,7.4529576E-1,6.25E-2,1.5593284E0,3.2726371E0,2.2568533E0,2.6312654E0,2.2224627E0,9.240244E0,6.647432E2,6.7818555E2,8.4250194E5,5.5867143E0,1.3155994E1,9.74659E0,1.1692753E9,7.629378E2,1.8205376E1,8.985523E0,7.116E3,1.2813133E-1,9.979768E0,-4.3971956E-1,3.1838049E1,3.1019752E0,1.0721468E1,-1.2027388E0,-3.0315524E2,5.1010907E-1,4.8880932E-1,3.1019752E0,9.316663E-1,9.003266E0,1.0077392E1,-1.7130674E0,-9.313102E-1,2.6080389E1,7.73861E8,4.6990715E4,1.1892121E1,1.8631506E10,8.10056E-1,-1.5988165E-1,5.695595E-1,2.805375E-1,7.989461E6,-1.6573979E0,-2.825129E1,7.6771176E-1,1.00001056E9,3.029E3,-1.8044049E-1,1.7620779E1,7.198766E-1,4.3343244E0,5.959497E-1,1.1093663E0,1.7037233E0,-4.221072E-1,1.0177935E0,-3.2469857E-2,1.0821242E0,1.5650539E-1,8.1521094E-1,1.9339068E-1,-6.1224985E-1,1.3228096E0,6.7778105E-1,-1.5282051E-1,6.12099E-1,4.7261212E-2,-1.116365E0,-3.0398837E-1,-8.537335E-1,6.595901E-1,1.3052979E0,9.617875E-1,1.8957548E-2,-1.0337187E0,-1.4446251E-1,3.6539397E-1,-5.30348E-1,-9.478757E-1,1.0858899E-1,-1.4178758E0,-4.3131024E-1,-1.0234426E0,1.1955952E-1,-1.4778757E0,-8.172022E-1,-6.6691345E-1,3.5552282E-2,-3.4481493E-1,-8.733131E-1,-8.6636114E-1,-1.4703609E0,-5.115083E-1,-1.5895763E-1,-9.4358104E-1,-1.427383E-1,1.9082536E-1,-1.5054221E-1,-6.196337E-1,-1.7971071E0],"split_indices":[55,26,56,57,50,42,35,36,3,44,6,35,33,34,24,48,42,42,53,9,47,48,51,42,26,49,57,21,47,52,13,17,49,0,46,59,60,17,12,13,48,0,0,7,51,43,49,51,45,0,0,0,53,0,4,45,51,56,0,16,45,47,33,0,0,0,0,0,0,0,0,0,0,0,0,0,0,0,0,0,0,0,0,0,0,0,0,0,0,0,0,0,0,0,0,0,0,0,0,0,0,0,0,0,0,0,0,0,0,0,0],"split_type":[0,0,0,0,0,0,0,0,0,0,0,0,0,0,0,0,0,0,0,0,0,0,0,0,0,0,0,0,0,0,0,0,0,0,0,0,0,0,0,0,0,0,0,0,0,0,0,0,0,0,0,0,0,0,0,0,0,0,0,0,0,0,0,0,0,0,0,0,0,0,0,0,0,0,0,0,0,0,0,0,0,0,0,0,0,0,0,0,0,0,0,0,0,0,0,0,0,0,0,0,0,0,0,0,0,0,0,0,0,0,0],"sum_hessian":[2.988E3,1.548E3,1.44E3,1.157E3,3.91E2,1.53E2,1.287E3,3.23E2,8.34E2,2.28E2,1.63E2,4.7E1,1.06E2,3.1E2,9.77E2,3E2,2.3E1,1.93E2,6.41E2,1.98E2,3E1,1.13E2,5E1,3.6E1,1.1E1,5.2E1,5.4E1,2.41E2,6.9E1,7.95E2,1.82E2,1.95E2,1.05E2,6E0,1.7E1,6.4E1,1.29E2,1.43E2,4.98E2,1.06E2,9.2E1,2.4E1,6E0,7.3E1,4E1,1.9E1,3.1E1,2.1E1,1.5E1,6E0,5E0,7E0,4.5E1,2.6E1,2.8E1,8.9E1,1.52E2,6.4E1,5E0,6.57E2,1.38E2,1.64E2,1.8E1,5.1E1,1.44E2,5E0,1E2,8E0,9E0,4.4E1,2E1,4.2E1,8.7E1,1.1E2,3.3E1,5.2E1,4.46E2,6E0,1E2,3.7E1,5.5E1,5.4E1,1.9E1,7E0,3.3E1,1.2E1,7E0,1.8E1,1.3E1,9E0,1.2E1,9E0,6E0,4E1,5E0,9E0,1.9E1,3.4E1,5.5E1,6.7E1,8.5E1,3.8E1,2.6E1,5.66E2,9.1E1,8E0,1.3E2,5.7E1,1.07E2,1.3E1,5E0],"tree_param":{"num_deleted":"0","num_feature":"62","num_nodes":"111","size_leaf_vector":"1"}},{"base_weights":[-9.5280364E-2,1.0410638E1,-6.2354927E0,1.3140271E1,-5.7726827E0,2.8631907E1,-9.057844E0,1.4550276E1,-3.8056126E0,1.7157112E0,-2.0499262E1,3.0894255E1,1.2717367E1,-6.925207E0,-1.1641677E1,-7.148628E0,1.5511628E1,8.276173E0,-1.5458009E1,-2.0036583E0,9.541561E0,-2.4561172E1,-4.5743012E0,2.462576E1,3.2779785E1,1.0672592E0,5.9057107E0,-5.5064875E-1,-8.3282175E0,-1.9851656E1,-1.03234415E1,-1.7905426E1,6.5596895E0,1.6767366E1,1.3780702E0,3.2959268E0,9.6476424E-1,4.906001E-1,-2.1681412E1,-4.27543E0,1.0983024E1,2.4706947E-2,1.2306377E1,-2.8768673E1,-1.40912695E1,1.4107466E-1,-5.1300406E-1,1.6964014E1,1.4187303E0,2.5304054E1,1.7148637E0,5.775704E-1,1.1143439E-2,5.015592E-1,-1.2637014E0,-7.398913E0,-1.7125277E1,-2.2411308E1,-1.1532254E1,-9.615863E0,-2.7452581E1,-1.3462263E0,-5.142047E-1,-6.741727E-2,6.869435E-1,9.608845E-1,6.0236305E-1,-4.277625E-1,3.676108E-1,-3.0571353E-1,3.21235E-1,-1.3043753E0,-5.130237E-1,-3.6513108E-1,1.479965E-1,7.7783614E-1,2.2894107E-1,7.356314E-1,2.526619E-1,-1.5361187E0,-9.119779E-1,-3.5771233E-1,-9.199878E-1,4.709538E-1,1.0251108E0,8.097143E-1,1.4634281E0,5.42938E-1,-1.3414739E-1,-4.7169325E-1,-1.849132E-1,-9.462412E-1,3.0618995E-1,-1.2723765E0,-7.5632787E-1,-4.2623308E-2,-7.9920703E-1,-3.38557E-1,-6.668358E-1,-5.674905E-1,-1.6393912E0],"categories":[],"categories_nodes":[],"categories_segments":[],"categories_sizes":[],"default_left":[0,0,0,0,0,0,0,0,0,0,0,0,0,0,0,0,0,0,0,0,0,0,0,0,0,0,0,0,0,0,0,0,0,0,0,0,0,0,0,0,0,0,0,0,0,0,0,0,0,0,0,0,0,0,0,0,0,0,0,0,0,0,0,0,0,0,0,0,0,0,0,0,0,0,0,0,0,0,0,0,0,0,0,0,0,0,0,0,0,0,0,0,0,0,0,0,0,0,0,0,0],"id":1,"left_children":[1,3,5,7,9,11,13,15,17,19,21,23,25,27,29,31,33,35,37,39,41,43,45,47,49,-1,51,53,55,57,59,61,63,65,67,69,-1,-1,71,73,75,-1,77,79,81,-1,-1,83,-1,85,-1,-1,-1,87,-1,89,91,93,95,97,99,-1,-1,-1,-1,-1,-1,-1,-1,-1,-1,-1,-1,-1,-1,-1,-1,-1,-1,-1,-1,-1,-1,-1,-1,-1,-1,-1,-1,-1,-1,-1,-1,-1,-1,-1,-1,-1,-1,-1,-1],"loss_changes":[1.8939758E5,4.7916875E4,1.8260947E5,2.220489E4,1.7348883E4,4.6116953E3,9.3696875E3,1.7967312E4,1.0264219E4,3.0753772E3,3.3159941E3,6.229219E2,9.9056616E2,8.420258E3,8.171828E3,5.5733857E3,1.4530281E4,1.9120083E3,6.0315605E3,2.1711572E3,8.4441064E2,1.4448027E3,5.3355914E2,4.3777734E2,1.53125E2,0E0,3.8242883E2,4.461094E3,6.184508E3,1.998793E3,7.844453E3,1.1665947E3,9.836693E2,8.477516E3,4.0982314E3,8.04784E2,0E0,0E0,1.2419824E3,1.3795901E3,2.5096838E2,0E0,3.7942847E2,3.6189453E1,2.8679663E2,0E0,0E0,1.5392969E2,0E0,2.1221582E2,0E0,0E0,0E0,5.471259E3,0E0,5.2365586E3,3.1700527E3,1.3845156E3,1.2700947E3,6.726301E3,1.861582E3,0E0,0E0,0E0,0E0,0E0,0E0,0E0,0E0,0E0,0E0,0E0,0E0,0E0,0E0,0E0,0E0,0E0,0E0,0E0,0E0,0E0,0E0,0E0,0E0,0E0,0E0,0E0,0E0,0E0,0E0,0E0,0E0,0E0,0E0,0E0,0E0,0E0,0E0,0E0,0E0],"parents":[2147483647,0,0,1,1,2,2,3,3,4,4,5,5,6,6,7,7,8,8,9,9,10,10,11,11,12,12,13,13,14,14,15,15,16,16,17,17,18,18,19,19,20,20,21,21,22,22,23,23,24,24,26,26,27,27,28,28,29,29,30,30,31,31,32,32,33,33,34,34,35,35,38,38,39,39,40,40,42,42,43,43,44,44,47,47,49,49,53,53,55,55,56,56,57,57,58,58,59,59,60,60],"right_children":[2,4,6,8,10,12,14,16,18,20,22,24,26,28,30,32,34,36,38,40,42,44,46,48,50,-1,52,54,56,58,60,62,64,66,68,70,-1,-1,72,74,76,-1,78,80,82,-1,-1,84,-1,86,-1,-1,-1,88,-1,90,92,94,96,98,100,-1,-1,-1,-1,-1,-1,-1,-1,-1,-1,-1,-1,-1,-1,-1,-1,-1,-1,-1,-1,-1,-1,-1,-1,-1,-1,-1,-1,-1,-1,-1,-1,-1,-1,-1,-1,-1,-1,-1,-1],"split_conditions":[5.8321697E-1,1.0324914E1,1.54E2,4.045189E0,3.2808964E0,3.5713909E0,1.8667938E1,-4.934544E0,3.1078641E0,6.133598E0,8.0569E-1,7.6771176E-1,1.3769818E1,1.3137028E0,4.5E2,8.690462E0,2.0326454E1,7.6079376E2,5.565527E5,8.182264E-1,-1.4780964E3,4.8411027E-1,3.5021443E0,3.141482E0,7.296E3,1.0672592E0,8.06221E0,7.0551556E2,1.5782811E3,5E-2,2.0341562E1,7.6175314E-1,-8.859905E2,1.116186E1,7.823916E-1,1.5E2,9.6476424E-1,4.906001E-1,7.9068335E2,7.9459715E-1,7.713077E-1,2.4706947E-2,7.8322864E-1,8.370612E-1,-4.614496E0,1.4107466E-1,-5.1300406E-1,7.461924E-1,1.4187303E0,3.461198E0,1.7148637E0,5.775704E-1,1.1143439E-2,2.6621425E0,-1.2637014E0,4.674017E0,1.3226607E1,2.5397862E2,7.98824E-1,7.7810936E0,2.1711798E6,-1.3462263E0,-5.142047E-1,-6.741727E-2,6.869435E-1,9.608845E-1,6.0236305E-1,-4.277625E-1,3.676108E-1,-3.0571353E-1,3.21235E-1,-1.3043753E0,-5.130237E-1,-3.6513108E-1,1.479965E-1,7.7783614E-1,2.2894107E-1,7.356314E-1,2.526619E-1,-1.5361187E0,-9.119779E-1,-3.5771233E-1,-9.199878E-1,4.709538E-1,1.0251108E0,8.097143E-1,1.4634281E0,5.42938E-1,-1.3414739E-1,-4.7169325E-1,-1.849132E-1,-9.462412E-1,3.0618995E-1,-1.2723765E0,-7.5632787E-1,-4.2623308E-2,-7.9920703E-1,-3.38557E-1,-6.668358E-1,-5.674905E-1,-1.6393912E0],"split_indices":[61,47,57,25,35,35,26,52,35,18,3,45,13,10,56,47,13,42,53,45,46,59,35,39,56,0,47,41,42,44,33,2,46,6,3,0,0,0,42,2,3,0,45,2,52,0,0,45,0,35,0,0,0,5,0,21,9,41,45,47,53,0,0,0,0,0,0,0,0,0,0,0,0,0,0,0,0,0,0,0,0,0,0,0,0,0,0,0,0,0,0,0,0,0,0,0,0,0,0,0,0],"split_type":[0,0,0,0,0,0,0,0,0,0,0,0,0,0,0,0,0,0,0,0,0,0,0,0,0,0,0,0,0,0,0,0,0,0,0,0,0,0,0,0,0,0,0,0,0,0,0,0,0,0,0,0,0,0,0,0,0,0,0,0,0,0,0,0,0,0,0,0,0,0,0,0,0,0,0,0,0,0,0,0,0,0,0,0,0,0,0,0,0,0,0,0,0,0,0,0,0,0,0,0,0],"sum_hessian":[2.934E3,1.082E3,1.852E3,9.26E2,1.56E2,1.38E2,1.714E3,8.55E2,7.1E1,1.04E2,5.2E1,1.2E2,1.8E1,9.41E2,7.73E2,3.6E1,8.19E2,3.5E1,3.6E1,7.1E1,3.3E1,4.1E1,1.1E1,3.1E1,8.9E1,7E0,1.1E1,1.7E2,7.71E2,1.05E2,6.68E2,2E1,1.6E1,7.52E2,6.7E1,2.5E1,1E1,7E0,2.9E1,6.1E1,1E1,8E0,2.5E1,2.8E1,1.3E1,5E0,6E0,1.2E1,1.9E1,1.8E1,7.1E1,5E0,6E0,1.64E2,6E0,6.99E2,7.2E1,7.9E1,2.6E1,6.43E2,2.5E1,8E0,1.2E1,8E0,8E0,4.93E2,2.59E2,2.5E1,4.2E1,6E0,1.9E1,2E1,9E0,4.3E1,1.8E1,5E0,5E0,1.8E1,7E0,2.2E1,6E0,6E0,7E0,5E0,7E0,7E0,1.1E1,3.8E1,1.26E2,4.5E2,2.49E2,6.7E1,5E0,5.4E1,2.5E1,8E0,1.8E1,3.66E2,2.77E2,7E0,1.8E1],"tree_param":{"num_deleted":"0","num_feature":"62","num_nodes":"101","size_leaf_vector":"1"}},{"base_weights":[1.1004871E-1,8.240116E0,-8.442363E0,1.3320758E1,-6.655509E0,-1.5204274E1,-7.635076E0,2.3171255E1,9.5987015E0,-1.6412292E1,7.4385715E0,-7.5962615E0,-1.7652172E1,-1.5315454E1,-7.067849E0,2.7871243E1,1.4494058E1,2.4818152E-1,1.21563425E1,-1.4461167E1,-2.7562569E1,-8.4428005E0,1.060668E1,-1.6162088E1,-2.4257383E-1,8.674457E-2,-1.8924805E1,-1.0114531E1,-2.4552168E1,-8.670642E0,-4.397436E0,2.0783709E1,3.1695608E1,-9.1705304E-1,1.6545027E1,3.126806E0,-2.142186E1,3.1120095E0,1.4424526E1,-1.6766474E1,-7.53291E0,-3.2294458E-1,-1.5550205E0,3.6699653E-1,-1.4333753E1,1.5520974E1,2.4009335E0,-2.9820415E-1,-1.1054769E0,4.9206996E-1,-4.639151E0,-1.688227E1,-1.6276187E0,-1.7276476E1,-2.8541663E0,-2.4203366E-2,-2.916203E1,-8.363279E0,-1.430769E0,-1.1306528E1,-3.3968945E0,1.1052746E0,1.1697699E-1,1.6094437E0,8.150527E-1,-5.549867E-1,9.019131E-1,-8.583786E-2,5.8696896E-1,-7.5064373E-1,-1.6047566E0,-1.6547938E-1,3.7589166E-1,8.305668E-1,3.0911598E-1,-7.8969784E-2,-8.8727456E-1,-4.961756E-1,2.3629217E-1,-1.1069872E0,7.13501E-3,1.0550145E0,4.6454677E-1,9.915385E-1,-4.1134726E-2,-5.53233E-1,1.5847205E-1,-1.3353285E0,-7.366623E-1,-5.12093E-1,-1.2041001E0,2.5952148E-1,-8.6106175E-1,-1.6473652E0,-5.526616E-1,-4.4515806E-1,6.6711105E-2,-8.8360786E-1,2.2375498E-2,-2.1975861E-1,1.6650075E-1],"categories":[],"categories_nodes":[],"categories_segments":[],"categories_sizes":[],"default_left":[0,0,0,0,0,0,0,0,1,0,0,0,0,0,0,0,0,0,0,0,0,0,0,0,0,0,0,0,0,0,0,0,0,0,0,1,0,0,0,0,0,0,0,0,0,0,0,0,0,0,0,0,0,0,0,0,0,0,0,0,0,0,0,0,0,0,0,0,0,0,0,0,0,0,0,0,0,0,0,0,0,0,0,0,0,0,0,0,0,0,0,0,0,0,0,0,0,0,0,0,0],"id":2,"left_children":[1,3,5,7,9,11,13,15,17,19,21,23,25,27,29,31,33,35,37,39,41,43,45,47,49,-1,51,53,55,57,59,61,63,-1,65,67,69,71,73,75,77,-1,-1,-1,79,81,83,-1,-1,-1,85,87,-1,89,91,-1,93,95,-1,97,99,-1,-1,-1,-1,-1,-1,-1,-1,-1,-1,-1,-1,-1,-1,-1,-1,-1,-1,-1,-1,-1,-1,-1,-1,-1,-1,-1,-1,-1,-1,-1,-1,-1,-1,-1,-1,-1,-1,-1,-1],"loss_changes":[2.060224E5,1.15045555E5,7.766414E3,4.1318016E4,5.333957E4,2.7153242E3,5.520375E3,1.2238672E4,1.9703172E4,4.5834414E3,8.089462E3,2.4527056E3,2.8701797E3,3.9791367E3,5.11941E3,4.7623125E3,7.778619E3,1.1170606E4,1.3227805E4,3.020129E3,2.2629531E3,2.6155425E3,5.3260205E3,9.598755E2,1.021025E3,0E0,2.4565977E3,2.9665928E3,3.4253555E3,4.370633E3,3.1000205E3,1.7279648E3,4.4727344E2,0E0,4.534633E3,6.611209E3,9.5466113E2,3.7311885E3,9.215797E3,2.157629E3,1.5414927E3,0E0,0E0,0E0,2.2632207E3,2.6889824E3,2.8818674E3,0E0,0E0,0E0,8.378557E2,1.6333398E3,0E0,1.141709E3,3.5567036E3,0E0,1.418043E3,3.896621E3,0E0,4.272754E3,2.687335E3,0E0,0E0,0E0,0E0,0E0,0E0,0E0,0E0,0E0,0E0,0E0,0E0,0E0,0E0,0E0,0E0,0E0,0E0,0E0,0E0,0E0,0E0,0E0,0E0,0E0,0E0,0E0,0E0,0E0,0E0,0E0,0E0,0E0,0E0,0E0,0E0,0E0,0E0,0E0,0E0],"parents":[2147483647,0,0,1,1,2,2,3,3,4,4,5,5,6,6,7,7,8,8,9,9,10,10,11,11,12,12,13,13,14,14,15,15,16,16,17,17,18,18,19,19,20,20,21,21,22,22,23,23,24,24,26,26,27,27,28,28,29,29,30,30,31,31,32,32,34,34,35,35,36,36,37,37,38,38,39,39,40,40,44,44,45,45,46,46,50,50,51,51,53,53,54,54,56,56,57,57,59,59,60,60],"right_children":[2,4,6,8,10,12,14,16,18,20,22,24,26,28,30,32,34,36,38,40,42,44,46,48,50,-1,52,54,56,58,60,62,64,-1,66,68,70,72,74,76,78,-1,-1,-1,80,82,84,-1,-1,-1,86,88,-1,90,92,-1,94,96,-1,98,100,-1,-1,-1,-1,-1,-1,-1,-1,-1,-1,-1,-1,-1,-1,-1,-1,-1,-1,-1,-1,-1,-1,-1,-1,-1,-1,-1,-1,-1,-1,-1,-1,-1,-1,-1,-1,-1,-1,-1,-1],"split_conditions":[1E0,4.8926313E3,5.42E2,5.19E2,5.8208795E0,2.8581363E4,1.5E2,8.672397E-1,7.4529576E-1,6.25E-2,-2.7704808E-1,2.4456383E4,1.4746625E6,1.1033094E1,1.7757329E2,-1.90809E2,2.1140454E0,1.8377443E1,-1.5770342E3,3.2901382E1,6.0926646E-1,-3.3815384E-1,3.4459536E0,2.2344494E4,7.576893E2,8.674457E-2,-3.7597016E-1,8.0396026E-1,-5.9464044E2,2.5925925E-2,-7.249592E2,-2.396238E0,1.9390007E2,-9.1705304E-1,3.0694022E0,5.046889E-1,2.9387756E10,7.110309E2,1.4313247E1,6.2915883E0,3.2040281E4,-3.2294458E-1,-1.5550205E0,3.6699653E-1,1.6893652E6,9.044099E5,6.8560157E0,-2.9820415E-1,-1.1054769E0,4.9206996E-1,4.052943E2,7.198766E-1,-1.6276187E0,6.767563E0,5.3153022E3,-2.4203366E-2,3.260475E0,1.4328919E1,-1.430769E0,9.79816E0,-1.2257692E-1,1.1052746E0,1.1697699E-1,1.6094437E0,8.150527E-1,-5.549867E-1,9.019131E-1,-8.583786E-2,5.8696896E-1,-7.5064373E-1,-1.6047566E0,-1.6547938E-1,3.7589166E-1,8.305668E-1,3.0911598E-1,-7.8969784E-2,-8.8727456E-1,-4.961756E-1,2.3629217E-1,-1.1069872E0,7.13501E-3,1.0550145E0,4.6454677E-1,9.915385E-1,-4.1134726E-2,-5.53233E-1,1.5847205E-1,-1.3353285E0,-7.366623E-1,-5.12093E-1,-1.2041001E0,2.5952148E-1,-8.6106175E-1,-1.6473652E0,-5.526616E-1,-4.4515806E-1,6.6711105E-2,-8.8360786E-1,2.2375498E-2,-2.1975861E-1,1.6650075E-1],"split_indices":[55,27,56,57,11,43,0,24,3,44,50,43,51,22,41,46,22,19,46,7,45,50,35,43,42,0,52,45,46,54,46,52,41,0,35,59,51,42,49,8,43,0,0,0,53,53,13,0,0,0,36,45,0,19,27,0,5,17,0,17,50,0,0,0,0,0,0,0,0,0,0,0,0,0,0,0,0,0,0,0,0,0,0,0,0,0,0,0,0,0,0,0,0,0,0,0,0,0,0,0,0],"split_type":[0,0,0,0,0,0,0,0,0,0,0,0,0,0,0,0,0,0,0,0,0,0,0,0,0,0,0,0,0,0,0,0,0,0,0,0,0,0,0,0,0,0,0,0,0,0,0,0,0,0,0,0,0,0,0,0,0,0,0,0,0,0,0,0,0,0,0,0,0,0,0,0,0,0,0,0,0,0,0,0,0,0,0,0,0,0,0,0,0,0,0,0,0,0,0,0,0,0,0,0,0],"sum_hessian":[2.961E3,1.518E3,1.443E3,1.132E3,3.86E2,1.52E2,1.291E3,3.09E2,8.23E2,2.28E2,1.58E2,3.8E1,1.14E2,8.7E1,1.204E3,1.99E2,1.1E2,1.77E2,6.46E2,1.96E2,3.2E1,2.6E1,1.32E2,1.7E1,2.1E1,7E0,1.07E2,5.7E1,3E1,7.51E2,4.53E2,7.2E1,1.27E2,6E0,1.04E2,1.57E2,2E1,1.3E2,5.16E2,1.46E2,5E1,5E0,2.7E1,7E0,1.9E1,8.2E1,5E1,7E0,1E1,6E0,1.5E1,9.5E1,1.2E1,2.8E1,2.9E1,5E0,2.5E1,7.41E2,1E1,5.6E1,3.97E2,6.7E1,5E0,1.22E2,5E0,5E0,9.9E1,1.01E2,5.6E1,1.4E1,6E0,5.3E1,7.7E1,4.07E2,1.09E2,9E0,1.37E2,4.2E1,8E0,1.2E1,7E0,4.2E1,4E1,7E0,4.3E1,8E0,7E0,1.5E1,8E1,1.5E1,1.3E1,1.9E1,1E1,2E1,5E0,7.02E2,3.9E1,3.6E1,2E1,3.46E2,5.1E1],"tree_param":{"num_deleted":"0","num_feature":"62","num_nodes":"101","size_leaf_vector":"1"}},{"base_weights":[1.7124969E-1,7.5814342E0,-7.8162694E0,1.24563465E1,-7.0250072E0,-1.5190546E1,-6.8977685E0,2.5831026E1,1.0146613E1,-1.626104E1,7.086237E0,-5.2957144E0,-1.7681257E1,-8.52602E0,-4.669557E0,2.7821634E1,7.586395E0,-1.9042503E0,1.2048636E1,-2.097764E1,-1.1238981E1,1.4191972E1,5.948191E-1,4.0439367E0,-1.2390401E1,-2.9550577E-2,-1.8690077E1,-1.1681113E1,-6.7632966E0,-6.6647944E0,-6.642249E-1,2.4735157E1,3.2531815E1,-4.1290313E-1,1.4315652E1,-8.610996E0,4.0837493E0,-8.464582E0,1.278353E1,-5.9214225E0,-2.2768295E1,-9.2469845E0,-2.756637E1,1.6427185E1,-3.0112693E-1,7.1302223E0,-4.5327754E0,4.4024968E-1,3.914545E-2,-1.8847012E1,-5.7834294E-2,-1.9994871E1,-6.6132927E0,-1.2626536E1,-2.750135E-1,-6.0014644E0,-1.7050945E1,-2.4674227E0,-8.231365E0,1.5912573E0,-9.134481E0,1.3413252E0,8.861335E-1,1.6976662E0,1.0588912E0,1.2324278E0,2.3882587E-1,4.645632E-1,-5.667189E-1,1.0691904E0,6.364434E-2,-1.612027E0,-1.2098845E-1,7.1102536E-1,1.7319751E-1,4.2689595E-2,-5.554779E-1,-1.3694408E0,-8.307285E-1,-7.846785E-1,-2.4863286E-1,-1.6667757E0,-8.120653E-1,1.0748143E0,4.1544962E-1,-2.4005063E-2,8.336567E-1,1.0731711E-1,-5.652606E-1,-1.1974468E0,-5.890752E-1,-4.779999E-1,-1.0804925E0,2.072097E-1,-6.927373E-1,2.2173762E-1,-6.5405077E-1,4.0968296E-1,-3.6546612E-1,-5.620902E-1,-2.5163144E-1,-5.2500457E-1,-1.4301285E0,-6.1178725E-2,-1.0771569E0,-3.7571332E-1,-1.1242493E0,-3.1565893E-2,5.175023E-1,-1.1434758E0,1.5366904E-1],"categories":[],"categories_nodes":[],"categories_segments":[],"categories_sizes":[],"default_left":[0,0,0,0,0,0,0,0,1,0,0,0,0,0,0,0,0,0,0,0,0,0,0,0,0,0,0,0,0,0,0,0,0,0,0,0,0,0,0,0,0,0,0,0,0,1,0,0,0,0,0,0,0,0,0,0,0,0,0,0,0,0,0,0,0,0,0,0,0,0,0,0,0,0,0,0,0,0,0,0,0,0,0,0,0,0,0,0,0,0,0,0,0,0,0,0,0,0,0,0,0,0,0,0,0,0,0,0,0,0,0],"id":3,"left_children":[1,3,5,7,9,11,13,15,17,19,21,23,25,27,29,31,33,35,37,39,41,43,45,47,49,-1,51,53,55,57,59,61,63,-1,65,67,69,71,73,75,77,79,81,83,-1,85,87,-1,-1,89,-1,91,93,95,97,99,101,103,105,107,109,-1,-1,-1,-1,-1,-1,-1,-1,-1,-1,-1,-1,-1,-1,-1,-1,-1,-1,-1,-1,-1,-1,-1,-1,-1,-1,-1,-1,-1,-1,-1,-1,-1,-1,-1,-1,-1,-1,-1,-1,-1,-1,-1,-1,-1,-1,-1,-1,-1,-1],"loss_changes":[1.7525867E5,1.0945857E5,9.547141E3,3.5325438E4,5.0293008E4,3.775664E3,4.5642305E3,5.926664E3,2.2577242E4,5.2833164E3,7.048881E3,2.2367485E3,2.1440742E3,3.9920547E3,4.295048E3,1.4050859E3,2.0374053E3,5.456764E3,1.2921984E4,3.0734805E3,3.4853672E3,3.3973477E3,2.7467024E3,2.2599554E2,1.3563032E3,0E0,1.7271758E3,2.8110469E3,3.5969512E3,2.340287E3,3.4533477E3,9.324531E2,2.0091016E2,0E0,1.1636365E3,3.2256099E3,3.4740034E3,4.233622E3,1.0945594E4,5.0159543E2,2.5588906E3,2.7876611E3,2.4261914E2,2.537416E3,0E0,2.6224917E3,2.1050242E3,0E0,0E0,1.5041797E2,0E0,1.5797344E3,1.0701147E3,1.9267188E3,1.3108866E3,2.1823945E3,2.121207E3,2.3226426E3,2.498791E3,2.7903247E3,6.4419517E3,0E0,0E0,0E0,0E0,0E0,0E0,0E0,0E0,0E0,0E0,0E0,0E0,0E0,0E0,0E0,0E0,0E0,0E0,0E0,0E0,0E0,0E0,0E0,0E0,0E0,0E0,0E0,0E0,0E0,0E0,0E0,0E0,0E0,0E0,0E0,0E0,0E0,0E0,0E0,0E0,0E0,0E0,0E0,0E0,0E0,0E0,0E0,0E0,0E0,0E0],"parents":[2147483647,0,0,1,1,2,2,3,3,4,4,5,5,6,6,7,7,8,8,9,9,10,10,11,11,12,12,13,13,14,14,15,15,16,16,17,17,18,18,19,19,20,20,21,21,22,22,23,23,24,24,26,26,27,27,28,28,29,29,30,30,31,31,32,32,34,34,35,35,36,36,37,37,38,38,39,39,40,40,41,41,42,42,43,43,45,45,46,46,49,49,51,51,52,52,53,53,54,54,55,55,56,56,57,57,58,58,59,59,60,60],"right_children":[2,4,6,8,10,12,14,16,18,20,22,24,26,28,30,32,34,36,38,40,42,44,46,48,50,-1,52,54,56,58,60,62,64,-1,66,68,70,72,74,76,78,80,82,84,-1,86,88,-1,-1,90,-1,92,94,96,98,100,102,104,106,108,110,-1,-1,-1,-1,-1,-1,-1,-1,-1,-1,-1,-1,-1,-1,-1,-1,-1,-1,-1,-1,-1,-1,-1,-1,-1,-1,-1,-1,-1,-1,-1,-1,-1,-1,-1,-1,-1,-1,-1,-1,-1,-1,-1,-1,-1,-1,-1,-1,-1,-1],"split_conditions":[1E0,4.8926313E3,5.42E2,1.78E2,5.8208795E0,7.654744E2,8.061123E0,1.0524866E3,7.215878E-1,2.5535252E1,1.25697975E1,1.3488754E2,1.4746625E6,2.6130085E0,1.5749962E0,2.0190395E1,-3.2445867E3,2.511E3,-3.2460106E1,2.588358E4,-3.2134616E-1,1.5093165E1,5.1791105E0,5.524234E0,2.6669185E10,-2.9550577E-2,6.25E-2,8.912989E0,1.0035816E1,2.3482216E7,5.451703E1,4.3150673E0,9.913907E0,-4.1290313E-1,1.3769818E1,1.317E3,3.487372E8,1.7230364E0,1.5149072E1,1.0106476E1,-3.501154E-1,7.461924E-1,-3.1347114E-1,7.149363E10,-3.0112693E-1,7.9459715E-1,-2.6289112E1,4.4024968E-1,3.914545E-2,3.0528014E0,-5.7834294E-2,2.1418638E0,5.3241504E4,1.6364481E0,8.090945E7,4.303297E2,2.8529074E4,2.1918161E1,2.066922E1,1.1337632E1,-1.3298076E-1,1.3413252E0,8.861335E-1,1.6976662E0,1.0588912E0,1.2324278E0,2.3882587E-1,4.645632E-1,-5.667189E-1,1.0691904E0,6.364434E-2,-1.612027E0,-1.2098845E-1,7.1102536E-1,1.7319751E-1,4.2689595E-2,-5.554779E-1,-1.3694408E0,-8.307285E-1,-7.846785E-1,-2.4863286E-1,-1.6667757E0,-8.120653E-1,1.0748143E0,4.1544962E-1,-2.4005063E-2,8.336567E-1,1.0731711E-1,-5.652606E-1,-1.1974468E0,-5.890752E-1,-4.779999E-1,-1.0804925E0,2.072097E-1,-6.927373E-1,2.2173762E-1,-6.5405077E-1,4.0968296E-1,-3.6546612E-1,-5.620902E-1,-2.5163144E-1,-5.2500457E-1,-1.4301285E0,-6.1178725E-2,-1.0771569E0,-3.7571332E-1,-1.1242493E0,-3.1565893E-2,5.175023E-1,-1.1434758E0,1.5366904E-1],"split_indices":[55,27,56,57,11,42,31,42,3,7,13,38,51,5,24,12,46,57,4,43,50,9,33,18,51,0,44,21,6,51,12,11,49,0,13,57,51,12,49,49,50,45,50,51,0,2,4,0,0,5,0,33,43,9,38,27,43,23,34,21,50,0,0,0,0,0,0,0,0,0,0,0,0,0,0,0,0,0,0,0,0,0,0,0,0,0,0,0,0,0,0,0,0,0,0,0,0,0,0,0,0,0,0,0,0,0,0,0,0,0,0],"split_type":[0,0,0,0,0,0,0,0,0,0,0,0,0,0,0,0,0,0,0,0,0,0,0,0,0,0,0,0,0,0,0,0,0,0,0,0,0,0,0,0,0,0,0,0,0,0,0,0,0,0,0,0,0,0,0,0,0,0,0,0,0,0,0,0,0,0,0,0,0,0,0,0,0,0,0,0,0,0,0,0,0,0,0,0,0,0,0,0,0,0,0,0,0,0,0,0,0,0,0,0,0,0,0,0,0,0,0,0,0,0,0],"sum_hessian":[2.959E3,1.535E3,1.424E3,1.151E3,3.84E2,1.56E2,1.268E3,1.68E2,9.83E2,2.32E2,1.52E2,3.2E1,1.24E2,7.31E2,5.37E2,1.51E2,1.7E1,1.34E2,8.49E2,1.18E2,1.14E2,7.2E1,8E1,1.4E1,1.8E1,7E0,1.17E2,2.6E2,4.71E2,3.58E2,1.79E2,9.5E1,5.6E1,5E0,1.2E1,6.3E1,7.1E1,2.9E1,8.2E2,1.3E1,1.05E2,1.03E2,1.1E1,6.5E1,7E0,3.5E1,4.5E1,5E0,9E0,1.1E1,7E0,1.05E2,1.2E1,2.4E2,2E1,4.4E2,3.1E1,9.8E1,2.6E2,1.42E2,3.7E1,7.1E1,2.4E1,4.8E1,8E0,5E0,7E0,8E0,5.5E1,9E0,6.2E1,5E0,2.4E1,7.1E2,1.1E2,6E0,7E0,5.8E1,4.7E1,4E1,6.3E1,6E0,5E0,3.9E1,2.6E1,2E1,1.5E1,2.3E1,2.2E1,5E0,6E0,1.5E1,9E1,5E0,7E0,6E0,2.34E2,9E0,1.1E1,6.7E1,3.73E2,2.1E1,1E1,9.3E1,5E0,2.49E2,1.1E1,1.14E2,2.8E1,1.7E1,2E1],"tree_param":{"num_deleted":"0","num_feature":"62","num_nodes":"111","size_leaf_vector":"1"}},{"base_weights":[1.7198062E-1,7.167302E0,-7.5424685E0,1.1501909E1,-5.6992955E0,-6.725956E0,-1.4110427E1,1.9793627E1,8.249132E0,9.700419E0,-1.2829878E1,-8.0113325E0,-2.3940437E0,-6.0993953E0,-1.779082E1,1.2304576E1,2.3727392E1,8.143045E-1,1.1368848E1,-8.00471E0,1.2397519E1,-1.1143173E1,-2.5311142E1,-7.0329695E0,-1.2799345E1,-2.3077076E1,-1.4075948E0,-1.1129672E1,1.3771613E0,-1.9166204E1,-4.2951436E0,1.5088657E1,-4.468635E0,2.532451E1,7.1288414E0,-1.3432029E1,3.3883348E0,1.2598763E1,-5.7344747E0,1.953877E-1,-1.4857668E1,-8.5963887E-1,1.4712456E1,-1.2295706E1,1.9765971E0,-1.39131E0,-8.6234516E-1,-6.67767E0,-2.1304884E1,2.4731624E0,-1.4725583E1,-5.882943E-1,-1.4337918E0,1.27949E0,-5.3296866E0,1.942967E-1,-1.6766525E1,5.683415E0,-2.4980004E-1,-2.0397087E1,-2.5690433E-1,1.112135E-1,-5.04935E-1,-6.792037E-1,8.388134E-1,1.6200618E-1,-7.972011E-1,1.3539696E0,9.9537003E-1,-5.53249E-1,6.965557E-1,-8.8447076E-1,3.9745829E-1,3.2698044E-1,-3.4132668E-1,4.6088424E-1,9.401116E-1,-9.034249E-1,2.589147E-1,-3.65528E-1,-9.96425E-1,4.7931215E-1,-5.6050026E-1,8.383903E-1,-1.9359238E-2,-8.936343E-1,-4.8513952E-1,5.5448073E-1,-4.122691E-1,-3.224161E-1,-1.4044868E0,-5.8450234E-1,-1.2969685E0,-1.6142869E-1,6.354396E-1,-7.891927E-1,4.1205612E-1,1.032032E-1,-5.5046785E-1,1.816941E-2,-4.963369E-1,-1.248562E0,-3.9241636E-1,4.149848E-1,6.2390264E-2,-7.6411486E-1,-1.2524154E0],"categories":[],"categories_nodes":[],"categories_segments":[],"categories_sizes":[],"default_left":[0,0,0,0,0,0,0,0,1,0,0,0,0,0,0,0,0,0,0,0,0,0,0,0,0,0,0,0,0,0,0,0,0,0,0,1,0,0,0,0,0,0,0,0,0,0,0,0,0,0,0,0,0,0,0,0,0,0,0,0,0,0,0,0,0,0,0,0,0,0,0,0,0,0,0,0,0,0,0,0,0,0,0,0,0,0,0,0,0,0,0,0,0,0,0,0,0,0,0,0,0,0,0,0,0,0,0],"id":4,"left_children":[1,3,5,7,9,11,13,15,17,19,21,23,25,27,29,31,33,35,37,39,41,43,45,47,49,51,53,55,57,59,61,63,65,67,69,71,73,75,77,-1,79,81,83,85,87,-1,-1,89,91,93,95,-1,-1,97,99,-1,101,103,-1,105,-1,-1,-1,-1,-1,-1,-1,-1,-1,-1,-1,-1,-1,-1,-1,-1,-1,-1,-1,-1,-1,-1,-1,-1,-1,-1,-1,-1,-1,-1,-1,-1,-1,-1,-1,-1,-1,-1,-1,-1,-1,-1,-1,-1,-1,-1,-1],"loss_changes":[1.5898114E5,8.623275E4,7.4183984E3,3.1015312E4,4.2949938E4,6.9298633E3,4.4319844E3,9.282602E3,1.928861E4,6.020547E3,5.3388945E3,4.4163945E3,5.823109E3,1.8957848E3,1.8666602E3,5.390998E3,5.439547E3,9.103125E3,1.2399141E4,1.4458657E3,3.3271113E3,3.6079746E3,1.4882812E2,3.9194453E3,4.802217E3,4.8587598E2,2.905043E3,2.604377E3,6.0472784E2,1.5355586E3,4.3865588E2,4.969951E3,1.5554976E3,1.2956406E3,2.629334E3,3.5996797E3,6.8045107E3,1.1299695E4,5.477498E3,0E0,2.752827E2,1.9454797E3,2.8617148E3,2.979004E3,1.9544995E3,0E0,0E0,3.664039E3,5.434043E2,1.1498876E3,3.629996E3,0E0,0E0,1.6039318E3,2.9347988E3,0E0,1.4137861E3,1.4050601E2,0E0,1.6869375E3,0E0,0E0,0E0,0E0,0E0,0E0,0E0,0E0,0E0,0E0,0E0,0E0,0E0,0E0,0E0,0E0,0E0,0E0,0E0,0E0,0E0,0E0,0E0,0E0,0E0,0E0,0E0,0E0,0E0,0E0,0E0,0E0,0E0,0E0,0E0,0E0,0E0,0E0,0E0,0E0,0E0,0E0,0E0,0E0,0E0,0E0,0E0],"parents":[2147483647,0,0,1,1,2,2,3,3,4,4,5,5,6,6,7,7,8,8,9,9,10,10,11,11,12,12,13,13,14,14,15,15,16,16,17,17,18,18,19,19,20,20,21,21,22,22,23,23,24,24,25,25,26,26,27,27,28,28,29,29,30,30,31,31,32,32,33,33,34,34,35,35,36,36,37,37,38,38,40,40,41,41,42,42,43,43,44,44,47,47,48,48,49,49,50,50,53,53,54,54,56,56,57,57,59,59],"right_children":[2,4,6,8,10,12,14,16,18,20,22,24,26,28,30,32,34,36,38,40,42,44,46,48,50,52,54,56,58,60,62,64,66,68,70,72,74,76,78,-1,80,82,84,86,88,-1,-1,90,92,94,96,-1,-1,98,100,-1,102,104,-1,106,-1,-1,-1,-1,-1,-1,-1,-1,-1,-1,-1,-1,-1,-1,-1,-1,-1,-1,-1,-1,-1,-1,-1,-1,-1,-1,-1,-1,-1,-1,-1,-1,-1,-1,-1,-1,-1,-1,-1,-1,-1,-1,-1,-1,-1,-1,-1],"split_conditions":[1E0,1.7429117E1,6.891E3,5.19E2,3.6755798E0,1.7748003E8,8.324751E2,8.167497E-1,7.4937254E-1,-2.820673E-1,6.25E-2,8.6577784E7,1.5E2,1.282246E1,1.5949946E3,4.772872E0,3.5713909E0,4.0704975E-1,3.7038833E-1,3.3010536E-1,3.195E3,1.3221784E8,3.388726E1,1.6871466E9,4.7116065E6,-4.9012845E2,1.0628375E1,9.184272E0,8.315901E-1,1.5299451E1,-2.6999065E1,3.0694022E0,-2.8154713E1,4.1234903E0,1.0619626E3,5.037935E-1,1.0193283E1,6.8835187E0,-2.758923E1,1.953877E-1,3.177393E0,5.674356E0,8.565919E-1,2.381534E1,3.2541015E0,-1.39131E0,-8.6234516E-1,2.5925925E-2,6.406237E0,5.7026963E0,3.663631E1,-5.882943E-1,-1.4337918E0,2.3448332E1,1.1910267E1,1.942967E-1,1.1532635E1,1.219371E1,-2.4980004E-1,9.991205E0,-2.5690433E-1,1.112135E-1,-5.04935E-1,-6.792037E-1,8.388134E-1,1.6200618E-1,-7.972011E-1,1.3539696E0,9.9537003E-1,-5.53249E-1,6.965557E-1,-8.8447076E-1,3.9745829E-1,3.2698044E-1,-3.4132668E-1,4.6088424E-1,9.401116E-1,-9.034249E-1,2.589147E-1,-3.65528E-1,-9.96425E-1,4.7931215E-1,-5.6050026E-1,8.383903E-1,-1.9359238E-2,-8.936343E-1,-4.8513952E-1,5.5448073E-1,-4.122691E-1,-3.224161E-1,-1.4044868E0,-5.8450234E-1,-1.2969685E0,-1.6142869E-1,6.354396E-1,-7.891927E-1,4.1205612E-1,1.032032E-1,-5.5046785E-1,1.816941E-2,-4.963369E-1,-1.248562E0,-3.9241636E-1,4.149848E-1,6.2390264E-2,-7.6411486E-1,-1.2524154E0],"split_indices":[55,26,57,57,5,38,42,2,2,50,44,38,0,49,42,15,35,12,32,61,57,38,7,39,51,46,15,49,45,49,4,35,4,21,42,59,47,31,46,0,35,47,45,26,10,0,0,54,48,18,7,0,0,19,20,0,49,48,0,19,0,0,0,0,0,0,0,0,0,0,0,0,0,0,0,0,0,0,0,0,0,0,0,0,0,0,0,0,0,0,0,0,0,0,0,0,0,0,0,0,0,0,0,0,0,0,0],"split_type":[0,0,0,0,0,0,0,0,0,0,0,0,0,0,0,0,0,0,0,0,0,0,0,0,0,0,0,0,0,0,0,0,0,0,0,0,0,0,0,0,0,0,0,0,0,0,0,0,0,0,0,0,0,0,0,0,0,0,0,0,0,0,0,0,0,0,0,0,0,0,0,0,0,0,0,0,0,0,0,0,0,0,0,0,0,0,0,0,0,0,0,0,0,0,0,0,0,0,0,0,0,0,0,0,0,0,0],"sum_hessian":[2.944E3,1.544E3,1.4E3,1.155E3,3.89E2,1.247E3,1.53E2,3.24E2,8.31E2,1.23E2,2.66E2,9.61E2,2.86E2,4.9E1,1.04E2,1.13E2,2.11E2,2.46E2,5.85E2,1.6E1,1.07E2,2.36E2,3E1,8E2,1.61E2,1.2E1,2.74E2,2.9E1,2E1,9.4E1,1E1,9.7E1,1.6E1,1.92E2,1.9E1,3.7E1,2.09E2,5.46E2,3.9E1,6E0,1E1,1.6E1,9.1E1,2.17E2,1.9E1,2.1E1,9E0,7.82E2,1.8E1,1.8E1,1.43E2,5E0,7E0,1.63E2,1.11E2,8E0,2.1E1,1.2E1,8E0,8.6E1,8E0,5E0,5E0,5E0,9.2E1,1E1,6E0,1.42E2,5E1,5E0,1.4E1,3.1E1,6E0,1.6E2,4.9E1,3.55E2,1.91E2,1.8E1,2.1E1,5E0,5E0,8E0,8E0,8E1,1.1E1,6.7E1,1.5E2,1E1,9E0,7.75E2,7E0,7E0,1.1E1,1.2E1,6E0,1.37E2,6E0,1.54E2,9E0,5E1,6.1E1,1E1,1.1E1,7E0,5E0,4.3E1,4.3E1],"tree_param":{"num_deleted":"0","num_feature":"62","num_nodes":"107","size_leaf_vector":"1"}},{"base_weights":[2.782258E-1,6.8434477E0,-7.0338836E0,1.1083935E1,-5.3676147E0,-1.3851675E1,-6.2155757E0,1.9366028E1,8.026235E0,-1.34733095E1,6.119281E0,-7.371209E0,-1.705018E1,-1.3699331E1,-5.6715727E0,2.2651384E1,7.292598E0,-7.476182E-1,1.0432242E1,-1.7590858E1,-8.514413E0,1.0731043E1,-3.7299814E0,-1.6133806E1,-3.2719653E0,-1.6411806E0,-1.5108131E1,-1.718266E1,-1.693547E0,-9.069521E0,-4.6138315E0,2.4956278E1,1.7019112E1,-2.151667E0,1.3190277E1,-1.4192447E1,2.7568414E0,1.6957912E1,7.7418046E0,-7.0133696E0,-1.9147652E1,-1.0607992E1,3.4395466E0,1.6427664E1,4.3214383E0,5.876033E0,-8.302367E0,-2.3980747E-1,-1.1228393E0,2.9017463E0,-6.887617E0,-2.3436457E1,-1.312998E1,-1.0390518E1,-2.6971237E1,2.3412715E-1,-5.487022E0,-4.199528E0,-1.212804E1,-4.2714996E0,-1.5422931E1,8.637716E-1,1.3368188E0,9.1625786E-1,9.502523E-2,-8.595091E-1,3.1613E-1,3.8097903E-1,1.0883219E0,-1.1762017E0,-4.1995296E-1,2.4998508E-1,-4.426343E-1,9.596661E-1,3.667352E-1,-4.6298265E-1,4.2376658E-1,1.672971E-1,-7.8177065E-1,-1.0579281E0,-4.4700393E-1,-1.1940145E0,-4.1734537E-1,-4.8743254E-1,5.759675E-1,9.9559325E-1,4.231832E-1,-5.833582E-1,4.066866E-1,8.1626266E-1,3.0065654E-2,-7.690579E-1,1.2099267E-3,-2.4193977E-1,4.656001E-1,-6.662442E-1,1.4066592E-1,-1.5055267E0,-6.4992815E-1,-1.4543496E-1,-7.613119E-1,-2.4784862E-1,-1.006366E0,-8.6984587E-1,-1.5508324E0,3.3073045E-2,-4.706253E-1,-1.1035613E0,-1.17594354E-1,-4.7152063E-1,-1.0159945E0,-2.5135234E-1,4.038703E-2,-1.033162E0,-1.3231997E-1],"categories":[],"categories_nodes":[],"categories_segments":[],"categories_sizes":[],"default_left":[0,0,0,0,0,0,0,0,1,0,0,0,0,0,0,0,0,0,0,0,0,0,0,0,0,0,0,0,0,0,0,0,1,0,0,0,0,0,0,0,1,0,0,0,0,0,0,0,0,0,0,0,0,0,0,0,0,0,0,0,0,0,0,0,0,0,0,0,0,0,0,0,0,0,0,0,0,0,0,0,0,0,0,0,0,0,0,0,0,0,0,0,0,0,0,0,0,0,0,0,0,0,0,0,0,0,0,0,0,0,0,0,0,0,0],"id":5,"left_children":[1,3,5,7,9,11,13,15,17,19,21,23,25,27,29,31,33,35,37,39,41,43,45,47,49,-1,51,53,55,57,59,61,63,65,67,69,71,73,75,77,79,81,83,85,87,89,91,-1,-1,93,95,97,99,101,103,-1,105,107,109,111,113,-1,-1,-1,-1,-1,-1,-1,-1,-1,-1,-1,-1,-1,-1,-1,-1,-1,-1,-1,-1,-1,-1,-1,-1,-1,-1,-1,-1,-1,-1,-1,-1,-1,-1,-1,-1,-1,-1,-1,-1,-1,-1,-1,-1,-1,-1,-1,-1,-1,-1,-1,-1,-1,-1],"loss_changes":[1.4185673E5,8.068229E4,7.713422E3,2.9119297E4,3.751237E4,2.9627617E3,5.011285E3,1.2170805E4,1.786682E4,4.668992E3,7.625576E3,1.7791318E3,2.5367441E3,3.4837861E3,4.1525312E3,2.7428203E3,3.81593E3,8.661511E3,1.15265E4,1.9734766E3,2.7643828E3,4.091501E3,2.4205947E3,1.0392988E3,8.235779E2,0E0,1.175002E3,4.0413066E3,5.0944394E2,4.0600781E3,3.234789E3,1.8761406E3,1.4263477E3,3.5495774E3,1.840707E3,1.8567573E3,3.8458892E3,4.011004E3,5.964797E3,1.6600471E3,2.0892852E3,2.591584E3,1.9237849E3,1.4963643E3,3.4473262E3,9.8228424E2,2.1812273E3,0E0,0E0,7.397228E2,1.47378E3,7.232197E2,1.5626934E3,2.0164438E3,4.674375E2,0E0,3.1999103E2,3.5143037E3,3.5430332E3,3.3274268E3,1.7530464E3,0E0,0E0,0E0,0E0,0E0,0E0,0E0,0E0,0E0,0E0,0E0,0E0,0E0,0E0,0E0,0E0,0E0,0E0,0E0,0E0,0E0,0E0,0E0,0E0,0E0,0E0,0E0,0E0,0E0,0E0,0E0,0E0,0E0,0E0,0E0,0E0,0E0,0E0,0E0,0E0,0E0,0E0,0E0,0E0,0E0,0E0,0E0,0E0,0E0,0E0,0E0,0E0,0E0,0E0],"parents":[2147483647,0,0,1,1,2,2,3,3,4,4,5,5,6,6,7,7,8,8,9,9,10,10,11,11,12,12,13,13,14,14,15,15,16,16,17,17,18,18,19,19,20,20,21,21,22,22,23,23,24,24,26,26,27,27,28,28,29,29,30,30,31,31,32,32,33,33,34,34,35,35,36,36,37,37,38,38,39,39,40,40,41,41,42,42,43,43,44,44,45,45,46,46,49,49,50,50,51,51,52,52,53,53,54,54,56,56,57,57,58,58,59,59,60,60],"right_children":[2,4,6,8,10,12,14,16,18,20,22,24,26,28,30,32,34,36,38,40,42,44,46,48,50,-1,52,54,56,58,60,62,64,66,68,70,72,74,76,78,80,82,84,86,88,90,92,-1,-1,94,96,98,100,102,104,-1,106,108,110,112,114,-1,-1,-1,-1,-1,-1,-1,-1,-1,-1,-1,-1,-1,-1,-1,-1,-1,-1,-1,-1,-1,-1,-1,-1,-1,-1,-1,-1,-1,-1,-1,-1,-1,-1,-1,-1,-1,-1,-1,-1,-1,-1,-1,-1,-1,-1,-1,-1,-1,-1,-1,-1,-1,-1],"split_conditions":[1E0,1.7429117E1,4.81E2,5.19E2,-2.8153846E-1,8.324751E2,1.5E2,4.1411627E2,7.4529576E-1,5.5867143E0,1.5593284E0,2.4565941E4,8.7737067E2,1.4966205E1,-3.0304807E-1,9.240244E0,1.1121501E0,1.6452341E0,1.0965391E6,3.4628289E0,3.66449E1,9.044099E5,-2.3704214E1,2.2344494E4,7.576893E2,-1.6411806E0,-4.534231E0,2.219732E7,1.789362E2,-2.582769E1,1.6279265E9,3.1019752E0,5.1348674E-1,8.004958E-1,7.225293E0,-2.6199526E1,7.835644E2,5.016768E-1,-3.2887768E1,7.6920214E0,8.0699795E-1,8.324751E2,8.447076E0,1.601993E9,1.3027864E9,1.001019E6,9.1364406E5,-2.3980747E-1,-1.1228393E0,7.470267E2,8.182264E-1,5.4516945E0,7.5264275E-1,4.5844164E0,7.474134E0,2.3412715E-1,9.131451E0,-5.289491E0,2.8121385E6,-1.3298076E-1,9.558602E7,8.637716E-1,1.3368188E0,9.1625786E-1,9.502523E-2,-8.595091E-1,3.1613E-1,3.8097903E-1,1.0883219E0,-1.1762017E0,-4.1995296E-1,2.4998508E-1,-4.426343E-1,9.596661E-1,3.667352E-1,-4.6298265E-1,4.2376658E-1,1.672971E-1,-7.8177065E-1,-1.0579281E0,-4.4700393E-1,-1.1940145E0,-4.1734537E-1,-4.8743254E-1,5.759675E-1,9.9559325E-1,4.231832E-1,-5.833582E-1,4.066866E-1,8.1626266E-1,3.0065654E-2,-7.690579E-1,1.2099267E-3,-2.4193977E-1,4.656001E-1,-6.662442E-1,1.4066592E-1,-1.5055267E0,-6.4992815E-1,-1.4543496E-1,-7.613119E-1,-2.4784862E-1,-1.006366E0,-8.6984587E-1,-1.5508324E0,3.3073045E-2,-4.706253E-1,-1.1035613E0,-1.17594354E-1,-4.7152063E-1,-1.0159945E0,-2.5135234E-1,4.038703E-2,-1.033162E0,-1.3231997E-1],"split_indices":[55,26,56,57,50,42,0,36,3,9,6,43,42,28,50,48,16,34,53,20,29,53,4,43,42,0,52,38,41,4,39,17,61,2,19,4,42,61,4,47,3,42,47,51,51,53,53,0,0,42,45,47,45,28,19,0,15,52,53,50,38,0,0,0,0,0,0,0,0,0,0,0,0,0,0,0,0,0,0,0,0,0,0,0,0,0,0,0,0,0,0,0,0,0,0,0,0,0,0,0,0,0,0,0,0,0,0,0,0,0,0,0,0,0,0],"split_type":[0,0,0,0,0,0,0,0,0,0,0,0,0,0,0,0,0,0,0,0,0,0,0,0,0,0,0,0,0,0,0,0,0,0,0,0,0,0,0,0,0,0,0,0,0,0,0,0,0,0,0,0,0,0,0,0,0,0,0,0,0,0,0,0,0,0,0,0,0,0,0,0,0,0,0,0,0,0,0,0,0,0,0,0,0,0,0,0,0,0,0,0,0,0,0,0,0,0,0,0,0,0,0,0,0,0,0,0,0,0,0,0,0,0,0],"sum_hessian":[2.953E3,1.556E3,1.397E3,1.155E3,4.01E2,1.48E2,1.249E3,3.1E2,8.45E2,2.35E2,1.66E2,5E1,9.8E1,8.3E1,1.166E3,2.43E2,6.7E1,1.82E2,6.63E2,1.27E2,1.08E2,1.13E2,5.3E1,1.5E1,3.5E1,9E0,8.9E1,6.4E1,1.9E1,2.75E2,8.91E2,1.7E2,7.3E1,2.6E1,4.1E1,3.7E1,1.45E2,1.92E2,4.71E2,1.7E1,1.1E2,9.2E1,1.6E1,5.9E1,5.4E1,1.7E1,3.6E1,6E0,9E0,1.3E1,2.2E1,1.5E1,7.4E1,3.9E1,2.5E1,7E0,1.2E1,1.07E2,1.68E2,8.65E2,2.6E1,3.4E1,1.36E2,6.7E1,6E0,9E0,1.7E1,2.6E1,1.5E1,1.3E1,2.4E1,1.22E2,2.3E1,1.55E2,3.7E1,1.9E1,4.52E2,8E0,9E0,9.1E1,1.9E1,1.2E1,8E1,6E0,1E1,4E1,1.9E1,1E1,4.4E1,5E0,1.2E1,1.9E1,1.7E1,6E0,7E0,1.3E1,9E0,8E0,7E0,1.3E1,6.1E1,2.6E1,1.3E1,9E0,1.6E1,5E0,7E0,9E0,9.8E1,1.28E2,4E1,7.53E2,1.12E2,1.8E1,8E0],"tree_param":{"num_deleted":"0","num_feature":"62","num_nodes":"115","size_leaf_vector":"1"}},{"base_weights":[-2.1289296E-1,5.8256216E0,-6.819126E0,9.99178E0,-6.148367E0,-1.5172813E1,-6.1403646E0,3.8168612E0,1.50207405E1,-1.4066942E1,5.2786474E0,-1.8386793E1,-2.3576746E0,-8.273832E0,-3.878216E0,5.422024E0,-5.6921625E0,1.6650856E1,3.2454934E0,-2.043139E1,-9.128023E0,-6.3729377E0,7.2524557E0,-2.1135378E1,-3.3305283E0,5.573472E0,-7.2165245E-1,-1.1372621E1,-5.5202994E0,-4.4647512E0,7.5613384E0,3.3977675E0,1.4251816E1,2.901756E0,-1.3069537E1,1.2985282E1,2.076686E1,5.8528614E0,-1.1832155E0,-2.513713E1,-1.5325035E1,-3.6203346E0,-1.3743976E1,1.2388742E0,-1.548134E1,1.1615559E1,3.7761647E-1,-2.6703375E1,-1.6787582E1,-5.212546E-1,3.933203E-1,7.800079E-1,-8.651301E-2,4.269785E0,-1.2405071E1,-7.663331E0,-1.0758013E0,-6.021819E0,5.3166676E-1,-3.6371405E0,1.3067144E1,2.6715934E-1,-1.9811569E-1,4.936762E-1,1.0323765E0,-5.607089E-2,6.535916E-1,3.7011918E-1,-8.8181895E-1,-1.1943876E-1,7.443331E-1,1.0930628E0,1.4396518E-2,-9.83941E-2,5.6498766E-1,-1.3472074E0,-3.546901E-1,-3.0085716E-1,-9.5180905E-1,-4.9033925E-1,1.0567092E-1,-9.9772704E-1,-4.2807436E-1,-2.3162945E-1,3.1107727E-1,-3.2350782E-1,-1.095615E0,4.8375804E-2,7.035324E-1,-6.327425E-1,1.2709136E-1,-1.4987643E0,-7.1838516E-1,-1.3485931E-1,-1.0274343E0,6.067703E-1,-3.3460647E-1,-6.7182124E-1,2.0204416E-1,-9.571183E-3,-6.0227865E-1,7.512201E-1,-1.20376185E-1,1.3143872E-1,-3.418586E-1,-2.7367324E-2,6.178254E-1,-6.224719E-1,2.8906736E-1,1.7243747E-1,7.9286736E-1],"categories":[],"categories_nodes":[],"categories_segments":[],"categories_sizes":[],"default_left":[0,0,0,0,0,0,0,0,0,0,0,0,0,0,0,0,0,0,0,0,0,0,0,0,0,0,0,0,0,0,0,0,0,1,0,1,0,0,0,0,0,0,0,0,0,0,0,0,0,0,0,0,0,0,0,0,0,0,0,0,0,0,0,0,0,0,0,0,0,0,0,0,0,0,0,0,0,0,0,0,0,0,0,0,0,0,0,0,0,0,0,0,0,0,0,0,0,0,0,0,0,0,0,0,0,0,0,0,0,0,0],"id":6,"left_children":[1,3,5,7,9,11,13,15,17,19,21,23,25,27,29,31,33,35,37,39,41,43,45,47,49,51,-1,53,55,57,59,61,63,65,67,69,71,73,-1,75,77,79,81,83,85,87,89,91,93,-1,-1,-1,-1,95,97,99,101,103,105,107,109,-1,-1,-1,-1,-1,-1,-1,-1,-1,-1,-1,-1,-1,-1,-1,-1,-1,-1,-1,-1,-1,-1,-1,-1,-1,-1,-1,-1,-1,-1,-1,-1,-1,-1,-1,-1,-1,-1,-1,-1,-1,-1,-1,-1,-1,-1,-1,-1,-1,-1],"loss_changes":[1.1636432E5,7.6087E4,7.805371E3,3.50641E4,3.572561E4,4.240158E3,6.1937383E3,7.7999976E3,1.1904453E4,7.137508E3,3.771895E3,3.3644316E3,2.1874167E3,5.5943438E3,4.24745E3,7.744536E3,4.7295654E3,7.983203E3,5.5411133E3,2.0417227E3,3.3315322E3,1.6831342E3,4.1650063E3,1.2463125E3,1.1941311E3,1.0522437E3,0E0,5.075617E3,3.3539746E3,4.6555E3,1.9588832E3,5.1185386E3,2.0643223E3,1.4467184E3,3.8702324E3,8.571277E3,5.731203E3,3.0467473E3,0E0,1.4717012E3,1.6471465E3,2.2199636E3,2.1465645E3,4.3839987E2,4.9568018E2,2.2084463E3,1.5834415E3,7.398008E2,2.1703838E3,0E0,0E0,0E0,0E0,1.8056567E3,5.007082E3,7.7906963E3,2.5233276E3,3.2342695E3,1.8313231E3,9.8495825E2,5.0889453E2,0E0,0E0,0E0,0E0,0E0,0E0,0E0,0E0,0E0,0E0,0E0,0E0,0E0,0E0,0E0,0E0,0E0,0E0,0E0,0E0,0E0,0E0,0E0,0E0,0E0,0E0,0E0,0E0,0E0,0E0,0E0,0E0,0E0,0E0,0E0,0E0,0E0,0E0,0E0,0E0,0E0,0E0,0E0,0E0,0E0,0E0,0E0,0E0,0E0,0E0],"parents":[2147483647,0,0,1,1,2,2,3,3,4,4,5,5,6,6,7,7,8,8,9,9,10,10,11,11,12,12,13,13,14,14,15,15,16,16,17,17,18,18,19,19,20,20,21,21,22,22,23,23,24,24,25,25,27,27,28,28,29,29,30,30,31,31,32,32,33,33,34,34,35,35,36,36,37,37,39,39,40,40,41,41,42,42,43,43,44,44,45,45,46,46,47,47,48,48,53,53,54,54,55,55,56,56,57,57,58,58,59,59,60,60],"right_children":[2,4,6,8,10,12,14,16,18,20,22,24,26,28,30,32,34,36,38,40,42,44,46,48,50,52,-1,54,56,58,60,62,64,66,68,70,72,74,-1,76,78,80,82,84,86,88,90,92,94,-1,-1,-1,-1,96,98,100,102,104,106,108,110,-1,-1,-1,-1,-1,-1,-1,-1,-1,-1,-1,-1,-1,-1,-1,-1,-1,-1,-1,-1,-1,-1,-1,-1,-1,-1,-1,-1,-1,-1,-1,-1,-1,-1,-1,-1,-1,-1,-1,-1,-1,-1,-1,-1,-1,-1,-1,-1,-1,-1],"split_conditions":[1E0,1.7429117E1,1.5E2,2.5118363E-1,8.190861E2,1.4666444E0,8.304518E-1,3.4847205E0,9.711564E0,5.559471E0,3.6619595E-1,1.5837882E1,3.2342716E1,1.7506393E1,6.25E-2,-3.240091E0,5.117812E0,7.1505523E0,4.5949783E15,-3.5273075E-1,1.2124461E1,-3.8078418E0,7.8864236E0,4.497314E0,1.8631506E10,3.4881256E0,-7.2165245E-1,1.9407963E4,6.7379885E0,1.336781E1,6.8562956E0,1.156379E1,2.9444056E1,4.628447E-1,4.5929075E8,6.7218304E-1,1.7066982E3,5.046889E-1,-1.1832155E0,2.8220054E7,6.5179014E0,6.6646166E0,1.3000482E1,8.2440466E2,7.083708E-1,4.961655E0,1.9804733E0,3.2102141E0,4.5929075E8,-5.212546E-1,3.933203E-1,7.800079E-1,-8.651301E-2,1.0983263E1,8.912989E0,4.197703E0,6.913644E0,2.5118363E-1,3.360959E1,4.4465073E3,3.949288E-1,2.6715934E-1,-1.9811569E-1,4.936762E-1,1.0323765E0,-5.607089E-2,6.535916E-1,3.7011918E-1,-8.8181895E-1,-1.1943876E-1,7.443331E-1,1.0930628E0,1.4396518E-2,-9.83941E-2,5.6498766E-1,-1.3472074E0,-3.546901E-1,-3.0085716E-1,-9.5180905E-1,-4.9033925E-1,1.0567092E-1,-9.9772704E-1,-4.2807436E-1,-2.3162945E-1,3.1107727E-1,-3.2350782E-1,-1.095615E0,4.8375804E-2,7.035324E-1,-6.327425E-1,1.2709136E-1,-1.4987643E0,-7.1838516E-1,-1.3485931E-1,-1.0274343E0,6.067703E-1,-3.3460647E-1,-6.7182124E-1,2.0204416E-1,-9.571183E-3,-6.0227865E-1,7.512201E-1,-1.20376185E-1,1.3143872E-1,-3.418586E-1,-2.7367324E-2,6.178254E-1,-6.224719E-1,2.8906736E-1,1.7243747E-1,7.9286736E-1],"split_indices":[55,26,0,14,40,6,6,15,47,9,60,30,26,12,44,52,26,31,51,50,48,52,30,30,51,35,0,43,47,17,47,48,29,60,51,1,40,60,0,53,47,33,47,42,3,47,39,25,51,0,0,0,0,29,21,47,47,14,29,40,39,0,0,0,0,0,0,0,0,0,0,0,0,0,0,0,0,0,0,0,0,0,0,0,0,0,0,0,0,0,0,0,0,0,0,0,0,0,0,0,0,0,0,0,0,0,0,0,0,0,0],"split_type":[0,0,0,0,0,0,0,0,0,0,0,0,0,0,0,0,0,0,0,0,0,0,0,0,0,0,0,0,0,0,0,0,0,0,0,0,0,0,0,0,0,0,0,0,0,0,0,0,0,0,0,0,0,0,0,0,0,0,0,0,0,0,0,0,0,0,0,0,0,0,0,0,0,0,0,0,0,0,0,0,0,0,0,0,0,0,0,0,0,0,0,0,0,0,0,0,0,0,0,0,0,0,0,0,0,0,0,0,0,0,0],"sum_hessian":[2.915E3,1.523E3,1.392E3,1.13E3,3.93E2,1.03E2,1.289E3,5.08E2,6.22E2,2.32E2,1.61E2,8.2E1,2.1E1,6.62E2,6.27E2,4.35E2,7.3E1,5.46E2,7.6E1,1E2,1.32E2,2.3E1,1.38E2,6.9E1,1.3E1,1.3E1,8E0,3.1E2,3.52E2,5.97E2,3E1,3.55E2,8E1,3.4E1,3.9E1,2.91E2,2.55E2,7E1,6E0,5E1,5E1,6.1E1,7.1E1,1.3E1,1E1,8.4E1,5.4E1,2.8E1,4.1E1,8E0,5E0,5E0,8E0,1.9E1,2.91E2,2.37E2,1.15E2,4.55E2,1.42E2,1E1,2E1,2.81E2,7.4E1,4.9E1,3.1E1,2.5E1,9E0,7E0,3.2E1,3.2E1,2.59E2,2.42E2,1.3E1,2.9E1,4.1E1,4.5E1,5E0,1.5E1,3.5E1,2.9E1,3.2E1,3.1E1,4E1,6E0,7E0,5E0,5E0,1.6E1,6.8E1,7E0,4.7E1,2.1E1,7E0,9E0,3.2E1,1.1E1,8E0,2.74E2,1.7E1,8.8E1,1.49E2,8E0,1.07E2,3.9E1,4.16E2,1.31E2,1.1E1,5E0,5E0,5E0,1.5E1],"tree_param":{"num_deleted":"0","num_feature":"62","num_nodes":"111","size_leaf_vector":"1"}},{"base_weights":[2.0463261E-1,8.296661E0,-4.375547E0,9.731878E0,-9.382745E0,-6.7780437E0,1.8680656E1,1.0775153E1,-4.6896905E-1,-1.7245255E1,-4.732402E-1,-7.783434E0,-2.6255975E0,7.4236755E0,2.1174196E1,1.1533487E1,-4.6068435E0,-4.121777E0,1.4980052E1,-2.1527306E1,-4.808758E-2,2.4508674E0,-7.095357E-1,-5.9000564E0,-1.0305904E1,-4.043107E0,4.23838E0,2.2289785E-2,1.2603531E1,2.3690107E1,1.107678E1,1.6261587E1,8.719047E0,2.5047555E0,-1.9516924E1,-1.1891976E1,2.1179569E0,8.821381E-1,4.723161E-1,-2.3007256E1,-5.3931653E-1,7.40501E0,-5.7405066E0,-9.019578E0,-3.86854E0,-1.496794E1,-8.635585E0,-4.756956E0,8.8377695E0,6.9541764E0,-7.9976754E0,5.3289014E-1,-3.1806237E-1,9.04883E-1,1.0500653E-1,1.9207323E1,2.715646E1,7.0063562E0,1.0951728E0,2.502323E-1,8.793481E-1,2.7828133E-1,6.3787484E-1,3.331123E-1,-7.61779E-1,-1.1386384E0,-5.690169E-1,-2.9188192E-1,-9.1691273E-1,-4.6542063E-1,3.4206694E-1,-1.4283402E0,-8.701235E-1,-2.1172268E-2,6.1275476E-1,2.1837711E-2,-6.510052E-1,-3.8268757E-1,-9.1920567E-1,-3.2027394E-1,-4.3424856E-2,-8.9838326E-1,-3.651329E-1,-8.7506336E-1,-3.921108E-1,-2.0366144E-1,-7.571444E-1,8.380441E-1,-2.9201883E-1,1.0043739E0,1.9126645E-1,-1.5620795E-1,-5.7691234E-1,5.0162596E-1,1.040967E0,7.7237356E-1,1.4537121E0,-9.149742E-3,7.759749E-1],"categories":[],"categories_nodes":[],"categories_segments":[],"categories_sizes":[],"default_left":[0,0,0,0,0,0,0,0,0,0,0,0,0,0,0,0,0,0,0,0,0,0,0,0,0,0,0,0,0,0,0,0,0,0,0,0,0,0,0,0,0,0,0,0,0,0,0,0,0,0,0,0,0,0,0,0,0,0,0,0,0,0,0,0,0,0,0,0,0,0,0,0,0,0,0,0,0,0,0,0,0,0,0,0,0,0,0,0,0,0,0,0,0,0,0,0,0,0,0],"id":7,"left_children":[1,3,5,7,9,11,13,15,17,19,21,23,25,27,29,31,33,35,37,39,-1,41,-1,43,45,47,49,51,53,55,57,59,61,63,65,67,69,-1,-1,71,-1,73,75,77,79,81,83,85,87,89,91,-1,-1,-1,-1,93,95,97,-1,-1,-1,-1,-1,-1,-1,-1,-1,-1,-1,-1,-1,-1,-1,-1,-1,-1,-1,-1,-1,-1,-1,-1,-1,-1,-1,-1,-1,-1,-1,-1,-1,-1,-1,-1,-1,-1,-1,-1,-1],"loss_changes":[1.0992794E5,2.7292E4,1.0503994E5,1.0562203E4,5.6659756E3,7.1435703E3,4.867293E3,1.0551359E4,5.309949E3,2.9775488E3,1.599123E3,6.500008E3,3.2863325E3,1.303215E3,3.4466016E3,1.1275578E4,4.608369E3,3.7099688E3,9.856592E1,2.9230273E2,0E0,1.3816893E3,0E0,4.990633E3,4.457336E3,2.6074473E3,1.9829943E3,1.0861798E3,1.1161333E3,1.2809141E3,1.2126807E3,4.6713516E3,6.8058594E3,2.3141611E3,1.1171875E2,1.219898E3,2.3844395E3,0E0,0E0,4.0650977E2,0E0,8.025314E2,5.9027026E2,3.849875E3,3.6629033E3,3.4098242E3,2.9294688E3,1.8201235E3,1.8423385E3,1.8955798E3,1.5375806E2,0E0,0E0,0E0,0E0,5.8978516E2,9.655625E2,1.4717351E3,0E0,0E0,0E0,0E0,0E0,0E0,0E0,0E0,0E0,0E0,0E0,0E0,0E0,0E0,0E0,0E0,0E0,0E0,0E0,0E0,0E0,0E0,0E0,0E0,0E0,0E0,0E0,0E0,0E0,0E0,0E0,0E0,0E0,0E0,0E0,0E0,0E0,0E0,0E0,0E0,0E0],"parents":[2147483647,0,0,1,1,2,2,3,3,4,4,5,5,6,6,7,7,8,8,9,9,10,10,11,11,12,12,13,13,14,14,15,15,16,16,17,17,18,18,19,19,21,21,23,23,24,24,25,25,26,26,27,27,28,28,29,29,30,30,31,31,32,32,33,33,34,34,35,35,36,36,39,39,41,41,42,42,43,43,44,44,45,45,46,46,47,47,48,48,49,49,50,50,55,55,56,56,57,57],"right_children":[2,4,6,8,10,12,14,16,18,20,22,24,26,28,30,32,34,36,38,40,-1,42,-1,44,46,48,50,52,54,56,58,60,62,64,66,68,70,-1,-1,72,-1,74,76,78,80,82,84,86,88,90,92,-1,-1,-1,-1,94,96,98,-1,-1,-1,-1,-1,-1,-1,-1,-1,-1,-1,-1,-1,-1,-1,-1,-1,-1,-1,-1,-1,-1,-1,-1,-1,-1,-1,-1,-1,-1,-1,-1,-1,-1,-1,-1,-1,-1,-1,-1,-1],"split_conditions":[5.861715E-1,1.1602483E1,1E0,2.0326454E1,2.1586712E-1,1.2015991E1,2.6621425E0,6.945E3,5.2040356E-1,2.8852758E1,8.4797317E-1,6.19257E3,1.7600666E1,8.1172466E-1,9.915808E0,6.9616795E0,3.6755798E0,4.8554684E2,6.9904235E6,5.2544813E0,-4.808758E-2,4.1259406E4,-7.095357E-1,1.0495367E0,5.811527E0,2.2224627E0,6.0200986E8,9.712548E0,8.5145557E-1,-2.5250292E1,1.5451135E1,1.2126164E0,3.393445E-1,1.2210802E1,-2.7766347E-1,4.056906E4,1.6458258E6,8.821381E-1,4.723161E-1,-2.825129E1,-5.3931653E-1,-3.9707693E-1,7.198766E-1,1.0215588E5,7.1136723E0,3.9291615E0,-2.0227152E3,1.6456371E1,8.185665E7,4.5031587E3,-2.2777472E1,5.3289014E-1,-3.1806237E-1,9.04883E-1,1.0500653E-1,8.618466E5,2.591897E5,-2.9634616E-1,1.0951728E0,2.502323E-1,8.793481E-1,2.7828133E-1,6.3787484E-1,3.331123E-1,-7.61779E-1,-1.1386384E0,-5.690169E-1,-2.9188192E-1,-9.1691273E-1,-4.6542063E-1,3.4206694E-1,-1.4283402E0,-8.701235E-1,-2.1172268E-2,6.1275476E-1,2.1837711E-2,-6.510052E-1,-3.8268757E-1,-9.1920567E-1,-3.2027394E-1,-4.3424856E-2,-8.9838326E-1,-3.651329E-1,-8.7506336E-1,-3.921108E-1,-2.0366144E-1,-7.571444E-1,8.380441E-1,-2.9201883E-1,1.0043739E0,1.9126645E-1,-1.5620795E-1,-5.7691234E-1,5.0162596E-1,1.040967E0,7.7237356E-1,1.4537121E0,-9.149742E-3,7.759749E-1],"split_indices":[60,47,58,13,36,30,5,57,61,5,45,27,16,45,48,47,5,40,53,30,0,43,0,23,9,24,38,49,45,4,48,16,14,49,50,43,53,0,0,4,0,50,45,43,17,23,46,17,38,27,4,0,0,0,0,53,53,50,0,0,0,0,0,0,0,0,0,0,0,0,0,0,0,0,0,0,0,0,0,0,0,0,0,0,0,0,0,0,0,0,0,0,0,0,0,0,0,0,0],"split_type":[0,0,0,0,0,0,0,0,0,0,0,0,0,0,0,0,0,0,0,0,0,0,0,0,0,0,0,0,0,0,0,0,0,0,0,0,0,0,0,0,0,0,0,0,0,0,0,0,0,0,0,0,0,0,0,0,0,0,0,0,0,0,0,0,0,0,0,0,0,0,0,0,0,0,0,0,0,0,0,0,0,0,0,0,0,0,0,0,0,0,0,0,0,0,0,0,0,0,0],"sum_hessian":[2.964E3,1.071E3,1.893E3,9.91E2,8E1,1.715E3,1.78E2,8.99E2,9.2E1,4.2E1,3.8E1,1.38E3,3.35E2,3.3E1,1.45E2,8.57E2,4.2E1,7.5E1,1.7E1,3.3E1,9E0,3.2E1,6E0,7.92E2,5.88E2,2.78E2,5.7E1,1.4E1,1.9E1,1.15E2,3E1,3.18E2,5.39E2,2.9E1,1.3E1,3.3E1,4.2E1,1E1,7E0,2.8E1,5E0,2E1,1.2E1,3.11E2,4.81E2,1.53E2,4.35E2,2.64E2,1.4E1,4.7E1,1E1,5E0,9E0,1.2E1,7E0,5.3E1,6.2E1,2.3E1,7E0,3.4E1,2.84E2,3.04E2,2.35E2,2.4E1,5E0,8E0,5E0,1.8E1,1.5E1,1.2E1,3E1,1.2E1,1.6E1,8E0,1.2E1,7E0,5E0,2.73E2,3.8E1,2.6E2,2.21E2,1.09E2,4.4E1,3.4E1,4.01E2,2.49E2,1.5E1,9E0,5E0,8E0,3.9E1,5E0,5E0,9E0,4.4E1,1E1,5.2E1,1.3E1,1E1],"tree_param":{"num_deleted":"0","num_feature":"62","num_nodes":"99","size_leaf_vector":"1"}},{"base_weights":[8.011451E-2,5.6336374E0,-6.001247E0,9.221282E0,-4.933167E0,-5.253916E0,-1.2151831E1,1.6803915E1,6.449802E0,7.423465E0,-1.0883038E1,-1.0950977E0,-6.177483E0,-6.2525764E0,-1.4652898E1,1.9767366E1,7.8120995E0,3.1718662E0,1.2561567E1,-1.1298369E1,9.280205E0,7.543448E-1,-1.1440486E1,-6.225906E0,1.4277185E0,-7.0692334E0,-1.78025E0,-1.0215952E0,-2.3566325E0,-5.3131094E0,-1.6631552E1,2.2862772E1,1.2614142E1,-8.59378E0,1.0351108E1,7.659773E-2,9.164426E0,1.9670713E1,7.9753046E0,-8.889851E-1,-2.0644449E-1,-3.4342292E-1,1.0689524E1,-1.7351776E1,-8.520599E0,-1.728297E0,-1.5331896E1,8.157046E0,-1.8583342E-1,-7.671297E0,-4.0688568E-1,-1.2047475E1,9.2201844E-2,1.0267175E0,-1.0754558E1,1.4574345E0,-9.047591E-1,-2.1114939E1,-1.0835697E1,1.2997957E0,9.231539E-1,-4.5738623E-1,7.187348E-1,-8.173362E-1,2.9573092E-2,3.6439797E-1,8.669133E-1,4.1720486E-1,-1.0996961E-1,5.177614E-1,-5.469029E-1,1.1313552E0,5.647741E-1,1.8791545E-2,5.73279E-1,8.035776E-1,3.510544E-1,-9.7341585E-1,-2.6136473E-1,-2.4810092E-1,-5.821591E-1,-2.7946445E-1,4.0840515E-1,-1.0142874E0,1.5227236E-2,8.6967003E-1,1.685176E-1,4.3054473E-2,-7.867791E-1,-3.7037957E-1,-1.277658E0,2.73588E-1,-3.057826E-1,4.9737334E-2,-8.330995E-1,4.6517482E-1,-6.628149E-2,2.105624E-1,-3.730507E-1,-8.3882993E-1,-1.4700447E-1,-5.612585E-1,4.8752832E-1,-5.395469E-1,-1.1307191E0,-9.629467E-2,-1.0291008E0],"categories":[],"categories_nodes":[],"categories_segments":[],"categories_sizes":[],"default_left":[0,0,0,0,0,0,0,0,1,0,0,0,0,0,0,0,0,0,0,0,0,0,0,0,0,0,0,0,0,0,0,0,0,0,0,0,0,0,0,0,0,0,0,1,0,0,0,0,0,0,0,0,0,0,0,0,0,0,0,0,0,0,0,0,0,0,0,0,0,0,0,0,0,0,0,0,0,0,0,0,0,0,0,0,0,0,0,0,0,0,0,0,0,0,0,0,0,0,0,0,0,0,0,0,0,0,0],"id":8,"left_children":[1,3,5,7,9,11,13,15,17,19,21,23,25,27,29,31,33,35,37,39,41,-1,43,45,47,49,51,-1,53,55,57,59,61,63,65,67,69,71,73,-1,-1,-1,75,77,79,81,83,85,87,89,91,93,95,97,99,101,-1,103,105,-1,-1,-1,-1,-1,-1,-1,-1,-1,-1,-1,-1,-1,-1,-1,-1,-1,-1,-1,-1,-1,-1,-1,-1,-1,-1,-1,-1,-1,-1,-1,-1,-1,-1,-1,-1,-1,-1,-1,-1,-1,-1,-1,-1,-1,-1,-1,-1],"loss_changes":[9.976542E4,5.8578434E4,6.41725E3,2.4122047E4,2.8900773E4,4.8289844E3,2.1510566E3,8.052797E3,1.6908898E4,4.5543335E3,4.0089785E3,2.9860286E3,4.0262852E3,2.5482168E3,1.8705371E3,4.8264453E3,3.3380186E3,1.0238113E4,9.461422E3,4.8420312E2,2.7361777E3,0E0,4.339836E3,3.0860955E3,1.6845245E3,3.4304297E3,3.3654653E3,0E0,1.0907405E3,1.7572042E3,2.0319062E3,1.725625E3,2.8900254E3,7.930078E2,1.3290234E3,6.886464E3,4.613628E3,2.5918672E3,4.796581E3,0E0,0E0,0E0,2.0194717E3,2.0795E3,1.8979316E3,2.03257E3,1.9426934E3,1.267726E3,2.0647524E3,3.512418E3,2.44977E3,1.6415295E3,1.9582825E3,7.882444E2,4.6832483E2,1.5819508E3,0E0,4.9901953E2,3.4338726E3,0E0,0E0,0E0,0E0,0E0,0E0,0E0,0E0,0E0,0E0,0E0,0E0,0E0,0E0,0E0,0E0,0E0,0E0,0E0,0E0,0E0,0E0,0E0,0E0,0E0,0E0,0E0,0E0,0E0,0E0,0E0,0E0,0E0,0E0,0E0,0E0,0E0,0E0,0E0,0E0,0E0,0E0,0E0,0E0,0E0,0E0,0E0,0E0],"parents":[2147483647,0,0,1,1,2,2,3,3,4,4,5,5,6,6,7,7,8,8,9,9,10,10,11,11,12,12,13,13,14,14,15,15,16,16,17,17,18,18,19,19,20,20,22,22,23,23,24,24,25,25,26,26,28,28,29,29,30,30,31,31,32,32,33,33,34,34,35,35,36,36,37,37,38,38,42,42,43,43,44,44,45,45,46,46,47,47,48,48,49,49,50,50,51,51,52,52,53,53,54,54,55,55,57,57,58,58],"right_children":[2,4,6,8,10,12,14,16,18,20,22,24,26,28,30,32,34,36,38,40,42,-1,44,46,48,50,52,-1,54,56,58,60,62,64,66,68,70,72,74,-1,-1,-1,76,78,80,82,84,86,88,90,92,94,96,98,100,102,-1,104,106,-1,-1,-1,-1,-1,-1,-1,-1,-1,-1,-1,-1,-1,-1,-1,-1,-1,-1,-1,-1,-1,-1,-1,-1,-1,-1,-1,-1,-1,-1,-1,-1,-1,-1,-1,-1,-1,-1,-1,-1,-1,-1,-1,-1,-1,-1,-1,-1],"split_conditions":[1E0,1.7429117E1,6.891E3,5.19E2,4.1333103E0,2.6274814E7,2.4298365E1,4.1411627E2,8.241771E-1,3.3982754E-1,7.881738E0,3.3831556E0,1.7620779E1,-2.8826935E1,-5.639955E2,9.240244E0,9.024261E0,3.6281035E0,1.0965391E6,3.1909472E-1,2.2197319E1,7.543448E-1,2.381534E1,1.4273062E3,-2.2401821E1,5E-2,7.929115E1,-1.0215952E0,1.1681618E1,1.9646282E1,3.507637E10,8.151647E1,1.0721468E1,2.1140454E0,-2.9799998E-1,2.4090838E4,4.382018E14,-5.4271543E-1,7.476471E-1,-8.889851E-1,-2.0644449E-1,-3.4342292E-1,7.8088606E5,8.0968124E-1,1.3455455E1,2.3200223E2,1.6306714E7,6.853435E0,2.0085289E1,1.068981E3,8.031874E0,6.2208047E0,1.5486262E8,1.4751239E1,3.2040281E4,-1.3809552E3,-9.047591E-1,3.177393E0,8.6443655E11,1.2997957E0,9.231539E-1,-4.5738623E-1,7.187348E-1,-8.173362E-1,2.9573092E-2,3.6439797E-1,8.669133E-1,4.1720486E-1,-1.0996961E-1,5.177614E-1,-5.469029E-1,1.1313552E0,5.647741E-1,1.8791545E-2,5.73279E-1,8.035776E-1,3.510544E-1,-9.7341585E-1,-2.6136473E-1,-2.4810092E-1,-5.821591E-1,-2.7946445E-1,4.0840515E-1,-1.0142874E0,1.5227236E-2,8.6967003E-1,1.685176E-1,4.3054473E-2,-7.867791E-1,-3.7037957E-1,-1.277658E0,2.73588E-1,-3.057826E-1,4.9737334E-2,-8.330995E-1,4.6517482E-1,-6.628149E-2,2.105624E-1,-3.730507E-1,-8.3882993E-1,-1.4700447E-1,-5.612585E-1,4.8752832E-1,-5.395469E-1,-1.1307191E0,-9.629467E-2,-1.0291008E0],"split_indices":[55,26,57,57,5,51,41,36,1,60,13,35,16,4,46,48,33,10,53,60,36,0,26,42,4,44,36,0,48,29,51,41,49,22,50,43,51,52,2,0,0,0,53,3,49,41,51,16,13,41,15,48,51,12,43,46,0,35,51,0,0,0,0,0,0,0,0,0,0,0,0,0,0,0,0,0,0,0,0,0,0,0,0,0,0,0,0,0,0,0,0,0,0,0,0,0,0,0,0,0,0,0,0,0,0,0,0],"split_type":[0,0,0,0,0,0,0,0,0,0,0,0,0,0,0,0,0,0,0,0,0,0,0,0,0,0,0,0,0,0,0,0,0,0,0,0,0,0,0,0,0,0,0,0,0,0,0,0,0,0,0,0,0,0,0,0,0,0,0,0,0,0,0,0,0,0,0,0,0,0,0,0,0,0,0,0,0,0,0,0,0,0,0,0,0,0,0,0,0,0,0,0,0,0,0,0,0,0,0,0,0,0,0,0,0,0,0],"sum_hessian":[2.952E3,1.543E3,1.409E3,1.152E3,3.91E2,1.258E3,1.51E2,3.07E2,8.45E2,1.27E2,2.64E2,2.29E2,1.029E3,4.6E1,1.05E2,2.3E2,7.7E1,5.51E2,2.94E2,1.1E1,1.16E2,5E0,2.59E2,7.5E1,1.54E2,8.55E2,1.74E2,9E0,3.7E1,1.9E1,8.6E1,1.59E2,7.1E1,1E1,6.7E1,3.64E2,1.87E2,1.14E2,1.8E2,5E0,6E0,9E0,1.07E2,8.4E1,1.75E2,5.1E1,2.4E1,2.9E1,1.25E2,7.84E2,7.1E1,2.6E1,1.48E2,2.7E1,1E1,1.3E1,6E0,4.7E1,3.9E1,9E1,6.9E1,5E0,6.6E1,5E0,5E0,4.8E1,1.9E1,7.8E1,2.86E2,1.77E2,1E1,8.3E1,3.1E1,5.7E1,1.23E2,4.2E1,6.5E1,7.1E1,1.3E1,8.3E1,9.2E1,3.7E1,1.4E1,1.8E1,6E0,9E0,2E1,1.18E2,7E0,7.74E2,1E1,3.5E1,3.6E1,7E0,1.9E1,1.9E1,1.29E2,2E1,7E0,5E0,5E0,5E0,8E0,7E0,4E1,2.1E1,1.8E1],"tree_param":{"num_deleted":"0","num_feature":"62","num_nodes":"107","size_leaf_vector":"1"}},{"base_weights":[-8.588518E-2,5.5499463E0,-6.0813065E0,9.022432E0,-4.6126676E0,-5.331656E0,-1.2283749E1,1.6596739E1,6.6854954E0,-1.1471392E1,4.5876307E0,-8.717546E0,-4.215107E0,-5.979692E0,-1.5196433E1,2.0489992E1,1.0975618E1,7.1984158E0,-1.4296223E1,-5.774667E0,-1.4517015E1,-1.4743758E0,8.123409E0,-4.4187655E0,-1.1201163E1,-4.0237646E0,-1.0995113E0,-1.0218333E0,-3.15096E0,-1.3657081E0,-1.3616736E1,2.2151525E1,9.91888E0,1.2682916E1,2.5732682E0,9.905474E0,2.784494E0,-6.752968E-3,-9.356573E-1,-8.966937E0,8.443484E0,-1.7725431E1,-1.0229536E1,2.1724958E0,-1.4133114E1,9.516444E0,-6.369285E-1,-5.718126E0,5.9044516E-1,-7.8163185E0,-1.5742125E1,-1.3796057E0,-5.407195E0,-6.5538206E0,7.344073E0,-2.2500446E1,-1.1645141E1,3.7095943E-1,1.1836512E0,-4.4979613E-2,6.895041E-1,2.914219E-1,7.576782E-1,-9.881716E-2,5.652441E-1,3.569063E-1,6.613265E-1,-5.396011E-1,2.0548478E-1,-1.3035506E-1,-7.722023E-1,1.9411425E-1,6.550836E-1,-6.24089E-1,-1.1665286E0,5.081664E-1,-6.4561135E-1,-7.067524E-1,2.6134843E-1,-1.991824E-1,-1.0623629E0,6.490747E-1,1.9263701E-1,-4.475161E-1,5.423356E-2,-3.896242E-2,-4.9712023E-1,-8.834552E-1,-2.4225762E-1,1.3438396E-1,-2.7819538E-1,-4.4155437E-1,-1.4441587E-1,2.5576666E-1,-4.94613E-1,2.5804138E-2,6.474025E-1,-6.165812E-1,-1.3000791E0,-4.7872373E-1,-1.0710628E0],"categories":[],"categories_nodes":[],"categories_segments":[],"categories_sizes":[],"default_left":[0,0,0,0,0,0,0,1,0,0,0,0,0,0,0,0,0,0,0,0,0,0,0,0,0,0,0,0,0,0,0,0,0,0,0,0,0,0,0,0,0,0,0,0,0,0,0,0,0,0,0,0,0,0,0,0,0,0,0,0,0,0,0,0,0,0,0,0,0,0,0,0,0,0,0,0,0,0,0,0,0,0,0,0,0,0,0,0,0,0,0,0,0,0,0,0,0,0,0,0,0],"id":9,"left_children":[1,3,5,7,9,11,13,15,17,19,21,23,25,27,29,31,33,35,37,39,41,43,45,47,49,51,-1,-1,53,-1,55,57,59,61,63,65,67,-1,-1,69,71,73,75,77,79,81,-1,83,-1,85,87,89,91,93,95,97,99,-1,-1,-1,-1,-1,-1,-1,-1,-1,-1,-1,-1,-1,-1,-1,-1,-1,-1,-1,-1,-1,-1,-1,-1,-1,-1,-1,-1,-1,-1,-1,-1,-1,-1,-1,-1,-1,-1,-1,-1,-1,-1,-1,-1],"loss_changes":[9.944153E4,5.3575844E4,6.5649297E3,1.9908508E4,2.4473223E4,4.779629E3,2.7184727E3,5.596375E3,9.422758E3,3.7678887E3,3.5700068E3,3.3136094E3,3.1765996E3,1.9803503E3,1.6188711E3,2.5203086E3,1.5596934E3,1.0081055E4,1.3109961E3,3.6613787E3,1.7995449E3,2.8929211E3,3.1726787E3,2.534538E3,2.9356738E3,3.4713096E3,0E0,0E0,1.5837963E3,0E0,1.3843965E3,2.8279922E3,9.756565E2,1.4697002E3,8.168512E2,4.721418E3,5.8556455E3,0E0,0E0,2.6373037E3,2.6783948E2,2.089496E3,3.6325269E3,2.51462E3,9.262251E2,1.8928623E3,0E0,2.4063977E3,0E0,1.7277764E3,1.6782402E3,5.5971035E3,5.3560957E3,1.3361753E3,4.1422064E2,2.4899756E2,1.3941055E3,0E0,0E0,0E0,0E0,0E0,0E0,0E0,0E0,0E0,0E0,0E0,0E0,0E0,0E0,0E0,0E0,0E0,0E0,0E0,0E0,0E0,0E0,0E0,0E0,0E0,0E0,0E0,0E0,0E0,0E0,0E0,0E0,0E0,0E0,0E0,0E0,0E0,0E0,0E0,0E0,0E0,0E0,0E0,0E0],"parents":[2147483647,0,0,1,1,2,2,3,3,4,4,5,5,6,6,7,7,8,8,9,9,10,10,11,11,12,12,13,13,14,14,15,15,16,16,17,17,18,18,19,19,20,20,21,21,22,22,23,23,24,24,25,25,28,28,30,30,31,31,32,32,33,33,34,34,35,35,36,36,39,39,40,40,41,41,42,42,43,43,44,44,45,45,47,47,49,49,50,50,51,51,52,52,53,53,54,54,55,55,56,56],"right_children":[2,4,6,8,10,12,14,16,18,20,22,24,26,28,30,32,34,36,38,40,42,44,46,48,50,52,-1,-1,54,-1,56,58,60,62,64,66,68,-1,-1,70,72,74,76,78,80,82,-1,84,-1,86,88,90,92,94,96,98,100,-1,-1,-1,-1,-1,-1,-1,-1,-1,-1,-1,-1,-1,-1,-1,-1,-1,-1,-1,-1,-1,-1,-1,-1,-1,-1,-1,-1,-1,-1,-1,-1,-1,-1,-1,-1,-1,-1,-1,-1,-1,-1,-1,-1],"split_conditions":[1E0,1.7429117E1,6.891E3,9.461603E0,5.8208795E0,3.262019E0,8.324751E2,4.1953328E-1,4.2725094E1,1.0077392E1,5.7967944E0,2.678966E-1,1.772599E1,-2.858962E1,8.6961255E2,3.7037036E-3,3.886E3,1.1918781E1,1.7819353E1,1.2476197E1,7.8540885E-1,3.5637684E0,1.787687E12,1.1541162E3,1.8064676E1,7.776445E-1,-1.0995113E0,-1.0218333E0,3.254046E0,-1.3657081E0,4.0178256E0,3.1138915E-1,2.8265293E9,4.8307824E0,5E3,9.934241E0,2.0341442E0,-6.752968E-3,-9.356573E-1,8.126037E7,4.083621E1,-4.9500933E0,2.4542084E1,2.64436E0,6.506959E-1,1.166352E1,-6.369285E-1,7.5442023E0,5.9044516E-1,6.961822E0,6.047711E-1,7.137607E0,7.422909E-1,8.985523E0,1.0276675E0,3.5637684E0,2.2394186E1,3.7095943E-1,1.1836512E0,-4.4979613E-2,6.895041E-1,2.914219E-1,7.576782E-1,-9.881716E-2,5.652441E-1,3.569063E-1,6.613265E-1,-5.396011E-1,2.0548478E-1,-1.3035506E-1,-7.722023E-1,1.9411425E-1,6.550836E-1,-6.24089E-1,-1.1665286E0,5.081664E-1,-6.4561135E-1,-7.067524E-1,2.6134843E-1,-1.991824E-1,-1.0623629E0,6.490747E-1,1.9263701E-1,-4.475161E-1,5.423356E-2,-3.896242E-2,-4.9712023E-1,-8.834552E-1,-2.4225762E-1,1.3438396E-1,-2.7819538E-1,-4.4155437E-1,-1.4441587E-1,2.5576666E-1,-4.94613E-1,2.5804138E-2,6.474025E-1,-6.165812E-1,-1.3000791E0,-4.7872373E-1,-1.0710628E0],"split_indices":[55,26,57,49,11,35,42,60,8,48,17,21,48,4,42,54,57,6,19,49,45,35,51,42,29,45,0,0,35,0,47,6,51,48,0,5,20,0,0,39,36,52,29,19,8,49,0,33,0,19,46,47,6,49,41,35,34,0,0,0,0,0,0,0,0,0,0,0,0,0,0,0,0,0,0,0,0,0,0,0,0,0,0,0,0,0,0,0,0,0,0,0,0,0,0,0,0,0,0,0,0],"split_type":[0,0,0,0,0,0,0,0,0,0,0,0,0,0,0,0,0,0,0,0,0,0,0,0,0,0,0,0,0,0,0,0,0,0,0,0,0,0,0,0,0,0,0,0,0,0,0,0,0,0,0,0,0,0,0,0,0,0,0,0,0,0,0,0,0,0,0,0,0,0,0,0,0,0,0,0,0,0,0,0,0,0,0,0,0,0,0,0,0,0,0,0,0,0,0,0,0,0,0,0,0],"sum_hessian":[2.941E3,1.516E3,1.425E3,1.13E3,3.86E2,1.273E3,1.52E2,2.65E2,8.65E2,2.21E2,1.65E2,3.14E2,9.59E2,4.9E1,1.03E2,1.55E2,1.1E2,8.45E2,2E1,7.8E1,1.43E2,6.1E1,1.04E2,1.16E2,1.98E2,9.5E2,9E0,7E0,4.2E1,1E1,9.3E1,1.33E2,2.2E1,9.1E1,1.9E1,5.23E2,3.22E2,5E0,1.5E1,6.4E1,1.4E1,8E1,6.3E1,4.8E1,1.3E1,9.8E1,6E0,1.08E2,8E0,1.15E2,8.3E1,3.27E2,6.23E2,3.2E1,1E1,1.5E1,7.8E1,1.3E1,1.2E2,6E0,1.6E1,2.5E1,6.6E1,1.3E1,6E0,2.87E2,2.36E2,2.8E1,2.94E2,3.3E1,3.1E1,8E0,6E0,4.3E1,3.7E1,7E0,5.6E1,7E0,4.1E1,6E0,7E0,6E1,3.8E1,7.3E1,3.5E1,2.7E1,8.8E1,7E1,1.3E1,1.66E2,1.61E2,2.63E2,3.6E2,7E0,2.5E1,5E0,5E0,5E0,1E1,6.6E1,1.2E1],"tree_param":{"num_deleted":"0","num_feature":"62","num_nodes":"101","size_leaf_vector":"1"}},{"base_weights":[-1.415231E-1,5.045151E0,-5.798266E0,8.313987E0,-4.714906E0,-1.2139386E1,-5.050901E0,1.6875206E1,6.462193E0,-1.053356E1,4.0436897E0,-1.3528699E1,9.884768E-1,-1.1787928E1,-4.5265584E0,2.0346285E1,9.8393955E0,2.511452E0,9.972449E0,-1.5015912E1,-7.771503E0,1.0187298E1,-1.3344241E0,-1.5324026E1,-8.26562E0,3.713062E-1,-3.7148547E-1,-2.334569E0,-1.6019531E1,-3.8113275E-1,-5.2730207E0,1.5544174E1,2.4211855E1,1.3800307E1,1.2872696E-1,4.4809437E0,-6.1323667E0,1.1088511E1,-4.262945E0,-1.6451576E1,3.5537413E-1,-5.3944693E0,-1.6338837E1,8.6622727E-1,1.3755667E1,-2.7489712E0,6.1352885E-1,-1.2530016E1,-1.922958E1,-3.5732453E0,-1.73526E1,5.668112E0,-9.191004E0,-1.9627993E1,-2.2456672E0,7.119356E0,-2.9530833E0,-2.0227747E0,-6.770142E0,4.6834373E-1,8.8117313E-1,1.323336E0,5.272034E-1,9.5183766E-1,9.051708E-2,5.250026E-1,-3.5306618E-1,9.9045716E-2,5.06942E-1,5.2937365E-1,-5.983152E-1,-3.1544518E-2,6.1758393E-1,6.086994E-2,-1.2140683E0,-1.3747171E0,-7.17674E-1,7.51896E-1,-3.2299614E-1,-9.9297315E-1,-2.7631274E-1,1.1076399E0,-3.585188E-1,5.1978964E-1,9.305838E-1,-6.4539665E-1,-5.958395E-2,-7.169254E-1,3.0680797E-1,-3.8244766E-1,-1.055168E0,-4.3756685E-1,1.382816E-1,-1.1713876E0,-3.6864132E-1,8.5187174E-2,5.3349894E-1,-7.763097E-1,1.9776726E-1,-6.3973427E-1,-1.3716375E0,-4.7119227E-1,3.139387E-1,-2.2803481E-1,4.8491666E-1,-6.3943034E-1,6.841475E-2,-7.901414E-1,-5.141111E-2,-6.390648E-1,-2.8460208E-1],"categories":[],"categories_nodes":[],"categories_segments":[],"categories_sizes":[],"default_left":[0,0,0,0,0,0,0,1,0,0,0,0,0,0,0,0,0,0,0,0,0,0,0,0,0,0,0,0,0,0,0,0,0,0,0,0,0,0,0,0,0,0,0,0,0,0,0,0,0,0,0,0,0,0,0,0,0,0,0,0,0,0,0,0,0,0,0,0,0,0,0,0,0,0,0,0,0,0,0,0,0,0,0,0,0,0,0,0,0,0,0,0,0,0,0,0,0,0,0,0,0,0,0,0,0,0,0,0,0,0,0],"id":10,"left_children":[1,3,5,7,9,11,13,15,17,19,21,23,25,27,29,31,33,35,37,39,41,43,45,47,49,-1,-1,51,53,55,57,59,61,63,65,67,69,71,73,75,-1,77,79,81,83,85,-1,87,89,91,93,95,97,99,101,103,105,107,109,-1,-1,-1,-1,-1,-1,-1,-1,-1,-1,-1,-1,-1,-1,-1,-1,-1,-1,-1,-1,-1,-1,-1,-1,-1,-1,-1,-1,-1,-1,-1,-1,-1,-1,-1,-1,-1,-1,-1,-1,-1,-1,-1,-1,-1,-1,-1,-1,-1,-1,-1,-1],"loss_changes":[8.593584E4,4.8788547E4,6.578207E3,1.8043328E4,1.9612475E4,2.694463E3,4.3799414E3,4.7574375E3,1.3052582E4,2.7432012E3,5.101911E3,1.1300469E3,8.6807367E2,3.5628584E3,3.6060664E3,2.1296406E3,2.6521763E3,7.603127E3,7.9751797E3,2.8802012E3,2.8647617E3,2.382878E3,1.6310594E3,8.284453E2,1.4730178E3,0E0,0E0,1.6433217E3,3.0374727E3,3.4740928E3,4.793924E3,6.4411914E2,1.9707188E3,3.0419922E3,1.6401215E3,5.114518E3,8.222721E3,6.8618477E3,4.0887502E3,1.5052012E3,0E0,2.6006658E3,1.070331E3,3.7513499E3,6.5492676E2,1.1869739E3,0E0,2.1134414E3,6.8486426E2,8.447853E2,5.5481494E2,2.5943057E2,1.3939657E3,2.262289E3,9.158295E2,1.4298699E3,5.712903E3,4.273412E3,4.3081523E3,0E0,0E0,0E0,0E0,0E0,0E0,0E0,0E0,0E0,0E0,0E0,0E0,0E0,0E0,0E0,0E0,0E0,0E0,0E0,0E0,0E0,0E0,0E0,0E0,0E0,0E0,0E0,0E0,0E0,0E0,0E0,0E0,0E0,0E0,0E0,0E0,0E0,0E0,0E0,0E0,0E0,0E0,0E0,0E0,0E0,0E0,0E0,0E0,0E0,0E0,0E0,0E0],"parents":[2147483647,0,0,1,1,2,2,3,3,4,4,5,5,6,6,7,7,8,8,9,9,10,10,11,11,12,12,13,13,14,14,15,15,16,16,17,17,18,18,19,19,20,20,21,21,22,22,23,23,24,24,27,27,28,28,29,29,30,30,31,31,32,32,33,33,34,34,35,35,36,36,37,37,38,38,39,39,41,41,42,42,43,43,44,44,45,45,47,47,48,48,49,49,50,50,51,51,52,52,53,53,54,54,55,55,56,56,57,57,58,58],"right_children":[2,4,6,8,10,12,14,16,18,20,22,24,26,28,30,32,34,36,38,40,42,44,46,48,50,-1,-1,52,54,56,58,60,62,64,66,68,70,72,74,76,-1,78,80,82,84,86,-1,88,90,92,94,96,98,100,102,104,106,108,110,-1,-1,-1,-1,-1,-1,-1,-1,-1,-1,-1,-1,-1,-1,-1,-1,-1,-1,-1,-1,-1,-1,-1,-1,-1,-1,-1,-1,-1,-1,-1,-1,-1,-1,-1,-1,-1,-1,-1,-1,-1,-1,-1,-1,-1,-1,-1,-1,-1,-1,-1,-1],"split_conditions":[1E0,4.8926313E3,5.42E2,6.160347E0,-2.802019E-1,6.25E-2,1.5E2,7.890819E-1,2.5118363E-1,1.2371323E1,6.3227434E0,8.415228E-1,5.3241504E4,-5.9464044E2,-2.7290592E1,8.0396026E-1,8.8453045E0,-2.8791347E-1,3.8159028E3,5.2561266E4,2.4126387E0,3.783981E-1,7.482175E4,9.991205E0,5.1083645E4,3.713062E-1,-3.7148547E-1,1.01710535E3,1.7431532E1,3.1019752E0,7.835288E7,7.3146325E-1,1.5939055E6,1.5642411E10,-2.2652979E1,8.203434E-1,4.4429284E-1,-1.4780964E3,3.4683688E0,-3.145315E1,3.5537413E-1,5.007134E8,1.6486095E1,8.60922E8,1.6386714E0,2.3837715E4,6.1352885E-1,9.560207E6,-6.7729266E2,1.3754579E2,8.930433E0,6.753426E0,-1.1673815E3,7.8123517E0,-2.4616869E1,2.2351487E0,9.505736E2,7.3146325E-1,-7.249592E2,4.6834373E-1,8.8117313E-1,1.323336E0,5.272034E-1,9.5183766E-1,9.051708E-2,5.250026E-1,-3.5306618E-1,9.9045716E-2,5.06942E-1,5.2937365E-1,-5.983152E-1,-3.1544518E-2,6.1758393E-1,6.086994E-2,-1.2140683E0,-1.3747171E0,-7.17674E-1,7.51896E-1,-3.2299614E-1,-9.9297315E-1,-2.7631274E-1,1.1076399E0,-3.585188E-1,5.1978964E-1,9.305838E-1,-6.4539665E-1,-5.958395E-2,-7.169254E-1,3.0680797E-1,-3.8244766E-1,-1.055168E0,-4.3756685E-1,1.382816E-1,-1.1713876E0,-3.6864132E-1,8.5187174E-2,5.3349894E-1,-7.763097E-1,1.9776726E-1,-6.3973427E-1,-1.3716375E0,-4.7119227E-1,3.139387E-1,-2.2803481E-1,4.8491666E-1,-6.3943034E-1,6.841475E-2,-7.901414E-1,-5.141111E-2,-6.390648E-1,-2.8460208E-1],"split_indices":[55,27,56,48,50,44,0,2,14,41,30,45,43,46,4,45,11,50,27,43,10,60,43,19,43,0,0,42,16,17,51,45,53,51,4,45,59,46,17,4,0,51,33,51,14,43,0,53,46,41,48,22,46,19,4,30,42,45,46,0,0,0,0,0,0,0,0,0,0,0,0,0,0,0,0,0,0,0,0,0,0,0,0,0,0,0,0,0,0,0,0,0,0,0,0,0,0,0,0,0,0,0,0,0,0,0,0,0,0,0,0],"split_type":[0,0,0,0,0,0,0,0,0,0,0,0,0,0,0,0,0,0,0,0,0,0,0,0,0,0,0,0,0,0,0,0,0,0,0,0,0,0,0,0,0,0,0,0,0,0,0,0,0,0,0,0,0,0,0,0,0,0,0,0,0,0,0,0,0,0,0,0,0,0,0,0,0,0,0,0,0,0,0,0,0,0,0,0,0,0,0,0,0,0,0,0,0,0,0,0,0,0,0,0,0,0,0,0,0,0,0,0,0,0,0],"sum_hessian":[2.927E3,1.527E3,1.4E3,1.144E3,3.83E2,1.46E2,1.254E3,2.02E2,9.42E2,2.3E2,1.53E2,1.32E2,1.4E1,8.9E1,1.165E3,1.34E2,6.8E1,4.44E2,4.98E2,8.6E1,1.44E2,7.1E1,8.2E1,9.7E1,3.5E1,8E0,6E0,2.8E1,6.1E1,1.78E2,9.87E2,6.2E1,7.2E1,4.8E1,2E1,3.62E2,8.2E1,4.62E2,3.6E1,8.1E1,5E0,1.14E2,3E1,2E1,5.1E1,7.5E1,7E0,5.9E1,3.8E1,2.4E1,1.1E1,1.3E1,1.5E1,4.8E1,1.3E1,4.5E1,1.33E2,3.12E2,6.75E2,1.7E1,4.5E1,6.1E1,1.1E1,3.3E1,1.5E1,8E0,1.2E1,2.52E2,1.1E2,2.1E1,6.1E1,4.5E1,4.17E2,2.9E1,7E0,1.1E1,7E1,5E0,1.09E2,2.2E1,8E0,5E0,1.5E1,3.2E1,1.9E1,9E0,6.6E1,5.4E1,5E0,6E0,3.2E1,1.3E1,1.1E1,6E0,5E0,8E0,5E0,1E1,5E0,2.7E1,2.1E1,7E0,6E0,8E0,3.7E1,4E1,9.3E1,2E1,2.92E2,1.01E2,5.74E2],"tree_param":{"num_deleted":"0","num_feature":"62","num_nodes":"111","size_leaf_vector":"1"}},{"base_weights":[-4.638083E-2,6.3107295E0,-3.605408E0,8.117782E0,-4.1053014E0,-5.554341E0,1.5540932E1,9.208738E0,-2.6177645E0,-1.4059764E1,1.5953274E0,-6.03419E0,4.7380832E-1,1.783628E1,5.71876E0,4.5893335E0,1.1395202E1,-1.47995E1,2.704617E0,-1.5688595E1,1.3357653E-1,-8.9150316E-1,3.214357E0,-6.999345E0,-3.421516E0,3.676294E0,-7.5884886E0,2.0135809E1,6.1770782E0,-6.173814E0,1.39411335E1,-1.5390304E1,6.0894284E0,7.803704E0,1.353196E1,-2.9420676E0,-1.2376434E0,8.506205E0,-7.7029514E0,-1.0466632E1,-2.2044779E1,-7.4729085E-1,6.5047054E0,-5.7865596E0,-9.671555E0,-3.8372238E0,1.1586592E1,5.703855E0,-8.17236E0,-1.2142122E0,-2.2544577E1,1.7495638E1,2.2700634E1,1.0186805E1,-4.1090947E-1,-5.30919E-1,1.1313833E-1,2.7154312E-1,1.6261164E1,-1.1905189E0,-3.5510167E-1,3.9021158E-1,-3.3729675E-1,3.1130525E-1,8.7721026E-1,7.4710613E-1,1.4007148E-1,1.5466554E-1,-4.2785755E-1,-5.224335E-2,7.597928E-1,-8.3913136E-1,2.4354608E-1,-2.1970855E-1,-8.7632334E-1,-1.5790967E0,-7.426417E-1,2.8158522E-1,-1.0531681E-1,4.0535846E-1,-1.6611207E-1,-3.585525E-1,-6.4644225E-2,-5.365349E-1,6.5461926E-2,-2.7507916E-1,-5.5062413E-2,3.7197846E-1,7.246843E-1,-2.6932347E-1,3.968052E-1,-7.256685E-1,1.3506064E-1,4.6060768E-1,-6.575617E-1,-4.702684E-1,-1.5963179E0,5.7775366E-1,9.4785625E-1,6.804679E-1,1.2289389E0,1.0880456E-1,9.867944E-1,9.899168E-1,5.1246005E-1],"categories":[],"categories_nodes":[],"categories_segments":[],"categories_sizes":[],"default_left":[0,0,0,0,0,0,0,0,0,0,0,0,0,0,0,0,0,0,0,0,0,0,0,0,0,0,0,0,0,0,0,0,0,0,0,0,0,0,0,0,0,0,0,0,0,0,0,0,0,0,0,0,0,0,0,0,0,0,0,0,0,0,0,0,0,0,0,0,0,0,0,0,0,0,0,0,0,0,0,0,0,0,0,0,0,0,0,0,0,0,0,0,0,0,0,0,0,0,0,0,0,0,0,0,0],"id":11,"left_children":[1,3,5,7,9,11,13,15,17,19,21,23,25,27,29,31,33,35,37,39,-1,-1,41,43,45,47,49,51,53,55,57,59,61,63,65,67,-1,69,71,73,75,77,79,81,83,85,87,89,91,93,95,97,99,101,-1,-1,-1,-1,103,-1,-1,-1,-1,-1,-1,-1,-1,-1,-1,-1,-1,-1,-1,-1,-1,-1,-1,-1,-1,-1,-1,-1,-1,-1,-1,-1,-1,-1,-1,-1,-1,-1,-1,-1,-1,-1,-1,-1,-1,-1,-1,-1,-1,-1,-1],"loss_changes":[6.7513516E4,2.019202E4,7.146979E4,1.071718E4,9.045154E3,5.0273047E3,3.8885234E3,8.320727E3,5.551074E3,1.6225547E3,3.2652407E3,4.0333594E3,3.358599E3,3.709543E3,3.5085513E3,8.1260415E3,4.2072812E3,2.9957314E3,3.688348E3,1.5284287E3,0E0,0E0,1.2432053E3,3.748754E3,2.7646587E3,2.280834E3,3.4999937E3,4.0865625E2,1.526744E3,5.8648114E2,3.2631372E2,1.1568672E3,5.5551777E3,3.1484883E3,5.2693984E3,4.6702893E2,0E0,2.5077183E3,2.593414E3,1.2519734E3,1.1085049E3,3.933133E2,8.4579517E2,5.0300996E3,4.259082E3,1.9292407E3,3.684265E1,2.0232571E3,1.0044955E3,3.4815647E3,1.0556816E3,3.2791797E2,6.387578E2,1.4869524E3,0E0,0E0,0E0,0E0,1.3732812E2,0E0,0E0,0E0,0E0,0E0,0E0,0E0,0E0,0E0,0E0,0E0,0E0,0E0,0E0,0E0,0E0,0E0,0E0,0E0,0E0,0E0,0E0,0E0,0E0,0E0,0E0,0E0,0E0,0E0,0E0,0E0,0E0,0E0,0E0,0E0,0E0,0E0,0E0,0E0,0E0,0E0,0E0,0E0,0E0,0E0,0E0],"parents":[2147483647,0,0,1,1,2,2,3,3,4,4,5,5,6,6,7,7,8,8,9,9,10,10,11,11,12,12,13,13,14,14,15,15,16,16,17,17,18,18,19,19,22,22,23,23,24,24,25,25,26,26,27,27,28,28,29,29,30,30,31,31,32,32,33,33,34,34,35,35,37,37,38,38,39,39,40,40,41,41,42,42,43,43,44,44,45,45,46,46,47,47,48,48,49,49,50,50,51,51,52,52,53,53,58,58],"right_children":[2,4,6,8,10,12,14,16,18,20,22,24,26,28,30,32,34,36,38,40,-1,-1,42,44,46,48,50,52,54,56,58,60,62,64,66,68,-1,70,72,74,76,78,80,82,84,86,88,90,92,94,96,98,100,102,-1,-1,-1,-1,104,-1,-1,-1,-1,-1,-1,-1,-1,-1,-1,-1,-1,-1,-1,-1,-1,-1,-1,-1,-1,-1,-1,-1,-1,-1,-1,-1,-1,-1,-1,-1,-1,-1,-1,-1,-1,-1,-1,-1,-1,-1,-1,-1,-1,-1,-1],"split_conditions":[5.80448E-1,1.2604629E1,1E0,2.1070972E1,6.007017E0,-1.2657692E-1,1.54E2,-8.06014E2,1.6296942E6,-3.0812008E0,2.7779915E1,1.0025286E1,8.60922E8,9.915808E0,1.8631506E10,-5.030811E0,7.9402757E-1,1.5063163E10,4.01392E4,-3.1611423E2,1.3357653E-1,-8.9150316E-1,4.2328414E-1,2.9613668E1,1.6942131E1,1.6153425E1,-2.417957E1,-2.4583166E1,3.5878842E0,2.5118363E-1,-3.0367603E1,7.327773E-1,2.082648E1,6.15302E0,3.886E3,2.1730825E1,-1.2376434E0,1.4655664E1,5.8981906E4,3.2932248E0,3.2932248E0,7.198766E-1,1.3560818E2,6.6646166E0,1.0964278E1,1.4116791E1,5.602991E6,7.4271E-1,5E3,1.3290152E8,7.98824E-1,8.618466E5,2.591897E5,2.219239E1,-4.1090947E-1,-5.30919E-1,1.1313833E-1,2.7154312E-1,-2.9010874E1,-1.1905189E0,-3.5510167E-1,3.9021158E-1,-3.3729675E-1,3.1130525E-1,8.7721026E-1,7.4710613E-1,1.4007148E-1,1.5466554E-1,-4.2785755E-1,-5.224335E-2,7.597928E-1,-8.3913136E-1,2.4354608E-1,-2.1970855E-1,-8.7632334E-1,-1.5790967E0,-7.426417E-1,2.8158522E-1,-1.0531681E-1,4.0535846E-1,-1.6611207E-1,-3.585525E-1,-6.4644225E-2,-5.365349E-1,6.5461926E-2,-2.7507916E-1,-5.5062413E-2,3.7197846E-1,7.246843E-1,-2.6932347E-1,3.968052E-1,-7.256685E-1,1.3506064E-1,4.6060768E-1,-6.575617E-1,-4.702684E-1,-1.5963179E0,5.7775366E-1,9.4785625E-1,6.804679E-1,1.2289389E0,1.0880456E-1,9.867944E-1,9.899168E-1,5.1246005E-1],"split_indices":[60,48,58,13,36,50,57,46,53,52,29,30,51,48,51,52,45,51,43,46,0,0,28,29,14,21,4,4,35,14,4,45,7,32,57,13,0,7,43,35,35,45,41,33,22,19,53,45,0,39,45,53,53,29,0,0,0,0,4,0,0,0,0,0,0,0,0,0,0,0,0,0,0,0,0,0,0,0,0,0,0,0,0,0,0,0,0,0,0,0,0,0,0,0,0,0,0,0,0,0,0,0,0,0,0],"split_type":[0,0,0,0,0,0,0,0,0,0,0,0,0,0,0,0,0,0,0,0,0,0,0,0,0,0,0,0,0,0,0,0,0,0,0,0,0,0,0,0,0,0,0,0,0,0,0,0,0,0,0,0,0,0,0,0,0,0,0,0,0,0,0,0,0,0,0,0,0,0,0,0,0,0,0,0,0,0,0,0,0,0,0,0,0,0,0,0,0,0,0,0,0,0,0,0,0,0,0,0,0,0,0,0,0],"sum_hessian":[2.982E3,1.07E3,1.912E3,9.12E2,1.58E2,1.736E3,1.76E2,8.28E2,8.4E1,5.7E1,1.01E2,1.608E3,1.28E2,1.42E2,3.4E1,2.67E2,5.61E2,2.5E1,5.9E1,5.2E1,5E0,7E0,9.4E1,1.173E3,4.35E2,9.2E1,3.6E1,1.18E2,2.4E1,1.4E1,2E1,1.8E1,2.49E2,2.11E2,3.5E2,1.2E1,1.3E1,3.8E1,2.1E1,3E1,2.2E1,4.3E1,5.1E1,8.09E2,3.64E2,4.24E2,1.1E1,7.9E1,1.3E1,2.6E1,1E1,6.2E1,5.6E1,1.9E1,5E0,9E0,5E0,5E0,1.5E1,8E0,1E1,2.2E2,2.9E1,1.83E2,2.8E1,3.09E2,4.1E1,6E0,6E0,1.6E1,2.2E1,1.2E1,9E0,1.7E1,1.3E1,8E0,1.4E1,7E0,3.6E1,4.4E1,7E0,6.18E2,1.91E2,3.32E2,3.2E1,2.63E2,1.61E2,6E0,5E0,1.3E1,6.6E1,8E0,5E0,1.4E1,1.2E1,5E0,5E0,1.4E1,4.8E1,1.1E1,4.5E1,1.1E1,8E0,8E0,7E0],"tree_param":{"num_deleted":"0","num_feature":"62","num_nodes":"105","size_leaf_vector":"1"}},{"base_weights":[8.0980405E-2,4.9008694E0,-5.1038036E0,8.005895E0,-4.0383306E0,7.419054E-3,-5.792556E0,3.67159E0,1.1334327E1,-9.485069E0,3.6967409E0,8.036215E-1,-9.4375056E-1,-3.014923E0,-7.197585E0,9.6638817E-1,9.378436E0,1.2718282E1,1.9854726E0,-1.4089494E1,-5.9094243E0,6.649605E0,-7.5453954E0,1.5307547E0,-9.420862E-1,-4.7007933E0,3.280012E0,-6.835602E0,-1.9790129E1,5.295225E0,-2.1491396E0,1.1848204E1,-6.7645545E0,1.3115951E1,-8.329328E-1,-7.2005816E0,4.922729E0,-9.728203E0,-1.8793276E1,-7.4685316E0,7.9878173E0,7.6814284E0,-5.1519215E-1,-2.2097743E0,-1.6404926E1,-1.1200637E0,5.3632975E0,-3.6677358E0,-1.5184592E1,8.948848E0,-7.699099E-1,-7.046802E0,5.488148E-1,-1.438945E0,-1.3077525E1,4.0328622E-1,-2.936917E-1,-3.622781E-1,1.3842465E-1,6.9456875E-1,1.2897553E-2,4.1627884E-1,-7.180827E-1,6.83963E-1,7.550275E-2,-7.1558064E-1,2.8252376E-2,1.0775363E-1,6.0148305E-1,-5.899837E-1,3.080922E-1,-1.3369526E0,-7.999311E-1,-1.0657452E0,-3.0145422E-1,7.3082316E-1,5.9463765E-2,5.571646E-1,1.8099831E-1,-4.4014716E-1,1.7695217E-1,-1.0136505E0,-4.2566618E-1,-4.690108E-1,2.0229954E-2,1.5319502E-1,8.966765E-1,7.654052E-1,-2.1114674E-1,-1.1784182E-1,-8.8279355E-1,5.41913E-1,-1.467193E-1,-6.6827613E-1,1.0231121E-1,-3.7965387E-1,-4.3368768E-2,-4.3006405E-2,-1.0563444E0],"categories":[],"categories_nodes":[],"categories_segments":[],"categories_sizes":[],"default_left":[0,0,0,0,0,0,0,0,0,0,0,0,0,0,0,0,0,0,0,0,0,0,0,0,0,0,0,0,0,0,1,0,0,0,0,0,0,0,0,0,0,0,0,0,0,0,0,0,0,0,0,0,0,0,0,0,0,0,0,0,0,0,0,0,0,0,0,0,0,0,0,0,0,0,0,0,0,0,0,0,0,0,0,0,0,0,0,0,0,0,0,0,0,0,0,0,0,0,0],"id":12,"left_children":[1,3,5,7,9,11,13,15,17,19,21,23,-1,25,27,29,31,33,35,37,39,41,43,45,-1,47,49,51,53,55,57,59,61,63,-1,65,67,69,71,73,75,77,-1,79,81,83,85,87,89,91,93,95,-1,-1,97,-1,-1,-1,-1,-1,-1,-1,-1,-1,-1,-1,-1,-1,-1,-1,-1,-1,-1,-1,-1,-1,-1,-1,-1,-1,-1,-1,-1,-1,-1,-1,-1,-1,-1,-1,-1,-1,-1,-1,-1,-1,-1,-1,-1],"loss_changes":[7.469539E4,4.302706E4,5.069367E3,1.654879E4,1.6887428E4,2.6010571E3,4.9307734E3,7.7254604E3,8.384703E3,3.7857324E3,5.560792E3,2.4001162E3,0E0,4.557545E3,3.7028008E3,4.6103145E3,6.499127E3,6.8306797E3,2.328899E3,1.9096602E3,2.9630737E3,2.3882202E3,1.618237E3,1.6416664E3,0E0,3.6049712E3,2.0960989E3,3.162086E3,1.01141895E3,4.472351E3,5.007463E3,3.3117363E3,2.6416765E3,3.633914E3,0E0,1.1677408E3,1.2525957E3,1.8830757E3,6.3808594E2,2.2831567E3,6.135289E2,1.7171914E3,0E0,9.029213E2,2.242395E2,1.2128142E3,1.8527142E3,3.3200718E3,9.094165E2,8.849912E2,1.9427793E3,2.731082E3,0E0,0E0,1.4569619E3,0E0,0E0,0E0,0E0,0E0,0E0,0E0,0E0,0E0,0E0,0E0,0E0,0E0,0E0,0E0,0E0,0E0,0E0,0E0,0E0,0E0,0E0,0E0,0E0,0E0,0E0,0E0,0E0,0E0,0E0,0E0,0E0,0E0,0E0,0E0,0E0,0E0,0E0,0E0,0E0,0E0,0E0,0E0,0E0],"parents":[2147483647,0,0,1,1,2,2,3,3,4,4,5,5,6,6,7,7,8,8,9,9,10,10,11,11,13,13,14,14,15,15,16,16,17,17,18,18,19,19,20,20,21,21,22,22,23,23,25,25,26,26,27,27,28,28,29,29,30,30,31,31,32,32,33,33,35,35,36,36,37,37,38,38,39,39,40,40,41,41,43,43,44,44,45,45,46,46,47,47,48,48,49,49,50,50,51,51,54,54],"right_children":[2,4,6,8,10,12,14,16,18,20,22,24,-1,26,28,30,32,34,36,38,40,42,44,46,-1,48,50,52,54,56,58,60,62,64,-1,66,68,70,72,74,76,78,-1,80,82,84,86,88,90,92,94,96,-1,-1,98,-1,-1,-1,-1,-1,-1,-1,-1,-1,-1,-1,-1,-1,-1,-1,-1,-1,-1,-1,-1,-1,-1,-1,-1,-1,-1,-1,-1,-1,-1,-1,-1,-1,-1,-1,-1,-1,-1,-1,-1,-1,-1,-1,-1],"split_conditions":[1E0,4.8926313E3,8.10392E6,2.5118363E-1,-2.8153846E-1,1.2773357E1,2.4293516E0,8.203434E-1,1.4827407E1,1.2371322E7,7.518797E-3,2.346182E1,-9.4375056E-1,2.5794844E3,1.6871466E9,1.3428976E1,1.415563E8,2.680762E1,3.2688684E4,9.6708596E-1,-3.1668663E0,1.3101296E1,9.823745E7,6.3550005E0,-9.420862E-1,3.515157E0,3.845856E0,3.916853E1,3.180002E0,2.3463467E-2,5.203008E-1,4.50562E1,8.415228E-1,6.34889E2,-8.329328E-1,1.011634E1,5.400259E-1,3.388726E1,2.7546195E4,7.9068335E2,3.431043E0,3.399332E0,-5.1519215E-1,7.3146325E-1,1.9983838E0,1.9928223E2,1.6888393E1,6.5120184E-1,1.0935285E1,1.0861316E9,1.308668E1,1.6469786E1,5.488148E-1,-1.438945E0,1.8665413E9,4.0328622E-1,-2.936917E-1,-3.622781E-1,1.3842465E-1,6.9456875E-1,1.2897553E-2,4.1627884E-1,-7.180827E-1,6.83963E-1,7.550275E-2,-7.1558064E-1,2.8252376E-2,1.0775363E-1,6.0148305E-1,-5.899837E-1,3.080922E-1,-1.3369526E0,-7.999311E-1,-1.0657452E0,-3.0145422E-1,7.3082316E-1,5.9463765E-2,5.571646E-1,1.8099831E-1,-4.4014716E-1,1.7695217E-1,-1.0136505E0,-4.2566618E-1,-4.690108E-1,2.0229954E-2,1.5319502E-1,8.966765E-1,7.654052E-1,-2.1114674E-1,-1.1784182E-1,-8.8279355E-1,5.41913E-1,-1.467193E-1,-6.6827613E-1,1.0231121E-1,-3.7965387E-1,-4.3368768E-2,-4.3006405E-2,-1.0563444E0],"split_indices":[55,27,51,14,50,10,10,45,49,38,54,23,0,40,39,5,38,7,43,15,52,48,38,23,0,35,34,32,35,32,59,29,45,36,0,47,61,7,43,42,35,35,0,45,39,36,34,45,38,39,20,17,0,0,51,0,0,0,0,0,0,0,0,0,0,0,0,0,0,0,0,0,0,0,0,0,0,0,0,0,0,0,0,0,0,0,0,0,0,0,0,0,0,0,0,0,0,0,0],"split_type":[0,0,0,0,0,0,0,0,0,0,0,0,0,0,0,0,0,0,0,0,0,0,0,0,0,0,0,0,0,0,0,0,0,0,0,0,0,0,0,0,0,0,0,0,0,0,0,0,0,0,0,0,0,0,0,0,0,0,0,0,0,0,0,0,0,0,0,0,0,0,0,0,0,0,0,0,0,0,0,0,0,0,0,0,0,0,0,0,0,0,0,0,0,0,0,0,0,0,0],"sum_hessian":[2.987E3,1.548E3,1.439E3,1.149E3,3.99E2,1.71E2,1.268E3,5E2,6.49E2,2.34E2,1.65E2,1.65E2,6E0,4.27E2,8.41E2,3.4E2,1.6E2,5.65E2,8.4E1,1.01E2,1.33E2,1.31E2,3.4E1,1.6E2,5E0,3.37E2,9E1,8.19E2,2.2E1,1.42E2,1.98E2,1.39E2,2.1E1,5.58E2,7E0,2E1,6.4E1,5.4E1,4.7E1,1.2E2,1.3E1,1.24E2,7E0,2.2E1,1.2E1,9.5E1,6.5E1,3.08E2,2.9E1,3.7E1,5.3E1,8.1E2,9E0,8E0,1.4E1,1.14E2,2.8E1,9.7E1,1.01E2,1.18E2,2.1E1,7E0,1.4E1,5.32E2,2.6E1,1E1,1E1,4.7E1,1.7E1,4.8E1,6E0,1E1,3.7E1,1E1,1.1E2,6E0,7E0,6.6E1,5.8E1,1E1,1.2E1,7E0,5E0,1.4E1,8.1E1,5.6E1,9E0,8E0,3E2,5E0,2.4E1,3.2E1,5E0,9E0,4.4E1,7.44E2,6.6E1,6E0,8E0],"tree_param":{"num_deleted":"0","num_feature":"62","num_nodes":"99","size_leaf_vector":"1"}},{"base_weights":[-1.885638E-2,4.322562E0,-4.7436914E0,7.436104E0,-4.41695E0,-9.70042E0,-4.143046E0,1.39716425E1,4.8723526E0,-9.173121E0,2.9860806E0,-1.1228859E1,-3.4216604E0,-4.6695075E0,1.0619782E0,1.7062325E1,8.0820675E0,-1.434822E0,6.6609907E0,-1.2276358E1,-5.7291603E0,7.434436E0,-2.163869E0,-3.1117032E0,-1.2617181E1,3.4541607E0,-1.0986147E1,-2.0906122E0,-6.025292E0,-1.749179E0,5.8750863E0,7.114809E0,1.8029814E1,-4.3574023E-1,1.3077294E1,-6.8844886E0,1.7806382E0,8.835651E0,7.46639E-1,-1.044241E0,-1.4224669E1,-1.2078977E0,-9.525103E0,1.5633989E1,3.7573886E0,4.5057297E0,-7.352747E0,-7.959222E0,4.3588957E-1,4.339254E-2,-1.3609504E1,-5.3173184E-1,1.0210712E1,-8.4497166E-1,-9.069508E-2,-5.381285E0,7.888878E-1,-3.1579784E-1,-6.808125E0,-1.0805157E0,3.2107297E-1,-3.284474E0,1.19903555E1,6.265585E-1,-2.3671566E-1,4.4389507E-1,9.301683E-1,-5.7125E-1,2.7334628E-1,8.176016E-1,4.0829554E-1,1.07493E-1,-6.333012E-1,2.0526147E-1,-5.0291914E-1,4.700306E-1,-6.566875E-1,8.668094E-2,-6.8835163E-1,4.026971E-1,-4.6101925E-1,-1.3484417E-1,-7.8114927E-1,1.1568344E-1,-4.96816E-1,-1.3690193E-1,-7.3639363E-1,3.2610726E-1,9.660678E-1,5.728543E-1,2.2343928E-2,6.9974107E-1,-1.18096046E-1,-4.8146915E-2,-7.9094976E-1,-7.050882E-1,1.2905636E-1,-4.895671E-1,-8.463193E-1,6.821961E-1,2.2517586E-1,1.1270298E-1,-4.0085816E-1,-3.4553376E-1,1.3151842E-1,-4.5817167E-1,2.5612506E-1,-2.8571552E-2,-3.8182718E-1,2.095454E-1,-3.980448E-1,-5.337752E-1,1.8479502E-1,2.7495337E-1,7.85186E-1],"categories":[],"categories_nodes":[],"categories_segments":[],"categories_sizes":[],"default_left":[0,0,0,0,0,0,0,0,1,0,0,0,0,0,0,0,0,0,0,0,0,1,0,0,0,0,0,0,0,0,0,0,0,0,0,0,0,0,0,0,0,0,0,0,0,0,0,0,0,0,0,0,0,0,0,0,0,0,0,0,0,0,0,0,0,0,0,0,0,0,0,0,0,0,0,0,0,0,0,0,0,0,0,0,0,0,0,0,0,0,0,0,0,0,0,0,0,0,0,0,0,0,0,0,0,0,0,0,0,0,0,0,0,0,0],"id":13,"left_children":[1,3,5,7,9,11,13,15,17,19,21,23,25,27,29,31,33,35,37,39,41,43,45,47,49,51,53,55,57,59,61,63,65,67,69,71,73,75,77,79,81,83,85,87,89,91,93,95,-1,-1,97,-1,99,-1,-1,101,103,105,107,-1,109,111,113,-1,-1,-1,-1,-1,-1,-1,-1,-1,-1,-1,-1,-1,-1,-1,-1,-1,-1,-1,-1,-1,-1,-1,-1,-1,-1,-1,-1,-1,-1,-1,-1,-1,-1,-1,-1,-1,-1,-1,-1,-1,-1,-1,-1,-1,-1,-1,-1,-1,-1,-1,-1],"loss_changes":[6.0142605E4,4.1611004E4,4.1398516E3,1.8815363E4,1.4181844E4,1.4106797E3,3.4412266E3,5.6323906E3,9.158654E3,2.548086E3,3.6356782E3,1.3243145E3,1.6503218E3,3.969832E3,1.5798033E3,1.8639141E3,4.728569E3,3.1664324E3,8.122004E3,2.786254E3,2.0136641E3,2.5040195E3,2.5941016E3,1.1589172E3,1.3901074E3,1.7268462E3,7.8291797E2,3.7375894E3,3.3321562E3,3.0496377E3,2.447949E3,1.3429087E3,8.216719E2,2.7868289E3,9.9231445E2,3.5268E3,3.1786726E3,5.8577344E3,2.4733906E3,1.5620214E3,1.7148926E3,1.7135638E3,2.2196128E3,7.475498E2,1.5242759E3,2.1835908E3,2.2568704E3,9.4282196E2,0E0,0E0,1.0500488E3,0E0,1.7368225E2,0E0,0E0,3.7212246E3,3.0098613E3,4.4255034E3,3.384918E3,0E0,2.2127534E3,9.681144E2,5.403613E2,0E0,0E0,0E0,0E0,0E0,0E0,0E0,0E0,0E0,0E0,0E0,0E0,0E0,0E0,0E0,0E0,0E0,0E0,0E0,0E0,0E0,0E0,0E0,0E0,0E0,0E0,0E0,0E0,0E0,0E0,0E0,0E0,0E0,0E0,0E0,0E0,0E0,0E0,0E0,0E0,0E0,0E0,0E0,0E0,0E0,0E0,0E0,0E0,0E0,0E0,0E0,0E0],"parents":[2147483647,0,0,1,1,2,2,3,3,4,4,5,5,6,6,7,7,8,8,9,9,10,10,11,11,12,12,13,13,14,14,15,15,16,16,17,17,18,18,19,19,20,20,21,21,22,22,23,23,24,24,25,25,26,26,27,27,28,28,29,29,30,30,31,31,32,32,33,33,34,34,35,35,36,36,37,37,38,38,39,39,40,40,41,41,42,42,43,43,44,44,45,45,46,46,47,47,50,50,52,52,55,55,56,56,57,57,58,58,60,60,61,61,62,62],"right_children":[2,4,6,8,10,12,14,16,18,20,22,24,26,28,30,32,34,36,38,40,42,44,46,48,50,52,54,56,58,60,62,64,66,68,70,72,74,76,78,80,82,84,86,88,90,92,94,96,-1,-1,98,-1,100,-1,-1,102,104,106,108,-1,110,112,114,-1,-1,-1,-1,-1,-1,-1,-1,-1,-1,-1,-1,-1,-1,-1,-1,-1,-1,-1,-1,-1,-1,-1,-1,-1,-1,-1,-1,-1,-1,-1,-1,-1,-1,-1,-1,-1,-1,-1,-1,-1,-1,-1,-1,-1,-1,-1,-1,-1,-1,-1,-1],"split_conditions":[1E0,1.7429117E1,4.81E2,5.19E2,-2.786923E-1,5E-2,1.4618172E1,8.672397E-1,7.4529576E-1,2.5535252E1,3.4459536E0,3.1846316E0,8.182264E-1,2.4293516E0,5E3,-1.8416305E3,7.8889126E-1,7.6771176E-1,8.844507E0,-2.0781003E3,1.0056581E13,7.657708E-1,-2.3198252E1,3.1725216E0,1.4746625E6,-3.366923E-1,1.7311441E6,3.486605E0,9.3181926E-1,7.182264E-1,2.547E3,-2.580307E1,7.4483216E-1,1.260874E1,4.742254E10,6.9316815E2,2.8386316E1,1.3816647E15,1.415563E8,1.467418E7,3.4628289E0,1.1799973E1,9.790669E0,3.4016466E-1,9.175019E0,6.406237E0,9.881537E1,6.0446644E0,4.3588957E-1,4.339254E-2,9.808744E6,-5.3173184E-1,1.4385933E1,-8.4497166E-1,-9.069508E-2,-2.6758265E1,7.4271E-1,-9.2006454E1,4.7116065E6,-1.0805157E0,1.845105E0,7.9402757E-1,7.376241E1,6.265585E-1,-2.3671566E-1,4.4389507E-1,9.301683E-1,-5.7125E-1,2.7334628E-1,8.176016E-1,4.0829554E-1,1.07493E-1,-6.333012E-1,2.0526147E-1,-5.0291914E-1,4.700306E-1,-6.566875E-1,8.668094E-2,-6.8835163E-1,4.026971E-1,-4.6101925E-1,-1.3484417E-1,-7.8114927E-1,1.1568344E-1,-4.96816E-1,-1.3690193E-1,-7.3639363E-1,3.2610726E-1,9.660678E-1,5.728543E-1,2.2343928E-2,6.9974107E-1,-1.18096046E-1,-4.8146915E-2,-7.9094976E-1,-7.050882E-1,1.2905636E-1,-4.895671E-1,-8.463193E-1,6.821961E-1,2.2517586E-1,1.1270298E-1,-4.0085816E-1,-3.4553376E-1,1.3151842E-1,-4.5817167E-1,2.5612506E-1,-2.8571552E-2,-3.8182718E-1,2.095454E-1,-3.980448E-1,-5.337752E-1,1.8479502E-1,2.7495337E-1,7.85186E-1],"split_indices":[55,26,56,57,50,44,17,24,3,7,35,35,45,10,0,46,45,45,47,46,51,1,4,35,51,50,53,22,18,45,56,4,3,49,51,42,7,51,38,53,20,48,39,59,48,48,41,22,0,0,38,0,13,0,0,4,45,46,51,0,6,45,38,0,0,0,0,0,0,0,0,0,0,0,0,0,0,0,0,0,0,0,0,0,0,0,0,0,0,0,0,0,0,0,0,0,0,0,0,0,0,0,0,0,0,0,0,0,0,0,0,0,0,0,0],"split_type":[0,0,0,0,0,0,0,0,0,0,0,0,0,0,0,0,0,0,0,0,0,0,0,0,0,0,0,0,0,0,0,0,0,0,0,0,0,0,0,0,0,0,0,0,0,0,0,0,0,0,0,0,0,0,0,0,0,0,0,0,0,0,0,0,0,0,0,0,0,0,0,0,0,0,0,0,0,0,0,0,0,0,0,0,0,0,0,0,0,0,0,0,0,0,0,0,0,0,0,0,0,0,0,0,0,0,0,0,0,0,0,0,0,0,0],"sum_hessian":[2.93E3,1.527E3,1.403E3,1.126E3,4.01E2,1.5E2,1.253E3,3.16E2,8.1E2,2.44E2,1.57E2,1.2E2,3E1,1.138E3,1.15E2,2.06E2,1.1E2,1.79E2,6.31E2,1.27E2,1.17E2,8.4E1,7.3E1,1.8E1,1.02E2,1.6E1,1.4E1,3.93E2,7.45E2,7.3E1,4.2E1,1.9E1,1.87E2,4.1E1,6.9E1,6.6E1,1.13E2,4.61E2,1.7E2,1.9E1,1.08E2,5.4E1,6.3E1,2.5E1,5.9E1,3.2E1,4.1E1,1.3E1,5E0,7E0,9.5E1,5E0,1.1E1,8E0,6E0,1.83E2,2.1E2,9E1,6.55E2,6E0,6.7E1,1.7E1,2.5E1,1.3E1,6E0,1.2E1,1.75E2,1.4E1,2.7E1,4E1,2.9E1,2.6E1,4E1,9.5E1,1.8E1,4.5E2,1.1E1,1.6E2,1E1,9E0,1E1,1.2E1,9.6E1,3.9E1,1.5E1,2.8E1,3.5E1,8E0,1.7E1,1.7E1,4.2E1,1.3E1,1.9E1,2.4E1,1.7E1,8E0,5E0,4.6E1,4.9E1,6E0,5E0,4.7E1,1.36E2,4E1,1.7E2,3.4E1,5.6E1,7.7E1,5.78E2,4.6E1,2.1E1,8E0,9E0,1E1,1.5E1],"tree_param":{"num_deleted":"0","num_feature":"62","num_nodes":"115","size_leaf_vector":"1"}},{"base_weights":[-7.611815E-2,4.1435533E0,-4.5877557E0,6.755994E0,-3.8000817E0,-1.164521E1,-4.0543795E0,1.40107155E1,4.599522E0,-9.547597E0,4.1843657E0,-2.5865849E1,-9.437193E0,-4.932611E0,-7.2639173E-1,1.8221294E1,9.041977E0,8.4786564E-1,7.9386854E0,-8.019429E0,-1.8418243E1,9.135517E0,-6.970542E-1,-1.5015553E0,-8.0006E-1,-1.2137226E1,-1.1626852E-1,-3.6977513E0,-7.7415566E0,-1.6968477E-1,-8.7971586E-1,1.8909826E1,-3.259163E-2,-4.8498353E-1,1.0246176E1,1.9098057E1,-1.0288157E-1,9.978135E0,1.3929023E0,-5.1223826E0,-1.2187902E1,-2.152742E1,-1.0525507E1,1.1796328E1,-6.925437E0,6.0852494E0,-5.627962E0,-1.5059896E1,-3.0196638E0,4.4565964E0,-6.145598E-1,-5.2163157E0,-3.6450225E-1,-3.3606331E0,-1.0040155E1,4.3607635E0,-1.9948671E0,5.3574795E-1,1.0064105E0,-2.4033068E-1,5.697532E-1,1.128777E0,5.3126013E-1,6.541161E-2,-4.2717305E-1,-3.812681E-1,5.2499485E-1,-2.3114376E-1,4.73368E-1,-6.13411E-1,-1.5005572E-1,-8.7343246E-1,-3.6228138E-1,-1.2326287E0,-7.137066E-1,1.13144875E-1,-1.077983E0,6.983934E-1,1.1337856E-1,7.632997E-2,-6.590346E-1,4.6169838E-1,-2.8479603E-1,-9.406868E-1,1.7740985E-2,-9.2884445E-1,-2.093426E-1,2.9865262E-1,-4.6426532E-1,4.127293E-3,5.034292E-1,3.047442E-1,-2.809769E-1,5.3000223E-2,-3.6321235E-1,-5.1454403E-2,-9.262395E-1,-1.0548073E0,-4.514996E-1,3.0503303E-1,-4.1272956E-1,-6.0778905E-2,-9.0258485E-1],"categories":[],"categories_nodes":[],"categories_segments":[],"categories_sizes":[],"default_left":[0,0,0,0,0,0,0,0,0,0,0,0,0,0,0,1,0,0,0,0,0,0,0,0,0,0,0,0,0,0,0,0,0,0,0,0,0,0,0,0,0,0,0,0,0,0,0,0,0,0,0,0,0,0,0,0,0,0,0,0,0,0,0,0,0,0,0,0,0,0,0,0,0,0,0,0,0,0,0,0,0,0,0,0,0,0,0,0,0,0,0,0,0,0,0,0,0,0,0,0,0,0,0],"id":14,"left_children":[1,3,5,7,9,11,13,15,17,19,21,23,25,27,29,31,33,35,37,39,41,43,45,-1,-1,47,49,51,53,55,-1,57,-1,-1,59,61,63,65,67,69,71,73,75,77,79,81,83,85,87,89,-1,91,93,95,97,99,101,-1,-1,-1,-1,-1,-1,-1,-1,-1,-1,-1,-1,-1,-1,-1,-1,-1,-1,-1,-1,-1,-1,-1,-1,-1,-1,-1,-1,-1,-1,-1,-1,-1,-1,-1,-1,-1,-1,-1,-1,-1,-1,-1,-1,-1,-1],"loss_changes":[5.692248E4,3.2087938E4,5.392166E3,1.8130234E4,1.7616105E4,2.9272402E3,3.9275078E3,5.400297E3,1.1242869E4,2.87525E3,3.8975203E3,5.3620117E1,2.238435E3,3.6620234E3,2.645133E3,1.8705781E3,2.8978984E3,7.3589243E3,6.327254E3,2.256212E3,5.5868945E2,3.5005073E3,2.7765664E3,0E0,0E0,1.7932109E3,1.2239373E3,3.7488584E3,3.2289336E3,2.2743765E3,0E0,1.1621875E3,0E0,0E0,2.078167E3,3.788789E2,4.8230654E3,3.4049766E3,5.581218E3,1.7063792E3,1.9091426E3,1.4679395E2,1.6009886E3,1.3960801E3,6.5455743E2,1.3509414E3,3.7932805E3,1.9107236E3,1.0696743E3,3.9192273E2,0E0,2.3557627E3,2.297795E3,3.9761553E3,2.1771934E3,1.7843624E3,2.4305874E3,0E0,0E0,0E0,0E0,0E0,0E0,0E0,0E0,0E0,0E0,0E0,0E0,0E0,0E0,0E0,0E0,0E0,0E0,0E0,0E0,0E0,0E0,0E0,0E0,0E0,0E0,0E0,0E0,0E0,0E0,0E0,0E0,0E0,0E0,0E0,0E0,0E0,0E0,0E0,0E0,0E0,0E0,0E0,0E0,0E0,0E0],"parents":[2147483647,0,0,1,1,2,2,3,3,4,4,5,5,6,6,7,7,8,8,9,9,10,10,11,11,12,12,13,13,14,14,15,15,16,16,17,17,18,18,19,19,20,20,21,21,22,22,25,25,26,26,27,27,28,28,29,29,31,31,34,34,35,35,36,36,37,37,38,38,39,39,40,40,41,41,42,42,43,43,44,44,45,45,46,46,47,47,48,48,49,49,51,51,52,52,53,53,54,54,55,55,56,56],"right_children":[2,4,6,8,10,12,14,16,18,20,22,24,26,28,30,32,34,36,38,40,42,44,46,-1,-1,48,50,52,54,56,-1,58,-1,-1,60,62,64,66,68,70,72,74,76,78,80,82,84,86,88,90,-1,92,94,96,98,100,102,-1,-1,-1,-1,-1,-1,-1,-1,-1,-1,-1,-1,-1,-1,-1,-1,-1,-1,-1,-1,-1,-1,-1,-1,-1,-1,-1,-1,-1,-1,-1,-1,-1,-1,-1,-1,-1,-1,-1,-1,-1,-1,-1,-1,-1,-1],"split_conditions":[1E0,1.7429117E1,1.5E2,9.461603E0,8.190861E2,8.877481E7,3.4552103E2,2.8573124E0,2.5118363E-1,6.25E-2,2.046141E0,1.8651916E0,1.217339E1,6.6100855E0,6.3632122E1,5.80448E-1,2.4765248E5,5.6273706E5,9.5998234E-1,3.9232976E7,1.9512484E7,1.0451744E12,-2.6289112E1,-1.5015553E0,-8.0006E-1,4.067455E0,1.6628046E8,1.01105255E3,7.835288E7,4.5980453E2,-8.7971586E-1,-2.825129E1,-3.259163E-2,-4.8498353E-1,7.198766E-1,5.436487E0,-2.8486538E-1,2.86508E-1,3.3620467E0,-3.6773077E-1,-3.396154E-1,-4.4009576E0,2.7350024E15,1.097218E1,8.8201697E2,1.112759E1,4.880179E-1,1.9697277E1,7.403956E0,1.1201398E1,-6.145598E-1,2.8877907E0,1.5651547E3,1.7786144E1,1.8412434E8,4.4482465E0,1.8817596E1,5.3574795E-1,1.0064105E0,-2.4033068E-1,5.697532E-1,1.128777E0,5.3126013E-1,6.541161E-2,-4.2717305E-1,-3.812681E-1,5.2499485E-1,-2.3114376E-1,4.73368E-1,-6.13411E-1,-1.5005572E-1,-8.7343246E-1,-3.6228138E-1,-1.2326287E0,-7.137066E-1,1.13144875E-1,-1.077983E0,6.983934E-1,1.1337856E-1,7.632997E-2,-6.590346E-1,4.6169838E-1,-2.8479603E-1,-9.406868E-1,1.7740985E-2,-9.2884445E-1,-2.093426E-1,2.9865262E-1,-4.6426532E-1,4.127293E-3,5.034292E-1,3.047442E-1,-2.809769E-1,5.3000223E-2,-3.6321235E-1,-5.1454403E-2,-9.262395E-1,-1.0548073E0,-4.514996E-1,3.0503303E-1,-4.1272956E-1,-6.0778905E-2,-9.0258485E-1],"split_indices":[55,26,0,49,40,51,41,15,14,44,14,30,28,34,26,60,53,53,14,39,53,51,4,0,0,5,38,42,51,41,0,4,0,0,45,34,50,59,35,50,50,52,51,15,42,47,60,16,26,49,0,35,42,7,51,24,30,0,0,0,0,0,0,0,0,0,0,0,0,0,0,0,0,0,0,0,0,0,0,0,0,0,0,0,0,0,0,0,0,0,0,0,0,0,0,0,0,0,0,0,0,0,0],"split_type":[0,0,0,0,0,0,0,0,0,0,0,0,0,0,0,0,0,0,0,0,0,0,0,0,0,0,0,0,0,0,0,0,0,0,0,0,0,0,0,0,0,0,0,0,0,0,0,0,0,0,0,0,0,0,0,0,0,0,0,0,0,0,0,0,0,0,0,0,0,0,0,0,0,0,0,0,0,0,0,0,0,0,0,0,0,0,0,0,0,0,0,0,0,0,0,0,0,0,0,0,0,0,0],"sum_hessian":[2.988E3,1.544E3,1.444E3,1.162E3,3.82E2,1E2,1.344E3,2.65E2,8.97E2,2.22E2,1.6E2,1.2E1,8.8E1,1.063E3,2.81E2,1.42E2,1.23E2,4.23E2,4.74E2,1.91E2,3.1E1,7.9E1,8.1E1,7E0,5E0,6.8E1,2E1,7.4E2,3.23E2,2.73E2,8E0,1.37E2,5E0,7E0,1.16E2,2E1,4.03E2,3.61E2,1.13E2,1.14E2,7.7E1,2.1E1,1E1,6.8E1,1.1E1,3.4E1,4.7E1,5.1E1,1.7E1,1.5E1,5E0,5.08E2,2.32E2,1.12E2,2.11E2,7.8E1,1.95E2,1.9E1,1.18E2,8E0,1.08E2,1.3E1,7E0,3.46E2,5.7E1,1E1,3.51E2,6.5E1,4.8E1,2.5E1,8.9E1,3.6E1,4.1E1,1.3E1,8E0,5E0,5E0,5.5E1,1.3E1,5E0,6E0,2.7E1,7E0,1.4E1,3.3E1,3.8E1,1.3E1,7E0,1E1,9E0,6E0,1.7E1,4.91E2,1.93E2,3.9E1,9.8E1,1.4E1,1.6E1,1.95E2,6.9E1,9E0,1.87E2,8E0],"tree_param":{"num_deleted":"0","num_feature":"62","num_nodes":"103","size_leaf_vector":"1"}},{"base_weights":[-2.3715223E-1,3.7617004E0,-4.676286E0,5.4952507E0,-5.06544E0,-5.2457066E0,1.2382754E0,1.1861586E1,3.56165E0,-1.0285963E1,-1.5054479E0,-4.4570985E-1,-5.798013E0,3.404927E0,-2.0934748E1,1.3330331E1,-5.4620304E0,-3.8018906E0,5.6253214E0,-1.3556071E1,-5.842581E0,-4.276038E0,5.786704E0,1.4044657E0,-1.4847364E1,-4.962467E0,-1.0263987E1,-8.602644E0,4.931862E0,-6.613769E-1,-1.2576417E0,1.5479252E1,8.172836E0,-1.4313202E1,5.440139E-1,9.708094E0,-4.9312296E0,8.878276E0,1.9242585E0,-1.79851E1,-7.8047767E0,4.5441338E-1,-7.9361434E0,-7.830327E0,3.5640182E0,1.0042723E0,3.3115916E0,6.7390674E-1,6.394203E-1,-1.0398217E0,-1.2288443E-1,-5.176438E0,7.8917055E0,-1.1633025E1,4.5996875E-1,2.1222496E-2,-7.1488166E-1,-4.9269996E0,6.2057323E0,4.5004907E-1,8.933725E-1,-6.9019556E-1,5.1893204E-1,-1.1071937E0,-5.4089274E-2,-4.1575972E-2,7.084446E-1,-3.4924593E-2,-4.265214E-1,2.3686695E-1,6.1051863E-1,3.7362173E-3,4.5482212E-1,-6.8375105E-1,-1.3740147E0,-7.0725316E-1,1.3516866E-1,-1.03103474E-1,-8.309188E-1,-9.0653604E-1,-2.8078553E-1,-2.2526768E-1,2.8711334E-1,2.8384954E-1,-1.8213421E-1,7.0112824E-2,-5.1738065E-1,-2.3606355E-1,-5.138432E-1,1.001425E0,2.7710393E-2,-7.3981576E-2,-6.468604E-1,-4.0212712E-1,4.4603324E-1,-7.232512E-1,1.9761536E-1,3.8342473E-1,-1.9096822E-1],"categories":[],"categories_nodes":[],"categories_segments":[],"categories_sizes":[],"default_left":[0,0,0,0,0,0,0,0,1,0,1,0,0,0,0,0,0,0,0,1,0,0,0,0,0,0,0,0,0,0,0,0,0,0,0,0,0,0,0,0,0,0,0,0,0,0,0,0,0,0,0,0,0,0,0,0,0,0,0,0,0,0,0,0,0,0,0,0,0,0,0,0,0,0,0,0,0,0,0,0,0,0,0,0,0,0,0,0,0,0,0,0,0,0,0,0,0,0,0],"id":15,"left_children":[1,3,5,7,9,11,13,15,17,19,21,23,25,27,29,31,33,35,37,39,41,43,45,47,49,51,53,55,57,-1,-1,59,61,63,-1,65,67,69,71,73,75,-1,77,79,81,-1,83,85,-1,-1,-1,87,89,91,93,-1,-1,95,97,-1,-1,-1,-1,-1,-1,-1,-1,-1,-1,-1,-1,-1,-1,-1,-1,-1,-1,-1,-1,-1,-1,-1,-1,-1,-1,-1,-1,-1,-1,-1,-1,-1,-1,-1,-1,-1,-1,-1,-1],"loss_changes":[5.1692043E4,2.3470941E4,4.65416E3,1.5726797E4,4.6679414E3,3.3351133E3,5.9323096E3,7.655121E3,1.4974177E4,1.4028926E3,3.0754827E3,3.511425E3,4.161957E3,2.095922E3,2.4896484E1,2.921332E3,3.6272974E3,3.3434612E3,9.241205E3,1.337043E3,1.4787657E3,3.093148E3,1.4199072E3,9.644286E2,1.0544946E3,2.661996E3,2.6039785E3,6.743883E2,1.286467E3,0E0,0E0,2.8251523E3,4.166808E3,1.6338191E3,0E0,8.110382E2,3.040934E3,5.585541E3,4.7880566E3,9.338076E2,1.8371057E3,0E0,2.0057349E3,1.6318511E3,6.4106934E2,0E0,6.2931604E2,9.0556476E2,0E0,0E0,0E0,2.129088E3,1.4137593E3,2.059832E3,1.5824252E3,0E0,0E0,1.0734628E3,1.3344141E3,0E0,0E0,0E0,0E0,0E0,0E0,0E0,0E0,0E0,0E0,0E0,0E0,0E0,0E0,0E0,0E0,0E0,0E0,0E0,0E0,0E0,0E0,0E0,0E0,0E0,0E0,0E0,0E0,0E0,0E0,0E0,0E0,0E0,0E0,0E0,0E0,0E0,0E0,0E0,0E0],"parents":[2147483647,0,0,1,1,2,2,3,3,4,4,5,5,6,6,7,7,8,8,9,9,10,10,11,11,12,12,13,13,14,14,15,15,16,16,17,17,18,18,19,19,20,20,21,21,22,22,23,23,24,24,25,25,26,26,27,27,28,28,31,31,32,32,33,33,35,35,36,36,37,37,38,38,39,39,40,40,42,42,43,43,44,44,46,46,47,47,51,51,52,52,53,53,54,54,57,57,58,58],"right_children":[2,4,6,8,10,12,14,16,18,20,22,24,26,28,30,32,34,36,38,40,42,44,46,48,50,52,54,56,58,-1,-1,60,62,64,-1,66,68,70,72,74,76,-1,78,80,82,-1,84,86,-1,-1,-1,88,90,92,94,-1,-1,96,98,-1,-1,-1,-1,-1,-1,-1,-1,-1,-1,-1,-1,-1,-1,-1,-1,-1,-1,-1,-1,-1,-1,-1,-1,-1,-1,-1,-1,-1,-1,-1,-1,-1,-1,-1,-1,-1,-1,-1,-1],"split_conditions":[1E0,1.582532E1,-1.2657692E-1,5.19E2,5.301088E-2,8.10392E6,6.675345E0,6.34889E2,3.5843194E-1,9.181749E2,5.1143974E-1,2.0086985E1,8.319779E4,8.270245E2,5.576415E0,9.144627E0,3.6768043E4,2.4321635E0,8.619235E0,3.685214E-1,9.3413184E2,1.0001049E1,2.7845744E4,6.0555765E6,8.883925E7,9.843891E0,6.047711E-1,3.402382E6,1.5E2,-6.613769E-1,-1.2576417E0,3.1019752E0,1.0721468E1,9.0167195E-1,5.440139E-1,1.6681507E7,3.3145688E4,7.8889126E-1,9.279098E0,-3.5456732E-1,1.564698E1,4.5441338E-1,1.4245868E13,7.10056E-1,1.6146332E1,1.0042723E0,7.518797E-3,7.1554344E1,6.394203E-1,-1.0398217E0,-1.2288443E-1,1.6621368E1,1.3089141E1,-2.7315746E1,-2.3704214E1,2.1222496E-2,-7.1488166E-1,1.0784664E-1,6.0200986E8,4.5004907E-1,8.933725E-1,-6.9019556E-1,5.1893204E-1,-1.1071937E0,-5.4089274E-2,-4.1575972E-2,7.084446E-1,-3.4924593E-2,-4.265214E-1,2.3686695E-1,6.1051863E-1,3.7362173E-3,4.5482212E-1,-6.8375105E-1,-1.3740147E0,-7.0725316E-1,1.3516866E-1,-1.03103474E-1,-8.309188E-1,-9.0653604E-1,-2.8078553E-1,-2.2526768E-1,2.8711334E-1,2.8384954E-1,-1.8213421E-1,7.0112824E-2,-5.1738065E-1,-2.3606355E-1,-5.138432E-1,1.001425E0,2.7710393E-2,-7.3981576E-2,-6.468604E-1,-4.0212712E-1,4.4603324E-1,-7.232512E-1,1.9761536E-1,3.8342473E-1,-1.9096822E-1],"split_indices":[55,49,50,57,11,51,48,36,61,42,59,8,43,42,30,48,43,5,8,61,42,20,43,51,38,23,46,38,0,0,0,17,49,1,0,51,43,45,17,50,48,0,51,45,49,0,54,12,0,0,0,31,29,4,4,0,0,38,38,0,0,0,0,0,0,0,0,0,0,0,0,0,0,0,0,0,0,0,0,0,0,0,0,0,0,0,0,0,0,0,0,0,0,0,0,0,0,0,0],"split_type":[0,0,0,0,0,0,0,0,0,0,0,0,0,0,0,0,0,0,0,0,0,0,0,0,0,0,0,0,0,0,0,0,0,0,0,0,0,0,0,0,0,0,0,0,0,0,0,0,0,0,0,0,0,0,0,0,0,0,0,0,0,0,0,0,0,0,0,0,0,0,0,0,0,0,0,0,0,0,0,0,0,0,0,0,0,0,0,0,0,0,0,0,0,0,0,0,0,0,0],"sum_hessian":[2.91E3,1.531E3,1.379E3,1.28E3,2.51E2,1.258E3,1.21E2,2.97E2,9.83E2,1.01E2,1.5E2,1.3E2,1.128E3,1.11E2,1E1,2.74E2,2.3E1,2.15E2,7.68E2,5.7E1,4.4E1,1.09E2,4.1E1,1.16E2,1.4E1,9.52E2,1.76E2,1.2E1,9.9E1,5E0,5E0,1.92E2,8.2E1,1.5E1,8E0,1.6E1,1.99E2,4.08E2,3.6E2,3.1E1,2.6E1,5E0,3.9E1,7.5E1,3.4E1,5E0,3.6E1,1.1E2,6E0,9E0,5E0,9.37E2,1.5E1,1.56E2,2E1,5E0,7E0,1.1E1,8.8E1,5.3E1,1.39E2,7E0,7.5E1,9E0,6E0,5E0,1.1E1,9.2E1,1.07E2,1.83E2,2.25E2,2.87E2,7.3E1,2.3E1,8E0,1.6E1,1E1,2.4E1,1.5E1,1.2E1,6.3E1,7E0,2.7E1,2.7E1,9E0,1.04E2,6E0,8.62E2,7.5E1,5E0,1E1,1.8E1,1.38E2,1E1,1E1,5E0,6E0,7.7E1,1.1E1],"tree_param":{"num_deleted":"0","num_feature":"62","num_nodes":"99","size_leaf_vector":"1"}},{"base_weights":[1.1161468E-1,3.8017998E0,-3.875913E0,6.1907754E0,-3.4057107E0,-5.762034E0,-2.048833E0,2.3560843E0,9.063267E0,-7.936008E0,3.9142694E0,-7.0804005E0,-7.684287E-1,-1.0384494E0,-1.7874374E0,4.8952952E-2,7.287272E0,1.0275646E1,1.162923E0,-1.2222177E1,-4.511787E0,6.841977E0,-7.971683E-1,-1.6859993E1,-6.376344E0,9.5970434E-1,-1.4243326E1,3.9460352E-1,-3.2888284E0,1.5559173E0,-8.04491E0,9.66526E0,-5.9404736E0,1.6208992E1,9.207742E0,2.456806E0,-8.680453E-1,-1.8532602E1,-8.423224E0,-9.879605E0,-1.9813782E0,1.1165292E0,1.0673342E1,