{"learner":{"attributes":{"best_iteration":"107","best_score":"17.106774202416698"},"feature_names":["CAI_score_20_CDS","DNA_HYBR_DIFF","OHE_pos14_G","OHE_pos4_A","OHE_pos4_C","OHE_pos4_T","RBP_AGO1_aff_50","RBP_ESRP2_aff_50","RBP_GRSF1_aff_50","RBP_HNRNPH1_aff_50","RBP_HNRNPL_aff_50","RBP_MBNL1_aff_50","RBP_NXF1_aff_50","RBP_SNRNP70_aff_50","RBP_SRP19_aff_50","RBP_SRP54_aff_50","RBP_SRSF3_aff_50","RBP_TARDBP_aff_50","RBP_YBX1_aff_50","RBP_ZCRB1_aff_50","RBP_ZNF346_aff_50","RBP_interaction_total_50_generic","RNaseH1_Krel_dinucleotide_score_R4a_krel_dinuc_dynamic","RNaseH1_Krel_dinucleotide_score_R7_krel_dinuc_dynamic","Sequence_4_palindromic","Sequence_a_count","Sequence_cg_dinucleotide_fraction","Sequence_hairpin_dG_energy","Sequence_keto_amino_skew","Sequence_ta_dinucleotide_fraction","TOTAL_DNA_HYBR","access_120flank_13access_13-26-39seed_sizes","access_120flank_13access_4-6-8seed_sizes","access_120flank_20access_13seed_sizes","mfe_win35_flank120_step10","mfe_win35_flank120_step7","mfe_win45_flank120_step10","mfe_win55_flank120_step4","mfe_win65_flank120_step4","off_target_single_ACTB_c0","off_target_single_RNASEH1_c0","ribo_f10_mean","ribo_upstream_100_mean","sense_start","sense_start_from_end","tAI_score_50_CDS","tAI_score_60_CDS"],"feature_types":[],"gradient_booster":{"model":{"cats":{"enc":[],"feature_segments":[],"sorted_idx":[]},"gbtree_model_param":{"num_parallel_tree":"1","num_trees":"138"},"iteration_indptr":[0,1,2,3,4,5,6,7,8,9,10,11,12,13,14,15,16,17,18,19,20,21,22,23,24,25,26,27,28,29,30,31,32,33,34,35,36,37,38,39,40,41,42,43,44,45,46,47,48,49,50,51,52,53,54,55,56,57,58,59,60,61,62,63,64,65,66,67,68,69,70,71,72,73,74,75,76,77,78,79,80,81,82,83,84,85,86,87,88,89,90,91,92,93,94,95,96,97,98,99,100,101,102,103,104,105,106,107,108,109,110,111,112,113,114,115,116,117,118,119,120,121,122,123,124,125,126,127,128,129,130,131,132,133,134,135,136,137,138],"tree_info":[0,0,0,0,0,0,0,0,0,0,0,0,0,0,0,0,0,0,0,0,0,0,0,0,0,0,0,0,0,0,0,0,0,0,0,0,0,0,0,0,0,0,0,0,0,0,0,0,0,0,0,0,0,0,0,0,0,0,0,0,0,0,0,0,0,0,0,0,0,0,0,0,0,0,0,0,0,0,0,0,0,0,0,0,0,0,0,0,0,0,0,0,0,0,0,0,0,0,0,0,0,0,0,0,0,0,0,0,0,0,0,0,0,0,0,0,0,0,0,0,0,0,0,0,0,0,0,0,0,0,0,0,0,0,0,0,0,0],"trees":[{"base_weights":[-2.9201202E-2,-1.1801538E1,9.214733E0,-2.2655252E1,-3.8079526E0,5.234324E0,1.6248959E1,-2.8062513E1,-1.7585785E1,-2.0823948E1,-1.0989478E0,3.381727E0,2.7745546E1,2.9460135E0,2.1124203E1,-1.6629366E1,-3.071871E1,-2.453235E1,-7.5802927E0,-7.1065245E0,-2.847499E1,4.903888E0,-1.1731416E1,-8.565257E0,5.2333465E0,1.7315149E0,7.3590326E-1,-1.0901318E1,1.4362705E1,2.3438225E1,-2.6427296E-1,-4.921647E-1,-1.0029857E0,-3.3399017E1,-7.79273E-1,-1.9975033E1,-1.9242729E0,-1.3053961E1,3.1572706E-1,-6.048824E-1,-4.6549033E-2,-1.8742887E1,-1.9850218E0,1.1836845E1,-1.7502089E0,2.3671107E0,-1.7110128E1,2.7846408E-1,-1.7945578E1,4.8017997E-1,9.49907E0,-1.6207413E1,-1.3076341E-1,7.0776467E0,1.2859033E0,2.7735487E1,2.0010519E1,-1.297778E0,-1.9695171E0,-4.474301E-1,-1.1402925E0,2.867843E-1,-9.150242E-1,-1.1715491E0,-5.46549E-1,2.9787415E-1,7.8463674E-1,-5.519969E-1,4.1327897E-1,7.6112354E-1,-3.598717E-1,-1.0244266E0,2.0783527E-1,4.5487353E-1,-2.8120396E-1,-1.2020372E0,-1.382157E-1,2.5976977E-1,-3.329319E-1,-2.648016E-1,5.770821E-1,-9.7787905E-1,-4.798824E-1,-1.3215701E-2,5.2194655E-1,9.896294E-1,1.4891672E0,1.1078829E0,6.226323E-1],"categories":[],"categories_nodes":[],"categories_segments":[],"categories_sizes":[],"default_left":[0,0,0,0,0,1,0,0,0,0,0,0,0,0,0,0,0,0,0,0,0,0,0,0,0,0,0,0,0,0,0,0,0,0,0,0,0,0,0,0,0,0,0,0,0,0,1,0,0,0,0,0,0,0,0,0,0,0,0,0,0,0,0,0,0,0,0,0,0,0,0,0,0,0,0,0,0,0,0,0,0,0,0,0,0,0,0,0,0],"id":0,"left_children":[1,3,5,7,9,11,13,15,17,19,21,23,25,27,29,31,33,35,37,39,41,43,45,47,49,-1,-1,51,53,55,-1,-1,-1,57,-1,59,-1,61,-1,-1,-1,63,-1,65,67,69,71,73,75,77,79,81,-1,83,-1,85,87,-1,-1,-1,-1,-1,-1,-1,-1,-1,-1,-1,-1,-1,-1,-1,-1,-1,-1,-1,-1,-1,-1,-1,-1,-1,-1,-1,-1,-1,-1,-1,-1],"loss_changes":[8.411988E4,2.9412168E4,1.2038559E4,3.4538203E3,9.058109E3,1.1499946E4,1.005516E4,1.5542422E3,5.16583E3,2.6313604E3,1.0971599E4,5.7521123E3,1.3738213E3,6.954473E3,7.090715E3,1.517251E2,1.6697969E3,2.092746E3,2.5922686E3,3.2778918E2,1.1131006E3,5.095299E3,4.74208E3,2.90849E3,4.5371943E3,0E0,0E0,8.369446E2,1.8033638E3,9.91625E2,0E0,0E0,0E0,9.844297E2,0E0,9.196162E2,0E0,2.470893E3,0E0,0E0,0E0,1.46729E2,0E0,1.1306997E3,5.3947573E3,2.3227644E3,3.3183232E3,1.0402015E3,1.5065942E3,3.6363276E3,3.6270928E3,7.801904E1,0E0,3.976137E2,0E0,1.2621094E2,7.301992E2,0E0,0E0,0E0,0E0,0E0,0E0,0E0,0E0,0E0,0E0,0E0,0E0,0E0,0E0,0E0,0E0,0E0,0E0,0E0,0E0,0E0,0E0,0E0,0E0,0E0,0E0,0E0,0E0,0E0,0E0,0E0,0E0],"parents":[2147483647,0,0,1,1,2,2,3,3,4,4,5,5,6,6,7,7,8,8,9,9,10,10,11,11,12,12,13,13,14,14,15,15,16,16,17,17,18,18,19,19,20,20,21,21,22,22,23,23,24,24,27,27,28,28,29,29,33,33,35,35,37,37,41,41,43,43,44,44,45,45,46,46,47,47,48,48,49,49,50,50,51,51,53,53,55,55,56,56],"right_children":[2,4,6,8,10,12,14,16,18,20,22,24,26,28,30,32,34,36,38,40,42,44,46,48,50,-1,-1,52,54,56,-1,-1,-1,58,-1,60,-1,62,-1,-1,-1,64,-1,66,68,70,72,74,76,78,80,82,-1,84,-1,86,88,-1,-1,-1,-1,-1,-1,-1,-1,-1,-1,-1,-1,-1,-1,-1,-1,-1,-1,-1,-1,-1,-1,-1,-1,-1,-1,-1,-1,-1,-1,-1,-1],"split_conditions":[-1.728125E-1,1.1521E4,4.1559E4,6.666667E-2,1.9466857E0,7.8903306E-1,5.908217E0,1.969541E3,2.3260183E0,3.5364304E0,1.925023E0,2.6250978E0,8.3152425E-1,-8.557143E-2,-1.6594E1,7.072E3,8.296949E0,2.8726017E0,-2.232E1,6.666667E-2,-2.1564E1,2.4759577E5,1.784637E5,1.4532756E1,8.5652983E-1,1.7315149E0,7.3590326E-1,9.735638E2,-1.8714E1,5.9355454E0,-2.6427296E-1,-4.921647E-1,-1.0029857E0,8.405339E-1,-7.79273E-1,2.1520472E5,-1.9242729E0,9.499332E2,3.1572706E-1,-6.048824E-1,-4.6549033E-2,1.58969345E1,-1.9850218E0,8.655832E-1,4.1858E4,2.6132E4,6.06661E-1,1.0703617E0,9.0640134E-1,2.7E4,2.7866445E0,5.6199408E0,-1.3076341E-1,1.25E-1,1.2859033E0,8.490783E-1,6E0,-1.297778E0,-1.9695171E0,-4.474301E-1,-1.1402925E0,2.867843E-1,-9.150242E-1,-1.1715491E0,-5.46549E-1,2.9787415E-1,7.8463674E-1,-5.519969E-1,4.1327897E-1,7.6112354E-1,-3.598717E-1,-1.0244266E0,2.0783527E-1,4.5487353E-1,-2.8120396E-1,-1.2020372E0,-1.382157E-1,2.5976977E-1,-3.329319E-1,-2.648016E-1,5.770821E-1,-9.7787905E-1,-4.798824E-1,-1.3215701E-2,5.2194655E-1,9.896294E-1,1.4891672E0,1.1078829E0,6.226323E-1],"split_indices":[36,43,43,26,17,0,18,1,16,20,19,14,0,35,30,43,19,18,30,26,30,40,40,8,22,0,0,21,30,14,0,0,0,22,0,40,0,21,0,0,0,16,0,22,43,43,45,18,22,43,31,31,0,28,0,22,25,0,0,0,0,0,0,0,0,0,0,0,0,0,0,0,0,0,0,0,0,0,0,0,0,0,0,0,0,0,0,0,0],"split_type":[0,0,0,0,0,0,0,0,0,0,0,0,0,0,0,0,0,0,0,0,0,0,0,0,0,0,0,0,0,0,0,0,0,0,0,0,0,0,0,0,0,0,0,0,0,0,0,0,0,0,0,0,0,0,0,0,0,0,0,0,0,0,0,0,0,0,0,0,0,0,0,0,0,0,0,0,0,0,0,0,0,0,0,0,0,0,0,0,0],"sum_hessian":[7.71E2,3.39E2,4.32E2,1.43E2,1.96E2,2.77E2,1.55E2,6.7E1,7.6E1,2.6E1,1.7E2,2.57E2,2E1,4.2E1,1.13E2,1.4E1,5.3E1,4.4E1,3.2E1,1E1,1.6E1,1.09E2,6.1E1,3.4E1,2.23E2,1.2E1,8E0,1.9E1,2.3E1,1.04E2,9E0,6E0,8E0,4.4E1,9E0,3.5E1,9E0,2.3E1,9E0,5E0,5E0,1E1,6E0,5.3E1,5.6E1,1.7E1,4.4E1,1.8E1,1.6E1,1.06E2,1.17E2,1.1E1,8E0,1.5E1,8E0,4.3E1,6.1E1,2.2E1,2.2E1,8E0,2.7E1,5E0,1.8E1,5E0,5E0,2.2E1,3.1E1,2.9E1,2.7E1,7E0,1E1,3.8E1,6E0,7E0,1.1E1,1.1E1,5E0,6.4E1,4.2E1,1.4E1,1.03E2,6E0,5E0,5E0,1E1,1.1E1,3.2E1,4.6E1,1.5E1],"tree_param":{"num_deleted":"0","num_feature":"47","num_nodes":"89","size_leaf_vector":"1"}},{"base_weights":[-1.631503E-1,-1.0070281E1,7.9261146E0,-3.554632E0,-1.9912426E1,1.5439256E1,3.6432106E0,4.962397E0,-9.983757E0,-1.2602323E1,-2.3430496E1,5.4124665E0,2.1440727E1,1.357829E0,1.9079714E1,-6.013732E-1,1.146778E1,-1.4841065E0,-1.5629578E1,-5.674034E0,-2.2513798E1,-1.8489128E1,-3.1704788E1,-2.7596068E0,1.2882713E1,-8.4087384E-1,2.3727634E1,-4.0613203E0,6.12623E0,2.2696872E-1,2.3219837E1,-1.0623982E0,3.8372147E0,-7.167308E-1,1.7585634E1,1.165468E1,-7.0726123E0,-2.0989098E1,-5.3400764E0,-1.1364363E1,4.1169244E-1,-1.3502291E0,-4.1414985E-1,-2.4937853E1,-6.2168803E0,-1.7586039E0,-6.9008565E-1,2.6167598E0,-6.61819E-1,1.8960793E1,-7.801375E-1,1.6500145E1,2.6518917E1,-1.8153771E0,-2.2626234E1,1.1286657E1,-3.864727E0,4.8834035E-1,1.372003E0,3.6469927E-1,-2.706272E-1,3.9927197E-1,-7.5504464E-1,1.0737561E0,-1.2750213E-2,9.4230616E-1,3.717924E-2,-1.6469207E-1,-1.2393849E0,-5.9542084E-1,-1.4973418E0,-5.4451156E-1,5.640188E-1,-9.005856E-1,-2.499663E-2,-1.6846278E0,-5.123593E-1,3.335248E-1,-6.337845E-1,-2.272055E-1,5.1160204E-1,1.2008725E0,4.2341968E-1,5.537531E-1,9.9383825E-1,8.926334E-1,1.5168046E0,1.4908949E-1,-4.4541737E-1,-5.292205E-1,-1.6451997E0,6.8640125E-1,-4.076135E-1,-4.7877748E-2,-1.1058612E0],"categories":[],"categories_nodes":[],"categories_segments":[],"categories_sizes":[],"default_left":[0,0,0,0,0,0,1,0,0,0,0,0,0,0,0,0,0,0,0,0,0,0,0,0,0,0,0,0,0,0,0,0,0,0,0,0,0,0,0,0,0,0,0,0,0,0,0,0,0,0,0,0,0,0,0,0,1,0,0,0,0,0,0,0,0,0,0,0,0,0,0,0,0,0,0,0,0,0,0,0,0,0,0,0,0,0,0,0,0,0,0,0,0,0,0],"id":1,"left_children":[1,3,5,7,9,11,13,15,17,19,21,23,25,27,29,31,33,35,37,39,41,43,45,47,49,-1,51,53,55,-1,57,-1,59,61,63,65,67,69,71,73,-1,-1,-1,75,77,-1,-1,79,-1,81,-1,83,85,87,89,91,93,-1,-1,-1,-1,-1,-1,-1,-1,-1,-1,-1,-1,-1,-1,-1,-1,-1,-1,-1,-1,-1,-1,-1,-1,-1,-1,-1,-1,-1,-1,-1,-1,-1,-1,-1,-1,-1,-1],"loss_changes":[6.1868844E4,2.2181625E4,1.3619426E4,1.1548523E4,3.2537305E3,9.150984E3,9.569791E3,3.3005925E3,5.7353057E3,3.0997256E3,3.1753516E3,3.6373481E3,8.798359E3,6.1749624E3,2.0015547E3,4.6636187E3,3.1434126E3,3.6803123E3,3.8584863E3,2.3886448E3,9.905635E2,4.5933867E3,1.5630391E3,1.6681187E3,5.6630854E3,0E0,1.3982656E3,4.628849E3,6.591436E3,0E0,1.264916E3,0E0,1.3823992E3,1.9981885E3,1.9484229E3,1.1629841E3,2.2612969E3,3.4664707E3,2.5212441E3,1.5076082E3,0E0,0E0,0E0,4.670629E3,1.9157693E3,0E0,0E0,1.1371364E3,0E0,1.1760791E3,0E0,2.927798E2,1.5755781E3,3.4632048E3,1.1368862E3,4.0983496E3,2.3136003E3,0E0,0E0,0E0,0E0,0E0,0E0,0E0,0E0,0E0,0E0,0E0,0E0,0E0,0E0,0E0,0E0,0E0,0E0,0E0,0E0,0E0,0E0,0E0,0E0,0E0,0E0,0E0,0E0,0E0,0E0,0E0,0E0,0E0,0E0,0E0,0E0,0E0,0E0],"parents":[2147483647,0,0,1,1,2,2,3,3,4,4,5,5,6,6,7,7,8,8,9,9,10,10,11,11,12,12,13,13,14,14,15,15,16,16,17,17,18,18,19,19,20,20,21,21,22,22,23,23,24,24,26,26,27,27,28,28,30,30,32,32,33,33,34,34,35,35,36,36,37,37,38,38,39,39,43,43,44,44,47,47,49,49,51,51,52,52,53,53,54,54,55,55,56,56],"right_children":[2,4,6,8,10,12,14,16,18,20,22,24,26,28,30,32,34,36,38,40,42,44,46,48,50,-1,52,54,56,-1,58,-1,60,62,64,66,68,70,72,74,-1,-1,-1,76,78,-1,-1,80,-1,82,-1,84,86,88,90,92,94,-1,-1,-1,-1,-1,-1,-1,-1,-1,-1,-1,-1,-1,-1,-1,-1,-1,-1,-1,-1,-1,-1,-1,-1,-1,-1,-1,-1,-1,-1,-1,-1,-1,-1,-1,-1,-1,-1],"split_conditions":[-1.3710715E-1,3.0999E4,9.7E2,9.98787E0,1.397107E1,6.143932E0,4.627209E-1,4.141527E1,1.285E3,1.5398338E6,1.1898354E1,1.25E-1,1.451078E3,8.695995E-1,8.273723E2,3.3224773E0,8.506318E-1,5.857393E0,6.666667E-2,1E0,9.1799164E-1,2.5579805E6,6E0,1.25E-1,1.3624715E1,-8.4087384E-1,8.490783E-1,1.98831E1,1.3333334E-1,2.2696872E-1,8.667801E-1,-1.0623982E0,9.461386E-1,-2.0177E1,9.662883E0,-1.1274023E2,2.7777778E-2,0E0,3.3642843E0,8.845086E-1,4.1169244E-1,-1.3502291E0,-4.1414985E-1,6.666667E-2,-2.4117857E-1,-1.7586039E0,-6.9008565E-1,4.7501802E0,-6.61819E-1,-3.675E-2,-7.801375E-1,1.918773E3,8.740255E-1,8.961012E0,8.5981757E2,1.9780756E1,4.0350148E-1,4.8834035E-1,1.372003E0,3.6469927E-1,-2.706272E-1,3.9927197E-1,-7.5504464E-1,1.0737561E0,-1.2750213E-2,9.4230616E-1,3.717924E-2,-1.6469207E-1,-1.2393849E0,-5.9542084E-1,-1.4973418E0,-5.4451156E-1,5.640188E-1,-9.005856E-1,-2.499663E-2,-1.6846278E0,-5.123593E-1,3.335248E-1,-6.337845E-1,-2.272055E-1,5.1160204E-1,1.2008725E0,4.2341968E-1,5.537531E-1,9.9383825E-1,8.926334E-1,1.5168046E0,1.4908949E-1,-4.4541737E-1,-5.292205E-1,-1.6451997E0,6.8640125E-1,-4.076135E-1,-4.7877748E-2,-1.1058612E0],"split_indices":[35,44,44,33,8,18,46,10,44,39,11,28,1,22,21,9,22,7,26,2,22,39,25,24,8,0,22,6,29,0,23,0,23,30,9,27,41,28,9,23,0,0,0,26,35,0,0,11,0,35,0,1,23,15,21,16,46,0,0,0,0,0,0,0,0,0,0,0,0,0,0,0,0,0,0,0,0,0,0,0,0,0,0,0,0,0,0,0,0,0,0,0,0,0,0],"split_type":[0,0,0,0,0,0,0,0,0,0,0,0,0,0,0,0,0,0,0,0,0,0,0,0,0,0,0,0,0,0,0,0,0,0,0,0,0,0,0,0,0,0,0,0,0,0,0,0,0,0,0,0,0,0,0,0,0,0,0,0,0,0,0,0,0,0,0,0,0,0,0,0,0,0,0,0,0,0,0,0,0,0,0,0,0,0,0,0,0,0,0,0,0,0,0],"sum_hessian":[7.7E2,3.46E2,4.24E2,2.09E2,1.37E2,1.53E2,2.71E2,9E1,1.19E2,4.6E1,9.1E1,5.8E1,9.5E1,2.37E2,3.4E1,4.9E1,4.1E1,4.8E1,7.1E1,2.8E1,1.8E1,5.9E1,3.2E1,2.8E1,3E1,5E0,9E1,1.11E2,1.26E2,8E0,2.6E1,8E0,4.1E1,1.4E1,2.7E1,1.4E1,3.4E1,4.6E1,2.5E1,2E1,8E0,1.3E1,5E0,3.8E1,2.1E1,2.6E1,6E0,1.9E1,9E0,2.5E1,5E0,2.7E1,6.3E1,1E2,1.1E1,8.3E1,4.3E1,7E0,1.9E1,3E1,1.1E1,9E0,5E0,2.2E1,5E0,8E0,6E0,2.9E1,5E0,2.4E1,2.2E1,1.9E1,6E0,1.2E1,8E0,2.3E1,1.5E1,7E0,1.4E1,1E1,9E0,1.6E1,9E0,1.2E1,1.5E1,2.1E1,4.2E1,6E1,4E1,6E0,5E0,7.4E1,9E0,3.8E1,5E0],"tree_param":{"num_deleted":"0","num_feature":"47","num_nodes":"95","size_leaf_vector":"1"}},{"base_weights":[-7.375859E-1,-1.4190862E1,6.493341E0,-2.0264006E1,-6.6330013E0,2.3798237E0,1.5091145E1,-2.7823074E1,-1.6433014E1,7.976962E0,-1.0960378E1,2.2185105E-1,1.748035E1,2.846799E0,1.971101E1,-1.9765537E1,-3.2872547E1,-1.4353611E1,-1.9275974E0,-6.2772244E-1,1.2986157E1,-3.4136975E0,-1.8934309E1,3.5683746E0,-1.1219578E1,8.786717E0,2.4984257E1,-7.0548134E0,1.180466E1,8.2461195E0,2.1596434E1,-2.0295525E-1,-2.7328817E1,-1.1733564E0,-1.8046316E0,-1.8819382E1,-4.34818E0,1.7842964E1,-3.320555E-2,-1.1361018E0,9.0797925E-1,-2.4266636E1,-6.6518836E0,6.4131265E0,-1.1860797E1,-2.4305008E1,-6.977531E0,3.2362583E0,7.913873E-1,4.245629E-1,1.5319214E0,-1.2611631E1,1.1864972E-1,2.760582E0,1.2095156E0,-1.6053873E-1,1.28996E1,1.5642391E1,2.4206688E1,-7.400763E-1,-1.7437048E0,-6.970906E-1,-1.481887E0,-5.034938E-1,4.0510997E-1,1.1717705E0,4.31102E-1,1.8840866E-1,-8.202257E-1,-1.3631744E0,-5.0484604E-1,-7.036761E-1,-7.668562E-2,-9.171487E-1,3.7882614E-1,-9.536929E-1,-2.4546115E-2,-7.5169975E-1,-1.5848386E0,3.5205626E-1,-5.679578E-1,-2.885748E-1,5.8908457E-1,-8.5466474E-1,-1.8936001E-1,4.089981E-1,-3.3659074E-1,8.557709E-1,2.5642893E-1,9.6185464E-1,-1.869976E-1,6.054643E-1,1.3058299E0],"categories":[],"categories_nodes":[],"categories_segments":[],"categories_sizes":[],"default_left":[0,0,0,0,0,1,0,0,0,0,0,0,0,0,0,0,0,0,0,0,0,0,0,0,0,0,0,0,0,0,0,0,0,0,0,0,0,0,0,0,0,0,0,0,0,0,0,0,0,0,0,0,0,0,0,0,0,0,0,0,0,0,0,0,0,0,0,0,0,0,0,0,0,0,0,0,0,0,0,0,0,0,0,0,0,0,0,0,0,0,0,0,0],"id":2,"left_children":[1,3,5,7,9,11,13,15,17,19,21,23,25,27,29,31,33,35,-1,-1,37,39,41,43,45,47,49,51,53,55,57,-1,59,-1,-1,61,63,65,-1,-1,67,69,71,73,75,77,79,81,-1,-1,-1,83,-1,85,-1,-1,87,89,91,-1,-1,-1,-1,-1,-1,-1,-1,-1,-1,-1,-1,-1,-1,-1,-1,-1,-1,-1,-1,-1,-1,-1,-1,-1,-1,-1,-1,-1,-1,-1,-1,-1,-1],"loss_changes":[7.402468E4,1.2074984E4,1.747086E4,3.7997188E3,7.6741685E3,1.0945194E4,8.994645E3,1.3032031E3,4.0460586E3,3.0427183E3,5.531799E3,1.1335295E4,2.5203916E3,4.0746567E3,2.3293906E3,2.383705E3,1.0253906E0,4.0735918E3,0E0,0E0,1.5366746E3,4.1094067E3,2.7858057E3,1.012737E4,3.5495146E3,7.694772E2,1.7914336E3,1.1824769E3,2.6216235E3,1.00107764E3,1.1599688E3,0E0,8.071172E2,0E0,0E0,2.9639023E3,2.218707E3,6.745864E2,0E0,0E0,2.0920159E3,1.041123E3,5.481935E2,5.726401E3,2.9430542E3,6.199375E2,3.274055E3,1.068675E3,0E0,0E0,0E0,4.88938E2,0E0,8.2670953E2,0E0,0E0,3.3811768E2,2.3711807E3,1.2317773E3,0E0,0E0,0E0,0E0,0E0,0E0,0E0,0E0,0E0,0E0,0E0,0E0,0E0,0E0,0E0,0E0,0E0,0E0,0E0,0E0,0E0,0E0,0E0,0E0,0E0,0E0,0E0,0E0,0E0,0E0,0E0,0E0,0E0,0E0],"parents":[2147483647,0,0,1,1,2,2,3,3,4,4,5,5,6,6,7,7,8,8,9,9,10,10,11,11,12,12,13,13,14,14,15,15,16,16,17,17,20,20,21,21,22,22,23,23,24,24,25,25,26,26,27,27,28,28,29,29,30,30,32,32,35,35,36,36,37,37,40,40,41,41,42,42,43,43,44,44,45,45,46,46,47,47,51,51,53,53,56,56,57,57,58,58],"right_children":[2,4,6,8,10,12,14,16,18,20,22,24,26,28,30,32,34,36,-1,-1,38,40,42,44,46,48,50,52,54,56,58,-1,60,-1,-1,62,64,66,-1,-1,68,70,72,74,76,78,80,82,-1,-1,-1,84,-1,86,-1,-1,88,90,92,-1,-1,-1,-1,-1,-1,-1,-1,-1,-1,-1,-1,-1,-1,-1,-1,-1,-1,-1,-1,-1,-1,-1,-1,-1,-1,-1,-1,-1,-1,-1,-1,-1,-1],"split_conditions":[-2.1105707E-1,1.1521E4,4.1602E4,-2.6645786E-1,4.5862988E5,4.627209E-1,5.908217E0,1.3409386E1,-2.1713099E-1,-3.0596423E2,1E0,2.861403E5,-2.0488E1,1.25E-1,-5.475867E2,2.600421E5,-9.0027045E2,0E0,-1.9275974E0,-6.2772244E-1,1.2326685E1,2.5200534E0,1.135892E1,7E0,1.9466857E0,9.2796314E-1,8.6209744E-1,5.6199408E0,2.033972E0,-1.8085715E-1,8.742703E-1,-2.0295525E-1,0E0,-1.1733564E0,-1.8046316E0,6.2215953E0,4.7743147E5,-1.7267857E-1,-3.320555E-2,-1.1361018E0,-2.0758E1,4.23E4,6.920022E0,3.744629E-1,8.945689E-1,1.507206E0,-2.2672E1,-1.2125E-1,7.913873E-1,4.245629E-1,1.5319214E0,3.1524308E0,1.1864972E-1,2.188898E3,1.2095156E0,-1.6053873E-1,8.9908206E-1,-1.6501E1,8.2016057E-1,-7.400763E-1,-1.7437048E0,-6.970906E-1,-1.481887E0,-5.034938E-1,4.0510997E-1,1.1717705E0,4.31102E-1,1.8840866E-1,-8.202257E-1,-1.3631744E0,-5.0484604E-1,-7.036761E-1,-7.668562E-2,-9.171487E-1,3.7882614E-1,-9.536929E-1,-2.4546115E-2,-7.5169975E-1,-1.5848386E0,3.5205626E-1,-5.679578E-1,-2.885748E-1,5.8908457E-1,-8.5466474E-1,-1.8936001E-1,4.089981E-1,-3.3659074E-1,8.557709E-1,2.5642893E-1,9.6185464E-1,-1.869976E-1,6.054643E-1,1.3058299E0],"split_indices":[37,43,43,27,39,46,18,8,37,27,3,40,30,28,27,40,27,28,0,0,11,17,11,25,17,23,23,31,17,35,23,0,28,0,0,17,40,34,0,0,30,43,8,45,22,17,30,36,0,0,0,7,0,1,0,0,22,30,22,0,0,0,0,0,0,0,0,0,0,0,0,0,0,0,0,0,0,0,0,0,0,0,0,0,0,0,0,0,0,0,0,0,0],"split_type":[0,0,0,0,0,0,0,0,0,0,0,0,0,0,0,0,0,0,0,0,0,0,0,0,0,0,0,0,0,0,0,0,0,0,0,0,0,0,0,0,0,0,0,0,0,0,0,0,0,0,0,0,0,0,0,0,0,0,0,0,0,0,0,0,0,0,0,0,0,0,0,0,0,0,0,0,0,0,0,0,0,0,0,0,0,0,0,0,0,0,0,0,0],"sum_hessian":[7.59E2,2.65E2,4.94E2,1.46E2,1.19E2,3.35E2,1.59E2,4.7E1,9.9E1,2.7E1,9.2E1,2.94E2,4.1E1,4.4E1,1.15E2,2E1,2.7E1,9.2E1,7E0,5E0,2.2E1,4.8E1,4.4E1,2.28E2,6.6E1,2E1,2.1E1,2.1E1,2.3E1,1.7E1,9.8E1,7E0,1.3E1,9E0,1.8E1,6.3E1,2.9E1,1.6E1,6E0,8E0,4E1,3E1,1.4E1,1.93E2,3.5E1,1.5E1,5.1E1,1.2E1,8E0,6E0,1.5E1,1.3E1,8E0,1.4E1,9E0,5E0,1.2E1,3.2E1,6.6E1,6E0,7E0,4.5E1,1.8E1,2E1,9E0,9E0,7E0,3.5E1,5E0,2.4E1,6E0,5E0,9E0,8E0,1.85E2,2.1E1,1.4E1,8E0,7E0,1.2E1,3.9E1,6E0,6E0,8E0,5E0,9E0,5E0,7E0,5E0,2.7E1,5E0,1E1,5.6E1],"tree_param":{"num_deleted":"0","num_feature":"47","num_nodes":"93","size_leaf_vector":"1"}},{"base_weights":[-8.5952777E-1,-1.4409099E1,5.2292075E0,-1.6932869E0,-1.7679527E1,1.1267501E0,1.3178576E1,7.0186937E-1,-5.0238295E0,3.553038E-1,-1.880805E1,-7.243522E-1,1.690571E1,1.596319E1,-4.035978E0,-1.0886023E1,1.9688848E0,-2.9146404E0,-2.0218147E1,2.751844E0,-9.089336E0,6.902458E0,2.419855E1,1.7145777E1,-4.0289322E-1,7.858428E-1,-1.074767E1,-9.231376E-3,-1.6581125E1,8.451283E0,-2.6793212E-1,2.492824E-1,-5.7190675E-1,-1.7662971E1,-2.5529346E1,4.746654E0,-8.5352335E0,-1.7427279E1,-2.1800501E0,2.5372848E-2,7.016701E-1,5.3583825E-1,1.5086979E0,1.8975874E1,9.253859E0,-1.0314335E0,-5.0394807E0,-1.0934081E0,-5.313319E-1,1.1529707E-1,6.59404E-1,-1.2410682E0,-5.9319335E-1,-1.0281264E0,-1.6224064E0,-2.651174E-1,3.5176137E-1,-5.90159E-1,2.8779358E-1,-1.3963155E0,-6.148395E-1,1.17538586E-1,-5.434434E-1,5.938921E-1,1.1123403E0,2.2615778E-1,9.1314745E-1,-5.443504E-1,-2.905937E-2],"categories":[],"categories_nodes":[],"categories_segments":[],"categories_sizes":[],"default_left":[0,0,0,0,0,1,0,0,0,0,0,0,0,0,0,0,0,0,0,0,0,0,0,0,0,0,0,0,0,0,0,0,0,0,0,0,0,0,0,0,0,0,0,0,0,0,0,0,0,0,0,0,0,0,0,0,0,0,0,0,0,0,0,0,0,0,0,0,0],"id":3,"left_children":[1,3,5,7,9,11,13,-1,15,-1,17,19,21,23,25,27,29,31,33,35,37,39,41,43,-1,-1,45,-1,47,49,-1,-1,-1,51,53,55,57,59,61,-1,-1,-1,-1,63,65,-1,67,-1,-1,-1,-1,-1,-1,-1,-1,-1,-1,-1,-1,-1,-1,-1,-1,-1,-1,-1,-1,-1,-1],"loss_changes":[6.3600152E4,9.909156E3,1.7334707E4,2.6901052E3,5.4481562E3,1.0293627E4,8.740822E3,0E0,1.7431246E3,0E0,4.0199258E3,9.213764E3,2.5321992E3,4.5696445E3,3.6158682E3,1.3986863E3,9.952865E2,1.1344355E3,1.8154375E3,5.084003E3,5.319665E3,7.681193E2,1.368376E3,1.9764023E3,0E0,0E0,1.0240945E3,0E0,2.3983887E2,2.8979053E2,0E0,0E0,0E0,4.520949E3,1.1197305E3,4.429899E3,1.655825E3,1.9189336E3,2.0726594E3,0E0,0E0,0E0,0E0,2.5218125E3,1.1959741E3,0E0,3.5865247E2,0E0,0E0,0E0,0E0,0E0,0E0,0E0,0E0,0E0,0E0,0E0,0E0,0E0,0E0,0E0,0E0,0E0,0E0,0E0,0E0,0E0,0E0],"parents":[2147483647,0,0,1,1,2,2,3,3,4,4,5,5,6,6,8,8,10,10,11,11,12,12,13,13,14,14,15,15,16,16,17,17,18,18,19,19,20,20,21,21,22,22,23,23,26,26,28,28,29,29,33,33,34,34,35,35,36,36,37,37,38,38,43,43,44,44,46,46],"right_children":[2,4,6,8,10,12,14,-1,16,-1,18,20,22,24,26,28,30,32,34,36,38,40,42,44,-1,-1,46,-1,48,50,-1,-1,-1,52,54,56,58,60,62,-1,-1,-1,-1,64,66,-1,68,-1,-1,-1,-1,-1,-1,-1,-1,-1,-1,-1,-1,-1,-1,-1,-1,-1,-1,-1,-1,-1,-1],"split_conditions":[-2.2946514E-1,8.1752405E2,4.1559E4,5.95234E-1,2.3969924E0,4.627209E-1,1.8551405E1,7.0186937E-1,7.692464E2,3.553038E-1,3.435808E5,7.9193975E5,3.07264E0,-1.6594E1,4.4924564E0,7.2565735E2,1E0,8.627356E0,-2.0308036E-1,7E0,6.464573E0,9.2796314E-1,8.6209744E-1,4.786371E0,-4.0289322E-1,7.858428E-1,4.326568E5,-9.231376E-3,7.4542505E2,-3.75E-1,-2.6793212E-1,2.492824E-1,-5.7190675E-1,-2.6645786E-1,4.92938E0,-1.4909226E-1,9.60391E0,2.8310075E-1,1.3467339E3,2.5372848E-2,7.016701E-1,5.3583825E-1,1.5086979E0,8.735895E-1,1E0,-1.0314335E0,-9.915178E-2,-1.0934081E0,-5.313319E-1,1.1529707E-1,6.59404E-1,-1.2410682E0,-5.9319335E-1,-1.0281264E0,-1.6224064E0,-2.651174E-1,3.5176137E-1,-5.90159E-1,2.8779358E-1,-1.3963155E0,-6.148395E-1,1.17538586E-1,-5.434434E-1,5.938921E-1,1.1123403E0,2.2615778E-1,9.1314745E-1,-5.443504E-1,-2.905937E-2],"split_indices":[38,21,43,46,7,46,16,0,21,0,39,39,16,30,31,21,3,6,34,25,17,23,23,13,0,0,39,0,21,28,0,0,0,27,18,34,19,19,21,0,0,0,0,23,5,0,34,0,0,0,0,0,0,0,0,0,0,0,0,0,0,0,0,0,0,0,0,0,0],"split_type":[0,0,0,0,0,0,0,0,0,0,0,0,0,0,0,0,0,0,0,0,0,0,0,0,0,0,0,0,0,0,0,0,0,0,0,0,0,0,0,0,0,0,0,0,0,0,0,0,0,0,0,0,0,0,0,0,0,0,0,0,0,0,0,0,0,0,0,0,0],"sum_hessian":[7.69E2,2.38E2,5.31E2,4.9E1,1.89E2,3.51E2,1.8E2,8E0,4.1E1,8E0,1.81E2,3.15E2,3.6E1,1.55E2,2.5E1,2.2E1,1.9E1,1.5E1,1.66E2,2.23E2,9.2E1,1.6E1,2E1,1.48E2,7E0,6E0,1.9E1,8E0,1.4E1,1E1,9E0,8E0,7E0,1.15E2,5.1E1,1.9E2,3.3E1,4.1E1,5.1E1,9E0,7E0,7E0,1.3E1,1.19E2,2.9E1,6E0,1.3E1,6E0,8E0,5E0,5E0,5E1,6.5E1,3.2E1,1.9E1,3.5E1,1.55E2,2.7E1,6E0,1.2E1,2.9E1,3.4E1,1.7E1,3.9E1,8E1,2E1,9E0,5E0,8E0],"tree_param":{"num_deleted":"0","num_feature":"47","num_nodes":"69","size_leaf_vector":"1"}},{"base_weights":[-4.4850016E-1,-1.3840314E1,5.446832E0,-1.1344052E1,-2.8247194E1,1.4900596E0,1.3681238E1,8.6017585E-1,-1.364218E1,-1.6469519E0,-1.5869052E1,4.118195E0,-7.915489E0,1.6342483E0,1.7812328E1,1.3942047E1,-6.6561403E0,-1.5342175E1,1.0934459E0,-1.2409767E0,-2.1368638E-1,6.400207E0,-9.44863E0,-1.5535764E1,7.6295023E0,-6.734844E0,1.2013902E1,2.1440725E1,7.8695726E0,3.4105313E-1,9.9630946E-1,-1.3411808E1,2.9991484E-1,-1.825012E1,-5.0552363E0,-3.6591938E-1,4.8917193E0,9.951251E0,-2.6558787E-1,1.2919384E-1,-1.6533508E1,-1.1082611E1,-1.5563184E0,8.6984605E-1,1.4322247E1,-1.1130781E0,-1.0515902E0,6.4989896E0,1.1899432E0,1.33888645E1,2.3665014E1,1.3053705E1,-4.278612E-1,-1.2080444E0,-1.1649435E-1,-4.185314E-1,-9.9985665E-1,3.0334068E-2,-7.7429885E-1,-1.3008378E-1,4.9501505E-1,-6.472157E-1,5.4834557E-1,1.8569662E-1,-7.966978E-1,-5.268415E-1,3.9372787E-1,-1.1601137E0,-5.715008E-1,-7.1923774E-1,1.3117763E-1,4.9680993E-1,-3.5859716E-1,9.2441696E-1,4.0550604E-1,-5.499558E-1,1.6016504E-1,4.4273283E-2,5.6500703E-1,8.1225187E-1,2.4738888E-1,9.631074E-1,1.3432897E0,4.2641425E-1,9.430418E-1],"categories":[],"categories_nodes":[],"categories_segments":[],"categories_sizes":[],"default_left":[0,0,0,0,0,0,0,0,0,0,0,0,0,0,0,0,0,0,0,0,0,0,0,0,0,0,0,0,0,0,0,0,0,0,0,0,0,0,0,0,0,0,0,0,0,0,0,0,0,0,0,0,0,0,0,0,0,0,0,0,0,0,0,0,0,0,0,0,0,0,0,0,0,0,0,0,0,0,0,0,0,0,0,0,0],"id":4,"left_children":[1,3,5,7,9,11,13,15,17,-1,19,21,23,25,27,29,31,33,35,-1,-1,37,39,41,43,45,47,49,51,-1,-1,53,-1,55,57,-1,59,61,63,65,67,69,-1,71,73,75,-1,77,-1,79,81,83,-1,-1,-1,-1,-1,-1,-1,-1,-1,-1,-1,-1,-1,-1,-1,-1,-1,-1,-1,-1,-1,-1,-1,-1,-1,-1,-1,-1,-1,-1,-1,-1,-1],"loss_changes":[5.889253E4,7.879203E3,1.6856922E4,5.508926E3,1.3938066E3,8.708985E3,8.331787E3,3.2392798E3,4.1500996E3,0E0,1.0355491E3,8.574379E3,9.239728E3,3.903116E3,4.3408047E3,3.75438E2,1.8757207E3,4.3349883E3,6.109075E2,0E0,0E0,5.5888877E3,2.7164443E3,3.2652607E3,1.1637988E3,1.9859438E3,1.1451919E3,1.3129336E3,3.092258E3,0E0,0E0,1.611394E3,0E0,1.8174688E3,2.0173668E3,0E0,5.13664E2,3.7230928E3,5.2344424E3,1.569993E3,5.175796E2,1.9386475E3,0E0,1.0919977E3,1.8650122E2,8.4599927E2,0E0,3.9426465E2,0E0,4.5002563E2,4.689922E2,5.487012E2,0E0,0E0,0E0,0E0,0E0,0E0,0E0,0E0,0E0,0E0,0E0,0E0,0E0,0E0,0E0,0E0,0E0,0E0,0E0,0E0,0E0,0E0,0E0,0E0,0E0,0E0,0E0,0E0,0E0,0E0,0E0,0E0,0E0],"parents":[2147483647,0,0,1,1,2,2,3,3,4,4,5,5,6,6,7,7,8,8,10,10,11,11,12,12,13,13,14,14,15,15,16,16,17,17,18,18,21,21,22,22,23,23,24,24,25,25,26,26,27,27,28,28,31,31,33,33,34,34,36,36,37,37,38,38,39,39,40,40,41,41,43,43,44,44,45,45,47,47,49,49,50,50,51,51],"right_children":[2,4,6,8,10,12,14,16,18,-1,20,22,24,26,28,30,32,34,36,-1,-1,38,40,42,44,46,48,50,52,-1,-1,54,-1,56,58,-1,60,62,64,66,68,70,-1,72,74,76,-1,78,-1,80,82,84,-1,-1,-1,-1,-1,-1,-1,-1,-1,-1,-1,-1,-1,-1,-1,-1,-1,-1,-1,-1,-1,-1,-1,-1,-1,-1,-1,-1,-1,-1,-1,-1,-1],"split_conditions":[-2.2946514E-1,6.2122524E1,4.1602E4,4.4777362E5,-2.127857E-1,9.816884E0,5.908217E0,5.2661977E0,9.604742E-1,-1.6469519E0,7.410828E0,7E0,6.666667E-2,-8.557143E-2,1.052846E1,-2.0145E1,1E0,1E0,-3.1418976E-1,-1.2409767E0,-2.1368638E-1,2.2880714E5,5.050187E0,1.8016098E1,1E0,-9.3357146E-2,4.8683257E0,8.460495E-1,6E0,3.4105313E-1,9.9630946E-1,7.803578E0,2.9991484E-1,8.10118E2,-2.0880952E-1,-3.6591938E-1,8.10118E2,7.0712775E-1,-1.9835E1,3.510821E-2,4.092123E0,7.115356E0,-1.5563184E0,-2.0975E1,1.3760325E5,5.5423226E0,-1.0515902E0,4.7501802E0,1.1899432E0,8.163032E-1,6.538564E0,-1.1132143E-1,-4.278612E-1,-1.2080444E0,-1.1649435E-1,-4.185314E-1,-9.9985665E-1,3.0334068E-2,-7.7429885E-1,-1.3008378E-1,4.9501505E-1,-6.472157E-1,5.4834557E-1,1.8569662E-1,-7.966978E-1,-5.268415E-1,3.9372787E-1,-1.1601137E0,-5.715008E-1,-7.1923774E-1,1.3117763E-1,4.9680993E-1,-3.5859716E-1,9.2441696E-1,4.0550604E-1,-5.499558E-1,1.6016504E-1,4.4273283E-2,5.6500703E-1,8.1225187E-1,2.4738888E-1,9.631074E-1,1.3432897E0,4.2641425E-1,9.430418E-1],"split_indices":[38,10,43,39,35,33,18,11,22,0,31,25,26,35,33,30,2,4,38,0,0,40,12,14,2,35,15,22,25,0,0,15,0,21,34,0,21,0,30,7,32,20,0,30,40,31,0,11,0,22,11,35,0,0,0,0,0,0,0,0,0,0,0,0,0,0,0,0,0,0,0,0,0,0,0,0,0,0,0,0,0,0,0,0,0],"split_type":[0,0,0,0,0,0,0,0,0,0,0,0,0,0,0,0,0,0,0,0,0,0,0,0,0,0,0,0,0,0,0,0,0,0,0,0,0,0,0,0,0,0,0,0,0,0,0,0,0,0,0,0,0,0,0,0,0,0,0,0,0,0,0,0,0,0,0,0,0,0,0,0,0,0,0,0,0,0,0,0,0,0,0,0,0],"sum_hessian":[7.44E2,2.27E2,5.17E2,1.95E2,3.2E1,3.5E2,1.67E2,3.1E1,1.64E2,2.2E1,1E1,2.74E2,7.6E1,4.3E1,1.24E2,1.1E1,2E1,1.47E2,1.7E1,5E0,5E0,2.35E2,3.9E1,5.1E1,2.5E1,2.4E1,1.9E1,9E1,3.4E1,6E0,5E0,1.3E1,7E0,1.14E2,3.3E1,5E0,1.2E1,1.53E2,8.2E1,1.7E1,2.2E1,4.1E1,1E1,1.3E1,1.2E1,1.8E1,6E0,1.4E1,5E0,2.1E1,6.9E1,2.6E1,8E0,6E0,7E0,1.8E1,9.6E1,2.2E1,1.1E1,5E0,7E0,6E0,1.47E2,6.6E1,1.6E1,7E0,1E1,8E0,1.4E1,3.3E1,8E0,6E0,7E0,6E0,6E0,5E0,1.3E1,7E0,7E0,1.5E1,6E0,3.2E1,3.7E1,1.6E1,1E1],"tree_param":{"num_deleted":"0","num_feature":"47","num_nodes":"85","size_leaf_vector":"1"}},{"base_weights":[-2.3513612E-1,-1.3013258E1,5.8938565E0,-1.6609447E-1,-1.5797047E1,1.5555722E0,1.1940042E1,6.911101E-1,-3.1066277E0,-1.8689413E0,-1.7566366E1,3.9865286E0,-1.072756E1,1.4132111E1,-1.0374786E0,-6.50002E0,4.2749307E-1,2.487875E0,-7.677018E-1,-2.1972895E1,-1.3207863E1,-1.1498543E0,4.7381496E0,1.7185402E-1,-1.6347618E1,1.5241103E1,-3.3442414E-1,-5.5790896E0,6.642371E-1,-1.0427615E1,1.9114964E-1,-4.276528E0,7.3474634E-1,-2.3747849E1,-9.90602E0,-1.5316344E1,2.300751E0,7.3676157E0,-2.396806E0,5.0121987E-1,-5.3972554E-1,-2.3292208E1,-6.461296E0,-4.9742198E-1,1.6040493E1,-9.6921486E-1,2.0577307E0,-7.550341E-1,-1.8108178E-2,-5.7089114E-1,8.070045E-2,-8.708267E-1,-1.3641919E0,3.1607696E-1,-1.0419219E0,-2.892315E-1,-9.049584E-1,5.576225E-1,-2.807549E-1,4.4826537E-1,-2.5780538E-1,-4.259995E-1,2.2833379E-1,-1.4563814E0,-5.8137745E-1,-7.05749E-1,1.0000241E-1,3.794495E-2,8.4954244E-1,5.025316E-1,-2.2711816E-1],"categories":[],"categories_nodes":[],"categories_segments":[],"categories_sizes":[],"default_left":[0,0,0,0,0,0,0,0,0,0,0,0,0,0,0,0,0,0,0,0,0,0,0,0,0,0,0,0,0,0,0,0,0,0,0,0,0,0,0,0,0,0,0,0,0,0,0,0,0,0,0,0,0,0,0,0,0,0,0,0,0,0,0,0,0,0,0,0,0,0,0],"id":5,"left_children":[1,3,5,7,9,11,13,-1,15,17,19,21,23,25,27,29,-1,31,-1,33,35,-1,37,39,41,43,-1,45,-1,47,-1,49,-1,51,53,55,57,59,61,-1,-1,63,65,-1,67,-1,69,-1,-1,-1,-1,-1,-1,-1,-1,-1,-1,-1,-1,-1,-1,-1,-1,-1,-1,-1,-1,-1,-1,-1,-1],"loss_changes":[5.967595E4,8.831035E3,1.3489914E4,1.8939275E3,4.969758E3,9.030554E3,6.1309004E3,0E0,1.5586658E3,1.4482489E3,3.1668438E3,5.2198896E3,3.0655752E3,4.3504805E3,2.1555874E3,1.2562031E3,0E0,1.6317382E3,0E0,1.6495508E3,3.0763037E3,0E0,4.632895E3,2.053047E3,2.115166E3,3.6834219E3,0E0,2.675585E3,0E0,1.029335E3,0E0,5.652873E2,0E0,1.2262578E3,2.4380146E3,2.0703613E3,9.034466E2,3.6478535E3,2.8956992E3,0E0,0E0,9.546133E2,9.996373E2,0E0,2.4560078E3,0E0,9.4246985E2,0E0,0E0,0E0,0E0,0E0,0E0,0E0,0E0,0E0,0E0,0E0,0E0,0E0,0E0,0E0,0E0,0E0,0E0,0E0,0E0,0E0,0E0,0E0,0E0],"parents":[2147483647,0,0,1,1,2,2,3,3,4,4,5,5,6,6,8,8,9,9,10,10,11,11,12,12,13,13,14,14,15,15,17,17,19,19,20,20,22,22,23,23,24,24,25,25,27,27,29,29,31,31,33,33,34,34,35,35,36,36,37,37,38,38,41,41,42,42,44,44,46,46],"right_children":[2,4,6,8,10,12,14,-1,16,18,20,22,24,26,28,30,-1,32,-1,34,36,-1,38,40,42,44,-1,46,-1,48,-1,50,-1,52,54,56,58,60,62,-1,-1,64,66,-1,68,-1,70,-1,-1,-1,-1,-1,-1,-1,-1,-1,-1,-1,-1,-1,-1,-1,-1,-1,-1,-1,-1,-1,-1,-1,-1],"split_conditions":[-2.2811015E-1,8.1752405E2,3.9939E4,5.927522E-1,1.341305E5,8.525003E0,1.25E-1,6.911101E-1,1.3149486E6,3.3617935E1,6.666667E-2,3.6762846E-1,4.1864084E5,2.5575531E1,7.469512E1,7.8640985E2,4.2749307E-1,8.515371E-1,-7.677018E-1,2.7211382E6,9.924655E-1,-1.1498543E0,8.084644E5,1.0862117E3,-1.3260417E-1,7.715032E-1,-3.3442414E-1,9.3653875E4,6.642371E-1,1E0,1.9114964E-1,6.2056704E0,7.3474634E-1,1.925023E0,6.976E3,8.81778E0,2.1499502E1,9.92754E0,6.666667E-2,5.0121987E-1,-5.3972554E-1,3.277E4,4.3421535E0,-4.9742198E-1,2.5053372E0,-9.6921486E-1,6.538564E0,-7.550341E-1,-1.8108178E-2,-5.7089114E-1,8.070045E-2,-8.708267E-1,-1.3641919E0,3.1607696E-1,-1.0419219E0,-2.892315E-1,-9.049584E-1,5.576225E-1,-2.807549E-1,4.4826537E-1,-2.5780538E-1,-4.259995E-1,2.2833379E-1,-1.4563814E0,-5.8137745E-1,-7.05749E-1,1.0000241E-1,3.794495E-2,8.4954244E-1,5.025316E-1,-2.2711816E-1],"split_indices":[38,21,43,45,40,32,24,0,39,14,26,45,39,16,10,21,0,16,0,39,23,0,39,21,34,23,0,40,0,2,0,32,0,19,43,14,8,12,26,0,0,43,14,0,16,0,11,0,0,0,0,0,0,0,0,0,0,0,0,0,0,0,0,0,0,0,0,0,0,0,0],"split_type":[0,0,0,0,0,0,0,0,0,0,0,0,0,0,0,0,0,0,0,0,0,0,0,0,0,0,0,0,0,0,0,0,0,0,0,0,0,0,0,0,0,0,0,0,0,0,0,0,0,0,0,0,0,0,0,0,0,0,0,0,0,0,0,0,0,0,0,0,0,0,0],"sum_hessian":[7.6E2,2.46E2,5.14E2,4.4E1,2.02E2,3E2,2.14E2,7E0,3.7E1,2.3E1,1.79E2,2.51E2,4.9E1,1.83E2,3.1E1,2.9E1,8E0,1.8E1,5E0,8.7E1,9.2E1,6E0,2.45E2,1.7E1,3.2E1,1.74E2,9E0,2.4E1,7E0,2.1E1,8E0,1.2E1,6E0,7.5E1,1.2E1,8.1E1,1.1E1,1.79E2,6.6E1,9E0,8E0,1.8E1,1.4E1,5E0,1.69E2,8E0,1.6E1,1.4E1,7E0,5E0,7E0,2.9E1,4.6E1,5E0,7E0,1.9E1,6.2E1,5E0,6E0,1.59E2,2E1,3.5E1,3.1E1,1.1E1,7E0,7E0,7E0,1E1,1.59E2,7E0,9E0],"tree_param":{"num_deleted":"0","num_feature":"47","num_nodes":"71","size_leaf_vector":"1"}},{"base_weights":[1.8667608E-1,-1.1016881E1,6.0238266E0,-1.8165342E1,-3.6167748E0,2.7894416E0,1.2156701E1,-2.5374739E1,-1.4519014E1,-1.5339623E1,-5.086809E-1,5.1294518E0,-9.448902E0,1.424781E1,-3.5578332E0,-2.0184172E1,-1.6062975E0,-4.0572267E0,-1.7450136E1,-6.6082425E0,-2.1884178E1,8.343613E0,-3.6061254E0,-1.2398306E0,6.1152916E0,-1.4590732E1,2.2979548E0,1.6826578E1,7.3196154E0,-1.0988454E1,6.436594E-1,-1.658564E-1,-2.3866812E1,3.155707E0,-8.0863535E-1,-9.413663E0,-2.2277372E1,-8.777812E-1,1.2141621E-1,-6.4938474E-1,-1.3186045E0,-3.3443603E-1,1.3939364E1,2.5820296E0,-1.1935243E1,7.7158217E0,-9.07871E0,-2.1794928E1,-8.688102E0,-3.2270965E-1,5.397387E-1,2.0148882E1,1.0001454E1,1.0993291E1,-4.3668323E0,-7.953736E-1,-1.5471113E-1,-1.3771775E0,-6.026647E-1,6.298823E-1,-4.042948E-1,6.928621E-2,-6.210969E-1,-1.32675E0,-3.739637E-1,4.44897E-1,1.1015439E0,2.6769525E-1,-8.163738E-1,-7.2018784E-1,-1.2103336E-1,6.185713E-1,1.8861519E-1,-7.713668E-1,7.327301E-1,-6.96647E-1,-1.6288041E0,1.4306171E-1,-7.13427E-1,1.1044446E0,6.229457E-1,6.5165085E-1,-6.0751468E-2,2.8196183E-1,9.3982553E-1,3.9981082E-1,-8.001038E-1],"categories":[],"categories_nodes":[],"categories_segments":[],"categories_sizes":[],"default_left":[0,0,0,0,0,0,0,0,0,0,0,0,0,0,0,0,0,0,0,0,0,0,0,0,0,0,0,0,0,0,0,0,0,0,0,0,0,0,0,0,0,0,0,0,0,0,0,0,0,0,0,0,0,0,0,0,0,0,0,0,0,0,0,0,0,0,0,0,0,0,0,0,0,0,0,0,0,0,0,0,0,0,0,0,0,0,0],"id":6,"left_children":[1,3,5,7,9,11,13,15,17,19,21,23,25,27,29,31,-1,33,35,37,39,41,43,-1,45,47,49,51,53,55,-1,-1,57,59,-1,61,63,-1,-1,-1,-1,-1,65,67,69,71,73,75,77,-1,-1,79,81,83,85,-1,-1,-1,-1,-1,-1,-1,-1,-1,-1,-1,-1,-1,-1,-1,-1,-1,-1,-1,-1,-1,-1,-1,-1,-1,-1,-1,-1,-1,-1,-1,-1],"loss_changes":[4.963718E4,1.3688133E4,9.864293E3,3.1015781E3,4.6924043E3,9.441683E3,5.702748E3,8.583965E2,2.6890332E3,1.3982456E3,2.8542954E3,8.294276E3,3.234746E3,2.5925E3,2.705403E3,1.5979434E3,0E0,1.8861875E3,2.5058652E3,1.3286785E3,2.5638672E2,2.364401E3,3.9995405E3,0E0,6.5873975E3,1.3840205E3,1.3338837E3,2.292746E3,1.8940916E3,5.3325684E2,0E0,0E0,6.23584E2,1.5878586E3,0E0,9.268645E2,2.5107441E3,0E0,0E0,0E0,0E0,0E0,6.198257E2,2.4460813E3,7.402002E2,4.4146816E3,4.1436035E3,9.023003E2,1.4587335E3,0E0,0E0,8.138574E2,1.3079675E3,1.2727048E3,1.7102739E3,0E0,0E0,0E0,0E0,0E0,0E0,0E0,0E0,0E0,0E0,0E0,0E0,0E0,0E0,0E0,0E0,0E0,0E0,0E0,0E0,0E0,0E0,0E0,0E0,0E0,0E0,0E0,0E0,0E0,0E0,0E0,0E0],"parents":[2147483647,0,0,1,1,2,2,3,3,4,4,5,5,6,6,7,7,8,8,9,9,10,10,11,11,12,12,13,13,14,14,15,15,17,17,18,18,19,19,20,20,21,21,22,22,24,24,25,25,26,26,27,27,28,28,29,29,32,32,33,33,35,35,36,36,42,42,43,43,44,44,45,45,46,46,47,47,48,48,51,51,52,52,53,53,54,54],"right_children":[2,4,6,8,10,12,14,16,18,20,22,24,26,28,30,32,-1,34,36,38,40,42,44,-1,46,48,50,52,54,56,-1,-1,58,60,-1,62,64,-1,-1,-1,-1,-1,66,68,70,72,74,76,78,-1,-1,80,82,84,86,-1,-1,-1,-1,-1,-1,-1,-1,-1,-1,-1,-1,-1,-1,-1,-1,-1,-1,-1,-1,-1,-1,-1,-1,-1,-1,-1,-1,-1,-1,-1,-1],"split_conditions":[-2.08627E-1,1.1521E4,4.1602E4,7.803578E0,2.984734E0,8.392451E0,1.8551405E1,-2.2283E1,3E0,9.797002E0,4.5862988E5,1.451078E3,6.666667E-2,1E0,-7.810714E-2,1.1782341E6,-1.6062975E0,1.1886248E3,6.6651956E5,8.609334E0,5.760521E5,7.321277E0,1E0,-1.2398306E0,2.0890078E1,-1.4353572E-1,9.439286E0,2.2324003E5,6.25E-2,2.1383628E5,6.436594E-1,-1.658564E-1,2.5E-1,2.637383E3,-8.0863535E-1,-2.2119E1,1E0,-8.777812E-1,1.2141621E-1,-6.4938474E-1,-1.3186045E0,-3.3443603E-1,3.3360578E5,1.3333501E1,1.0092854E1,1E0,1E0,1E0,-1.7057505E-1,-3.2270965E-1,5.397387E-1,-1.7466E1,1.5371044E3,-1.2100781E-1,6E0,-7.953736E-1,-1.5471113E-1,-1.3771775E0,-6.026647E-1,6.298823E-1,-4.042948E-1,6.928621E-2,-6.210969E-1,-1.32675E0,-3.739637E-1,4.44897E-1,1.1015439E0,2.6769525E-1,-8.163738E-1,-7.2018784E-1,-1.2103336E-1,6.185713E-1,1.8861519E-1,-7.713668E-1,7.327301E-1,-6.96647E-1,-1.6288041E0,1.4306171E-1,-7.13427E-1,1.1044446E0,6.229457E-1,6.5165085E-1,-6.0751468E-2,2.8196183E-1,9.3982553E-1,3.9981082E-1,-8.001038E-1],"split_indices":[37,43,43,15,17,32,16,30,25,32,39,1,26,3,35,39,0,21,39,32,39,15,3,0,6,35,32,40,24,40,0,0,24,1,0,30,4,0,0,0,0,0,39,15,9,3,5,2,37,0,0,30,21,37,25,0,0,0,0,0,0,0,0,0,0,0,0,0,0,0,0,0,0,0,0,0,0,0,0,0,0,0,0,0,0,0,0],"split_type":[0,0,0,0,0,0,0,0,0,0,0,0,0,0,0,0,0,0,0,0,0,0,0,0,0,0,0,0,0,0,0,0,0,0,0,0,0,0,0,0,0,0,0,0,0,0,0,0,0,0,0,0,0,0,0,0,0,0,0,0,0,0,0,0,0,0,0,0,0,0,0,0,0,0,0,0,0,0,0,0,0,0,0,0,0,0,0],"sum_hessian":[7.57E2,2.59E2,4.98E2,1.31E2,1.28E2,3.27E2,1.71E2,4.2E1,8.9E1,2.6E1,1.02E2,2.75E2,5.2E1,1.51E2,2E1,2.6E1,1.6E1,2E1,6.9E1,1.2E1,1.4E1,2.6E1,7.6E1,8E0,2.67E2,3.6E1,1.6E1,1.09E2,4.2E1,1.4E1,6E0,5E0,2.1E1,1.3E1,7E0,2.7E1,4.2E1,5E0,7E0,6E0,8E0,7E0,1.9E1,4.4E1,3.2E1,2.42E2,2.5E1,1.5E1,2.1E1,8E0,8E0,7.2E1,3.7E1,3.2E1,1E1,8E0,6E0,1.5E1,6E0,7E0,6E0,6E0,2.1E1,3.2E1,1E1,1.3E1,6E0,3.9E1,5E0,2.5E1,7E0,1.1E2,1.32E2,2E1,5E0,1E1,5E0,7E0,1.4E1,5.6E1,1.6E1,2.9E1,8E0,2E1,1.2E1,5E0,5E0],"tree_param":{"num_deleted":"0","num_feature":"47","num_nodes":"87","size_leaf_vector":"1"}},{"base_weights":[1.3307776E-1,-1.1854646E1,5.4987574E0,-1.652591E1,-5.270627E0,-5.93154E-1,8.494478E0,-1.4708664E1,-2.7037823E1,9.445822E0,-9.115877E0,-4.151023E0,9.108981E0,1.2443018E1,3.2171707E0,-1.721345E1,-4.076662E0,-1.5901982E0,-7.1619374E-1,-1.604419E-1,1.6002356E1,2.7162832E-1,-1.1064E1,-1.3360829E1,8.32219E-1,1.3952185E1,1.2373027E0,1.381642E1,-6.770884E-1,-3.86754E0,6.727985E0,-1.1184084E1,-2.1504719E1,-1.0403436E0,1.4211233E0,1.089783E0,5.181057E-1,-1.1826055E0,-9.058242E0,-2.1598919E1,1.9624561E-1,2.7893775E0,-7.8936833E-1,3.409263E-2,1.7384365E1,-3.310458E-1,4.4858956E-1,8.442153E0,1.750453E1,-5.7507104E-1,9.224768E0,-8.914244E-1,-1.4608739E1,-6.816398E-1,8.371757E0,-3.6900344E-1,-1.321432E0,-1.4192846E0,-6.658787E-1,4.6537206E-1,-2.5802556E-1,2.4957576E-1,-5.326354E-1,-7.5815505E-1,-1.5833542E0,3.6246046E-1,-5.9612924E-1,4.5389467E-1,-3.3110425E-2,4.045436E-1,9.758199E-1,5.146312E-1,-3.2386014E-1,5.9763306E-1,1.0827141E0,2.626116E-1,5.829921E-1,3.127893E-1,-2.2165965E-1,-1.142286E0,-1.968485E-1,1.9540076E-1,7.0777565E-1],"categories":[],"categories_nodes":[],"categories_segments":[],"categories_sizes":[],"default_left":[0,0,0,0,0,0,0,0,0,0,0,0,0,0,0,0,0,0,0,0,0,0,0,0,0,0,0,0,0,0,0,0,0,0,0,0,0,0,0,0,0,0,0,0,0,0,0,0,0,0,0,0,0,0,0,0,0,0,0,0,0,0,0,0,0,0,0,0,0,0,0,0,0,0,0,0,0,0,0,0,0,0,0],"id":7,"left_children":[1,3,5,7,9,11,13,15,17,19,21,23,25,27,29,31,33,-1,-1,-1,35,-1,37,39,41,43,45,47,49,51,53,55,57,-1,59,-1,-1,-1,61,63,65,67,-1,-1,69,-1,-1,71,73,-1,75,77,79,-1,81,-1,-1,-1,-1,-1,-1,-1,-1,-1,-1,-1,-1,-1,-1,-1,-1,-1,-1,-1,-1,-1,-1,-1,-1,-1,-1,-1,-1],"loss_changes":[4.8885797E4,7.1404844E3,9.586116E3,2.2193867E3,5.688362E3,6.044104E3,7.2948223E3,3.0989004E3,6.957783E2,1.7937336E3,2.2991357E3,5.8856396E3,1.7745713E3,3.631211E3,3.806733E3,2.2433555E3,2.2370679E3,0E0,0E0,0E0,2.316101E2,0E0,1.5531621E3,5.0300376E3,2.7763184E3,1.3089858E3,1.2142083E3,3.459625E3,2.2497178E3,1.6172969E3,3.5279136E3,2.2405562E3,2.7204238E3,0E0,1.0342235E3,0E0,0E0,0E0,1.4420884E3,1.3341426E3,1.6249554E3,1.6556182E3,0E0,0E0,2.9781836E2,0E0,0E0,2.1648633E3,2.206336E3,0E0,4.516742E1,1.0655974E3,8.769917E2,0E0,2.397313E3,0E0,0E0,0E0,0E0,0E0,0E0,0E0,0E0,0E0,0E0,0E0,0E0,0E0,0E0,0E0,0E0,0E0,0E0,0E0,0E0,0E0,0E0,0E0,0E0,0E0,0E0,0E0,0E0],"parents":[2147483647,0,0,1,1,2,2,3,3,4,4,5,5,6,6,7,7,8,8,9,9,10,10,11,11,12,12,13,13,14,14,15,15,16,16,20,20,22,22,23,23,24,24,25,25,26,26,27,27,28,28,29,29,30,30,31,31,32,32,34,34,38,38,39,39,40,40,41,41,44,44,47,47,48,48,50,50,51,51,52,52,54,54],"right_children":[2,4,6,8,10,12,14,16,18,20,22,24,26,28,30,32,34,-1,-1,-1,36,-1,38,40,42,44,46,48,50,52,54,56,58,-1,60,-1,-1,-1,62,64,66,68,-1,-1,70,-1,-1,72,74,-1,76,78,80,-1,82,-1,-1,-1,-1,-1,-1,-1,-1,-1,-1,-1,-1,-1,-1,-1,-1,-1,-1,-1,-1,-1,-1,-1,-1,-1,-1,-1,-1],"split_conditions":[-2.2811015E-1,1.1521E4,-1.2678571E-1,1.0806337E1,4.5862988E5,4.1858E4,6.25E-2,1.4163997E1,-2.7253473E-1,7.321277E0,3E0,5.5897427E0,1.0717581E1,2.5575531E1,8.460495E-1,1.1296985E1,7.870635E-1,-1.5901982E0,-7.1619374E-1,-1.604419E-1,-1.9602E1,2.7162832E-1,5.4798775E5,-1.6913195E-1,2.2030771E1,6.042623E0,2.159009E3,8.735895E-1,5.9908385E0,8.084644E5,4.627209E-1,3.97622E1,7.8216324E0,-1.0403436E0,-2.3123E1,1.089783E0,5.181057E-1,-1.1826055E0,5.285047E0,7.157851E0,2.7217903E5,-2.1654E1,-7.8936833E-1,3.409263E-2,8.013203E-1,-3.310458E-1,4.4858956E-1,-7.3229164E-2,8.753501E-1,-5.7507104E-1,1E0,2.7115E4,8.3173925E-1,-6.816398E-1,1.25E-1,-3.6900344E-1,-1.321432E0,-1.4192846E0,-6.658787E-1,4.6537206E-1,-2.5802556E-1,2.4957576E-1,-5.326354E-1,-7.5815505E-1,-1.5833542E0,3.6246046E-1,-5.9612924E-1,4.5389467E-1,-3.3110425E-2,4.045436E-1,9.758199E-1,5.146312E-1,-3.2386014E-1,5.9763306E-1,1.0827141E0,2.626116E-1,5.829921E-1,3.127893E-1,-2.2165965E-1,-1.142286E0,-1.968485E-1,1.9540076E-1,7.0777565E-1],"split_indices":[38,43,34,31,39,43,24,33,36,15,25,17,33,16,22,11,22,0,0,0,30,0,39,36,27,11,1,23,11,39,46,7,15,0,30,0,0,0,31,20,40,30,0,0,22,0,0,36,22,0,2,43,23,0,28,0,0,0,0,0,0,0,0,0,0,0,0,0,0,0,0,0,0,0,0,0,0,0,0,0,0,0,0],"split_type":[0,0,0,0,0,0,0,0,0,0,0,0,0,0,0,0,0,0,0,0,0,0,0,0,0,0,0,0,0,0,0,0,0,0,0,0,0,0,0,0,0,0,0,0,0,0,0,0,0,0,0,0,0,0,0,0,0,0,0,0,0,0,0,0,0,0,0,0,0,0,0,0,0,0,0,0,0,0,0,0,0,0,0],"sum_hessian":[7.58E2,2.34E2,5.24E2,1.36E2,9.8E1,1.73E2,3.51E2,1.18E2,1.8E1,2E1,7.8E1,1.27E2,4.6E1,2E2,1.51E2,9.5E1,2.3E1,1.2E1,6E0,7E0,1.3E1,9E0,6.9E1,4.4E1,8.3E1,2.8E1,1.8E1,1.81E2,1.9E1,5E1,1.01E2,4.1E1,5.4E1,5E0,1.8E1,5E0,8E0,8E0,6.1E1,2.7E1,1.7E1,7.5E1,8E0,6E0,2.2E1,9E0,9E0,7.5E1,1.06E2,9E0,1E1,4E1,1E1,7E0,9.4E1,3.4E1,7E0,2.8E1,2.6E1,8E0,1E1,6E0,5.5E1,1.8E1,9E0,1.1E1,6E0,2.6E1,4.9E1,5E0,1.7E1,6.7E1,8E0,4.7E1,5.9E1,5E0,5E0,1.3E1,2.7E1,5E0,5E0,5.4E1,4E1],"tree_param":{"num_deleted":"0","num_feature":"47","num_nodes":"83","size_leaf_vector":"1"}},{"base_weights":[3.1130433E-1,-1.0941774E1,5.3670635E0,-8.890558E0,-2.3676342E1,7.816019E0,-1.2587682E0,-7.279021E0,-2.6189299E1,-4.240837E-1,-2.8387827E1,5.1745353E0,1.5418131E1,-6.3862557E0,6.0627184E0,-8.637655E0,3.9366736E0,-8.0290097E-1,-1.5127815E0,-1.5942242E0,-7.6705116E-1,1.0385581E1,2.1683629E0,1.7996284E1,5.1079383E0,-1.06670265E1,3.0460021E0,1.3977886E1,-1.5373647E0,-4.9310133E-1,-1.0777251E1,-1.0684026E0,4.774549E-1,-5.096996E-1,1.1527924E1,-1.3238029E1,3.7330635E0,2.1131006E1,1.2276361E1,1.071852E1,-1.7818922E-1,5.3550667E-1,-1.3339586E1,9.153926E0,-1.0853604E0,2.8665718E-1,1.7401363E1,5.549755E0,-9.466943E0,5.3811705E-1,-2.0466554E-1,2.1544786E-1,-6.0864013E-1,-2.4925373E-1,1.8395577E-1,7.0033723E-1,1.3640241E-1,-8.1267273E-1,-2.50042E-1,-5.441763E-1,2.575465E-1,6.2260234E-1,1.1804631E0,8.490925E-1,2.408367E-1,8.809723E-1,-1.3456662E-2,-4.9039298E-1,-1.2147343E0,6.994919E-1,1.3961792E-1,-5.1834863E-1,3.2242325E-1,4.5491362E-1,1.0154977E0,-2.9678267E-1,8.209262E-1,-9.37545E-2,-1.0271103E0],"categories":[],"categories_nodes":[],"categories_segments":[],"categories_sizes":[],"default_left":[0,0,0,0,0,0,0,0,0,0,0,0,0,0,0,0,0,0,0,0,0,0,0,0,0,0,0,0,0,0,0,0,0,0,0,0,0,0,0,0,0,0,0,0,0,0,0,0,0,0,0,0,0,0,0,0,0,0,0,0,0,0,0,0,0,0,0,0,0,0,0,0,0,0,0,0,0,0,0],"id":8,"left_children":[1,3,5,7,9,11,13,15,17,-1,19,21,23,25,27,29,31,-1,-1,-1,-1,33,35,37,39,41,43,45,47,49,51,53,-1,-1,55,57,59,61,63,65,-1,-1,67,69,71,-1,73,75,77,-1,-1,-1,-1,-1,-1,-1,-1,-1,-1,-1,-1,-1,-1,-1,-1,-1,-1,-1,-1,-1,-1,-1,-1,-1,-1,-1,-1,-1,-1],"loss_changes":[4.3126617E4,5.9280215E3,8.496229E3,5.4963936E3,2.050088E3,7.5911055E3,5.369516E3,2.898753E3,2.1450586E2,0E0,6.057461E2,4.4420923E3,2.513039E3,3.4241875E3,3.570689E3,2.9222627E3,6.001051E2,0E0,0E0,0E0,0E0,2.5624424E3,4.4367812E3,1.1391562E3,1.0599203E3,3.4565093E3,6.9125464E2,7.1878076E2,1.7946732E3,1.5028439E3,2.8525781E3,2.4147433E2,0E0,0E0,2.1213076E3,3.4097583E2,3.496307E3,7.599414E2,9.7123926E2,9.904668E2,0E0,0E0,1.773623E3,2.9933923E2,1.2555938E3,0E0,2.982207E2,2.219603E3,1.2227081E3,0E0,0E0,0E0,0E0,0E0,0E0,0E0,0E0,0E0,0E0,0E0,0E0,0E0,0E0,0E0,0E0,0E0,0E0,0E0,0E0,0E0,0E0,0E0,0E0,0E0,0E0,0E0,0E0,0E0,0E0],"parents":[2147483647,0,0,1,1,2,2,3,3,4,4,5,5,6,6,7,7,8,8,10,10,11,11,12,12,13,13,14,14,15,15,16,16,21,21,22,22,23,23,24,24,25,25,26,26,27,27,28,28,29,29,30,30,31,31,34,34,35,35,36,36,37,37,38,38,39,39,42,42,43,43,44,44,46,46,47,47,48,48],"right_children":[2,4,6,8,10,12,14,16,18,-1,20,22,24,26,28,30,32,-1,-1,-1,-1,34,36,38,40,42,44,46,48,50,52,54,-1,-1,56,58,60,62,64,66,-1,-1,68,70,72,-1,74,76,78,-1,-1,-1,-1,-1,-1,-1,-1,-1,-1,-1,-1,-1,-1,-1,-1,-1,-1,-1,-1,-1,-1,-1,-1,-1,-1,-1,-1,-1,-1],"split_conditions":[-2.2811015E-1,6.0078606E1,6.3337946E0,-2.1590722E-1,7.0510488E0,1E0,3.9939E4,9.571677E-1,-1.915625E-1,-4.240837E-1,1.139379E1,2.8120835E0,9.6071255E-1,6.666667E-2,2.7102158E0,8.127124E2,1.25E-1,-8.0290097E-1,-1.5127815E0,-1.5942242E0,-7.6705116E-1,1.0621E4,3.7075944E0,9.800019E0,4.8773527E0,7.592329E2,8.182331E-1,-1.8645833E-1,7.227479E0,5.935019E-1,4.7501802E0,2.407134E3,4.774549E-1,-5.096996E-1,3.132268E5,1.830719E3,2.132692E1,8.9116675E-1,6.1827626E0,2.7469006E5,-1.7818922E-1,5.3550667E-1,1.25E-1,2.178869E3,6.666667E-2,2.8665718E-1,8.460495E-1,5.3904026E1,2.23953E3,5.3811705E-1,-2.0466554E-1,2.1544786E-1,-6.0864013E-1,-2.4925373E-1,1.8395577E-1,7.0033723E-1,1.3640241E-1,-8.1267273E-1,-2.50042E-1,-5.441763E-1,2.575465E-1,6.2260234E-1,1.1804631E0,8.490925E-1,2.408367E-1,8.809723E-1,-1.3456662E-2,-4.9039298E-1,-1.2147343E0,6.994919E-1,1.3961792E-1,-5.1834863E-1,3.2242325E-1,4.5491362E-1,1.0154977E0,-2.9678267E-1,8.209262E-1,-9.37545E-2,-1.0271103E0],"split_indices":[38,10,31,37,8,5,43,22,36,0,31,13,23,26,13,21,28,0,0,0,0,43,13,16,12,21,22,36,31,46,11,1,0,0,40,1,10,23,33,40,0,0,28,1,29,0,22,10,1,0,0,0,0,0,0,0,0,0,0,0,0,0,0,0,0,0,0,0,0,0,0,0,0,0,0,0,0,0,0],"split_type":[0,0,0,0,0,0,0,0,0,0,0,0,0,0,0,0,0,0,0,0,0,0,0,0,0,0,0,0,0,0,0,0,0,0,0,0,0,0,0,0,0,0,0,0,0,0,0,0,0,0,0,0,0,0,0,0,0,0,0,0,0,0,0,0,0,0,0,0,0,0,0,0,0,0,0,0,0,0,0],"sum_hessian":[7.56E2,2.34E2,5.22E2,2.03E2,3.1E1,3.81E2,1.41E2,1.87E2,1.6E1,8E0,2.3E1,2.84E2,9.7E1,8.3E1,5.8E1,1.67E2,2E1,6E0,1E1,1.7E1,6E0,1.03E2,1.81E2,7.7E1,2E1,5.7E1,2.6E1,2.8E1,3E1,3.5E1,1.32E2,1.1E1,9E0,5E0,9.8E1,1.6E1,1.65E2,4.8E1,2.9E1,1.2E1,8E0,6E0,5.1E1,1E1,1.6E1,9E0,1.9E1,1.6E1,1.4E1,8E0,2.7E1,1.1E1,1.21E2,6E0,5E0,7.6E1,2.2E1,1.1E1,5E0,1.4E1,1.51E2,1.2E1,3.6E1,1.7E1,1.2E1,7E0,5E0,4E1,1.1E1,5E0,5E0,7E0,9E0,6E0,1.3E1,8E0,8E0,9E0,5E0],"tree_param":{"num_deleted":"0","num_feature":"47","num_nodes":"79","size_leaf_vector":"1"}},{"base_weights":[-4.5163625E-1,-1.1190507E1,4.532218E0,9.643558E-1,-1.3930173E1,1.5726016E0,1.0648792E1,4.650708E0,-9.867868E0,9.2582303E-1,-1.5678227E1,-1.2106321E0,2.309038E0,1.2547369E1,-2.866377E0,1.058721E0,1.1447124E1,1.5449047E-2,-8.5905933E-1,6.8489785E0,-5.147911E-1,-1.6857794E1,-5.720822E-1,4.7556005E0,-5.1997414E0,1.3732289E1,-2.7666247E-1,-9.708908E0,6.5915877E-1,-4.8194274E-1,5.1600714E0,2.9680234E-1,7.98443E-1,4.342766E-3,8.488844E-1,-2.0968939E1,-1.3323078E1,-4.793696E-1,6.523115E-1,-1.0156964E0,7.918814E0,-7.3188634E0,5.818736E-1,1.8506466E1,8.413141E0,-8.8513166E-1,-1.5712045E-1,5.402445E-1,-1.6232823E-1,-8.830504E-1,-1.4317025E0,-1.0495255E0,-4.8203006E-1,-2.6598498E-1,3.368033E-1,5.181414E-1,-9.020876E-2,-1.5968226E-1,-6.837625E-1,5.754787E-1,1.0622675E0,5.1098406E-1,-2.3829877E-1],"categories":[],"categories_nodes":[],"categories_segments":[],"categories_sizes":[],"default_left":[0,0,0,1,0,0,0,1,0,0,0,0,0,0,0,0,0,0,0,0,0,0,0,0,0,0,0,0,0,0,0,0,0,0,0,0,0,0,0,0,0,0,0,0,0,0,0,0,0,0,0,0,0,0,0,0,0,0,0,0,0,0,0],"id":9,"left_children":[1,3,5,7,9,11,13,15,17,19,21,-1,23,25,27,29,31,-1,-1,33,-1,35,37,39,41,43,-1,45,-1,-1,47,-1,-1,-1,-1,49,51,-1,-1,53,55,57,-1,59,61,-1,-1,-1,-1,-1,-1,-1,-1,-1,-1,-1,-1,-1,-1,-1,-1,-1,-1],"loss_changes":[4.1368902E4,8.171996E3,9.541486E3,1.8827367E3,5.208336E3,6.8350483E3,4.449412E3,8.4232306E2,8.9842725E2,1.5328019E3,3.1799023E3,0E0,6.4177305E3,3.3110234E3,2.5440242E3,1.1027255E3,2.0424365E2,0E0,0E0,1.025899E3,0E0,2.1328906E3,1.8439056E3,4.80933E3,3.1536624E3,3.4503262E3,0E0,7.8422375E2,0E0,0E0,8.8924976E2,0E0,0E0,0E0,0E0,1.3959648E3,2.3952705E3,0E0,0E0,3.1720132E3,4.0584258E3,1.9753804E3,0E0,1.1735879E3,1.6915E3,0E0,0E0,0E0,0E0,0E0,0E0,0E0,0E0,0E0,0E0,0E0,0E0,0E0,0E0,0E0,0E0,0E0,0E0],"parents":[2147483647,0,0,1,1,2,2,3,3,4,4,5,5,6,6,7,7,8,8,9,9,10,10,12,12,13,13,14,14,15,15,16,16,19,19,21,21,22,22,23,23,24,24,25,25,27,27,30,30,35,35,36,36,39,39,40,40,41,41,43,43,44,44],"right_children":[2,4,6,8,10,12,14,16,18,20,22,-1,24,26,28,30,32,-1,-1,34,-1,36,38,40,42,44,-1,46,-1,-1,48,-1,-1,-1,-1,50,52,-1,-1,54,56,58,-1,60,62,-1,-1,-1,-1,-1,-1,-1,-1,-1,-1,-1,-1,-1,-1,-1,-1,-1,-1],"split_conditions":[-2.2811015E-1,8.1752405E2,4.1559E4,6.0524493E-1,1.3618689E5,3.6762846E-1,1.8551405E1,8.5548383E-1,7.2011017E2,-2.0659722E-1,9.604742E-1,-1.2106321E0,1.3333334E-1,-1.6594E1,-7.7321425E-2,7.692464E2,8.315987E0,1.5449047E-2,-8.5905933E-1,2.2030771E1,-5.147911E-1,6.666667E-2,-2.2435714E-1,8.722853E-1,1.762815E1,1.675893E5,-2.7666247E-1,4.326568E5,6.5915877E-1,-4.8194274E-1,1E0,2.9680234E-1,7.98443E-1,4.342766E-3,8.488844E-1,8.590714E-1,5.985022E0,-4.793696E-1,6.523115E-1,6.666667E-2,3.303369E5,6E0,5.818736E-1,8.7285835E-1,5.544806E5,-8.8513166E-1,-1.5712045E-1,5.402445E-1,-1.6232823E-1,-8.830504E-1,-1.4317025E0,-1.0495255E0,-4.8203006E-1,-2.6598498E-1,3.368033E-1,5.181414E-1,-9.020876E-2,-1.5968226E-1,-6.837625E-1,5.754787E-1,1.0622675E0,5.1098406E-1,-2.3829877E-1],"split_indices":[38,21,43,46,40,45,16,0,21,36,22,0,29,30,35,21,16,0,0,27,0,26,35,23,11,40,0,39,0,0,3,0,0,0,0,22,15,0,0,26,40,25,0,23,40,0,0,0,0,0,0,0,0,0,0,0,0,0,0,0,0,0,0],"split_type":[0,0,0,0,0,0,0,0,0,0,0,0,0,0,0,0,0,0,0,0,0,0,0,0,0,0,0,0,0,0,0,0,0,0,0,0,0,0,0,0,0,0,0,0,0,0,0,0,0,0,0,0,0,0,0,0,0,0,0,0,0,0,0],"sum_hessian":[7.71E2,2.44E2,5.27E2,4.5E1,1.99E2,3.56E2,1.71E2,3.4E1,1.1E1,2.1E1,1.78E2,9E0,3.47E2,1.5E2,2.1E1,2.3E1,1.1E1,5E0,6E0,1.4E1,7E0,1.65E2,1.3E1,2.62E2,8.5E1,1.41E2,9E0,1.5E1,6E0,6E0,1.7E1,6E0,5E0,9E0,5E0,7.4E1,9.1E1,8E0,5E0,9.3E1,1.69E2,7.6E1,9E0,7.3E1,6.8E1,6E0,9E0,1E1,7E0,5.4E1,2E1,2.8E1,6.3E1,6E1,3.3E1,1.35E2,3.4E1,4.7E1,2.9E1,2.2E1,5.1E1,6E1,8E0],"tree_param":{"num_deleted":"0","num_feature":"47","num_nodes":"63","size_leaf_vector":"1"}},{"base_weights":[-4.7722465E-1,-8.9549055E0,4.750492E0,-1.1463168E1,1.1023866E0,2.5221913E0,1.2610996E1,3.275391E0,-1.3410821E1,9.131258E0,-4.664018E0,-1.1307391E1,3.6909177E0,1.4780687E1,6.378344E-1,-2.995555E0,1.3239177E1,-1.145079E1,-2.1019463E1,1.2477998E1,4.46579E0,-8.672339E0,4.869805E0,-2.1751097E1,-4.6659102E0,2.2779336E0,1.2702926E1,1.6979597E1,5.286057E0,7.400713E-1,-6.497114E0,-7.349312E-1,2.636289E0,2.702671E-1,9.433241E-1,-2.4357618E1,-1.0007347E1,-2.3081375E1,-5.561811E-1,1.1498989E-1,8.93851E-1,3.177082E-1,7.591944E-2,-8.6618394E-1,-5.0285654E0,-1.19350396E-1,5.657492E-1,-5.3840107E-1,-1.4554495E0,3.2122338E-1,-9.08565E0,-1.1742574E0,5.468748E0,7.8873744E0,1.9130953E1,2.1222141E1,8.324431E0,-4.6116254E-1,1.1576041E1,-6.51055E-1,1.09852694E-1,-6.691434E-2,3.748171E-1,-8.404158E-1,-1.4902941E0,-3.1094542E-1,-7.9046685E-1,-1.2687714E0,-7.633754E-1,3.1198558E-1,-6.060851E-1,-2.2371238E-2,-7.754196E-1,1.9049305E-1,-3.0028698E-1,3.3338523E-1,-4.0241113E-1,5.3195065E-1,-1.9875666E-1,4.2946574E-1,1.1667804E0,1.5257308E-1,1.1656332E0,4.008729E-3,5.4618305E-1,7.41243E-1,2.657471E-1],"categories":[],"categories_nodes":[],"categories_segments":[],"categories_sizes":[],"default_left":[0,0,0,0,0,0,0,0,0,0,0,0,0,0,0,0,0,0,0,0,0,0,0,0,0,0,0,0,0,0,0,0,0,0,0,0,0,0,0,0,0,0,0,0,0,0,0,0,0,0,0,0,0,0,0,0,0,0,0,0,0,0,0,0,0,0,0,0,0,0,0,0,0,0,0,0,0,0,0,0,0,0,0,0,0,0,0],"id":10,"left_children":[1,3,5,7,9,11,13,15,17,19,21,23,25,27,29,31,33,35,37,39,41,43,45,47,49,51,53,55,57,-1,59,-1,61,-1,-1,63,65,67,-1,-1,-1,-1,-1,-1,69,-1,-1,-1,-1,-1,71,73,75,77,79,81,83,-1,85,-1,-1,-1,-1,-1,-1,-1,-1,-1,-1,-1,-1,-1,-1,-1,-1,-1,-1,-1,-1,-1,-1,-1,-1,-1,-1,-1,-1],"loss_changes":[3.3813555E4,7.353502E3,8.235542E3,6.73233E3,2.7741538E3,6.005881E3,2.692291E3,1.7891649E3,2.8314219E3,3.3462866E2,1.3797445E3,1.9099995E3,4.3132974E3,1.7474941E3,1.8141271E3,1.2251272E3,3.8293774E2,2.848871E3,5.798301E2,7.28219E2,5.714148E1,7.00975E2,5.41495E2,5.754888E2,9.8968567E2,3.2669507E3,1.2730137E3,2.4304512E3,1.7495085E3,0E0,7.092556E2,0E0,2.6114868E2,0E0,0E0,1.5710254E2,3.2207363E3,2.041211E2,0E0,0E0,0E0,0E0,0E0,0E0,1.5942571E3,0E0,0E0,0E0,0E0,0E0,7.697965E2,3.4664177E3,2.5494277E3,9.562484E2,6.4171826E2,1.7142168E3,5.3484204E2,0E0,1.8564209E2,0E0,0E0,0E0,0E0,0E0,0E0,0E0,0E0,0E0,0E0,0E0,0E0,0E0,0E0,0E0,0E0,0E0,0E0,0E0,0E0,0E0,0E0,0E0,0E0,0E0,0E0,0E0,0E0],"parents":[2147483647,0,0,1,1,2,2,3,3,4,4,5,5,6,6,7,7,8,8,9,9,10,10,11,11,12,12,13,13,14,14,15,15,16,16,17,17,18,18,19,19,20,20,21,21,22,22,23,23,24,24,25,25,26,26,27,27,28,28,30,30,32,32,35,35,36,36,37,37,44,44,50,50,51,51,52,52,53,53,54,54,55,55,56,56,58,58],"right_children":[2,4,6,8,10,12,14,16,18,20,22,24,26,28,30,32,34,36,38,40,42,44,46,48,50,52,54,56,58,-1,60,-1,62,-1,-1,64,66,68,-1,-1,-1,-1,-1,-1,70,-1,-1,-1,-1,-1,72,74,76,78,80,82,84,-1,86,-1,-1,-1,-1,-1,-1,-1,-1,-1,-1,-1,-1,-1,-1,-1,-1,-1,-1,-1,-1,-1,-1,-1,-1,-1,-1,-1,-1],"split_conditions":[-1.8187499E-1,1E-2,1E0,1.44829E5,3.1962817E0,2.4097683E0,8.392451E0,8.752428E-1,1.9733843E1,7.175417E0,5.8805004E1,4.458841E0,5.5555556E-2,2.7469006E5,-1.5774305E-1,6.704693E0,3.4810123E1,-9.28023E2,2.9655684E1,8.508675E-1,8.892734E-1,1.4837023E0,8.6721313E-1,2.0634122E0,6.6175647E0,8.828597E-1,5.798134E0,1.015164E1,4.0365902E1,7.400713E-1,6.143932E0,-7.349312E-1,1.2707643E3,2.702671E-1,9.433241E-1,8.655832E-1,8.714442E0,3.0949812E0,-5.561811E-1,1.1498989E-1,8.93851E-1,3.177082E-1,7.591944E-2,-8.6618394E-1,-2.3059028E-1,-1.19350396E-1,5.657492E-1,-5.3840107E-1,-1.4554495E0,3.2122338E-1,4.2318612E5,5.778032E0,2.0890078E1,6E0,8.258195E-1,2.8397388E0,8.892734E-1,-4.6116254E-1,1.1557788E6,-6.51055E-1,1.09852694E-1,-6.691434E-2,3.748171E-1,-8.404158E-1,-1.4902941E0,-3.1094542E-1,-7.9046685E-1,-1.2687714E0,-7.633754E-1,3.1198558E-1,-6.060851E-1,-2.2371238E-2,-7.754196E-1,1.9049305E-1,-3.0028698E-1,3.3338523E-1,-4.0241113E-1,5.3195065E-1,-1.9875666E-1,4.2946574E-1,1.1667804E0,1.5257308E-1,1.1656332E0,4.008729E-3,5.4618305E-1,7.41243E-1,2.657471E-1],"split_indices":[36,42,5,40,16,14,32,23,14,32,10,31,41,40,36,8,10,27,11,23,22,17,23,14,32,23,19,16,10,0,18,0,21,0,0,22,18,16,0,0,0,0,0,0,36,0,0,0,0,0,39,6,6,25,23,14,22,0,39,0,0,0,0,0,0,0,0,0,0,0,0,0,0,0,0,0,0,0,0,0,0,0,0,0,0,0,0],"split_type":[0,0,0,0,0,0,0,0,0,0,0,0,0,0,0,0,0,0,0,0,0,0,0,0,0,0,0,0,0,0,0,0,0,0,0,0,0,0,0,0,0,0,0,0,0,0,0,0,0,0,0,0,0,0,0,0,0,0,0,0,0,0,0,0,0,0,0,0,0,0,0,0,0,0,0,0,0,0,0,0,0,0,0,0,0,0,0],"sum_hessian":[7.61E2,2.9E2,4.71E2,2.32E2,5.8E1,3.68E2,1.03E2,2.7E1,2.05E2,2.4E1,3.4E1,2.8E1,3.4E2,8.7E1,1.6E1,1.7E1,1E1,1.65E2,4E1,1.3E1,1.1E1,2.4E1,1E1,1E1,1.8E1,2.95E2,4.5E1,7E1,1.7E1,5E0,1.1E1,5E0,1.2E1,5E0,5E0,1.5E1,1.5E2,3.2E1,8E0,5E0,8E0,6E0,5E0,6E0,1.8E1,5E0,5E0,5E0,5E0,5E0,1.3E1,1.42E2,1.53E2,2.7E1,1.8E1,4.6E1,2.4E1,5E0,1.2E1,6E0,5E0,7E0,5E0,8E0,7E0,9.2E1,5.8E1,2.3E1,9E0,7E0,1.1E1,6E0,7E0,7E1,7.2E1,1.41E2,1.2E1,2.2E1,5E0,6E0,1.2E1,5E0,4.1E1,6E0,1.8E1,7E0,5E0],"tree_param":{"num_deleted":"0","num_feature":"47","num_nodes":"87","size_leaf_vector":"1"}},{"base_weights":[4.7171435E-1,-7.9807897E0,5.9495173E0,-1.0527247E1,5.241645E-1,3.731143E0,1.2442793E1,4.3985787E-1,-1.26557665E1,5.369669E0,-7.1089196E0,-4.2217684E0,5.692039E0,1.5096731E1,-2.3198664E0,1.0576146E1,-5.659509E0,-1.1182397E1,-2.1096611E1,-5.20976E-1,8.136896E0,-1.1696496E1,2.9110417E-1,-9.501648E0,6.2939034E0,7.0370235E0,-6.7602153E0,1.7625706E1,3.9731004E0,-7.4726707E-1,5.268797E-1,8.287302E-1,6.764823E-2,-1.1025317E1,1.7458674E-1,-1.3019375E1,-5.78277E-1,-1.3980635E1,-1.2439339E0,1.0276657E1,-1.403641E-1,-1.6944366E1,-5.253301E-2,-1.1109415E0,-5.904978E0,-2.5687465E-1,9.572559E0,7.5885563E0,-6.793539E-1,4.213356E-1,-1.2223797E1,2.309892E-1,1.8777994E1,-5.541458E-1,1.1217316E1,-8.074924E-1,1.03603685E-2,-9.6513283E-1,-5.1654285E-1,-2.881755E-1,7.1596426E-1,-1.0639772E0,-1.5675668E-1,2.2700301E-1,7.5356495E-1,-1.1226021E0,-2.929397E-1,-5.0984794E-1,3.5661322E-1,-5.513001E-3,7.61503E-1,5.377827E-1,1.7443588E-1,-1.3877328E-2,-7.969827E-1,9.8959476E-1,3.9062965E-1,8.725588E-1,2.9075208E-1],"categories":[],"categories_nodes":[],"categories_segments":[],"categories_sizes":[],"default_left":[0,0,0,0,0,0,0,0,0,0,1,0,0,0,0,0,0,0,0,0,0,0,0,0,0,0,0,0,0,0,0,0,0,0,0,0,0,0,0,0,0,0,0,0,0,0,0,0,0,0,0,0,0,0,0,0,0,0,0,0,0,0,0,0,0,0,0,0,0,0,0,0,0,0,0,0,0,0,0],"id":11,"left_children":[1,3,5,7,9,11,13,15,17,19,21,23,25,27,29,31,33,35,37,-1,39,41,-1,43,45,47,49,51,53,-1,-1,-1,-1,55,-1,57,59,61,-1,63,-1,65,-1,-1,67,-1,69,71,-1,-1,73,-1,75,-1,77,-1,-1,-1,-1,-1,-1,-1,-1,-1,-1,-1,-1,-1,-1,-1,-1,-1,-1,-1,-1,-1,-1,-1,-1],"loss_changes":[3.5791973E4,6.5894023E3,6.709295E3,5.467992E3,2.664189E3,5.497816E3,4.6973438E3,2.4710288E3,2.2016406E3,2.0072428E3,1.7291128E3,3.9463066E3,4.770532E3,2.7712383E3,3.2417876E3,8.074481E2,1.2660929E3,3.2845117E3,4.0574707E2,0E0,9.1873047E2,1.1554246E3,0E0,2.0185552E3,9.4869E2,3.0036992E3,2.4263066E3,1.1421465E3,2.3057012E3,0E0,0E0,0E0,0E0,9.243291E2,0E0,2.2331387E3,2.0909597E3,8.8320996E2,0E0,8.1173315E2,0E0,7.232383E2,0E0,0E0,2.19904E3,0E0,1.0425099E3,3.1956406E3,0E0,0E0,9.277776E2,0E0,6.7921094E2,0E0,3.6999902E2,0E0,0E0,0E0,0E0,0E0,0E0,0E0,0E0,0E0,0E0,0E0,0E0,0E0,0E0,0E0,0E0,0E0,0E0,0E0,0E0,0E0,0E0,0E0,0E0],"parents":[2147483647,0,0,1,1,2,2,3,3,4,4,5,5,6,6,7,7,8,8,9,9,10,10,11,11,12,12,13,13,14,14,15,15,16,16,17,17,18,18,20,20,21,21,23,23,24,24,25,25,26,26,27,27,28,28,33,33,35,35,36,36,37,37,39,39,41,41,44,44,46,46,47,47,50,50,52,52,54,54],"right_children":[2,4,6,8,10,12,14,16,18,20,22,24,26,28,30,32,34,36,38,-1,40,42,-1,44,46,48,50,52,54,-1,-1,-1,-1,56,-1,58,60,62,-1,64,-1,66,-1,-1,68,-1,70,72,-1,-1,74,-1,76,-1,78,-1,-1,-1,-1,-1,-1,-1,-1,-1,-1,-1,-1,-1,-1,-1,-1,-1,-1,-1,-1,-1,-1,-1,-1],"split_conditions":[-1.8329862E-1,4.123E4,1E0,4.5862988E5,6.4700565E0,3.3642843E0,8.609334E0,6.3392563E0,1.0806337E1,-2.7253473E-1,8.5548383E-1,1.380192E1,5.4808455E0,2.822903E5,4.7501802E0,-1.7267857E-1,0E0,1.1404222E1,-2.98376E-1,-5.20976E-1,1.3891255E3,9.088874E-1,2.9110417E-1,2.9182694E5,3.0426848E0,2.1624773E1,6.5557346E0,3.2703974E0,-1.2075E-1,-7.4726707E-1,5.268797E-1,8.287302E-1,6.764823E-2,8.597058E-1,1.7458674E-1,-2.4113095E-1,1E0,2.7260964E0,-1.2439339E0,-2.0058036E-1,-1.403641E-1,4.342738E1,-5.253301E-2,-1.1109415E0,-1.1639923E-1,-2.5687465E-1,8.690704E-1,6.25E-2,-6.793539E-1,4.213356E-1,1.1005588E3,2.309892E-1,1.6269669E3,-5.541458E-1,-1.178125E-1,-8.074924E-1,1.03603685E-2,-9.6513283E-1,-5.1654285E-1,-2.881755E-1,7.1596426E-1,-1.0639772E0,-1.5675668E-1,2.2700301E-1,7.5356495E-1,-1.1226021E0,-2.929397E-1,-5.0984794E-1,3.5661322E-1,-5.513001E-3,7.61503E-1,5.377827E-1,1.7443588E-1,-1.3877328E-2,-7.969827E-1,9.8959476E-1,3.9062965E-1,8.725588E-1,2.9075208E-1],"split_indices":[36,43,5,39,6,9,32,11,31,36,0,11,12,40,11,34,28,32,37,0,21,22,0,39,31,15,9,14,35,0,0,0,0,23,0,34,4,16,0,34,0,10,0,0,37,0,23,24,0,0,21,0,21,0,36,0,0,0,0,0,0,0,0,0,0,0,0,0,0,0,0,0,0,0,0,0,0,0,0],"split_type":[0,0,0,0,0,0,0,0,0,0,0,0,0,0,0,0,0,0,0,0,0,0,0,0,0,0,0,0,0,0,0,0,0,0,0,0,0,0,0,0,0,0,0,0,0,0,0,0,0,0,0,0,0,0,0,0,0,0,0,0,0,0,0,0,0,0,0,0,0,0,0,0,0,0,0,0,0,0,0],"sum_hessian":[7.71E2,3.03E2,4.68E2,2.33E2,7E1,3.5E2,1.18E2,3.8E1,1.95E2,4.3E1,2.7E1,6.9E1,2.81E2,1E2,1.8E1,1.4E1,2.4E1,1.68E2,2.7E1,6E0,3.7E1,2E1,7E0,4.6E1,2.3E1,2.54E2,2.7E1,8.1E1,1.9E1,9E0,9E0,8E0,6E0,1.5E1,9E0,1.43E2,2.5E1,1.1E1,1.6E1,3.1E1,6E0,1.3E1,7E0,9E0,3.7E1,5E0,1.8E1,2.48E2,6E0,7E0,2E1,7E0,7.4E1,6E0,1.3E1,1E1,5E0,4.1E1,1.02E2,1.9E1,6E0,6E0,5E0,1.5E1,1.6E1,8E0,5E0,2.8E1,9E0,7E0,1.1E1,1.39E2,1.09E2,5E0,1.5E1,6.7E1,7E0,5E0,8E0],"tree_param":{"num_deleted":"0","num_feature":"47","num_nodes":"79","size_leaf_vector":"1"}},{"base_weights":[-8.7953216E-1,-1.1078493E1,2.3435848E0,-2.109703E0,-1.3823368E1,5.355248E0,-3.4539144E0,-6.6738615E0,7.4635377E0,-7.51595E0,-1.6034472E1,-1.8685423E1,6.03707E0,3.53878E-1,-9.689443E0,-1.0555989E1,1.2671033E-1,-3.9205905E-2,6.52455E-1,-2.3715885E-1,-2.0496853E1,-9.098684E0,-1.9674551E1,-1.1640998E0,-5.487306E-1,3.8680212E0,1.2413546E1,-4.093186E0,6.249911E0,4.0414248E0,-1.3647213E1,-1.6614994E1,-4.122236E0,-1.1263688E1,1.0018702E1,-5.613027E-1,-1.3023348E0,1.4409354E0,-1.7699373E1,-2.3986357E1,-1.492381E1,9.03895E-1,8.940772E0,1.3544124E1,-1.947911E-1,-1.1036037E1,1.910567E0,-4.1345587E0,9.89667E0,7.279619E-1,-2.4307518E0,1.9286752E-2,-1.5507898E1,-9.924844E-1,-5.3055686E-1,6.352016E-4,-4.1296464E-1,2.7486011E-2,-1.0733999E0,7.5661606E-1,3.3924423E-2,3.4403476E-1,-1.323124E-1,-1.1328512E0,-4.2858633E-1,-8.975895E-1,-1.3656483E0,-3.5713086E-1,-1.0937952E0,1.6114841E-1,-3.4239358E-1,5.7456464E-1,-7.3020617E-3,4.3024817E-1,7.996715E-1,-7.2326344E-1,2.1287315E-1,3.8110945E-1,-2.0910819E-1,1.917601E-1,-8.3642E-1,6.131276E-1,6.680918E-2,-4.6558315E-1,3.0010512E-1,-9.563638E-1,-4.977676E-1],"categories":[],"categories_nodes":[],"categories_segments":[],"categories_sizes":[],"default_left":[0,0,0,0,0,0,0,0,0,0,0,0,0,0,0,0,0,0,0,0,0,0,0,0,0,0,0,0,0,0,0,0,0,0,0,0,0,0,0,0,0,0,0,0,0,0,0,0,0,0,0,0,0,0,0,0,0,0,0,0,0,0,0,0,0,0,0,0,0,0,0,0,0,0,0,0,0,0,0,0,0,0,0,0,0,0,0],"id":12,"left_children":[1,3,5,7,9,11,13,15,17,19,21,23,25,27,29,31,-1,-1,-1,33,35,37,39,-1,-1,41,43,45,47,49,51,53,55,57,59,-1,-1,61,63,65,67,69,71,73,-1,75,77,79,81,-1,83,-1,85,-1,-1,-1,-1,-1,-1,-1,-1,-1,-1,-1,-1,-1,-1,-1,-1,-1,-1,-1,-1,-1,-1,-1,-1,-1,-1,-1,-1,-1,-1,-1,-1,-1,-1],"loss_changes":[2.5600723E4,4.5744414E3,1.0354885E4,2.0160312E3,1.8738164E3,6.505468E3,4.82338E3,1.1349047E3,7.012488E2,3.6800654E3,2.4719062E3,1.3436572E2,5.2077217E3,3.3555266E3,4.239613E3,7.8911646E2,0E0,0E0,0E0,3.0530977E3,4.2791895E2,3.4701277E3,1.0349609E3,0E0,0E0,4.2772563E3,1.8229131E3,3.063956E3,2.1237498E3,1.2607065E3,1.5726377E3,2.9990234E0,2.053827E2,1.5789213E3,6.584048E2,0E0,0E0,4.1840735E2,7.560762E2,1.9222266E2,1.7370942E3,3.275892E3,2.435169E3,9.511543E2,0E0,1.8447134E3,1.4238523E3,1.5697053E3,8.1399194E2,0E0,7.5219824E2,0E0,8.74709E2,0E0,0E0,0E0,0E0,0E0,0E0,0E0,0E0,0E0,0E0,0E0,0E0,0E0,0E0,0E0,0E0,0E0,0E0,0E0,0E0,0E0,0E0,0E0,0E0,0E0,0E0,0E0,0E0,0E0,0E0,0E0,0E0,0E0,0E0],"parents":[2147483647,0,0,1,1,2,2,3,3,4,4,5,5,6,6,7,7,8,8,9,9,10,10,11,11,12,12,13,13,14,14,15,15,19,19,20,20,21,21,22,22,25,25,26,26,27,27,28,28,29,29,30,30,31,31,32,32,33,33,34,34,37,37,38,38,39,39,40,40,41,41,42,42,43,43,45,45,46,46,47,47,48,48,50,50,52,52],"right_children":[2,4,6,8,10,12,14,16,18,20,22,24,26,28,30,32,-1,-1,-1,34,36,38,40,-1,-1,42,44,46,48,50,52,54,56,58,60,-1,-1,62,64,66,68,70,72,74,-1,76,78,80,82,-1,84,-1,86,-1,-1,-1,-1,-1,-1,-1,-1,-1,-1,-1,-1,-1,-1,-1,-1,-1,-1,-1,-1,-1,-1,-1,-1,-1,-1,-1,-1,-1,-1,-1,-1,-1,-1],"split_conditions":[1.1521E4,4.6450488E5,9.816884E0,1E0,3E0,1.451078E3,1.00443325E1,8.915617E-1,8.013203E-1,1.8967016E1,1.3409386E1,2E-1,1E0,9.8959607E2,1.7545934E5,-1.3710715E-1,1.2671033E-1,-3.9205905E-2,6.52455E-1,8.747113E0,-3.1134933E-1,2.1855662E5,1.02049885E1,-1.1640998E0,-5.487306E-1,1.25E-1,2.1061758E1,4.768052E0,-1.8085715E-1,4.025077E1,1.8777847E1,1.1629845E3,1.6735681E3,8.11054E0,3.75E-1,-5.613027E-1,-1.3023348E0,1.6435514E5,5.0411596E0,2.7530327E1,1.4724468E1,1.3333334E-1,9.044626E0,4.0486443E1,-1.947911E-1,4.342738E1,6.920022E0,1.3146934E3,1.3333334E-1,7.279619E-1,9.1723245E-1,1.9286752E-2,3.4465E4,-9.924844E-1,-5.3055686E-1,6.352016E-4,-4.1296464E-1,2.7486011E-2,-1.0733999E0,7.5661606E-1,3.3924423E-2,3.4403476E-1,-1.323124E-1,-1.1328512E0,-4.2858633E-1,-8.975895E-1,-1.3656483E0,-3.5713086E-1,-1.0937952E0,1.6114841E-1,-3.4239358E-1,5.7456464E-1,-7.3020617E-3,4.3024817E-1,7.996715E-1,-7.2326344E-1,2.1287315E-1,3.8110945E-1,-2.0910819E-1,1.917601E-1,-8.3642E-1,6.131276E-1,6.680918E-2,-4.6558315E-1,3.0010512E-1,-9.563638E-1,-4.977676E-1],"split_indices":[43,39,33,2,25,1,15,22,22,14,8,29,5,21,40,35,0,0,0,32,38,40,32,0,0,28,20,17,35,10,10,21,21,32,28,0,0,40,15,7,33,29,15,10,0,10,8,21,29,0,23,0,43,0,0,0,0,0,0,0,0,0,0,0,0,0,0,0,0,0,0,0,0,0,0,0,0,0,0,0,0,0,0,0,0,0,0],"split_type":[0,0,0,0,0,0,0,0,0,0,0,0,0,0,0,0,0,0,0,0,0,0,0,0,0,0,0,0,0,0,0,0,0,0,0,0,0,0,0,0,0,0,0,0,0,0,0,0,0,0,0,0,0,0,0,0,0,0,0,0,0,0,0,0,0,0,0,0,0,0,0,0,0,0,0,0,0,0,0,0,0,0,0,0,0,0,0],"sum_hessian":[7.77E2,1.86E2,5.91E2,4.4E1,1.42E2,3.89E2,2.02E2,3E1,1.4E1,3.8E1,1.04E2,1E1,3.79E2,1.26E2,7.6E1,2.1E1,9E0,6E0,8E0,2.5E1,1.3E1,3.7E1,6.7E1,5E0,5E0,2.84E2,9.5E1,7.2E1,5.4E1,1.7E1,5.9E1,1E1,1.1E1,1.2E1,1.3E1,6E0,7E0,1.7E1,2E1,3.3E1,3.4E1,1.8E2,1.04E2,8.9E1,6E0,3.3E1,3.9E1,1.4E1,4E1,6E0,1.1E1,7E0,5.2E1,5E0,5E0,6E0,5E0,6E0,6E0,8E0,5E0,7E0,1E1,1.2E1,8E0,1.4E1,1.9E1,1.7E1,1.7E1,1.39E2,4.1E1,8.1E1,2.3E1,3.1E1,5.8E1,2.7E1,6E0,2E1,1.9E1,9E0,5E0,3.1E1,9E0,6E0,5E0,3E1,2.2E1],"tree_param":{"num_deleted":"0","num_feature":"47","num_nodes":"87","size_leaf_vector":"1"}},{"base_weights":[2.5316858E-1,-6.352917E0,4.6856446E0,-8.90484E0,2.3779242E0,8.399398E0,5.2036583E-1,2.6049173E0,-1.0845416E1,-7.036826E-1,4.7277026E0,1.2876169E1,3.7780182E0,3.0587754E0,-5.2950916E0,-8.347928E0,1.0304335E1,-1.5421944E1,-6.16256E0,-1.515468E0,8.98702E0,1.4203485E1,-2.683589E-1,5.9726906E0,-6.8527083E0,1.1018214E1,4.7131434E-1,-9.860356E0,4.2836356E0,-2.8898478E-2,-7.537198E-1,1.5970086E1,-4.493859E-2,-1.3478587E1,-1.1871065E0,-1.6403473E1,-4.346921E0,5.455222E0,-7.880004E0,-7.539182E-2,1.1066922E1,-3.8766158E-1,1.5281804E1,-7.398219E-1,1.046003E1,1.1995339E-1,-9.893829E0,7.3954844E0,1.8908714E1,-1.138036E0,1.2162916E1,1.629009E-1,-1.3230451E1,-3.886817E0,1.2807435E1,3.9648193E-1,9.7779655E-1,6.8758085E-2,-7.4146235E-1,-2.562493E-1,-1.0765109E0,-5.947509E-2,-5.9152E-1,8.363056E-3,4.369645E-1,-7.82959E-1,-9.091655E-2,2.638376E-1,8.860466E-1,-5.743745E-2,8.041391E-1,1.0754287E-1,-7.5437653E-1,6.2301034E-1,-3.232102E-1,-7.423293E-1,-7.025296E-2,5.219738E-1,5.883757E-2,1.2885331E0,4.4476563E-1,4.9843747E-2,-4.9705076E-1,8.465664E-1,3.2350954E-1,-7.32634E-1,-1.8385921E-1,-6.391143E-1,2.1465658E-1,2.0515254E-1,9.6886235E-1],"categories":[],"categories_nodes":[],"categories_segments":[],"categories_sizes":[],"default_left":[0,0,0,0,0,0,0,0,0,0,0,0,0,0,0,0,0,0,0,0,0,0,0,0,0,0,0,0,0,0,0,0,0,0,0,0,0,0,0,0,0,0,0,0,0,0,0,0,0,0,0,0,0,0,0,0,0,0,0,0,0,0,0,0,0,0,0,0,0,0,0,0,0,0,0,0,0,0,0,0,0,0,0,0,0,0,0,0,0,0,0],"id":13,"left_children":[1,3,5,7,9,11,13,15,17,-1,19,21,23,25,27,29,31,33,35,37,39,41,-1,43,45,47,49,51,53,-1,-1,55,-1,57,-1,59,61,63,65,-1,67,-1,69,71,73,-1,75,77,79,81,83,-1,85,87,89,-1,-1,-1,-1,-1,-1,-1,-1,-1,-1,-1,-1,-1,-1,-1,-1,-1,-1,-1,-1,-1,-1,-1,-1,-1,-1,-1,-1,-1,-1,-1,-1,-1,-1,-1,-1],"loss_changes":[2.231285E4,6.838992E3,7.049411E3,5.3217754E3,2.7725647E3,4.937371E3,3.2047913E3,3.0375886E3,4.255502E3,0E0,1.6623009E3,3.0304238E3,2.8406445E3,3.1046123E3,2.9283804E3,7.7525305E2,1.3473081E3,1.3292363E3,1.8252637E3,1.1964825E3,8.2433325E2,2.817586E3,0E0,3.0198713E3,6.1458734E2,9.17812E2,2.1776685E3,2.032562E3,1.5819329E3,0E0,0E0,2.4857349E2,0E0,1.7256934E3,0E0,7.569868E2,2.0652344E3,2.2429654E2,6.31694E2,0E0,1.1008542E3,0E0,1.4529688E3,1.7329108E3,2.1116353E3,0E0,6.518246E2,4.988191E2,5.2658813E2,1.9268546E3,2.7048486E2,0E0,4.3524854E2,9.2804987E2,5.495421E2,0E0,0E0,0E0,0E0,0E0,0E0,0E0,0E0,0E0,0E0,0E0,0E0,0E0,0E0,0E0,0E0,0E0,0E0,0E0,0E0,0E0,0E0,0E0,0E0,0E0,0E0,0E0,0E0,0E0,0E0,0E0,0E0,0E0,0E0,0E0,0E0],"parents":[2147483647,0,0,1,1,2,2,3,3,4,4,5,5,6,6,7,7,8,8,10,10,11,11,12,12,13,13,14,14,15,15,16,16,17,17,18,18,19,19,20,20,21,21,23,23,24,24,25,25,26,26,27,27,28,28,31,31,33,33,35,35,36,36,37,37,38,38,40,40,42,42,43,43,44,44,46,46,47,47,48,48,49,49,50,50,52,52,53,53,54,54],"right_children":[2,4,6,8,10,12,14,16,18,-1,20,22,24,26,28,30,32,34,36,38,40,42,-1,44,46,48,50,52,54,-1,-1,56,-1,58,-1,60,62,64,66,-1,68,-1,70,72,74,-1,76,78,80,82,84,-1,86,88,90,-1,-1,-1,-1,-1,-1,-1,-1,-1,-1,-1,-1,-1,-1,-1,-1,-1,-1,-1,-1,-1,-1,-1,-1,-1,-1,-1,-1,-1,-1,-1,-1,-1,-1,-1,-1],"split_conditions":[-1.4310715E-1,1E-2,6.25E-2,4.5862988E5,1.4837023E0,3.9153874E0,6E0,8.4417343E-1,6.666667E-2,-7.036826E-1,-2.0058036E-1,2.1326696E1,8.710027E0,3.836688E0,9.0640134E-1,6.25E-2,9.122271E-1,6.0078606E1,7.896124E-1,-2.4829608E-1,2.087192E3,1.10268414E5,-2.683589E-1,8.586185E-1,2.060043E3,5.4039696E1,5.5555556E-2,-2.5E-1,9.08156E-1,-2.8898478E-2,-7.537198E-1,-2.349051E-1,-4.493859E-2,6.976E3,-1.1871065E0,7.3317394E0,1.3664547E1,4.0365902E1,-2.385296E-1,-7.539182E-2,4E0,-3.8766158E-1,2.5872698E0,-4.546131E-2,2.0847116E1,1.1995339E-1,8.988511E-1,2.5E-1,2.5E-1,7.2054324E0,3.241265E5,1.629009E-1,7.849412E0,1.660074E3,1.2099212E1,3.9648193E-1,9.7779655E-1,6.8758085E-2,-7.4146235E-1,-2.562493E-1,-1.0765109E0,-5.947509E-2,-5.9152E-1,8.363056E-3,4.369645E-1,-7.82959E-1,-9.091655E-2,2.638376E-1,8.860466E-1,-5.743745E-2,8.041391E-1,1.0754287E-1,-7.5437653E-1,6.2301034E-1,-3.232102E-1,-7.423293E-1,-7.025296E-2,5.219738E-1,5.883757E-2,1.2885331E0,4.4476563E-1,4.9843747E-2,-4.9705076E-1,8.465664E-1,3.2350954E-1,-7.32634E-1,-1.8385921E-1,-6.391143E-1,2.1465658E-1,2.0515254E-1,9.6886235E-1],"split_indices":[35,42,24,39,17,13,25,22,26,0,34,7,32,31,22,24,22,10,22,37,1,39,0,23,1,10,41,28,23,0,0,37,0,43,0,31,11,10,37,0,25,0,6,34,20,0,22,28,28,18,39,0,13,1,11,0,0,0,0,0,0,0,0,0,0,0,0,0,0,0,0,0,0,0,0,0,0,0,0,0,0,0,0,0,0,0,0,0,0,0,0],"split_type":[0,0,0,0,0,0,0,0,0,0,0,0,0,0,0,0,0,0,0,0,0,0,0,0,0,0,0,0,0,0,0,0,0,0,0,0,0,0,0,0,0,0,0,0,0,0,0,0,0,0,0,0,0,0,0,0,0,0,0,0,0,0,0,0,0,0,0,0,0,0,0,0,0,0,0,0,0,0,0,0,0,0,0,0,0,0,0,0,0,0,0],"sum_hessian":[7.6E2,3.05E2,4.55E2,2.36E2,6.9E1,2.4E2,2.15E2,3.4E1,2.02E2,8E0,6.1E1,1.21E2,1.19E2,1.5E2,6.5E1,1.4E1,2E1,1.01E2,1.01E2,2.5E1,3.6E1,1.13E2,8E0,9.9E1,2E1,3.6E1,1.14E2,4.4E1,2.1E1,7E0,7E0,1.3E1,7E0,8.4E1,1.7E1,1.4E1,8.7E1,1.2E1,1.3E1,6E0,3E1,5E0,1.08E2,4E1,5.9E1,5E0,1.5E1,2.6E1,1E1,1.01E2,1.3E1,9E0,3.5E1,1.1E1,1E1,5E0,8E0,7E0,7.7E1,5E0,9E0,6.2E1,2.5E1,5E0,7E0,5E0,8E0,1.7E1,1.3E1,5E0,1.03E2,3.4E1,6E0,5.3E1,6E0,9E0,6E0,1.7E1,9E0,5E0,5E0,8.2E1,1.9E1,6E0,7E0,3E1,5E0,5E0,6E0,5E0,5E0],"tree_param":{"num_deleted":"0","num_feature":"47","num_nodes":"91","size_leaf_vector":"1"}},{"base_weights":[-1.5714772E-1,-9.25523E0,3.8246148E0,-1.6686874E1,-6.8917446E0,8.196348E-1,8.499895E0,-2.8107107E-1,-1.8686186E1,-3.7111282E0,-1.1954604E1,3.4843962E0,-4.7941523E0,1.0109228E1,-2.3218162E0,-4.091235E-1,-2.0319775E1,-6.983506E0,6.849452E0,2.660994E-2,-1.398577E1,-8.207744E-1,4.2052975E0,-1.0464419E1,2.5464892E0,1.116709E1,-4.5833607E0,5.489164E0,-9.457276E0,-2.1517181E1,-4.9741387E-1,-5.370167E0,-1.2212014E0,2.7509022E0,1.2560897E1,6.639338E-1,-6.614946E-1,-3.168507E0,-1.6973942E1,7.8729606E0,1.7980535E-1,-1.5759763E1,9.142563E-1,8.12559E0,-3.1387155E0,1.2755849E1,2.5975106E0,1.8137878E-1,-5.0843215E-1,-1.4621708E-2,4.9309587E-1,-7.802064E-1,1.1818432E-1,-5.4185236E-1,-1.1467985E0,3.7706092E-1,-3.556518E-1,-5.3323537E-2,3.5893777E-1,3.432581E-1,8.0815744E-1,-4.7337475E-1,2.2414902E-1,-5.928344E-1,-1.1810896E0,-1.7896357E-1,5.755024E-1,-1.01067595E-1,4.237999E-1,-1.0737121E0,-4.6474105E-1,3.4983224E-1,-2.9338983E-1,1.9731116E-1,7.3263663E-1,1.6829745E-1,-3.6329553E-1,1.098145E-1,7.123463E-1,-6.4288035E-2,4.3579087E-1],"categories":[],"categories_nodes":[],"categories_segments":[],"categories_sizes":[],"default_left":[0,0,0,0,0,0,0,0,0,0,0,0,0,0,0,0,0,0,0,0,0,0,0,0,0,0,0,0,1,0,0,0,0,0,0,0,0,0,0,0,0,0,0,0,0,0,0,0,0,0,0,0,0,0,0,0,0,0,0,0,0,0,0,0,0,0,0,0,0,0,0,0,0,0,0,0,0,0,0,0,0],"id":14,"left_children":[1,3,5,7,9,11,13,-1,15,17,19,21,23,25,27,-1,29,31,33,35,37,-1,39,41,43,45,47,49,51,53,-1,55,-1,57,59,-1,-1,61,63,65,67,69,71,73,75,77,79,-1,-1,-1,-1,-1,-1,-1,-1,-1,-1,-1,-1,-1,-1,-1,-1,-1,-1,-1,-1,-1,-1,-1,-1,-1,-1,-1,-1,-1,-1,-1,-1,-1,-1],"loss_changes":[2.7965955E4,4.0126758E3,7.537413E3,1.1338623E3,2.8541777E3,4.9233896E3,3.6807773E3,0E0,6.4019727E2,3.9183528E3,1.679544E3,3.2681565E3,4.4387275E3,2.895504E3,1.6124908E3,0E0,2.8269727E2,2.288663E3,5.974796E2,2.1081118E3,1.8533242E3,0E0,3.1876406E3,3.6296484E3,1.5162656E3,2.2950293E3,6.3307263E2,3.5682498E2,1.1268085E3,2.8179395E2,0E0,1.8538684E3,0E0,2.9500296E2,1.14729614E2,0E0,0E0,7.1719543E2,1.2847861E3,4.7479604E3,1.9163005E3,1.3150957E3,8.660764E2,5.96881E2,6.687612E2,2.2360078E3,6.764598E2,0E0,0E0,0E0,0E0,0E0,0E0,0E0,0E0,0E0,0E0,0E0,0E0,0E0,0E0,0E0,0E0,0E0,0E0,0E0,0E0,0E0,0E0,0E0,0E0,0E0,0E0,0E0,0E0,0E0,0E0,0E0,0E0,0E0,0E0],"parents":[2147483647,0,0,1,1,2,2,3,3,4,4,5,5,6,6,8,8,9,9,10,10,11,11,12,12,13,13,14,14,16,16,17,17,18,18,19,19,20,20,22,22,23,23,24,24,25,25,26,26,27,27,28,28,29,29,31,31,33,33,34,34,37,37,38,38,39,39,40,40,41,41,42,42,43,43,44,44,45,45,46,46],"right_children":[2,4,6,8,10,12,14,-1,16,18,20,22,24,26,28,-1,30,32,34,36,38,-1,40,42,44,46,48,50,52,54,-1,56,-1,58,60,-1,-1,62,64,66,68,70,72,74,76,78,80,-1,-1,-1,-1,-1,-1,-1,-1,-1,-1,-1,-1,-1,-1,-1,-1,-1,-1,-1,-1,-1,-1,-1,-1,-1,-1,-1,-1,-1,-1,-1,-1,-1,-1],"split_conditions":[-2.2946514E-1,6.6644096E-1,4.1457E4,-2.6622E1,1.0862117E3,8.084644E5,1.25E-1,-2.8107107E-1,3.3635964E0,6.597542E0,-3.1268984E-1,3.6762846E-1,-1.6338341E-1,2.5575531E1,6E0,-4.091235E-1,2.9655684E1,1.25E-1,-2.143E1,1.7570455E6,4.415547E5,-8.207744E-1,6.25E-2,8.515257E0,-1.4750318E-1,2.9124466E5,1.0366725E1,1.7220935E-1,4.2095864E-1,4.843147E5,-4.9741387E-1,3E0,-1.2212014E0,6.042623E0,3.3635964E0,6.639338E-1,-6.614946E-1,6.7080555E0,5.1745396E0,2.5872698E0,6.666667E-2,1.3854807E1,1.344337E1,4.240347E0,-2.0975E1,3.2332575E0,1.25E-1,1.8137878E-1,-5.0843215E-1,-1.4621708E-2,4.9309587E-1,-7.802064E-1,1.1818432E-1,-5.4185236E-1,-1.1467985E0,3.7706092E-1,-3.556518E-1,-5.3323537E-2,3.5893777E-1,3.432581E-1,8.0815744E-1,-4.7337475E-1,2.2414902E-1,-5.928344E-1,-1.1810896E0,-1.7896357E-1,5.755024E-1,-1.01067595E-1,4.237999E-1,-1.0737121E0,-4.6474105E-1,3.4983224E-1,-2.9338983E-1,1.9731116E-1,7.3263663E-1,1.6829745E-1,-3.6329553E-1,1.098145E-1,7.123463E-1,-6.4288035E-2,4.3579087E-1],"split_indices":[38,17,43,30,21,39,24,0,20,9,38,45,38,16,25,0,11,24,30,39,39,0,24,17,38,40,33,7,45,39,0,25,0,11,20,0,0,32,6,6,26,7,17,18,30,9,28,0,0,0,0,0,0,0,0,0,0,0,0,0,0,0,0,0,0,0,0,0,0,0,0,0,0,0,0,0,0,0,0,0,0],"split_type":[0,0,0,0,0,0,0,0,0,0,0,0,0,0,0,0,0,0,0,0,0,0,0,0,0,0,0,0,0,0,0,0,0,0,0,0,0,0,0,0,0,0,0,0,0,0,0,0,0,0,0,0,0,0,0,0,0,0,0,0,0,0,0,0,0,0,0,0,0,0,0,0,0,0,0,0,0,0,0,0,0],"sum_hessian":[7.7E2,2.34E2,5.36E2,5.5E1,1.79E2,3.27E2,2.09E2,9E0,4.6E1,1.11E2,6.8E1,2.22E2,1.05E2,1.82E2,2.7E1,7E0,3.9E1,8.5E1,2.6E1,1E1,5.8E1,7E0,2.15E2,5.9E1,4.6E1,1.7E2,1.2E1,1.3E1,1.4E1,3.4E1,5E0,7.9E1,6E0,1.6E1,1E1,5E0,5E0,1.3E1,4.5E1,1.12E2,1.03E2,4E1,1.9E1,2.3E1,2.3E1,1.43E2,2.7E1,5E0,7E0,6E0,7E0,9E0,5E0,5E0,2.9E1,9E0,7E1,9E0,7E0,5E0,5E0,7E0,6E0,2.7E1,1.8E1,2.7E1,8.5E1,8.2E1,2.1E1,2E1,2E1,1E1,9E0,1.5E1,8E0,9E0,1.4E1,1.8E1,1.25E2,1.7E1,1E1],"tree_param":{"num_deleted":"0","num_feature":"47","num_nodes":"81","size_leaf_vector":"1"}},{"base_weights":[-1.8492548E-1,-7.886259E0,3.0703266E0,3.7043114E0,-1.0503296E1,3.8163677E-1,8.040906E0,-1.2570407E0,1.1074361E1,-2.459826E0,-1.1879666E1,-9.822523E-1,1.1426273E1,9.6902275E0,-4.069082E0,2.90983E0,-5.6477447E0,8.6507654E-1,1.8083529E-1,6.770837E-1,-6.527181E0,-1.2989611E1,3.0616897E-1,1.3324796E0,-7.378129E0,1.4887368E1,2.6866217E0,1.053432E1,-7.146626E-1,5.352182E-1,-8.767504E0,-1.0831213E-1,4.147683E-1,4.8827395E-2,-4.9549982E-1,-1.3338887E1,8.284566E-1,-1.1627269E1,-1.4140345E0,4.004743E-1,-5.649917E-1,-3.3196285E0,5.223502E0,-8.879083E0,4.9859783E-1,1.6932108E1,2.454381E-1,-1.9964017E-1,5.015757E-1,1.3570248E1,7.2076483E0,-1.1847905E1,-1.1171576E-1,-8.520899E-1,-4.129704E-1,-3.2162774E-1,3.466915E-1,-3.9014885E-1,-7.2403413E-1,-4.311696E-1,2.0616522E-2,4.8127303E-1,-7.41953E-2,-3.5458025E-1,-1.1593099E0,3.597219E-1,1.0067041E0,7.044557E-2,7.4329734E-1,1.3860147E-1,5.3767854E-1,-8.119608E-1,-2.3750293E-1],"categories":[],"categories_nodes":[],"categories_segments":[],"categories_sizes":[],"default_left":[0,0,0,0,0,1,0,0,0,0,0,0,0,0,0,0,0,0,0,0,0,0,0,0,0,0,0,0,0,0,0,0,0,0,0,0,0,0,0,0,0,0,0,0,0,0,0,0,0,0,0,0,0,0,0,0,0,0,0,0,0,0,0,0,0,0,0,0,0,0,0,0,0],"id":15,"left_children":[1,3,5,7,9,11,13,15,17,19,21,23,25,27,29,31,33,-1,-1,-1,35,37,39,41,43,45,47,49,-1,-1,51,-1,-1,-1,-1,53,55,57,-1,-1,-1,59,61,63,-1,65,-1,-1,-1,67,69,71,-1,-1,-1,-1,-1,-1,-1,-1,-1,-1,-1,-1,-1,-1,-1,-1,-1,-1,-1,-1,-1],"loss_changes":[1.8901762E4,6.8334863E3,7.0800347E3,1.549668E3,1.9967324E3,5.208186E3,3.754457E3,4.9211688E2,7.26907E2,1.9107349E3,2.1139707E3,4.569691E3,1.109456E3,3.470629E3,1.6903237E3,4.00693E2,3.767248E2,0E0,0E0,0E0,1.163453E3,2.6501035E3,1.342172E3,4.1263706E3,2.223959E3,4.677832E2,6.287698E2,1.5080137E3,0E0,0E0,3.3577515E2,0E0,0E0,0E0,0E0,8.495117E1,5.765765E2,1.3383398E3,0E0,0E0,0E0,2.0620723E3,3.6754739E3,1.7791704E3,0E0,5.411011E2,0E0,0E0,0E0,1.2711641E3,1.1970029E3,2.9688892E2,0E0,0E0,0E0,0E0,0E0,0E0,0E0,0E0,0E0,0E0,0E0,0E0,0E0,0E0,0E0,0E0,0E0,0E0,0E0,0E0,0E0],"parents":[2147483647,0,0,1,1,2,2,3,3,4,4,5,5,6,6,7,7,8,8,9,9,10,10,11,11,12,12,13,13,14,14,15,15,16,16,20,20,21,21,22,22,23,23,24,24,25,25,26,26,27,27,30,30,35,35,36,36,37,37,41,41,42,42,43,43,45,45,49,49,50,50,51,51],"right_children":[2,4,6,8,10,12,14,16,18,20,22,24,26,28,30,32,34,-1,-1,-1,36,38,40,42,44,46,48,50,-1,-1,52,-1,-1,-1,-1,54,56,58,-1,-1,-1,60,62,64,-1,66,-1,-1,-1,68,70,72,-1,-1,-1,-1,-1,-1,-1,-1,-1,-1,-1,-1,-1,-1,-1,-1,-1,-1,-1,-1,-1],"split_conditions":[-2.2811015E-1,8.127124E2,4.1559E4,9.1215247E-1,4.415547E5,4.627209E-1,1.8551405E1,8.547715E-1,6.25E-2,4.91778E0,9.604742E-1,2.5903577E5,3.9861588E5,-1.6501E1,4.4924564E0,8.0703527E-1,6.9119186E0,8.6507654E-1,1.8083529E-1,6.770837E-1,1.940057E3,-1.9211805E-1,1.0009034E0,1.552E4,9.552493E-1,5.729752E-1,9.2796314E-1,1.675893E5,-7.146626E-1,5.352182E-1,2.1383628E5,-1.0831213E-1,4.147683E-1,4.8827395E-2,-4.9549982E-1,7.803578E0,1.66352E1,8.279699E-1,-1.4140345E0,4.004743E-1,-5.649917E-1,8.537375E-1,2.863E4,1.0936032E1,4.9859783E-1,8.6209744E-1,2.454381E-1,-1.9964017E-1,5.015757E-1,8.100221E-1,3.10646E0,8.988511E-1,-1.1171576E-1,-8.520899E-1,-4.129704E-1,-3.2162774E-1,3.466915E-1,-3.9014885E-1,-7.2403413E-1,-4.311696E-1,2.0616522E-2,4.8127303E-1,-7.41953E-2,-3.5458025E-1,-1.1593099E0,3.597219E-1,1.0067041E0,7.044557E-2,7.4329734E-1,1.3860147E-1,5.3767854E-1,-8.119608E-1,-2.3750293E-1],"split_indices":[38,21,43,23,39,46,16,22,24,11,22,40,40,30,31,22,31,0,0,0,1,36,22,44,22,45,23,40,0,0,40,0,0,0,0,15,7,22,0,0,0,23,44,18,0,23,0,0,0,22,6,22,0,0,0,0,0,0,0,0,0,0,0,0,0,0,0,0,0,0,0,0,0],"split_type":[0,0,0,0,0,0,0,0,0,0,0,0,0,0,0,0,0,0,0,0,0,0,0,0,0,0,0,0,0,0,0,0,0,0,0,0,0,0,0,0,0,0,0,0,0,0,0,0,0,0,0,0,0,0,0,0,0,0,0,0,0,0,0,0,0,0,0,0,0,0,0,0,0],"sum_hessian":[7.52E2,2.23E2,5.29E2,4.1E1,1.82E2,3.44E2,1.85E2,2.5E1,1.6E1,2.7E1,1.55E2,3.07E2,3.7E1,1.63E2,2.2E1,1.3E1,1.2E1,8E0,8E0,5E0,2.2E1,1.42E2,1.3E1,2.26E2,8.1E1,2.6E1,1.1E1,1.58E2,5E0,5E0,1.7E1,7E0,6E0,5E0,7E0,1.1E1,1.1E1,1.32E2,1E1,8E0,5E0,1.03E2,1.23E2,7.5E1,6E0,2.1E1,5E0,6E0,5E0,8.1E1,7.7E1,1.1E1,6E0,5E0,6E0,5E0,6E0,5.8E1,7.4E1,4.2E1,6.1E1,7.4E1,4.9E1,6.8E1,7E0,6E0,1.5E1,8E0,7.3E1,3.5E1,4.2E1,6E0,5E0],"tree_param":{"num_deleted":"0","num_feature":"47","num_nodes":"73","size_leaf_vector":"1"}},{"base_weights":[-2.724192E-1,2.5987985E0,-9.674933E0,4.5652623E0,-2.8606312E0,-1.1982954E1,1.6560942E0,-4.5187646E-1,7.1821814E0,-4.198425E0,1.2075146E1,-7.7059894E0,-1.4152224E1,5.174243E-1,-2.3702698E0,3.7756693E0,-5.34683E0,3.8544571E0,1.072625E1,4.221627E0,-6.762819E0,3.4865892E-1,7.7260464E-1,-2.059543E1,-3.3242712E0,-5.9534903E0,-1.5820036E1,6.808809E0,-1.0586903E1,1.1827565E1,7.09273E-1,-1.5087894E1,-3.4400752E0,4.840634E0,-1.0063733E0,1.2704702E1,-3.8702533E0,1.0083651E1,-2.2335525E0,-1.2126297E1,-2.0911481E0,-6.256756E-1,-1.3969377E0,-9.2317706E-1,-1.0958991E-1,2.2697607E-1,-7.400926E-1,-1.2351532E1,-1.0910208E0,6.977351E-1,-7.359429E-2,-7.894358E-1,-1.3768183E-1,2.7012607E-1,8.880736E-1,-4.299479E-1,2.5027722E-1,-4.0529996E-1,-9.777571E-1,-6.7076796E-1,-8.061392E-2,1.05392076E-1,6.0019803E-1,1.7981254E-1,7.191283E-1,5.464047E-1,-6.467771E-1,1.6305633E-1,9.102082E-1,-5.318367E-1,4.274809E-1,-7.497112E-1,-1.2948631E-1,4.184537E-2,-8.407559E-1,-2.855001E-1,3.2738742E-1,-8.282671E-1,-3.484726E-1],"categories":[],"categories_nodes":[],"categories_segments":[],"categories_sizes":[],"default_left":[0,0,0,0,0,0,0,0,0,0,0,0,0,0,0,0,0,0,0,0,0,0,0,0,0,0,0,0,0,0,0,0,0,0,0,0,0,0,0,0,0,0,0,0,0,0,0,0,0,0,0,0,0,0,0,0,0,0,0,0,0,0,0,0,0,0,0,0,0,0,0,0,0,0,0,0,0,0,0],"id":16,"left_children":[1,3,5,7,9,11,13,15,17,19,21,23,25,-1,27,29,31,33,35,37,39,-1,-1,41,43,45,47,49,51,53,55,57,59,61,-1,63,65,67,69,71,73,-1,-1,-1,75,-1,-1,77,-1,-1,-1,-1,-1,-1,-1,-1,-1,-1,-1,-1,-1,-1,-1,-1,-1,-1,-1,-1,-1,-1,-1,-1,-1,-1,-1,-1,-1,-1,-1],"loss_changes":[2.0542611E4,6.2720137E3,4.6749414E3,5.6357793E3,3.1477488E3,1.2640723E3,1.1094894E3,3.0828467E3,3.2844746E3,3.116253E3,1.1622778E2,2.8683865E3,1.2321895E3,0E0,1.7313488E3,1.9668352E3,1.2296904E3,3.5740408E3,3.9766465E3,1.3090964E3,2.7308472E3,0E0,0E0,4.2191357E2,1.9446942E3,1.7384204E3,1.3954707E3,6.7144226E2,4.4548987E2,7.4280664E2,2.402493E3,1.845747E2,1.0541053E3,2.7544734E3,0E0,1.7822051E3,2.4219329E3,9.378773E2,1.6313599E3,1.3560283E3,2.6008286E3,0E0,0E0,0E0,1.3050382E3,0E0,0E0,1.0865391E3,0E0,0E0,0E0,0E0,0E0,0E0,0E0,0E0,0E0,0E0,0E0,0E0,0E0,0E0,0E0,0E0,0E0,0E0,0E0,0E0,0E0,0E0,0E0,0E0,0E0,0E0,0E0,0E0,0E0,0E0,0E0],"parents":[2147483647,0,0,1,1,2,2,3,3,4,4,5,5,6,6,7,7,8,8,9,9,10,10,11,11,12,12,14,14,15,15,16,16,17,17,18,18,19,19,20,20,23,23,24,24,25,25,26,26,27,27,28,28,29,29,30,30,31,31,32,32,33,33,35,35,36,36,37,37,38,38,39,39,40,40,44,44,47,47],"right_children":[2,4,6,8,10,12,14,16,18,20,22,24,26,-1,28,30,32,34,36,38,40,-1,-1,42,44,46,48,50,52,54,56,58,60,62,-1,64,66,68,70,72,74,-1,-1,-1,76,-1,-1,78,-1,-1,-1,-1,-1,-1,-1,-1,-1,-1,-1,-1,-1,-1,-1,-1,-1,-1,-1,-1,-1,-1,-1,-1,-1,-1,-1,-1,-1,-1,-1],"split_conditions":[3.0999E4,6.9119186E0,8.296949E0,8.475308E-1,5.5555556E-2,1.0792476E3,1.1866812E3,6.25E-2,4.7398033E1,2.039242E3,8.679145E-1,7.896124E-1,-3.2225275E-1,5.174243E-1,5.4808455E0,1.3422707E0,8.041401E-1,-1.6501E1,2.1061758E1,6E0,6.666667E-2,3.4865892E-1,7.7260464E-1,3.3553E4,5.0411596E0,1.2522096E3,5.4808455E0,7.3905125E0,2.358553E3,9.4138995E2,6.2985983E0,7.433126E0,2.666524E0,-1.8756E1,-1.0063733E0,8.387947E-1,6.847855E1,-1.3250001E-1,1.1064044E1,-1.3151786E-1,1.3789929E1,-6.256756E-1,-1.3969377E0,-9.2317706E-1,1.0138701E1,2.2697607E-1,-7.400926E-1,-1.9103572E-1,-1.0910208E0,6.977351E-1,-7.359429E-2,-7.894358E-1,-1.3768183E-1,2.7012607E-1,8.880736E-1,-4.299479E-1,2.5027722E-1,-4.0529996E-1,-9.777571E-1,-6.7076796E-1,-8.061392E-2,1.05392076E-1,6.0019803E-1,1.7981254E-1,7.191283E-1,5.464047E-1,-6.467771E-1,1.6305633E-1,9.102082E-1,-5.318367E-1,4.274809E-1,-7.497112E-1,-1.2948631E-1,4.184537E-2,-8.407559E-1,-2.855001E-1,3.2738742E-1,-8.282671E-1,-3.484726E-1],"split_indices":[44,31,19,22,41,21,21,24,10,1,23,22,37,0,12,13,23,30,20,25,26,0,0,44,15,21,12,13,1,21,9,18,15,30,0,23,10,35,32,34,16,0,0,0,32,0,0,35,0,0,0,0,0,0,0,0,0,0,0,0,0,0,0,0,0,0,0,0,0,0,0,0,0,0,0,0,0,0,0],"split_type":[0,0,0,0,0,0,0,0,0,0,0,0,0,0,0,0,0,0,0,0,0,0,0,0,0,0,0,0,0,0,0,0,0,0,0,0,0,0,0,0,0,0,0,0,0,0,0,0,0,0,0,0,0,0,0,0,0,0,0,0,0,0,0,0,0,0,0,0,0,0,0,0,0,0,0,0,0,0,0],"sum_hessian":[7.59E2,5.82E2,1.77E2,4.28E2,1.54E2,1.47E2,3E1,1.47E2,2.81E2,1.42E2,1.2E1,5.1E1,9.6E1,9E0,2.1E1,7.9E1,6.8E1,1.46E2,1.35E2,3.3E1,1.09E2,6E0,6E0,1.2E1,3.9E1,1.7E1,7.9E1,1E1,1.1E1,2.1E1,5.8E1,1E1,5.8E1,1.41E2,5E0,1.19E2,1.6E1,1.7E1,1.6E1,5E1,5.9E1,7E0,5E0,6E0,3.3E1,8E0,9E0,5.2E1,2.7E1,5E0,5E0,6E0,5E0,1.1E1,1E1,1.8E1,4E1,5E0,5E0,8E0,5E1,1.03E2,3.8E1,1.9E1,1E2,6E0,1E1,1E1,7E0,9E0,7E0,3.8E1,1.2E1,5E1,9E0,1.8E1,1.5E1,2.8E1,2.4E1],"tree_param":{"num_deleted":"0","num_feature":"47","num_nodes":"79","size_leaf_vector":"1"}},{"base_weights":[8.3438896E-2,-7.5483813E0,3.339905E0,-1.3120024E1,-5.079044E0,5.205128E0,-1.9114944E0,-1.44736E1,1.865196E-1,-1.6088811E0,-9.137089E0,2.8743696E0,9.827509E0,-3.065695E-1,-1.547942E1,-1.8045967E1,-8.035974E0,-9.132267E0,1.5215462E0,3.5202405E-1,-1.0932364E1,-1.034254E0,3.497607E0,4.304281E0,1.32101965E1,-8.676864E-1,8.2304895E-1,-3.0360267E-1,-1.0538163E0,-1.1754869E1,-1.2031938E0,-2.1699503E-2,-1.158785E1,-1.2710213E1,2.4562931E-1,3.4530406E0,-5.225545E-1,-1.5663816E-2,-1.2366931E1,-1.0268093E0,4.0493917E0,7.092501E0,-4.9026355E-1,2.6814375E0,1.497682E1,-8.2090664E-1,1.0275734E1,-7.4129534E-1,-5.4722708E-2,-9.045026E-1,-3.1983218E-1,-2.8213972E-1,-7.9204327E-1,-1.1311906E-1,3.3918175E-1,-3.3493456E-1,-7.661549E-1,2.933971E-1,-1.0456743E-1,5.03724E-1,-8.494902E-2,4.8953137E-1,-1.4928173E-1,8.514735E-1,3.7878233E-1,1.0565136E-1,-3.8990048E-1,1.23977564E-1,6.541766E-1],"categories":[],"categories_nodes":[],"categories_segments":[],"categories_sizes":[],"default_left":[0,0,0,0,0,0,0,0,0,0,0,0,0,0,0,0,0,0,0,0,0,0,0,0,0,0,1,0,0,0,0,0,0,0,0,0,0,0,0,0,0,0,0,0,0,0,0,0,0,0,0,0,0,0,0,0,0,0,0,0,0,0,0,0,0,0,0,0,0],"id":17,"left_children":[1,3,5,7,9,11,13,15,-1,17,19,21,23,25,27,29,31,33,35,-1,37,-1,39,41,43,-1,45,-1,-1,47,-1,-1,49,51,-1,53,-1,-1,55,-1,57,59,-1,61,63,65,67,-1,-1,-1,-1,-1,-1,-1,-1,-1,-1,-1,-1,-1,-1,-1,-1,-1,-1,-1,-1,-1,-1],"loss_changes":[1.9112133E4,3.0977637E3,5.2894717E3,1.6505762E3,2.2525137E3,4.259667E3,3.087376E3,1.3498242E3,0E0,2.0864197E3,2.2261655E3,3.9780615E3,2.4280254E3,2.4791514E3,6.618054E2,1.2693613E3,6.700033E2,1.3689849E3,1.492968E3,0E0,1.01678906E3,0E0,3.5311458E3,2.115252E3,1.4850703E3,0E0,1.8887506E3,0E0,0E0,7.0402124E2,0E0,0E0,4.5810718E2,3.7525195E2,0E0,1.0623135E3,0E0,0E0,8.859746E2,0E0,2.859919E3,1.1706204E3,0E0,5.52979E2,9.344326E2,2.1453948E3,3.615807E2,0E0,0E0,0E0,0E0,0E0,0E0,0E0,0E0,0E0,0E0,0E0,0E0,0E0,0E0,0E0,0E0,0E0,0E0,0E0,0E0,0E0,0E0],"parents":[2147483647,0,0,1,1,2,2,3,3,4,4,5,5,6,6,7,7,9,9,10,10,11,11,12,12,13,13,14,14,15,15,16,16,17,17,18,18,20,20,22,22,23,23,24,24,26,26,29,29,32,32,33,33,35,35,38,38,40,40,41,41,43,43,44,44,45,45,46,46],"right_children":[2,4,6,8,10,12,14,16,-1,18,20,22,24,26,28,30,32,34,36,-1,38,-1,40,42,44,-1,46,-1,-1,48,-1,-1,50,52,-1,54,-1,-1,56,-1,58,60,-1,62,64,66,68,-1,-1,-1,-1,-1,-1,-1,-1,-1,-1,-1,-1,-1,-1,-1,-1,-1,-1,-1,-1,-1,-1],"split_conditions":[-2.2811015E-1,3.026362E-1,2.5903577E5,9.9772394E-1,1.3312835E1,1E0,6E0,5E0,1.865196E-1,2.088755E3,4.415547E5,1.451078E3,8.547715E-1,9.011E3,9.053193E0,-2.278E1,1.6435514E5,-1.9009E1,2.675433E3,3.5202405E-1,3E0,-1.034254E0,3.744629E-1,1.016731E1,3.875386E-1,-8.676864E-1,6.91225E-1,-3.0360267E-1,-1.0538163E0,9.4343626E-1,-1.2031938E0,-2.1699503E-2,-2.1035714E-1,8.515371E-1,2.4562931E-1,6.854798E0,-5.225545E-1,-1.5663816E-2,9.655207E2,-1.0268093E0,9.816884E0,6.7344646E0,-4.9026355E-1,1.310878E5,9.935048E0,7.6106844E0,8.506318E-1,-7.4129534E-1,-5.4722708E-2,-9.045026E-1,-3.1983218E-1,-2.8213972E-1,-7.9204327E-1,-1.1311906E-1,3.3918175E-1,-3.3493456E-1,-7.661549E-1,2.933971E-1,-1.0456743E-1,5.03724E-1,-8.494902E-2,4.8953137E-1,-1.4928173E-1,8.514735E-1,3.7878233E-1,1.0565136E-1,-3.8990048E-1,1.23977564E-1,6.541766E-1],"split_indices":[38,16,40,23,33,2,25,25,0,1,39,1,22,43,7,30,40,30,1,0,25,0,45,15,7,0,0,0,0,23,0,0,35,16,0,15,0,0,21,0,33,13,0,40,33,16,22,0,0,0,0,0,0,0,0,0,0,0,0,0,0,0,0,0,0,0,0,0,0],"split_type":[0,0,0,0,0,0,0,0,0,0,0,0,0,0,0,0,0,0,0,0,0,0,0,0,0,0,0,0,0,0,0,0,0,0,0,0,0,0,0,0,0,0,0,0,0,0,0,0,0,0,0,0,0,0,0,0,0,0,0,0,0,0,0,0,0,0,0,0,0],"sum_hessian":[7.67E2,2.29E2,5.38E2,6.9E1,1.6E2,3.97E2,1.41E2,6.4E1,5E0,8.7E1,7.3E1,2.65E2,1.32E2,1.27E2,1.4E1,4E1,2.4E1,2.5E1,6.2E1,7E0,6.6E1,6E0,2.59E2,5.1E1,8.1E1,7E0,1.2E2,6E0,8E0,2.1E1,1.9E1,8E0,1.6E1,2E1,5E0,5.4E1,8E0,8E0,5.8E1,5E0,2.54E2,4.3E1,8E0,1.2E1,6.9E1,1.03E2,1.7E1,1.6E1,5E0,6E0,1E1,7E0,1.3E1,2E1,3.4E1,2.1E1,3.7E1,1.96E2,5.8E1,3.2E1,1.1E1,5E0,7E0,5.3E1,1.6E1,7.3E1,3E1,5E0,1.2E1],"tree_param":{"num_deleted":"0","num_feature":"47","num_nodes":"69","size_leaf_vector":"1"}},{"base_weights":[1.715247E-1,-7.466185E0,3.4608538E0,-3.749051E0,-1.0901923E1,9.237399E-1,7.464296E0,-1.3661713E1,-1.5769836E0,-1.7070095E1,-8.535067E0,4.4581146E0,-2.9072845E0,9.321173E0,-2.6089673E0,-8.627988E-1,-2.260756E-1,1.0298733E0,-1.2496102E1,-2.391343E-1,-1.9168404E1,-1.0476791E1,1.9076976E-1,-5.912668E-1,7.263602E0,-7.2989225E0,5.794793E-1,1.3620286E0,1.0638617E1,2.9169917E0,-8.662611E0,-1.0260063E0,1.2080065E1,-7.2411623E0,-9.859707E-1,-1.0837581E0,-4.4548938E-1,-1.2233701E1,1.5904394E-1,5.390585E-1,-5.2104133E-1,7.887301E0,-5.4516616E0,-5.0540533E0,8.545908E0,-9.2618E0,4.5355496E-1,1.0254729E1,-3.3601453E0,-9.383253E0,8.664283E0,1.5740949E1,8.23046E0,-1.9108211E0,4.5953056E-1,-6.916262E-1,1.1296648E-1,6.0802794E-1,-1.6812144E-1,8.183814E-1,3.339644E-1,-1.1999553E-1,-5.8412147E-1,-6.825475E-1,1.8707596E-1,7.394167E-1,-4.92746E-2,4.8839813E-1,-4.212385E-1,2.1184604E-1,-6.751343E-1,1.9868176E-1,6.033725E-1,-3.4152064E-1,-1.0732555E0,-9.298978E-2,7.40793E-1,-2.773452E-1,3.84016E-1,-8.2387894E-2,-7.7774364E-1,1.9704007E-1,6.447582E-1,2.2886463E-1,8.790078E-1,4.6230364E-1,-4.9494454E-1,-3.9641178E-1,2.2125319E-1],"categories":[],"categories_nodes":[],"categories_segments":[],"categories_sizes":[],"default_left":[0,0,0,0,0,0,0,0,0,0,0,0,0,0,0,0,0,0,0,0,0,0,0,0,0,1,0,0,0,0,0,0,0,0,0,0,0,0,0,0,0,0,0,0,0,0,0,0,0,0,0,0,0,0,0,0,0,0,0,0,0,0,0,0,0,0,0,0,0,0,0,0,0,0,0,0,0,0,0,0,0,0,0,0,0,0,0,0,0],"id":18,"left_children":[1,3,5,7,9,11,13,15,17,19,21,23,25,27,29,-1,-1,31,33,-1,35,37,39,41,43,45,47,49,51,53,55,57,59,61,-1,-1,-1,63,-1,-1,-1,65,67,69,71,73,-1,75,77,79,81,83,85,87,-1,-1,-1,-1,-1,-1,-1,-1,-1,-1,-1,-1,-1,-1,-1,-1,-1,-1,-1,-1,-1,-1,-1,-1,-1,-1,-1,-1,-1,-1,-1,-1,-1,-1,-1],"loss_changes":[1.9194645E4,2.8964814E3,5.417044E3,2.3899243E3,1.5916084E3,4.454172E3,3.896212E3,5.7902246E2,2.6600754E3,7.333721E2,1.4929976E3,2.4266755E3,2.4236213E3,1.8205107E3,1.129191E3,0E0,0E0,1.738952E3,5.4045386E2,0E0,5.01208E2,1.7665752E3,2.0228265E3,2.5979685E3,1.7806416E3,2.3332788E3,3.4268574E3,2.1213835E3,1.7135254E3,5.627431E2,9.3469995E2,2.043499E3,1.6854993E2,2.2997876E2,0E0,0E0,0E0,1.5000898E3,0E0,0E0,0E0,1.4228966E3,1.892277E3,9.20666E2,1.5621934E3,1.7226558E3,0E0,1.4642087E3,1.5877434E3,4.995152E2,2.6893457E2,8.845488E2,2.006416E3,4.54465E2,0E0,0E0,0E0,0E0,0E0,0E0,0E0,0E0,0E0,0E0,0E0,0E0,0E0,0E0,0E0,0E0,0E0,0E0,0E0,0E0,0E0,0E0,0E0,0E0,0E0,0E0,0E0,0E0,0E0,0E0,0E0,0E0,0E0,0E0,0E0],"parents":[2147483647,0,0,1,1,2,2,3,3,4,4,5,5,6,6,7,7,8,8,9,9,10,10,11,11,12,12,13,13,14,14,17,17,18,18,20,20,21,21,22,22,23,23,24,24,25,25,26,26,27,27,28,28,29,29,30,30,31,31,32,32,33,33,37,37,41,41,42,42,43,43,44,44,45,45,47,47,48,48,49,49,50,50,51,51,52,52,53,53],"right_children":[2,4,6,8,10,12,14,16,18,20,22,24,26,28,30,-1,-1,32,34,-1,36,38,40,42,44,46,48,50,52,54,56,58,60,62,-1,-1,-1,64,-1,-1,-1,66,68,70,72,74,-1,76,78,80,82,84,86,88,-1,-1,-1,-1,-1,-1,-1,-1,-1,-1,-1,-1,-1,-1,-1,-1,-1,-1,-1,-1,-1,-1,-1,-1,-1,-1,-1,-1,-1,-1,-1,-1,-1,-1,-1],"split_conditions":[-2.2946514E-1,1.41020975E1,4.0368E4,-2.7495536E-1,7.803578E0,2.4557E4,1.25E-1,2.9655684E1,-1.7244047E-1,5.9355454E0,1E0,3.5789256E0,-1.2075E-1,4.7501802E0,6E0,-8.627988E-1,-2.260756E-1,2.545136E3,1.1064955E1,-2.391343E-1,2.5E-1,9.604742E-1,-3.1418976E-1,3.119898E5,9.011E3,3.744629E-1,-1.4129807E-1,-1.3607955E-1,4.9456463E0,5.5423226E0,9.122271E-1,4.4777362E5,6.704693E0,6.25E-2,-9.859707E-1,-1.0837581E0,-4.4548938E-1,-1.9453E1,1.5904394E-1,5.390585E-1,-5.2104133E-1,7.0874195E0,-2.0204115E-1,8.505281E-1,8.465214E-1,2.132175E1,4.5355496E-1,8.5652983E-1,1.3539178E1,-2.1613E1,-1.8797E1,-3.391546E1,-1.7131E1,-1.8961E1,4.5953056E-1,-6.916262E-1,1.1296648E-1,6.0802794E-1,-1.6812144E-1,8.183814E-1,3.339644E-1,-1.1999553E-1,-5.8412147E-1,-6.825475E-1,1.8707596E-1,7.394167E-1,-4.92746E-2,4.8839813E-1,-4.212385E-1,2.1184604E-1,-6.751343E-1,1.9868176E-1,6.033725E-1,-3.4152064E-1,-1.0732555E0,-9.298978E-2,7.40793E-1,-2.773452E-1,3.84016E-1,-8.2387894E-2,-7.7774364E-1,1.9704007E-1,6.447582E-1,2.2886463E-1,8.790078E-1,4.6230364E-1,-4.9494454E-1,-3.9641178E-1,2.2125319E-1],"split_indices":[38,8,43,34,15,43,24,11,34,14,4,20,35,11,25,0,0,1,33,0,24,22,38,39,43,45,37,37,14,31,22,39,8,24,0,0,0,30,0,0,0,32,38,23,22,8,0,22,11,30,30,27,30,30,0,0,0,0,0,0,0,0,0,0,0,0,0,0,0,0,0,0,0,0,0,0,0,0,0,0,0,0,0,0,0,0,0,0,0],"split_type":[0,0,0,0,0,0,0,0,0,0,0,0,0,0,0,0,0,0,0,0,0,0,0,0,0,0,0,0,0,0,0,0,0,0,0,0,0,0,0,0,0,0,0,0,0,0,0,0,0,0,0,0,0,0,0,0,0,0,0,0,0,0,0,0,0,0,0,0,0,0,0,0,0,0,0,0,0,0,0,0,0,0,0,0,0,0,0,0,0],"sum_hessian":[7.62E2,2.29E2,5.33E2,1.11E2,1.18E2,3.27E2,2.06E2,1.9E1,9.2E1,3.1E1,8.7E1,1.7E2,1.57E2,1.74E2,3.2E1,1.3E1,6E0,7.5E1,1.7E1,5E0,2.6E1,7.1E1,1.6E1,6.1E1,1.09E2,6.9E1,8.8E1,2.5E1,1.49E2,1.7E1,1.5E1,6.4E1,1.1E1,1.1E1,6E0,2E1,6E0,6.3E1,8E0,8E0,8E0,2.2E1,3.9E1,1E1,9.9E1,6.2E1,7E0,2.5E1,6.3E1,1E1,1.5E1,4.6E1,1.03E2,1E1,7E0,1E1,5E0,9E0,5.5E1,5E0,6E0,6E0,5E0,5.8E1,5E0,1.2E1,1E1,6E0,3.3E1,5E0,5E0,4.4E1,5.5E1,5.3E1,9E0,7E0,1.8E1,5.3E1,1E1,5E0,5E0,8E0,7E0,7E0,3.9E1,9.8E1,5E0,5E0,5E0],"tree_param":{"num_deleted":"0","num_feature":"47","num_nodes":"89","size_leaf_vector":"1"}},{"base_weights":[1.3138907E-1,-6.163962E0,2.8424528E0,-4.886126E0,-1.8197474E1,5.929805E-1,6.555586E0,-1.0412479E1,-2.3165932E0,-1.1700176E0,-1.1911712E1,2.3158758E0,-6.5425253E0,-9.410097E0,7.427065E0,-3.612075E0,-1.3029055E1,-4.267133E-1,-1.1905703E1,-1.7129399E-1,-9.9132824E-1,3.949039E0,-4.0831504E0,-1.2125294E1,3.7325413E0,-8.8341993E-1,2.0827644E-2,9.2601385E0,2.2432842E0,-9.5590515E0,3.2516357E-1,-6.346324E0,-1.5874347E1,-6.116422E0,3.0517676E0,-1.6200031E1,-1.4742425E-1,4.8685517E0,-4.058507E0,2.6662564E0,-1.0459022E1,-1.57022E1,-4.4015894E0,8.781484E0,-3.7315148E-1,-7.118739E-1,1.052206E1,8.142954E0,-3.5209634E0,-4.7904935E-2,-7.4074423E-1,-5.458957E-1,5.4556794E-2,-4.5865002E-1,-1.0474595E0,-4.9969944E-1,1.4109932E-1,-4.7016807E-2,4.668704E-1,-9.908972E-1,-4.358647E-1,3.1535068E-1,-1.6505845E-1,-6.348637E-1,6.976597E-2,3.5037753E-1,-2.9244143E-1,-2.0716932E-1,-9.530444E-1,-1.0501926E0,-5.9031963E-1,2.3156045E-1,-5.4690164E-1,5.2671243E-2,5.9568614E-1,-4.5619997E-1,2.3530065E-1,3.3234724E-1,6.560091E-1,4.8991466E-1,4.9605336E-2,-3.8369867E-1,1.15489855E-1],"categories":[],"categories_nodes":[],"categories_segments":[],"categories_sizes":[],"default_left":[0,0,0,0,0,0,0,0,0,0,0,0,0,0,0,0,0,0,0,0,0,0,0,0,0,0,0,0,0,0,0,0,0,0,0,0,0,0,0,0,0,0,0,0,0,0,0,0,0,0,0,0,0,0,0,0,0,0,0,0,0,0,0,0,0,0,0,0,0,0,0,0,0,0,0,0,0,0,0,0,0,0,0],"id":19,"left_children":[1,3,5,7,9,11,13,15,17,-1,19,21,23,25,27,29,31,33,35,-1,-1,37,39,41,43,-1,-1,45,47,49,-1,51,53,55,57,59,-1,61,63,65,67,69,71,73,-1,75,77,79,81,-1,-1,-1,-1,-1,-1,-1,-1,-1,-1,-1,-1,-1,-1,-1,-1,-1,-1,-1,-1,-1,-1,-1,-1,-1,-1,-1,-1,-1,-1,-1,-1,-1,-1],"loss_changes":[1.3210388E4,3.4938926E3,4.514864E3,2.9863096E3,4.4075146E2,4.1704316E3,2.908296E3,1.1451206E3,2.6407703E3,0E0,7.38046E2,2.869153E3,3.8312378E3,9.000256E2,1.8226631E3,1.2652798E3,8.119424E2,2.4530256E3,8.7540015E2,0E0,0E0,1.6249026E3,2.437754E3,1.1188452E3,1.4221555E3,0E0,0E0,1.8069873E3,1.7970432E3,5.73473E2,0E0,5.5592914E2,9.3010645E2,1.6571887E3,1.9409358E3,2.603921E2,0E0,2.3241787E3,1.1013464E3,1.0760479E3,1.4964846E3,3.509922E2,9.3629205E2,3.9895398E2,0E0,8.177287E2,1.1914307E3,2.980431E2,6.715359E2,0E0,0E0,0E0,0E0,0E0,0E0,0E0,0E0,0E0,0E0,0E0,0E0,0E0,0E0,0E0,0E0,0E0,0E0,0E0,0E0,0E0,0E0,0E0,0E0,0E0,0E0,0E0,0E0,0E0,0E0,0E0,0E0,0E0,0E0],"parents":[2147483647,0,0,1,1,2,2,3,3,4,4,5,5,6,6,7,7,8,8,10,10,11,11,12,12,13,13,14,14,15,15,16,16,17,17,18,18,21,21,22,22,23,23,24,24,27,27,28,28,29,29,31,31,32,32,33,33,34,34,35,35,37,37,38,38,39,39,40,40,41,41,42,42,43,43,45,45,46,46,47,47,48,48],"right_children":[2,4,6,8,10,12,14,16,18,-1,20,22,24,26,28,30,32,34,36,-1,-1,38,40,42,44,-1,-1,46,48,50,-1,52,54,56,58,60,-1,62,64,66,68,70,72,74,-1,76,78,80,82,-1,-1,-1,-1,-1,-1,-1,-1,-1,-1,-1,-1,-1,-1,-1,-1,-1,-1,-1,-1,-1,-1,-1,-1,-1,-1,-1,-1,-1,-1,-1,-1,-1,-1],"split_conditions":[-2.2946514E-1,2.153983E1,4.1402E4,2.5200534E0,2.337486E3,3.2033694E5,1.503158E3,-2.4008E1,1.2782806E3,-1.1700176E0,2.706157E3,7.9688916E0,-1.4282654E-1,3.0604234E0,8.338529E0,3.0874813E0,7.266378E0,-2.2545E1,3.9245937E0,-1.7129399E-1,-9.9132824E-1,9.92754E0,6.25E-2,8.515257E0,1.3496423E3,-8.8341993E-1,2.0827644E-2,3.3871832E0,2.7102158E0,-2.6622E1,3.2516357E-1,1.529574E0,-3.3334947E-1,6.3404055E0,9.822067E0,6.25E-2,-1.4742425E-1,1.0359099E1,5.77003E0,1.1222675E1,1.7545934E5,5.518543E0,-2.2283E1,7.573177E0,-3.7315148E-1,1.8800067E5,6.538564E0,-1.24951065E-1,6.628565E0,-4.7904935E-2,-7.4074423E-1,-5.458957E-1,5.4556794E-2,-4.5865002E-1,-1.0474595E0,-4.9969944E-1,1.4109932E-1,-4.7016807E-2,4.668704E-1,-9.908972E-1,-4.358647E-1,3.1535068E-1,-1.6505845E-1,-6.348637E-1,6.976597E-2,3.5037753E-1,-2.9244143E-1,-2.0716932E-1,-9.530444E-1,-1.0501926E0,-5.9031963E-1,2.3156045E-1,-5.4690164E-1,5.2671243E-2,5.9568614E-1,-4.5619997E-1,2.3530065E-1,3.3234724E-1,6.560091E-1,4.8991466E-1,4.9605336E-2,-3.8369867E-1,1.15489855E-1],"split_indices":[38,20,43,17,1,40,1,30,21,0,1,32,37,9,32,18,8,30,20,0,0,12,24,17,21,0,0,18,13,30,0,13,38,9,32,24,0,18,13,15,40,15,30,7,0,40,11,37,15,0,0,0,0,0,0,0,0,0,0,0,0,0,0,0,0,0,0,0,0,0,0,0,0,0,0,0,0,0,0,0,0,0,0],"split_type":[0,0,0,0,0,0,0,0,0,0,0,0,0,0,0,0,0,0,0,0,0,0,0,0,0,0,0,0,0,0,0,0,0,0,0,0,0,0,0,0,0,0,0,0,0,0,0,0,0,0,0,0,0,0,0,0,0,0,0,0,0,0,0,0,0,0,0,0,0,0,0,0,0,0,0,0,0,0,0,0,0,0,0],"sum_hessian":[7.72E2,2.32E2,5.4E2,2.11E2,2.1E1,3.37E2,2.03E2,6.6E1,1.45E2,1E1,1.1E1,2.72E2,6.5E1,1E1,1.93E2,1.9E1,4.7E1,1.22E2,2.3E1,6E0,5E0,2.17E2,5.5E1,4.2E1,2.3E1,5E0,5E0,1.42E2,5.1E1,1.2E1,7E0,1.5E1,3.2E1,4.6E1,7.6E1,1.5E1,8E0,1.95E2,2.2E1,2.7E1,2.8E1,2.8E1,1.4E1,1.6E1,7E0,1.6E1,1.26E2,2.5E1,2.6E1,5E0,7E0,9E0,6E0,1.5E1,1.7E1,3.2E1,1.4E1,4.7E1,2.9E1,9E0,6E0,1.66E2,2.9E1,8E0,1.4E1,1.8E1,9E0,1.7E1,1.1E1,1E1,1.8E1,6E0,8E0,5E0,1.1E1,6E0,1E1,5.2E1,7.4E1,2E1,5E0,1.5E1,1.1E1],"tree_param":{"num_deleted":"0","num_feature":"47","num_nodes":"83","size_leaf_vector":"1"}},{"base_weights":[-5.37273E-2,-4.3489795E0,3.2871485E0,1.9337734E0,-5.694164E0,6.137162E0,2.450527E-1,-2.2308178E0,1.4576268E1,-7.629676E0,6.092095E-1,-1.2862899E1,7.089573E0,-3.2730207E0,3.2363515E0,-1.2347435E1,9.2233795E-1,8.701932E-1,3.7171146E-1,-1.2101921E1,-3.6044173E0,-7.8931303E0,5.655621E0,-9.634714E-1,-2.1562758E-1,8.653879E0,-2.0289707E0,-9.5827925E-1,-2.2009728E0,6.7775664E0,-1.599496E0,-1.4841099E-1,-9.8343724E-1,-3.7333798E0,1.05448885E1,-8.333192E0,-1.5158001E1,2.6467395E0,-7.339563E0,-1.7697334E-1,-1.3943184E1,-2.4009497E-1,7.1985807E0,9.459145E0,-3.0712938E-1,-6.5557594E0,4.259455E0,4.7401E0,-5.157112E0,1.3089136E1,2.609801E0,-4.5817494E0,6.0820234E-1,2.6566008E-1,-3.4349188E-1,1.5339728E-1,7.723642E-1,4.2666075E-1,-5.504787E-1,-9.8741686E-1,-5.557613E-1,3.7635276E-1,-9.6213825E-2,-6.19648E-1,-1.5566783E-1,-2.6130542E-1,2.87159E-1,-8.5344094E-1,-3.4654337E-1,6.3403815E-1,1.2089173E-1,-3.0792606E-1,4.9803066E-1,-6.2373585E-1,1.5710734E-1,7.463154E-1,-2.8032362E-1,7.968495E-1,8.065405E-2,3.1550357E-1,-3.3249387E-1,1.847595E-1,8.5294676E-1,1.974573E-1,-2.9306176E-1,-4.3476015E-1,1.19448595E-1],"categories":[],"categories_nodes":[],"categories_segments":[],"categories_sizes":[],"default_left":[0,0,0,0,0,0,0,0,0,0,0,0,0,0,0,0,0,0,0,0,0,0,0,0,0,0,0,0,0,0,0,0,0,0,0,0,0,0,0,0,0,0,0,0,0,0,0,0,0,0,0,0,0,0,0,0,0,0,0,0,0,0,0,0,0,0,0,0,0,0,0,0,0,0,0,0,0,0,0,0,0,0,0,0,0,0,0],"id":20,"left_children":[1,3,5,7,9,11,13,15,17,19,21,23,25,27,29,31,33,-1,-1,35,37,39,41,-1,-1,43,45,-1,47,49,51,-1,-1,53,55,57,59,61,63,65,67,-1,69,71,-1,73,75,77,79,81,83,85,-1,-1,-1,-1,-1,-1,-1,-1,-1,-1,-1,-1,-1,-1,-1,-1,-1,-1,-1,-1,-1,-1,-1,-1,-1,-1,-1,-1,-1,-1,-1,-1,-1,-1,-1],"loss_changes":[1.1020672E4,2.8507031E3,3.7439424E3,3.1915664E3,3.3841191E3,4.1265693E3,2.2205505E3,1.4787549E3,1.7353784E2,3.772791E3,2.8764568E3,5.194584E2,3.055832E3,1.6104634E3,1.963065E3,6.969686E2,1.6521638E3,0E0,0E0,1.0254395E3,2.6578608E3,1.1646116E3,7.122593E2,0E0,0E0,2.2266455E3,9.38848E2,0E0,1.9121731E3,1.7019795E3,2.0670046E3,0E0,0E0,7.458562E2,3.924679E2,2.215571E3,7.826084E2,9.737283E2,1.477742E3,3.887144E2,1.8854932E2,0E0,9.3906995E2,1.4162432E3,0E0,1.1298257E3,1.5570215E3,9.5465314E2,1.1546188E3,9.065581E2,4.8831815E2,1.196396E3,0E0,0E0,0E0,0E0,0E0,0E0,0E0,0E0,0E0,0E0,0E0,0E0,0E0,0E0,0E0,0E0,0E0,0E0,0E0,0E0,0E0,0E0,0E0,0E0,0E0,0E0,0E0,0E0,0E0,0E0,0E0,0E0,0E0,0E0,0E0],"parents":[2147483647,0,0,1,1,2,2,3,3,4,4,5,5,6,6,7,7,8,8,9,9,10,10,11,11,12,12,13,13,14,14,15,15,16,16,19,19,20,20,21,21,22,22,25,25,26,26,28,28,29,29,30,30,33,33,34,34,35,35,36,36,37,37,38,38,39,39,40,40,42,42,43,43,45,45,46,46,47,47,48,48,49,49,50,50,51,51],"right_children":[2,4,6,8,10,12,14,16,18,20,22,24,26,28,30,32,34,-1,-1,36,38,40,42,-1,-1,44,46,-1,48,50,52,-1,-1,54,56,58,60,62,64,66,68,-1,70,72,-1,74,76,78,80,82,84,86,-1,-1,-1,-1,-1,-1,-1,-1,-1,-1,-1,-1,-1,-1,-1,-1,-1,-1,-1,-1,-1,-1,-1,-1,-1,-1,-1,-1,-1,-1,-1,-1,-1,-1,-1],"split_conditions":[-1.728125E-1,4.4777362E5,1E0,9.300033E-1,1E-2,4.627209E-1,8.722853E-1,6.5916753E0,9.400709E0,6.666667E-2,-2.3093718E-1,5.984329E0,1.25E-1,1.521522E3,6.5118637E0,-2.0976174E-1,1.1697249E1,8.701932E-1,3.7171146E-1,-2.1150297E-1,1.1091342E1,-2.3892857E-1,-2.0764881E-1,-9.634714E-1,-2.1562758E-1,1.3333334E-1,1E0,-9.5827925E-1,3.119898E5,4.221861E0,-1.1639923E-1,-1.4841099E-1,-9.8343724E-1,8.041401E-1,9.4704294E-1,9.935048E0,1E0,-3.1253004E-1,2.2901247E0,1E0,1E0,-2.4009497E-1,-1.7757143E-1,-1.6982639E-1,-3.0712938E-1,8.860274E0,1.2338377E1,8.007015E-1,3.1138513E0,6.9569E0,1.754822E3,1E0,6.0820234E-1,2.6566008E-1,-3.4349188E-1,1.5339728E-1,7.723642E-1,4.2666075E-1,-5.504787E-1,-9.8741686E-1,-5.557613E-1,3.7635276E-1,-9.6213825E-2,-6.19648E-1,-1.5566783E-1,-2.6130542E-1,2.87159E-1,-8.5344094E-1,-3.4654337E-1,6.3403815E-1,1.2089173E-1,-3.0792606E-1,4.9803066E-1,-6.2373585E-1,1.5710734E-1,7.463154E-1,-2.8032362E-1,7.968495E-1,8.065405E-2,3.1550357E-1,-3.3249387E-1,1.847595E-1,8.5294676E-1,1.974573E-1,-2.9306176E-1,-4.3476015E-1,1.19448595E-1],"split_indices":[36,39,3,23,42,46,23,15,32,26,37,32,24,1,6,38,33,0,0,34,14,35,34,0,0,26,5,0,39,13,37,0,0,23,13,33,3,38,16,2,3,0,35,36,